{
    "networkId": "network-1860",
    "name": "Network network",
    "activeCard": false,
    "layers": {
        "layer-1": {
            "errors": [],
            "layerConfig": {
                "activation": "sigmoid",
                "inputSize": "3000",
                "outputSize": "1",
                "type": "recurrent"
            },
            "layerName": "Recurrent Layer",
            "status": "inactive",
            "valid": true
        }
    },
    "inputSize": "3000",
    "outputSize": "1",
    "valid": true,
    "status": "inactive",
    "network": {
        "0": {
            "input_size": 3000,
            "output_size": 1,
            "weights": [
                [
                    0.10326557849594412,
                    -0.870886173633127,
                    1.2649861265199598,
                    -0.4593268904413844,
                    -0.9900553540605838,
                    0.11620643775899278,
                    -0.03177880879318586,
                    0.927896593229768,
                    -0.48959248858601034,
                    0.17346269282831484,
                    -0.2229744683546578,
                    -0.5813066574060095,
                    -0.6475598909320448,
                    -1.0507896590234669,
                    0.08697138887608911,
                    0.6104872911953502,
                    -0.665162583240508,
                    -0.055810670356396926,
                    -0.4198919851927651,
                    -0.21694222521832882,
                    1.2002489017662725,
                    -0.8430037402754725,
                    0.294283910107972,
                    -0.04042696664096617,
                    -0.7065557672015864,
                    0.5181754729107573,
                    -0.8283110336284141,
                    0.5974036232636957,
                    -0.36195159973170543,
                    -0.8351243744329299,
                    -0.6986694668302522,
                    0.6763902525714486,
                    -0.11262893108647903,
                    -0.19132935279567231,
                    0.043185810813630814,
                    0.10502516694390142,
                    -0.7539643509634014,
                    -1.0875350439618794,
                    -0.8078649923530312,
                    0.5522268768038795,
                    -0.24462225585636552,
                    -0.3995655772360709,
                    0.36431629188938164,
                    -1.2641752615827762,
                    -0.012965441367366024,
                    -0.4224737310138065,
                    -0.08365288408013818,
                    0.12248601012249324,
                    0.46084944095297203,
                    -0.8082446269672083,
                    -0.429294517910489,
                    -0.46812286567043226,
                    0.16957329476026275,
                    0.015407560717983448,
                    -0.618180891387007,
                    -0.17919971431588338,
                    -0.3804078776494835,
                    0.05952924351099743,
                    0.15802577055050585,
                    0.4249709230591149,
                    0.9229443223318947,
                    0.08048237615243076,
                    0.31561560532011496,
                    0.1583155086422215,
                    -0.20285751457877063,
                    0.43671303576971304,
                    -0.8584165930209396,
                    -0.5465589729883974,
                    -0.5857296953029317,
                    0.9165612096059036,
                    -0.8712308448846905,
                    -0.8540125047064627,
                    -0.5607509098459699,
                    0.4150379019844416,
                    -0.9567875765180456,
                    -0.50531895064649,
                    -0.5769275172713277,
                    0.2526545049965452,
                    -0.2059241780897067,
                    -0.028570562738148335,
                    -0.12827935572889232,
                    0.24043606121252706,
                    -0.14418846092642165,
                    -0.24287460760411345,
                    -0.0368541336357179,
                    0.05679630852182061,
                    -0.9240318310587738,
                    -0.5871566109605689,
                    -0.367814758622059,
                    0.07546676307972074,
                    -0.8117828061665837,
                    -0.28520258705731605,
                    0.20223005467494506,
                    0.05789734549042149,
                    -0.003245442348868462,
                    0.17345330951216323,
                    -0.20273087688849165,
                    0.31628853621108455,
                    -0.9272604281129835,
                    -0.23186813499283446,
                    -0.041078031881368986,
                    -0.3393360330929359,
                    -0.5923412872438332,
                    0.3514220705710244,
                    -0.014319969986220931,
                    -0.009842678338244391,
                    -0.05781377770804396,
                    -0.07044296970305242,
                    0.19361489837454604,
                    0.6593475772016351,
                    -0.8200996196232228,
                    0.0665923989766436,
                    -0.44373858390962406,
                    -0.5611917156678123,
                    -1.0532658573783493,
                    -0.4243698443350909,
                    0.20753505814189638,
                    0.3681883175296635,
                    0.08815889182999959,
                    -0.04293767001408197,
                    -1.0905636857572594,
                    -0.2782363055563373,
                    -0.09113537149300378,
                    -0.04874477011257856,
                    -0.3999848678189451,
                    -0.6146245127357952,
                    0.03849685478037685,
                    0.5924145460875365,
                    -0.5262146729332621,
                    -0.024348638420078533,
                    0.5435438928513259,
                    0.3635399534668363,
                    -0.41795058264433504,
                    -0.6732122536333532,
                    0.9911399857666611,
                    0.48550088070114417,
                    0.13035185282200976,
                    -0.5052442425195967,
                    0.6611631077554974,
                    -0.913138086929415,
                    -0.6487983364484138,
                    0.3196905628194685,
                    0.7136398438698883,
                    0.31817655199342487,
                    0.6832979500114919,
                    -0.18176624774391636,
                    -0.991041120027808,
                    0.5397348700923622,
                    -0.45239583142464757,
                    0.28345346852083786,
                    -0.6970802404365702,
                    -1.0888208159146788,
                    -0.23845358803427377,
                    -0.2846460681395849,
                    -0.024557475478524254,
                    -0.08632211703885558,
                    0.6770380135910675,
                    -0.5277789591144905,
                    1.149137185865134,
                    -0.8236637710039176,
                    -1.0626788987189921,
                    -0.43869537147001236,
                    0.12495973392803388,
                    0.45171950543725964,
                    -0.24744069557202653,
                    -1.0625613782743268,
                    -0.985936340382791,
                    0.12072106152681363,
                    0.8106568487781229,
                    0.42531928620240295,
                    0.21426217773603976,
                    0.8657757098146912,
                    0.06923428846407167,
                    0.5808439461275192,
                    -0.8076611079882947,
                    0.3209814070544476,
                    -0.7103851768551077,
                    0.05997246679241258,
                    -0.4762119852109345,
                    0.06454185584376783,
                    0.5240176020788654,
                    0.3138995934160412,
                    -0.22451705983788275,
                    -0.16439934391417993,
                    -0.5316120813804226,
                    -0.6175525143820882,
                    -0.25166452019066904,
                    0.5336331473664225,
                    0.2850483720735242,
                    -0.6495170546334649,
                    -0.5892192825510002,
                    0.8420724888058065,
                    0.2841858861994517,
                    0.016300624949484917,
                    0.4461278476678768,
                    -0.772722663400689,
                    -0.5379993428550311,
                    -0.7603115905844459,
                    -0.5771712232584516,
                    -0.7996786315066714,
                    -0.9149399858382101,
                    0.05047641409548393,
                    -0.054100913125429036,
                    0.08251908126693328,
                    0.5372142315259725,
                    -0.2513137672494582,
                    -0.02090086266036207,
                    -0.10520187176075897,
                    -0.48250391121800124,
                    0.20019995172798666,
                    0.9340327366585441,
                    -0.1376077937204295,
                    0.786669524487313,
                    0.7726138777894498,
                    -1.0664141674333525,
                    -0.23039245754857404,
                    0.5501516651057613,
                    0.8724017974916132,
                    -0.9195377738211521,
                    0.5965318984016625,
                    0.7353927841118226,
                    -0.0045941634893496685,
                    0.24924443015735093,
                    -0.02867087182562053,
                    -1.2244860039316476,
                    -0.7108425165928391,
                    -0.8790958006350496,
                    -0.025822154503430637,
                    0.21613427046507713,
                    0.057997295857248554,
                    -0.5184105964294364,
                    0.39362135811745413,
                    0.7604569441381867,
                    -0.5638600724914332,
                    0.37621983545622956,
                    0.15923122402657058,
                    -0.4773684132593501,
                    0.21655747591917926,
                    -0.35113028460636003,
                    0.12858824749644626,
                    -0.026310094990033527,
                    0.4291980722919904,
                    0.8470089299156053,
                    0.15745631428834997,
                    0.16102336355558144,
                    0.45988888525660687,
                    0.3492261914736571,
                    -0.2515422333458786,
                    -0.44756975211586625,
                    -0.07632215346988301,
                    -0.4825138003113069,
                    0.6391156479468322,
                    0.17049501632608846,
                    0.5532645990393994,
                    -0.6552210178419252,
                    -0.8528879078473173,
                    -0.18951358308729702,
                    0.8443482355418686,
                    0.5410575169732604,
                    0.2778838605492747,
                    0.11643331256105352,
                    0.716262160215644,
                    -0.12731083865670914,
                    0.02581690440795514,
                    0.4075676223793719,
                    0.0657014904669821,
                    0.2919267651374368,
                    -0.6901613547129278,
                    -0.9422596009664813,
                    0.048875672972314495,
                    -0.24432302510902157,
                    0.5681399436647477,
                    0.6582073261853325,
                    0.6137930205320196,
                    0.010971408262310856,
                    -0.6476829241325696,
                    0.28406576589700155,
                    -0.3108685273913782,
                    0.28722346674081417,
                    -0.30334126770946834,
                    0.9033425326419298,
                    -0.3414524701207468,
                    -0.3700720120583064,
                    0.5207593105400665,
                    0.19456488211765588,
                    -0.08831355729672904,
                    -0.06145669829996734,
                    -0.27769199475071155,
                    -0.03937192155701241,
                    -0.29979581747786177,
                    -0.3052444584318446,
                    0.6964349645318487,
                    0.2714157846599151,
                    0.792924870417529,
                    0.45742517725611503,
                    0.14131207663069895,
                    0.4195942010549147,
                    -0.4907821204525692,
                    0.39803661959922343,
                    -1.138386040476281,
                    -0.5843539851415619,
                    -0.24558322524445958,
                    -0.9436217806978437,
                    -0.7343871176588674,
                    0.2525413317466894,
                    0.047460393567143024,
                    -0.239787754875086,
                    -0.9389184347524662,
                    -0.27941735004700236,
                    -0.4070560140052725,
                    -0.9892975234959553,
                    -0.031777101172069847,
                    -0.08088741426136833,
                    -1.013023494647003,
                    0.48124552852667013,
                    -0.9487803449165326,
                    -0.3623845857071766,
                    -0.29813396412015103,
                    -0.9679955564373677,
                    -0.7276767841855837,
                    0.21174840234125594,
                    -0.5029552675747809,
                    -0.1535590563044259,
                    -0.5893887430735378,
                    0.6129706001078428,
                    0.36938916245578907,
                    0.22860577785760433,
                    -0.732105759500229,
                    -0.15551668693785625,
                    -1.0299105610505837,
                    -0.5973222238086369,
                    -0.6857548149787014,
                    0.6084327986068702,
                    0.9925701582011663,
                    -0.23799543570775744,
                    -0.5636676357519822,
                    -0.6547379076556268,
                    0.23348970591408963,
                    0.2798536423436674,
                    0.26152330160041937,
                    -0.7281014151165318,
                    0.21908486632870422,
                    -0.07102620329923533,
                    0.9678191630592284,
                    -0.06429735425855089,
                    -0.1725104688856814,
                    -0.5980120913925857,
                    -0.3426173257256004,
                    -0.23626829776023633,
                    0.5280684092436583,
                    0.41867170759413525,
                    0.7606381915847122,
                    -0.715222124879388,
                    0.5748070459065227,
                    0.4025273559780208,
                    -0.10023143195990708,
                    -1.1042667779758741,
                    -0.7351852860953331,
                    0.0946717866796101,
                    0.07180257656095644,
                    -0.3434817997721575,
                    0.66210949475514,
                    -0.9792709412306554,
                    0.3320256191134643,
                    -0.6259483778096557,
                    0.07743214593678112,
                    -0.7139226502755412,
                    0.339554522440158,
                    -0.3321389981853227,
                    -0.04719315475569125,
                    0.5721465161288499,
                    -0.8176615686255061,
                    -0.4994405107426556,
                    -0.024223891764996418,
                    -0.12354509466369355,
                    0.2764290752905493,
                    -0.9795879791770341,
                    -0.8452146419659426,
                    -0.3193234456315698,
                    -0.25067159901934266,
                    0.8181097543835177,
                    0.23040126482408374,
                    -0.9416039217801241,
                    -0.6489675679162007,
                    -0.8628999006537267,
                    -0.24822746737657314,
                    -0.8076348298998081,
                    -0.6794131746579845,
                    -0.5135779170304107,
                    0.6594970827426839,
                    0.2040699121935179,
                    0.6540005622755949,
                    -0.16075768361532425,
                    0.6947764811802699,
                    -0.8698057206089778,
                    -0.7075712856850133,
                    -0.4688592268266239,
                    -0.6493346903488126,
                    -0.0045677950129894,
                    0.08109926819969077,
                    0.7587554589394092,
                    0.2548756237883548,
                    0.12403228497780838,
                    -0.8970213380770234,
                    0.9063178870374332,
                    0.11616337116308453,
                    0.6987789602919144,
                    -0.27254162234751717,
                    -0.008600216265794073,
                    -0.9350749905619848,
                    -0.7351608491313342,
                    -0.545911726196358,
                    -0.6740263923125538,
                    0.5171431360971614,
                    0.2902013045536877,
                    0.6937162026384107,
                    -0.5747255894958568,
                    0.8975448465496589,
                    -0.6021971121730029,
                    0.007447339248822507,
                    -0.4601987932949819,
                    -0.12197091821360768,
                    0.7815774324775194,
                    -0.13899350963365076,
                    -0.1935340289877655,
                    -0.9035721317329113,
                    0.6071021973581049,
                    -0.19181300486460354,
                    -0.4646983197032329,
                    -0.6460707006015647,
                    -1.0871051404261471,
                    -0.04401890439175308,
                    0.6197080057057079,
                    -0.8119203278862865,
                    -0.4207087116533273,
                    0.18254140892112758,
                    -1.084027274019517,
                    0.8173407777500046,
                    -0.18809229383710632,
                    -0.0829345583603268,
                    0.7252083160956357,
                    0.22879173083638327,
                    0.16279920574934578,
                    0.36419668525359755,
                    0.3779709931070873,
                    0.29128223299313766,
                    -0.5377945507521392,
                    -0.7702404023729431,
                    -0.7301302474637194,
                    -0.1506608324959604,
                    0.7157928347491529,
                    -0.47186086286101436,
                    0.8155726408941452,
                    0.5601453478151324,
                    0.11373571479750362,
                    0.24565020632544785,
                    0.7871883999096756,
                    -0.9936599243047475,
                    -0.18373397800722946,
                    0.49154972238773,
                    0.23925733311915953,
                    -0.7617848821399158,
                    -0.24121078956293926,
                    0.5081408431840233,
                    -0.7061723635601488,
                    -0.06316431405026234,
                    0.0909924699721016,
                    -0.27741075430954193,
                    -0.48861187773779785,
                    0.6278647139071455,
                    -0.6188351741970383,
                    -0.33743783362789503,
                    -0.5859563298206878,
                    -0.01827061777601623,
                    0.2864738563191273,
                    0.13008012025539106,
                    -0.8587424550247977,
                    0.022449813736323924,
                    -0.697997824604464,
                    0.42532241831665485,
                    0.14923919440631955,
                    -0.05671932374430093,
                    0.016531764495656104,
                    -0.5285310285288143,
                    -0.22083889853913205,
                    0.26436101916138427,
                    0.6493143039174112,
                    -0.28850169579824064,
                    0.6132088191848889,
                    0.46709429416417175,
                    -0.6207685927653382,
                    -0.34525506336298906,
                    0.31055770977988595,
                    0.7876241766340049,
                    -0.034411131642638135,
                    -0.6760017843646173,
                    -0.9983497903618735,
                    0.27295064131742813,
                    -0.3642972550000797,
                    0.7255278763396674,
                    0.42963179983501837,
                    0.380897549221938,
                    0.4002884500577896,
                    -0.10315129972162312,
                    -0.7907799640229535,
                    -0.3698213344894067,
                    0.6809848124429406,
                    -0.07830666800886128,
                    0.39183655661567973,
                    -0.05868654719608492,
                    -0.9995053907758331,
                    -0.2197719888611078,
                    0.6672641167551843,
                    -3.8441282515686796e-05,
                    -0.16661010210635588,
                    1.066990780993578,
                    0.659173580885073,
                    -0.49873765397639774,
                    -0.25210478105403983,
                    0.02788305080375845,
                    -0.48918635016765266,
                    0.5985609176899037,
                    -0.781147885920197,
                    0.054771715116918966,
                    0.1247189681803952,
                    0.5314664073793333,
                    -0.4884368338953945,
                    -0.4151965855556087,
                    1.025091754156711,
                    -0.5253876200204955,
                    0.3482107401241214,
                    0.6872800446097455,
                    0.36876716372800306,
                    0.33414216267933355,
                    0.8838585494350484,
                    -0.4329172299142793,
                    -0.9500790089430776,
                    -0.2482984236778266,
                    0.7100508935066742,
                    -0.13615454428183704,
                    0.1628000309337215,
                    -0.11405160963237881,
                    -1.1335360557448866,
                    -0.4545647617454854,
                    -0.184261852038477,
                    -0.2766793573227325,
                    -0.708037667656577,
                    -0.39050591115233885,
                    0.28851766656504474,
                    0.16287176834813477,
                    -0.47252761094891516,
                    -0.9629355371623518,
                    -0.6454946858680461,
                    1.1862703111025457,
                    0.15374204757795934,
                    0.34382981600079376,
                    -0.5795867523084978,
                    -0.08895022596909584,
                    -0.7229305521673217,
                    0.18385765977727744,
                    0.32909915267196777,
                    -0.6753887548201968,
                    0.695918462763891,
                    0.017003665590016696,
                    0.7869366779007172,
                    -0.28273051924668685,
                    0.16074409731359118,
                    -1.0337379658555648,
                    0.35719375584315327,
                    -0.39027493447238903,
                    -0.7193656408734553,
                    -0.1830722935591959,
                    -0.5380926507263721,
                    -0.923627668199781,
                    0.6142958381940005,
                    0.006984604708924459,
                    0.8667722881154775,
                    -0.4786454417342224,
                    0.8869731941506556,
                    0.18190222764968494,
                    -0.7807306712586541,
                    -0.7536759490328532,
                    -0.01756262187422112,
                    0.09819693367523666,
                    -0.08609171143924783,
                    -1.009141311644994,
                    -0.9953271316655331,
                    -0.4418216697955963,
                    0.7446190183736563,
                    0.5336125806790897,
                    -0.6928139368906302,
                    0.9053041882594152,
                    -0.30146348188097977,
                    0.008395725645770102,
                    0.21650034025532627,
                    -0.3994418095294581,
                    -0.20892202682219663,
                    -0.5735507719757971,
                    0.5946546663356569,
                    -1.001020003452909,
                    0.8246497819010372,
                    0.2874230469388704,
                    0.14939592533605667,
                    0.3291690432567845,
                    1.040305069433236,
                    0.1848062529116661,
                    -0.8021405322100378,
                    -0.004981572446171148,
                    -0.1323381719023087,
                    -0.5269481089240958,
                    0.9682596261527764,
                    0.855596776217109,
                    -0.6415011768467052,
                    -0.8354689125604766,
                    -1.0782777854469947,
                    -0.6515644608918086,
                    -0.6873925289492493,
                    0.9851953654581909,
                    -0.5869006347179264,
                    0.04837279884537012,
                    -0.28497674900066844,
                    -0.6120854063161424,
                    0.8185269445004693,
                    -0.0396756231625932,
                    -0.23218681379197442,
                    -0.10633676368591209,
                    -0.14717817335179217,
                    0.5274896134795,
                    0.13240916079106235,
                    -0.4644967961595909,
                    -0.9315124828616977,
                    0.5271720596280439,
                    -0.8855287597233266,
                    -0.844455657102115,
                    -0.4151117957451826,
                    -0.5560777550435132,
                    -0.11580504026782953,
                    0.5791617808958262,
                    -0.4503559136992321,
                    -0.040534091130691056,
                    0.29359612957449743,
                    -0.7351267996625741,
                    0.3895656909979272,
                    -0.20068407783949493,
                    -0.7729753899761675,
                    0.6749322841489397,
                    -0.6587178076984385,
                    1.2096017571171398,
                    0.07592435689170439,
                    0.987339290978565,
                    -0.8483918287054453,
                    -0.8904350714869868,
                    0.18961302172743297,
                    -0.8848067846425874,
                    -0.9692783497814262,
                    -0.15864457376457156,
                    0.2740337289728773,
                    0.7849124057096699,
                    0.7292764013544762,
                    -0.5585931568399753,
                    -0.6541212636213121,
                    0.9371088131078397,
                    -0.8611256352134985,
                    0.19264685632440526,
                    0.35470235009220435,
                    0.7678241437199539,
                    0.5580477060086922,
                    0.7096782724121834,
                    0.11888152038692246,
                    -0.7404771463230703,
                    -0.6929748778156244,
                    -0.9672960155155221,
                    -0.20599840882721782,
                    0.5370342889214693,
                    0.050016104726207586,
                    0.46510800693150745,
                    0.26021694274612794,
                    -0.17589860566542398,
                    -0.46644164336070854,
                    -0.19608705993320136,
                    0.5680875819359112,
                    0.15615527477081598,
                    -0.5364155569362306,
                    -0.24316367972256106,
                    -0.27467188189019326,
                    0.506659890250336,
                    -0.5987882303881867,
                    0.39942563051596064,
                    0.2864553864315846,
                    0.8453474878720719,
                    -0.5487831429393162,
                    -0.15924180783666694,
                    0.9745279807039631,
                    0.6449052964881219,
                    -0.481400779137349,
                    0.3100253364526252,
                    0.8307807094802745,
                    0.861147747066322,
                    -0.27321241243699557,
                    -0.22850119234243133,
                    0.6862032149484523,
                    0.8173148462432662,
                    -0.4537441776101166,
                    -0.5074298637652511,
                    0.07392844760921317,
                    -0.20055777102613684,
                    0.8681580003674704,
                    -0.24533071536312792,
                    0.46015777504934735,
                    -0.43064818539614447,
                    0.5971415322530731,
                    -0.4416432167869012,
                    -0.9422119775957443,
                    0.4152503028125495,
                    0.5988443060877336,
                    0.17801388368480908,
                    -0.32038638514060774,
                    0.8333914621639803,
                    -1.0150297869082148,
                    -0.37381325918156477,
                    0.4193319819340092,
                    0.637495131592128,
                    -0.9246730040014962,
                    -0.7540638847361434,
                    -0.2821317213750672,
                    0.659058922485054,
                    -0.8505246671205932,
                    0.22543954426255566,
                    -0.9515573097453627,
                    -0.11675463266715065,
                    0.19534297168981224,
                    -1.036699287598788,
                    0.8748879510392393,
                    0.10373185875736424,
                    0.45986227705884924,
                    0.485463385917543,
                    0.7579012986735832,
                    -0.6833082581735457,
                    0.3626630227872047,
                    -0.5682252916829229,
                    0.4939453882719095,
                    0.3998475193679627,
                    0.8387057617613028,
                    -0.8545710157575164,
                    -0.7776534278042956,
                    -0.9003089164211004,
                    0.13081724197508193,
                    -0.7026925516576359,
                    -0.06629910190719006,
                    -0.6983628037814339,
                    -0.7655316661732566,
                    -0.758617721556957,
                    -0.2902228590932742,
                    -0.14297584114456632,
                    0.7895316595819343,
                    -0.555410852128172,
                    -0.9312491997939061,
                    0.39275846284088406,
                    -0.8913312762837544,
                    -0.7533010806736526,
                    -0.5452318390037324,
                    -0.15509040155415635,
                    0.18908194904894507,
                    0.11759276867530222,
                    -0.3292194797062907,
                    -0.29734902271710845,
                    -0.47619846289567774,
                    -0.20000952414066037,
                    -0.09538179764450667,
                    0.0758333347453195,
                    0.327974228530535,
                    0.2889290141636305,
                    -0.030696989464979892,
                    1.1720815545154193,
                    -0.8226400308017965,
                    -0.41215219570865436,
                    -0.2832648240620103,
                    -0.031647062708175216,
                    0.10950510617604149,
                    0.8996442237674362,
                    0.1809785836576888,
                    -0.08694234792477029,
                    0.18864857175232347,
                    0.6860327190875284,
                    -0.1551783260902652,
                    -1.0363669455798594,
                    0.07740926980019452,
                    -0.658196624778463,
                    0.3885597791010868,
                    0.05315150594834027,
                    -0.2237927356230558,
                    0.006473453172103905,
                    0.6489143989311084,
                    0.3218551690934973,
                    0.9456327163650657,
                    -0.8404265354238578,
                    0.04048620471629199,
                    -0.6733181642843602,
                    0.2461430139232675,
                    -0.22491757389472028,
                    0.5185580525444945,
                    0.6512296860745097,
                    -0.7197358091623839,
                    -0.6192872616819879,
                    0.6316830841682393,
                    -0.6646611653721893,
                    -0.705595710548007,
                    0.17719226662043797,
                    -0.7515561018524646,
                    -1.031559532685587,
                    0.38814859415124087,
                    0.4598709760637577,
                    0.6552881982487581,
                    0.6087886465958854,
                    -0.6243579347634328,
                    -0.27468628522013283,
                    -0.624945811821427,
                    -0.660906733461463,
                    -0.6646190582470124,
                    -0.33103996545282216,
                    -0.3667923034051513,
                    -0.8920314095300903,
                    0.6677298714589701,
                    -0.3850852586767916,
                    0.53091039465465,
                    -0.8282697581108864,
                    -0.13779780192580665,
                    -0.684398688306115,
                    0.21564335485556196,
                    -1.039649844971776,
                    -0.12289998870991009,
                    -0.6909546061443299,
                    -0.37161059465275736,
                    -0.4842344016892298,
                    0.40309128843658226,
                    0.6698511616748428,
                    0.7384851317264872,
                    0.1739707369467089,
                    -0.5969990819374326,
                    0.6644993859234838,
                    0.49638597249168204,
                    0.5250093793709713,
                    -0.15629820464507896,
                    0.8799656981354854,
                    0.3902081559276036,
                    0.4448539949778566,
                    -0.04578196398123502,
                    0.25657211214006065,
                    -0.2834268591241712,
                    1.072662127025832,
                    -0.8675564007880142,
                    -0.0031418764314633334,
                    0.6022142932035368,
                    -0.41137423961105135,
                    0.49439109053961794,
                    0.26584350480804714,
                    0.4397537148574755,
                    -0.34687634527031175,
                    0.967781438945864,
                    0.14398739714666606,
                    -0.9322615282380758,
                    0.8009289100067652,
                    -0.3256961010132117,
                    0.29600887137590903,
                    0.8204150897554323,
                    0.6406032732659317,
                    0.7616740469951012,
                    -0.230785476630444,
                    0.11094728309768198,
                    0.025999242345516285,
                    0.20292048776115834,
                    -0.7898839507811355,
                    0.5252874399230156,
                    0.7523196828908425,
                    -0.1469479585017168,
                    0.22322274188785637,
                    -0.5209043272166554,
                    -0.35405969069568255,
                    -0.460385804534583,
                    -0.685983771493126,
                    0.29451037337408537,
                    0.8617992272999998,
                    0.4311044711605232,
                    0.2777804335380184,
                    -0.41669300201114445,
                    0.47162310504035393,
                    -0.1619451366111216,
                    0.06679758502541544,
                    0.20220884638943387,
                    0.261331113034879,
                    -0.041275260740225715,
                    0.5312942169758387,
                    0.8104736794621356,
                    0.11405554618375364,
                    0.6282176491307601,
                    0.7202283385187652,
                    0.22844233714726142,
                    0.03896209679048737,
                    -0.76234130701832,
                    0.5079992025471928,
                    0.6758334059186542,
                    -0.5555982678720323,
                    0.5763839881664605,
                    0.6329632227200661,
                    0.5006682914954761,
                    0.4120466300830346,
                    -0.7709654712576408,
                    -0.7384012996011587,
                    0.9279935834368135,
                    0.35478211321397807,
                    -0.9789907958477634,
                    0.705447684221889,
                    0.3987881205335836,
                    0.493866845449992,
                    0.1091130481154942,
                    -0.762173717186704,
                    1.1864244280466931,
                    -0.5362910873344189,
                    -0.808958581827367,
                    0.30647599755358607,
                    -0.5056096106070226,
                    -0.08375843914027997,
                    -0.4374873862386889,
                    -0.4133172912108007,
                    1.0715279915654647,
                    0.11077708357896246,
                    -0.9405047734530959,
                    1.052769400996649,
                    0.15087812834183112,
                    0.502333130709883,
                    0.16355587876336386,
                    0.45363513408065814,
                    -1.0876948548828536,
                    0.2791973845872509,
                    0.6352736446400403,
                    -0.38951483010055643,
                    -0.5680247794595681,
                    -0.5945937817683655,
                    -0.766293827987726,
                    0.7658449955912577,
                    0.6433846465280894,
                    -0.48161975608281693,
                    -0.5242030343930257,
                    0.802186254132236,
                    -0.47008561730343845,
                    -1.0196423318441257,
                    0.8841904812588918,
                    -0.47257258801601015,
                    0.36134699999971437,
                    0.8533846734737752,
                    0.5497399749495204,
                    0.7752988451948988,
                    0.6968354334994589,
                    0.5144863043244199,
                    -0.4578626440131328,
                    -0.01031278117099895,
                    0.29168360111012837,
                    1.055138255961677,
                    0.05976353555918885,
                    -0.10547264014147038,
                    -0.2584904062580343,
                    0.761423426160372,
                    0.08148290286411758,
                    -0.025418714883812372,
                    -0.9610136411135815,
                    -0.1432734874701984,
                    0.8124203999855821,
                    -0.2518088701394408,
                    -0.09821737192835278,
                    -0.5824363165537982,
                    -0.3227535078231651,
                    -0.9134954926097859,
                    -0.0858251216598929,
                    0.75494058663141,
                    -0.4549279697598318,
                    0.20484738160442711,
                    0.8003020716295743,
                    -0.8433738513283389,
                    0.5496051810735181,
                    -0.04061298890480656,
                    -0.14741278819459003,
                    -0.4579234719842158,
                    0.1684073423860654,
                    0.17567830448265925,
                    -0.06378205467647165,
                    -0.3464354780015272,
                    0.4852042733894847,
                    0.45308437445308025,
                    0.014076298255040434,
                    -0.4032434626596698,
                    -0.7687269016374424,
                    -0.6253989724080908,
                    -0.758566990015717,
                    0.8736397852443663,
                    -0.14947455132971726,
                    0.2628650056908683,
                    0.013502373244208499,
                    -0.8718615267235957,
                    0.8036494449243471,
                    -0.4548786683185482,
                    -0.3398192659368892,
                    0.4463977382355716,
                    -0.010768335172645926,
                    0.7565631894919678,
                    0.061194276981144505,
                    0.32650851294936856,
                    0.5763662080998427,
                    0.05287724452806256,
                    0.43152777516669993,
                    -0.32738659591508773,
                    -0.5119783273172405,
                    0.5770454691768007,
                    -0.5500541784548465,
                    -0.018887300966165484,
                    0.4162858195906436,
                    0.6044379679300276,
                    -0.780848985681282,
                    0.552604053649716,
                    -0.07293180514785749,
                    0.3726025797771262,
                    0.6992483092748853,
                    0.0063661848910820384,
                    0.3671434762419309,
                    0.1189183820029175,
                    -0.7460249502908669,
                    0.8951074904302836,
                    -0.38212049406037774,
                    -0.72693547920721,
                    0.6833270559684038,
                    0.4834195935401197,
                    0.7088256213524798,
                    -0.5651540892639371,
                    0.639253573257998,
                    -0.48164369834611065,
                    -0.1801850163933057,
                    -0.10836640097719531,
                    0.38252061150320066,
                    0.21260984199634236,
                    0.8257966776967055,
                    -0.3352640306754308,
                    0.7327820002898066,
                    0.6443441638254784,
                    -0.43435879664681876,
                    -0.49205378970281954,
                    -0.032833623469747046,
                    0.8411743957801063,
                    0.0462425094113784,
                    0.334646838635622,
                    0.7667243121663393,
                    0.40068360997586994,
                    -0.7088412388411756,
                    0.6248504247031054,
                    0.5654972997357438,
                    0.014313381362490317,
                    -0.6875444775608619,
                    0.06766091464530385,
                    -0.5169052251762782,
                    0.4995239975086744,
                    -0.579699581351124,
                    -0.9123470996140657,
                    0.7476186771502606,
                    0.389513346442152,
                    -0.6891771610728095,
                    -0.6327429184526527,
                    -0.00911799245248151,
                    -0.16184776158183298,
                    0.5934026203709882,
                    -0.1259141074208347,
                    0.5681483662613953,
                    0.6733458080397032,
                    -0.34600661060405863,
                    0.08541836305105725,
                    -0.6756741706211564,
                    -0.010472415062732957,
                    0.7005962577836794,
                    -0.7650223656793474,
                    0.5114564309364694,
                    0.3045548035058515,
                    0.11253595073750634,
                    -0.7491165679919608,
                    0.19766145755412803,
                    -0.780705683583168,
                    0.382794245698196,
                    -0.4982571443792741,
                    -0.67085359326426,
                    0.5739852461148416,
                    0.28348258591738484,
                    -0.31400465601822236,
                    0.9320471948906675,
                    -0.5147586227944058,
                    -0.2524201993248008,
                    -0.26954208966278415,
                    -0.43240490015061855,
                    -0.10628679946753002,
                    -0.060750128379331886,
                    0.14554841405626842,
                    0.7844323058389198,
                    0.507364248250207,
                    0.15794804991084074,
                    0.38007253536186064,
                    -0.06484739392541926,
                    -0.39967724880646527,
                    -0.6146284650401737,
                    0.30510399924197046,
                    0.046643823160727176,
                    0.7595955110962739,
                    0.5599752338314655,
                    0.7254809495536573,
                    -0.6597025307626303,
                    -0.218750680856432,
                    0.29185410989324156,
                    0.8547505947603834,
                    0.21323064557646818,
                    -0.6132025295154437,
                    0.4960412699156054,
                    0.2685811385730054,
                    -0.08988966656101725,
                    0.4675875741264136,
                    -0.6077032122717434,
                    0.8037957362733605,
                    0.28920625403858086,
                    0.058340836303455317,
                    -0.8352992650818637,
                    0.7060278455718678,
                    -0.4508560662311296,
                    -0.8013845850517665,
                    -0.13885992061565358,
                    -0.731705207152663,
                    1.0387642396220405,
                    0.44406908068117773,
                    0.11999636600392674,
                    0.8307635730518206,
                    0.28697283082122294,
                    0.6006092002671822,
                    -0.43650202994268766,
                    -0.851934184884908,
                    0.7380532730044801,
                    0.13844805103045427,
                    0.3389415216568858,
                    -0.2193066861198185,
                    -0.6662286082432799,
                    -0.6154557235479292,
                    0.4949223422797342,
                    0.8605798731087076,
                    -0.06933158027990365,
                    0.49405419533881395,
                    0.8040402655304904,
                    -0.014304154661699587,
                    0.45662832134899967,
                    0.015132734629652186,
                    -0.46031419535842466,
                    0.4948797713972265,
                    0.47751384252420553,
                    0.19972126904720527,
                    -0.2593617761019496,
                    0.7185664317678726,
                    0.022491532458844714,
                    0.4666606928107767,
                    0.5423226685078526,
                    0.5753476571748785,
                    0.40529276016619675,
                    0.7454544785965336,
                    -0.608548760238765,
                    0.667168426070325,
                    0.8139139597635916,
                    0.27509862656457706,
                    -0.15290956615839923,
                    -0.4768199979770319,
                    0.05056412961753558,
                    0.28571866338543106,
                    -0.005540726644390022,
                    0.49970362336117746,
                    -0.6514384703363024,
                    0.6725618172982477,
                    0.7292737388884674,
                    -0.107268625883543,
                    -0.9255317913936928,
                    0.02815763312723306,
                    -0.4531237909435241,
                    0.5899755575588785,
                    0.3018261919178216,
                    0.16069290973132294,
                    -0.6510985446465734,
                    -0.43031080044564335,
                    0.6833754544555966,
                    0.44020372694263515,
                    0.906778268246806,
                    0.4848579558787103,
                    0.3243130294855082,
                    0.1943335240470168,
                    0.20508863318049325,
                    0.5948316260666697,
                    0.9223959771468799,
                    -0.4224348655475373,
                    -0.07659600384123963,
                    -0.4611211772504809,
                    -0.6437341027752207,
                    -0.4998209679575197,
                    -0.26624378556951356,
                    0.912725853368204,
                    0.13148429271854692,
                    -0.534363785485136,
                    0.5246148154458501,
                    0.7942133286565874,
                    -0.6372343417592842,
                    1.0467918763094621,
                    -0.32361339455377136,
                    -0.37267398286214776,
                    0.04998074762259349,
                    0.5060788883559303,
                    0.6565136251791525,
                    -0.20491219725092363,
                    -0.5502009412316506,
                    -0.3891872962171463,
                    0.07696510024257806,
                    -0.8845154383730325,
                    -0.19830208431718035,
                    -0.8078271099259767,
                    0.7963107526883346,
                    -0.5274666917513922,
                    -0.9340371506962918,
                    0.8735387813426201,
                    0.828831989934548,
                    -0.6800465376900908,
                    -0.86020653214162,
                    -0.0028406143074668475,
                    0.7286111574329133,
                    0.7348299838213321,
                    -0.7312458383600003,
                    -0.06988569770502723,
                    0.13722146343392316,
                    0.8897154666564909,
                    0.5595796161643555,
                    0.35056717759099143,
                    -0.3986756148137743,
                    -0.4224087596917219,
                    0.979184420269939,
                    -0.1857076039751448,
                    -0.6180902548873419,
                    -0.7688095567447875,
                    -0.25845320368297864,
                    0.9206767300184202,
                    -0.16611826781401293,
                    0.6096403407389943,
                    0.8339591727974017,
                    -0.606736830367765,
                    -0.6996051661960151,
                    -0.7031149798907863,
                    -0.23382628497158997,
                    0.9107695985711014,
                    0.10578945891583759,
                    -0.395710420997177,
                    -0.8048589223401169,
                    -0.3114165877539309,
                    -0.44777069320371,
                    -0.46792985994981123,
                    0.4657361716528612,
                    0.4708190539360063,
                    -0.27697501716269673,
                    -0.24249331826113774,
                    -0.3163316111296331,
                    -0.6009063011758375,
                    -0.7088482354782727,
                    -0.8627913151689299,
                    0.5127674774745626,
                    0.5983424793824893,
                    -0.35017420204809513,
                    0.5828136575413507,
                    -0.818488794686193,
                    -0.9093381466061579,
                    0.7176702769990524,
                    0.9850916459473056,
                    -0.8082217041478733,
                    -0.1331629425454014,
                    0.5486889985711979,
                    0.582499027745931,
                    0.6143835800160576,
                    -0.7155520344739221,
                    0.8259647669601181,
                    -0.10246582309001026,
                    -0.39143256449666425,
                    0.37057484768315496,
                    0.39705914658136565,
                    0.8529104052667108,
                    0.5141838968450329,
                    -0.181510809763605,
                    -0.10845356845155946,
                    -0.4819270486270642,
                    0.32036747600855914,
                    0.602542111422147,
                    -0.6821755961125854,
                    -0.5293139436266248,
                    -0.5138075109582451,
                    -0.8672965229998714,
                    -0.7978468449278561,
                    -0.1799883551115441,
                    0.7839746195328712,
                    -0.851790794408591,
                    -0.0892323190946354,
                    0.02918049182963306,
                    0.10660247454080989,
                    -0.16518878304603432,
                    -0.23235890293859304,
                    0.4310373001841439,
                    0.2991707002606774,
                    0.5135965482215472,
                    0.165300623232986,
                    0.027491819249486817,
                    1.039800128075155,
                    0.8006535109763697,
                    0.004381991441321461,
                    -0.6358728733400195,
                    -0.7600390758610698,
                    0.12707848497567972,
                    -0.7710078299525704,
                    0.819576851630698,
                    -0.060962058504348056,
                    0.7311097023317147,
                    -0.5200321598099615,
                    -0.7443144873886407,
                    -0.2196039121226774,
                    0.2703671150135219,
                    -1.0038139676902242,
                    0.8414847605723752,
                    0.7650257331315207,
                    0.7953041957725642,
                    0.06000323250872882,
                    0.4686445297715485,
                    0.008234821401420938,
                    -0.6730009981785411,
                    -0.373127723549122,
                    -0.8789656862748791,
                    0.9294992173967799,
                    0.5273138020474184,
                    -0.8767303217205783,
                    0.4244553150326651,
                    0.14426527340027923,
                    0.6160743053734664,
                    0.8658845395239165,
                    0.4223587470976925,
                    0.11624942419245426,
                    -0.3847630913147816,
                    0.8525724901145737,
                    -0.4749981362094835,
                    -0.03939259694298078,
                    0.41612967470221945,
                    -0.5850252270684222,
                    0.2829001017053162,
                    0.009104743244558169,
                    -0.3179850221000625,
                    0.7854164534810649,
                    0.38342902163594716,
                    0.4367622762123953,
                    -0.1979607053171694,
                    0.045063381775684676,
                    -0.1836554666884289,
                    0.2468601331407342,
                    0.11293932792915909,
                    0.5087696468747447,
                    0.18700081325175547,
                    -0.43513584255260185,
                    1.352901864603024,
                    -0.6136848665622735,
                    0.14257429417019787,
                    -0.83965546320256,
                    -0.7330878935646244,
                    -0.7508733860573144,
                    -0.9312552287475481,
                    0.24180132020500594,
                    0.7534209778283515,
                    0.40038310438636177,
                    -0.13150529771766842,
                    -0.9349079382544488,
                    -1.0685097480644452,
                    -0.5530252087561801,
                    0.6999808113457061,
                    -0.22475671063707087,
                    -0.4384082017045942,
                    -0.03265920445489476,
                    -0.9301126275354864,
                    0.29861239903203163,
                    1.075538373335199,
                    -0.4041355369084191,
                    0.7676495246976186,
                    0.06534375274332924,
                    -0.6102364489085597,
                    -0.15591016798816523,
                    0.40890976627850745,
                    -0.1448146902754774,
                    0.5919192905725638,
                    -0.4708769497813473,
                    -0.7775579659062147,
                    0.015205741024351157,
                    0.09630075890387282,
                    -0.5173041732421401,
                    -0.11547404416853636,
                    0.6362331397698805,
                    0.10940183421123645,
                    -0.31495466107105485,
                    0.01593077630217042,
                    -0.6966430185502918,
                    0.46883097744165425,
                    0.4116248344855683,
                    -0.1252650095789902,
                    0.40914125875862417,
                    -0.9751073144456908,
                    -0.9378500665995052,
                    0.3851202106610165,
                    0.14647332849003578,
                    -0.5927661399848564,
                    -0.11807156888941649,
                    0.6211801662413027,
                    0.14045376085633232,
                    -0.5727888331960702,
                    0.8166372104322702,
                    -0.9162217691565612,
                    -0.30244847559300464,
                    0.6309256600431355,
                    0.8452817237628,
                    0.28275524394675383,
                    0.22021962237796525,
                    -0.4548947421936308,
                    -0.8750701568525053,
                    0.04019807401372369,
                    0.41968775438779227,
                    -0.5833939810849711,
                    0.3232327779433966,
                    -0.3761813737920501,
                    0.7757083117477056,
                    0.8257670578837043,
                    -0.13944851502851055,
                    -0.9234030377849218,
                    -0.7117591458404791,
                    0.5903815881647604,
                    -0.06710712873039006,
                    0.9635558401508507,
                    0.26017908839871134,
                    -0.5667245252483798,
                    -0.36942423258716256,
                    0.21528244423147916,
                    -0.731193431006273,
                    -0.9561622550704638,
                    -0.35213080451103257,
                    -0.6134469260610007,
                    0.13053922992236114,
                    0.5206668340695284,
                    -0.0688802596470012,
                    0.4501627318465847,
                    -0.6176414356946218,
                    -0.8561596998075985,
                    -0.08283934018841985,
                    0.29077451619842254,
                    0.032187579742143785,
                    0.9013525714595887,
                    0.8495354853770496,
                    -0.3688937997687265,
                    -0.9242368057778768,
                    -0.0921791947063151,
                    0.3582456819206372,
                    0.5785445410218254,
                    0.17535691278043472,
                    -0.022169621850303214,
                    -0.3622119562893039,
                    0.230422768250082,
                    -0.3104673255660934,
                    -0.07391539751817414,
                    -0.6969167261404317,
                    -0.8235820133574117,
                    -0.018295231795675295,
                    0.4075841915784309,
                    0.4692654319936425,
                    0.6655807762330614,
                    -0.7912422889611727,
                    0.4445161531714378,
                    0.7796633962351416,
                    0.47644175639992103,
                    -0.21960076773256845,
                    0.8355517367564139,
                    0.41335914639955446,
                    -0.9501018637744291,
                    -0.8027873130118846,
                    0.36676090519302745,
                    0.20524779633044496,
                    0.3260446986388653,
                    -0.28750935805314964,
                    -0.2349157266263917,
                    -0.18040641003625932,
                    -0.9186774466524299,
                    -0.1461557807168337,
                    0.7105775791732084,
                    0.0018478236040089101,
                    0.02247798778804516,
                    -0.9421944998787188,
                    -0.09198424560313437,
                    0.9918705824597076,
                    0.8250238131065336,
                    0.08026141179551825,
                    -0.8643170645227983,
                    -0.9695270133101306,
                    -0.6355192722277243,
                    -0.5109084914959072,
                    1.1902569427729943,
                    0.7407561723601132,
                    0.3445997679861589,
                    0.6283052365660898,
                    0.0018984919127441567,
                    0.2734126519552736,
                    0.12400403873220472,
                    -0.8320032970110801,
                    -0.7585398564051283,
                    0.83104891432004,
                    -0.4653784605074406,
                    0.4634354378469922,
                    -0.34763069081005726,
                    0.6030475899589242,
                    0.7392359931640491,
                    0.5963575432606879,
                    -0.7259175321744182,
                    0.6682944293326054,
                    0.2446697787188053,
                    -0.1693440190964649,
                    0.029203363996502807,
                    -0.6569141908379257,
                    0.42594181950782756,
                    0.4406449253308224,
                    -0.05994078740018127,
                    -0.687468535103081,
                    -0.3240540778142864,
                    -0.2808273276375824,
                    -0.8196794676370611,
                    -0.9249286529704954,
                    0.7884599119190515,
                    0.566650400063529,
                    -0.026713967414613692,
                    -0.09701556689104615,
                    -0.8041809499696548,
                    -0.46706119441689276,
                    -1.0507102497635312,
                    -0.6775041520275102,
                    0.6413039745120708,
                    -0.08572150696441846,
                    -0.7731969390115988,
                    -0.19783633091413447,
                    -0.7938745719754651,
                    0.5255968480981149,
                    0.6596322973739389,
                    1.028986610842183,
                    -0.3962281869403157,
                    0.38594370661728683,
                    -0.9371273452396524,
                    0.10646525798781295,
                    0.36123972069264826,
                    0.0640630305888916,
                    0.09526252342463849,
                    -0.20549175643653428,
                    -0.42272357682005635,
                    -0.17594030342808475,
                    -0.9213516455551467,
                    0.6886252016980037,
                    -0.5224390354663745,
                    -0.4131809483344573,
                    -0.04864525736672556,
                    -0.9680088896721989,
                    0.35784480462182144,
                    0.41184611876077487,
                    0.4305912427678326,
                    -0.6351241497633406,
                    0.46972143840405556,
                    -0.3300425194802949,
                    0.5294311625455048,
                    0.485407572520372,
                    -0.23868716875106788,
                    0.30739609304254917,
                    -0.953154979418158,
                    -0.29155664135648085,
                    0.14505943884304395,
                    0.1772445786293271,
                    -0.2725534217928175,
                    0.38762215215851087,
                    -0.028575200041196954,
                    -0.6322187659474994,
                    0.05650916509534105,
                    -0.23717590270526695,
                    -0.5200758150603598,
                    0.900674427656842,
                    0.10003539271255667,
                    0.4437817884054297,
                    -0.6380654963355318,
                    -0.7009522427713971,
                    -0.2736048121362303,
                    -0.24313858609630887,
                    0.7081939917407525,
                    -0.6010292689579085,
                    0.652625567008756,
                    -0.9502306994950758,
                    0.11014232912036592,
                    0.11086735327809438,
                    0.06211076326627145,
                    -0.776589820649961,
                    -0.40258205695118754,
                    0.0716361713741578,
                    0.8317671702647789,
                    0.3831625491469621,
                    -0.6607146118182492,
                    -0.4696701497957074,
                    0.5956901851411477,
                    0.5332007656967321,
                    -0.8792671440576342,
                    0.3119201568441801,
                    -0.685702038135978,
                    0.6739803206625042,
                    0.8144817304786457,
                    0.7612055552876614,
                    -0.29213928875629536,
                    -0.7987399476804816,
                    -0.16045680498594062,
                    -0.05706833182512058,
                    -0.8957705318927062,
                    0.18060725051419305,
                    0.1337196129271864,
                    0.31959201767186596,
                    0.27719360883076516,
                    -0.9962028904862371,
                    -0.9282532058025231,
                    0.10026557067707158,
                    -0.31849325066084405,
                    0.2738066601759977,
                    0.04408929545380747,
                    0.831238884889419,
                    -0.716655939462908,
                    -0.4692604967774853,
                    0.6070591909804505,
                    -0.27279078704950055,
                    0.48246209086936026,
                    0.2579601292571603,
                    -0.5521616096087409,
                    0.45267653041602635,
                    -0.3742912745486463,
                    -0.41458933516903607,
                    -0.17830549816921795,
                    0.7823216923237738,
                    0.6338475934433185,
                    0.07061306326843664,
                    -0.49447660516784747,
                    0.09453986106583624,
                    -0.7347785357113109,
                    0.7936413516971981,
                    0.88114305802948,
                    -0.7919745379580744,
                    -0.4532664730283584,
                    -0.47953417704600304,
                    0.3071003212493383,
                    -0.4160799991622602,
                    -0.04567878594602814,
                    -0.7412089390929371,
                    -0.940486599919243,
                    -0.893150403779151,
                    0.04342078964816954,
                    -0.3372821429194408,
                    -0.6416234622622217,
                    0.747999728148285,
                    -0.3630931855214595,
                    0.20201365670103666,
                    0.7631020609498632,
                    0.11996982253199541,
                    0.8289414563808172,
                    -0.11050699463438761,
                    0.31040043785819854,
                    -0.6407227512159432,
                    -0.338206273296726,
                    0.8408393644673499,
                    0.1602348093044079,
                    -0.1459745673462707,
                    0.24472973283466332,
                    -0.6518254837249849,
                    -0.5023565693893128,
                    0.5372161432006183,
                    0.5182829720576515,
                    0.7906876763173722,
                    0.9718716228141036,
                    -0.667372636260427,
                    -0.838132350061557,
                    -0.18194639726212353,
                    0.4025634658576751,
                    -0.9832519525366322,
                    0.784715195939873,
                    -0.5037589423329943,
                    0.606423310575472,
                    1.1337481888643837,
                    0.6040756608012979,
                    -0.4222266662143647,
                    0.43717152562019274,
                    -0.8614151901631046,
                    -0.288576106512588,
                    0.2610724202709477,
                    1.035800704663569,
                    -0.5338689134989536,
                    1.1310602678427644,
                    -0.702916120087319,
                    -0.5439927129467225,
                    -0.6230842445632566,
                    0.32617685731429835,
                    0.5478200694588335,
                    -0.8531745250487257,
                    0.15747760537353603,
                    -0.056420563098733854,
                    -0.7318996438238248,
                    -0.9893736292867027,
                    0.7124854755359007,
                    -0.32644423503487896,
                    -0.25313250926020026,
                    -0.1882783399654398,
                    -0.8865148312259029,
                    0.7539047766125787,
                    -0.9147607638915943,
                    -0.8820700263375517,
                    -0.5431704729465193,
                    -0.8432442472951591,
                    -0.3026563090433209,
                    0.6889580541906101,
                    -0.9183778576413187,
                    0.4042354286175809,
                    -0.3190357513803769,
                    -0.9124975659719253,
                    0.6457756907981662,
                    -0.7067096729888074,
                    0.5089820787773929,
                    0.6953755566735886,
                    0.9195569689458764,
                    -0.9079535449073808,
                    -0.7555369069194824,
                    -0.14887504135064103,
                    -0.15496567084654594,
                    0.6438281816671972,
                    -0.1836546935433938,
                    0.35065149017155767,
                    0.06366536604005103,
                    -0.1703697957023568,
                    0.6898070261128271,
                    -0.10675619649308775,
                    0.15492924902671784,
                    0.736485183310529,
                    0.04050218595944407,
                    -0.5144298156336956,
                    -0.5973675182818142,
                    0.15658203710111263,
                    -0.30338429095517866,
                    0.670177810561628,
                    0.3270004430849779,
                    0.4978113014137456,
                    -0.7171400471423809,
                    -0.779623111028943,
                    0.6827678586670147,
                    -0.4402745397314654,
                    0.38842596499461424,
                    -0.03543924072011545,
                    -0.32863095678019494,
                    0.8743515700612896,
                    0.44582547317919047,
                    -0.7962415501410882,
                    0.9488229097670107,
                    -0.20991006116839966,
                    -0.1667565167043277,
                    -0.06704504543334731,
                    -0.3595376462320254,
                    0.09804532285649135,
                    0.28774227686957937,
                    -0.09955727592532218,
                    0.18190688799297844,
                    -0.7261564327722348,
                    0.14666087200936787,
                    0.7697815545932671,
                    0.9399056600975401,
                    0.13153478331277757,
                    0.33356823439712535,
                    -0.617619262457169,
                    0.5597887621980501,
                    -0.9732315401455867,
                    -0.05651093692188243,
                    0.8953665067090669,
                    -0.4262073608044108,
                    -0.09543124955368473,
                    -0.9677628095462002,
                    -0.008504207842668362,
                    -0.43083391398014687,
                    0.27248304519686933,
                    0.5820287194477998,
                    -0.6043134276546454,
                    0.7649807611485805,
                    -0.3242847963530087,
                    -0.5948779728224391,
                    0.9791671525141731,
                    -0.13208239174018666,
                    -0.48441830413486314,
                    -0.48370249055296394,
                    0.24052883768079492,
                    0.6854579663106454,
                    -0.152026029909209,
                    0.02888312365778903,
                    0.00677316081653538,
                    -0.011408607452936,
                    -0.8705544357723501,
                    0.20982840742518358,
                    -0.11396975754346267,
                    -0.4706782166468961,
                    0.02691653977142117,
                    0.11538812120402446,
                    -0.08828636780687785,
                    -0.06563512666206416,
                    0.7106804043080143,
                    0.4680381352555068,
                    -0.941294788042476,
                    -0.4514918757867523,
                    -0.2735589044166262,
                    0.154434012925272,
                    0.023435333560243132,
                    -0.45127980059222744,
                    0.1305568282987,
                    0.12176401474388672,
                    0.02830492232543545,
                    0.36842173767205577,
                    0.10432584589740185,
                    -0.7603461189791205,
                    -0.3877383393419285,
                    -0.2960075392583067,
                    -0.24052571574234666,
                    -0.5081901109077287,
                    -0.9643014929029996,
                    0.6108891385615688,
                    -0.3347443441143756,
                    -0.4240820649591901,
                    -0.850600535102641,
                    -0.3521913677793053,
                    0.037577752145513496,
                    0.7089023377123479,
                    -0.1920293625209016,
                    -0.6078422472013505,
                    0.7026764845030482,
                    0.11482768926949641,
                    -0.28467749691433314,
                    0.5162971390234045,
                    0.297390560907605,
                    0.5554088889323495,
                    -0.23759679112032162,
                    0.5347520329997584,
                    0.21479493675700356,
                    -0.7629792026630057,
                    0.6801683370324838,
                    0.8785969555118548,
                    0.40319402061877824,
                    0.28545592047831725,
                    -0.44580887387947155,
                    -0.15327488513475393,
                    -0.32377918616506685,
                    -0.5828242537850589,
                    0.39393418851552375,
                    0.43426285665568043,
                    0.42728090145609304,
                    -0.5315217951772999,
                    0.2145426951414385,
                    0.9392229936223109,
                    0.8272749547483746,
                    -0.5690615988653511,
                    0.4629461988522701,
                    0.25970504203967637,
                    -0.8040658841198801,
                    0.2555430829180601,
                    -0.5783028449571569,
                    -1.156626371971614,
                    -0.5531860545550464,
                    -0.08385861393525709,
                    -0.2523364181479024,
                    0.9768919451389929,
                    0.541164460046877,
                    -0.9191026331955289,
                    -0.09109061566807128,
                    0.8415937981001541,
                    0.6278961518830126,
                    0.07069632924368942,
                    -0.7677185050233245,
                    0.8211363473742196,
                    1.0067360869381514,
                    -0.7872361003185281,
                    0.09482600298335167,
                    0.6328107969945216,
                    0.459262902175691,
                    -0.9231297823358189,
                    -0.5518394100250783,
                    0.5922504380758743,
                    0.8276578815960278,
                    -0.2894573109916117,
                    1.0082263728368601,
                    0.3103521034992545,
                    -0.03328746629005316,
                    -0.5316143758784927,
                    -0.1841412492753694,
                    -0.7547288907148119,
                    0.5834522795647015,
                    0.4263445857109788,
                    -0.32351195208567757,
                    0.19243252186079177,
                    -0.4746667128352516,
                    -0.875114075162209,
                    -0.3666657171816407,
                    0.4869914290763543,
                    -0.2011681612422387,
                    0.9308287783697635,
                    0.3949900539567745,
                    -0.190668939064842,
                    0.4836180974862868,
                    -0.35012573768460203,
                    -0.24419228858750402,
                    0.4820236146264412,
                    -0.11700369747730643,
                    -0.5138538366673131,
                    0.7532116519880735,
                    0.9407171132559601,
                    -0.3933728767475546,
                    0.1661633191734718,
                    0.5321849077736519,
                    0.2755102380985659,
                    0.837906005235353,
                    -0.5452319107447817,
                    0.956639869806532,
                    0.2593769652275265,
                    0.9080397757482431,
                    -0.4693542847641696,
                    0.682781643882017,
                    -0.8508332779196242,
                    -0.03091108864143165,
                    -0.32622328017775365,
                    -0.08749929807380448,
                    0.795795243363538,
                    -0.7881017583297014,
                    0.30598349338433734,
                    -0.6405847901827741,
                    0.008338674631343674,
                    0.039813338688550644,
                    0.7756049567299031,
                    0.6282153104092626,
                    0.4918315897493689,
                    0.377352000437264,
                    0.4408050981827217,
                    -0.9171339501352958,
                    0.9382052434321144,
                    -0.6323824464471345,
                    0.3677153029463739,
                    -0.12439186971484158,
                    0.17584854586553716,
                    -0.5850302134307381,
                    0.7295276541573057,
                    -0.4237056299048808,
                    0.6741609394727255,
                    0.9118844700320274,
                    -0.8751185988222735,
                    -0.5919122383895951,
                    0.2975404942832417,
                    0.43147492082880384,
                    -0.2875600645145563,
                    0.11737549424295074,
                    -0.32264854999866194,
                    0.7400619634780113,
                    1.019004328981521,
                    -0.13431106780208832,
                    0.24271986823444028,
                    -0.7066288379344212,
                    0.9441065713517423,
                    -0.5283933492379542,
                    0.7773546780694721,
                    0.7135257644285137,
                    -0.35987577208104243,
                    0.34225770733251343,
                    0.1485929778616623,
                    0.09172152608244227,
                    0.0004431631348926896,
                    -0.9616466522002008,
                    0.47157825558001537,
                    -0.5710433006650906,
                    0.06924387325467016,
                    0.9741187211318191,
                    -0.6850341105898908,
                    0.7184000882399555,
                    -0.2988035101199711,
                    0.2700414895946035,
                    -0.5565283080707989,
                    -0.2517691472619441,
                    0.5598311227437128,
                    -0.008492584523607401,
                    0.20780759452329567,
                    0.6492798087362726,
                    -0.7239053902157557,
                    0.22408741746218303,
                    -0.6497167575808446,
                    0.6914702583929289,
                    -0.2577347007849194,
                    -0.559471977406085,
                    -0.7453860089492151,
                    0.2316231229358595,
                    0.5053637385087926,
                    -0.14933615003838854,
                    -0.5642207564297101,
                    -0.498048837534765,
                    -0.6985785878713919,
                    -0.8555326176499326,
                    0.8071627833541453,
                    -0.6757579942011624,
                    0.7920615497582973,
                    -0.2708504685926811,
                    -0.8070849120079151,
                    -0.35549560282720793,
                    -0.8346222641938396,
                    0.28952612609162426,
                    -0.3241505279217714,
                    0.6161188956731302,
                    0.5306922102771788,
                    -0.4651834396949976,
                    0.017412279622287887,
                    -0.1566255492416801,
                    -0.7846566677451985,
                    0.4836297538024866,
                    0.5326382981806205,
                    0.084923300700222,
                    0.24954071710178746,
                    -0.7309895281048586,
                    0.23751684020121389,
                    -0.6020756029389454,
                    -0.11564209930259316,
                    -0.028703841737032987,
                    -0.5084893635071165,
                    -0.7863168428666141,
                    0.551338477055662,
                    -0.753997686488685,
                    0.00955928753752586,
                    0.8813600415196179,
                    -0.05582963284534716,
                    -0.1321239245688534,
                    -0.009999573892873858,
                    -0.3149829131780975,
                    -0.49823568396916096,
                    0.28295192009680437,
                    -0.28990352035143263,
                    1.1712570611148756,
                    -0.9486717155228597,
                    0.27786931250356356,
                    -0.948669214823249,
                    0.5751951806952954,
                    -1.0014901585232308,
                    0.9258416993147267,
                    -0.3325776267119179,
                    -0.9194352044665596,
                    -0.5219145273400569,
                    0.5328136048971858,
                    0.5749062499062279,
                    -0.42924738465775847,
                    -0.9119929144497142,
                    -0.9278690509180149,
                    0.6769533809222755,
                    -0.11957892326227985,
                    -0.5175526176650949,
                    0.13141411212075507,
                    -1.0079996210613125,
                    0.9415075366806244,
                    0.3552853530702729,
                    0.5801257045432137,
                    -0.22536316479613824,
                    -0.33868776863009387,
                    -0.350185677268612,
                    0.688664892168877,
                    0.8724983190354075,
                    0.9698873776077246,
                    0.03431691919064507,
                    0.5413656906168716,
                    -0.18979658762278612,
                    0.10449768776959094,
                    -0.5381868272962682,
                    0.4467509336527019,
                    -0.216963344913401,
                    -0.8411961448948523,
                    -0.9654974234216511,
                    0.06983377353269088,
                    0.01271781217143507,
                    -0.9228492435148155,
                    -0.739078298216759,
                    -0.34084231456100544,
                    0.05690712567037782,
                    -0.013375483748619257,
                    -1.0312380308725833,
                    0.2003891410625438,
                    -0.051983007805539695,
                    0.709272081072095,
                    0.14278976664445878,
                    0.45448538641084635,
                    0.601110473412123,
                    -0.5776128324087086,
                    0.06038088614271655,
                    -0.5965121132614971,
                    0.24138422421358227,
                    -0.5063868322069095,
                    -0.9789280938970821,
                    -0.13705872967202526,
                    0.2115824955978924,
                    -0.1838691660944629,
                    0.5518814825488544,
                    0.3236316950957896,
                    0.5921697247772612,
                    0.3114539484481571,
                    -0.6962582950426791,
                    0.019591664234213383,
                    -0.38819839510308823,
                    -0.16666238244651796,
                    -0.8979472479079813,
                    0.07334977012534756,
                    0.5066976364920228,
                    0.48260290378092935,
                    -0.5984993400877339,
                    0.6455439287281676,
                    0.5169193117936733,
                    -0.6807188546596641,
                    -0.14190798951285527,
                    0.20592074453718517,
                    -0.6958286276281874,
                    0.017114874366876313,
                    0.46475087069609883,
                    0.2632463147830523,
                    0.3253067438719047,
                    -0.20052522742611598,
                    -0.6108706500584582,
                    0.12131333169022386,
                    0.6311248728027117,
                    0.6555861764274719,
                    0.428421937686948,
                    -0.4024555927562482,
                    0.743050468263018,
                    -0.9069819197901,
                    -0.08574268687982571,
                    0.8202476684732498,
                    0.7221847379271884,
                    -0.21771339304574192,
                    -0.4816808587152603,
                    0.7028036487556335,
                    0.2523230869492982,
                    0.7615802471497899,
                    -0.583414474377085,
                    -0.4623050843144375,
                    -0.11388968037446831,
                    -0.9777062204754289,
                    -0.5758277492482,
                    -0.47340001307348867,
                    0.4439165032751739,
                    -0.6770842736901381,
                    0.5607971962304452,
                    0.11915527845950266,
                    0.23428433816010835,
                    0.6204390120995786,
                    0.9563512343980781,
                    0.6620184135273389,
                    -0.5097370565641446,
                    0.399850153982344,
                    -0.9033484908326739,
                    -0.1585134759556811,
                    0.1801552781300666,
                    -0.7547923203737902,
                    -0.5869880659293227,
                    0.4988672477107566,
                    -0.7026900775016216,
                    -0.4044990960914852,
                    -0.5583550877372142,
                    -0.14829067766691786,
                    0.7072281332758206,
                    0.515762325330515,
                    -0.02165770886264386,
                    -0.5119263575356932,
                    0.6807768291899539,
                    0.13351847444721598,
                    0.25363576386233405,
                    0.3402888664061072,
                    0.5337968400637894,
                    -0.02372580233092211,
                    0.49873231217741415,
                    -0.4968543302656574,
                    -0.4976156875877452,
                    -0.6840816591863547,
                    -0.6659342657950799,
                    0.8078483151121154,
                    0.4140670268402624,
                    0.11982000648431168,
                    0.6981803714329381,
                    -0.1683648387700282,
                    0.6083665962039309,
                    -0.40910832865457764,
                    -0.8083196398089996,
                    0.16416978197795548,
                    0.48790526901590164,
                    -0.7747087436882809,
                    -0.014620678871261663,
                    0.16880721631434398,
                    -0.26142328409150595,
                    -0.6201110754997948,
                    0.6374442837126609,
                    -0.8580252491549241,
                    -0.07971331567842231,
                    0.8961333190775612,
                    0.473758339712852,
                    0.6412466990032384,
                    0.5381159343084473,
                    0.16870989664544964,
                    0.024270159733413482,
                    0.1399499188684435,
                    -0.509887503888049,
                    0.5625480270359879,
                    0.13242845525629676,
                    0.5192336377884226,
                    0.21764613931222865,
                    0.4101951911288997,
                    -0.48824342843457164,
                    -0.7624530989443205,
                    0.6224422839492446,
                    -0.20486332997903203,
                    -0.4482175605039457,
                    0.8376335689678576,
                    0.9453262627926842,
                    0.2541484492811112,
                    0.04188530508709596,
                    0.47527964431774683,
                    0.23861222846737556,
                    -0.4881812344535297,
                    -0.16709192658884703,
                    -0.5312782099937856,
                    0.7280832378760125,
                    -0.4954248704281806,
                    0.1582138785961208,
                    -0.6577068254562565,
                    0.4061822804205772,
                    -0.9162006447475702,
                    -0.4767950441839257,
                    0.9705522544821829,
                    -0.7598149643216622,
                    -0.8724823015465549,
                    0.6465203966465534,
                    0.4452987894866687,
                    -0.926376216696013,
                    0.175239956489353,
                    0.35724365440102807,
                    0.04057217733664897,
                    0.8298077380582662,
                    0.31995762343708256,
                    -0.7923450366764456,
                    0.03388856435475081,
                    0.933440779024162,
                    -0.1436088611244217,
                    -0.26652702773047093,
                    0.4960563238935359,
                    1.0115349913834344,
                    0.40085007530081457,
                    -0.5635582562058222,
                    -0.16201108844728856,
                    -0.3465183503731275,
                    -0.8954053664910202,
                    0.20826494162874193,
                    -0.7578783202656971,
                    0.8982430688826777,
                    -0.826078450428601,
                    -0.21489941542808216,
                    -0.41685410483953966,
                    0.8324516016538248,
                    -0.5426313801822074,
                    -0.3637243351136716,
                    0.4778783465626834,
                    -0.5293628196418326,
                    0.601773703624285,
                    0.6080869547298011,
                    -0.9489293840774822,
                    0.14547168832596075,
                    0.5264143870223857,
                    0.8768928399273127,
                    0.10219859272501114,
                    -0.20214897278026325,
                    -0.5881636629456395,
                    -0.6933779155562695,
                    0.1568365231258615,
                    -0.596317769945945,
                    0.7169140618688482,
                    -0.04968761960213941,
                    0.941786196371313,
                    0.16988988849170164,
                    -1.0069160049575785,
                    -0.609304249379438,
                    -0.28517915259938476,
                    0.1758781310746118,
                    0.709610935486773,
                    0.49675268083919316,
                    -0.6465977421505962,
                    0.26376849724020446,
                    -0.52291298776563,
                    -0.7342620077305578,
                    0.16610755172576916,
                    0.3093022649509269,
                    -0.6752977163876109,
                    -0.06291288514145717,
                    -0.18914945426781637,
                    0.242458258458368,
                    0.5753261541372247,
                    -0.43790464540322804,
                    -0.2736206851783118,
                    0.3837398823579623,
                    0.06269033477469943,
                    -0.5918296853842093,
                    -0.31379833741181845,
                    0.3640775247600867,
                    0.6303564927927935,
                    -0.8247161612204923,
                    0.061880674573561785,
                    -0.41232412212627356,
                    -0.4993949772639021,
                    -0.06845771531649783,
                    -0.528558858184532,
                    0.5909342625462668,
                    0.3574191144614641,
                    0.760177271869128,
                    -0.8341396020798442,
                    -0.4400710387526911,
                    -0.6820763239701862,
                    -0.24804528648079016,
                    -0.4260613641122339,
                    -0.985717943659145,
                    -0.7826330302419663,
                    0.9435014893225344,
                    0.9391241775319425,
                    0.02098234200520178,
                    0.2968415217134256,
                    -0.8944786611223646,
                    -0.32481432119588344,
                    -0.38803652069805356,
                    -0.17091494540525676,
                    0.16801209615183949,
                    -0.6638198406031788,
                    -0.7745467951400975,
                    -0.8191497599138464,
                    0.7045746193764706,
                    0.05430424725641756,
                    0.7632754219021445,
                    0.4689666775117451,
                    -0.5016708031714551,
                    0.6102188450367427,
                    0.45848064040885506,
                    0.7928717734054433,
                    0.6160716492309781,
                    0.3850743655266068,
                    0.2942601352534288,
                    -0.6009020705874422,
                    0.8842327585493646,
                    -0.9492670228957707,
                    -0.05830408626457775,
                    0.5636840610843573,
                    0.6786730156048228,
                    0.8699523633112813,
                    0.3972625609753399,
                    -0.05404378038639662,
                    0.19200340616063313,
                    -0.08420378279245991,
                    -0.6443256595225925,
                    0.7904706238745564,
                    0.6511741744595421,
                    0.35889663447931813,
                    -0.2751758899692775,
                    -0.03612932796183374,
                    0.5839638991299991,
                    -0.35372133139080997,
                    0.6889364674775463,
                    0.01717739939224771,
                    0.32934987618312767,
                    -0.9096361279500471,
                    -0.13624963027536863,
                    0.06573559878397184,
                    0.4771189149780725,
                    -0.09698452375770546,
                    0.5400414282947871,
                    0.6775258109808228,
                    0.7659692891386062,
                    -0.77927660481575,
                    0.6013536942559876,
                    -0.29493242808109443,
                    0.34978108262428553,
                    -0.026365836810566333,
                    -0.3706638443572502,
                    0.8392081879642695,
                    0.9377808659303282,
                    0.23761448038670985,
                    0.4125396526504041,
                    -0.25454064100016427,
                    -0.009928282481381662,
                    -0.22821104883801893,
                    -0.6510653968206233,
                    -0.7334030772847825,
                    -0.7904852209337659,
                    -0.20738067867198542,
                    -0.223327787813378,
                    -0.6392885400321132,
                    0.15462063767304185,
                    -0.08842933144434528,
                    -0.7633461746854093,
                    0.265434328763337,
                    0.46812760415084004,
                    -0.29548706610460673,
                    0.9570979919575071,
                    0.5182273363964959,
                    0.008750693748886923,
                    0.47843028633902335,
                    -0.8303316092071861,
                    0.1591135263463655,
                    0.6565438882538719,
                    -0.1241589858599115,
                    -0.6594394531890233,
                    -0.05517056340054434,
                    0.8919522692584608,
                    0.9609497622447191,
                    0.8183790097072312,
                    0.9556602187562812,
                    -0.3442706372338934,
                    0.6194687510017451,
                    -0.4855518360747734,
                    -0.2547446026592628,
                    0.49550663271400414,
                    0.38624041810405035,
                    0.8090512681246574,
                    -0.3417655287532986,
                    -0.40838727616394327,
                    -0.647377152820843,
                    0.5391548758296855,
                    0.2690362678057159,
                    -0.5201420493768866,
                    0.10942208883400154,
                    0.7026899839746367,
