{
    "networkId": "network-5569",
    "name": "Network network",
    "activeCard": false,
    "layers": {
        "layer-1": {
            "errors": [],
            "layerConfig": {
                "inputSize": "3000",
                "outputSize": "1",
                "activation": "sigmoid",
                "type": "recurrent"
            },
            "layerName": "Recurrent Layer",
            "status": "inactive",
            "valid": true
        }
    },
    "inputSize": "3000",
    "outputSize": 1,
    "valid": true,
    "status": "inactive",
    "network": {
        "0": {
            "input_size": 3000,
            "output_size": 1,
            "weights": [
                [
                    -0.09588408697710703,
                    -0.6486253371555087,
                    0.21700441729160028,
                    0.32145718412382673,
                    -0.7108476779415184,
                    0.7119384790360656,
                    -0.40946773648596285,
                    0.7239736874716433,
                    -0.15478862622775344,
                    0.006612339584110108,
                    -0.8775135625532169,
                    -0.15451225345138644,
                    0.24028007949274846,
                    -0.3502254676965789,
                    0.5814668538664106,
                    0.24165334528673385,
                    -0.01830960213581053,
                    -1.374891145276009,
                    -1.3081635930394855,
                    0.31972412062662353,
                    0.980338357897487,
                    -0.5577452933860805,
                    0.19276171945380682,
                    0.07935667085770746,
                    -0.9130600508573995,
                    0.8106524246454359,
                    0.22880126482992627,
                    0.5220567369694163,
                    -1.1492821166864695,
                    0.1560747765740273,
                    0.02339237017865473,
                    0.7415219759306368,
                    -0.07308080386643709,
                    0.40170203752025124,
                    -0.4436909844637487,
                    -0.9163666229361183,
                    -0.9093734838929142,
                    -0.8154698130785085,
                    -0.20926265120213963,
                    -0.5498282524459108,
                    -0.21810816560144367,
                    -0.8964565967820941,
                    -0.20276871446840322,
                    -0.5060900083517763,
                    0.617740736988298,
                    0.3426374355140793,
                    -0.7026732374994001,
                    0.22805930663244706,
                    0.30080957674672826,
                    -0.16401462657276106,
                    -1.2271147449564312,
                    0.7399241287201666,
                    -0.3734389503559974,
                    0.32705088804229165,
                    -0.6427752544432863,
                    -0.4930394238401852,
                    -0.7284890351062714,
                    0.4700078363758064,
                    0.21381483608918667,
                    0.6519958042564488,
                    0.9218537974315723,
                    -0.29336087671454086,
                    0.19186375381826812,
                    -0.42785402723255805,
                    -0.027405750319116805,
                    0.6039486221887114,
                    0.09454186836635886,
                    -0.7244968759844389,
                    -1.0913244419771169,
                    -0.828950303834026,
                    0.6617316663515939,
                    -0.07131000002604566,
                    -0.02032919130332812,
                    0.10556454364519816,
                    0.20446067582611435,
                    -0.5292644747056872,
                    -1.081698996755218,
                    0.11199161248159788,
                    -0.5842301691713815,
                    -0.5855825571884288,
                    0.2309914615327216,
                    -0.6991777174162247,
                    0.31019815170563075,
                    0.5633343562037039,
                    0.17996549049526245,
                    0.027498601236998363,
                    -1.1801752850534895,
                    0.796594479394539,
                    0.14442842417464022,
                    -0.33997478021201555,
                    -0.5161631330200144,
                    0.04048592342199102,
                    0.14368498943114616,
                    -0.07673804821604753,
                    -0.6901980312605993,
                    0.7200271752904848,
                    0.15464444062068378,
                    -0.07647983393629657,
                    0.3728225750291377,
                    -0.3776854111853049,
                    -0.0958461858236612,
                    0.563363607650776,
                    0.11091510468960239,
                    -0.5841363577785391,
                    -0.10170045679809522,
                    -0.3624027971614603,
                    0.8458555659928824,
                    -0.9951316142795809,
                    0.25408481390758275,
                    0.04661059911832591,
                    -0.9535699009926947,
                    -0.5991423949119895,
                    0.20704729533423472,
                    -0.32570864348017786,
                    -0.26480629244755116,
                    0.19447285727424024,
                    -0.004647177441246824,
                    0.13695769553086817,
                    0.7097404658051003,
                    -0.430824346685987,
                    0.2476919157769096,
                    -0.2710813712454223,
                    -0.2521826562909082,
                    -0.09643697507242015,
                    0.573262827657182,
                    1.1339984940709926,
                    -0.8628472331310085,
                    0.36945097734535914,
                    0.16667467890427318,
                    0.09736577562786307,
                    0.17632313065967242,
                    -0.7717612383842717,
                    0.6419176686731861,
                    0.7542543354466702,
                    0.21921344851628521,
                    -0.8962134184678574,
                    -0.5827906362036436,
                    -0.4797871782252181,
                    -0.1993331392691873,
                    -0.3567708929751163,
                    0.06377648905876991,
                    -0.5023314011932205,
                    -0.7132089196487867,
                    -0.5175743174377077,
                    0.23509276628935472,
                    -0.8601511289209189,
                    -0.22719056302593352,
                    0.7231984990388813,
                    -0.6581175613321019,
                    0.48155424724064083,
                    0.07567421784680296,
                    0.3051293753243872,
                    -0.8825941998803237,
                    0.14677153424489991,
                    -1.0007276442767106,
                    0.3339138433300247,
                    -0.27273081634137475,
                    0.3274900630755735,
                    -0.5374355632369908,
                    -0.14752554510396057,
                    -1.6187763297707232,
                    -0.9218531275716031,
                    -0.9556027306870405,
                    -0.4265249137366226,
                    0.4388183789300617,
                    -0.07886155328449669,
                    0.03999745480201458,
                    1.007227558309445,
                    -0.08406436829053204,
                    -0.8874772667206378,
                    0.19699637971059597,
                    -0.511318562021784,
                    0.4526483733411833,
                    0.6165901023247783,
                    0.772381982671453,
                    -0.8189306191770712,
                    0.2779728130583651,
                    -0.5541898875966298,
                    -0.8901854280892545,
                    -0.04803125528334039,
                    -0.8018103977955942,
                    0.06799013160742785,
                    0.614373129384105,
                    0.19624977944967884,
                    0.9909350960491279,
                    0.6011843397164458,
                    -0.5330793428073125,
                    0.8321598689670793,
                    -0.7285486314057117,
                    0.08717315084227828,
                    0.23279019845301205,
                    -0.06005019104562704,
                    0.4201224417053975,
                    -0.3613351586655909,
                    -0.25145415591588893,
                    0.05115972463276137,
                    -0.05954948578847916,
                    -0.3920167804975258,
                    0.6599407018390564,
                    -0.37688904683925173,
                    0.15789276109117245,
                    0.34527822102830785,
                    -0.419532112634517,
                    -0.4374858290781552,
                    0.013940175254969777,
                    -0.4165856433662602,
                    -0.9482717012529618,
                    0.29812833350857143,
                    -0.718803307494479,
                    0.6995645698535184,
                    0.9228242223454538,
                    -0.39233699561056923,
                    0.5412142408292423,
                    0.8944069990791504,
                    0.8846299924191365,
                    -0.8882610229986777,
                    -0.14943866610324638,
                    -0.017348826208485064,
                    -0.5630268552590331,
                    -0.21036253874987826,
                    -0.9735807131713888,
                    -0.11870738249551582,
                    -0.6433438593271281,
                    0.461915989351913,
                    -0.4986691644730358,
                    0.04890851414898055,
                    -0.8497949622618234,
                    -0.42844189347585654,
                    0.19796006764302884,
                    -0.7511786132424405,
                    0.7861092453697873,
                    0.2610358800869688,
                    0.312688376342098,
                    0.6017269463730577,
                    0.2928820385300047,
                    -0.12312006988022046,
                    0.7424027447130941,
                    0.2710761568201386,
                    0.022598121742049303,
                    -0.7780184889721599,
                    0.688523942023278,
                    -0.30000872766679515,
                    0.5167053329781942,
                    0.66814478146588,
                    0.14535240677291517,
                    0.029093455083956676,
                    0.012427051158380265,
                    0.7323461461593942,
                    -0.6361095808737983,
                    0.7248150212931632,
                    -0.005217724146212083,
                    -0.7679518886779259,
                    -1.274044802969004,
                    0.46291795567407545,
                    0.6269075089954816,
                    0.1264258201160252,
                    -0.45893400843049387,
                    0.6184563951193108,
                    -0.40301994099138766,
                    -0.02610158280037992,
                    -0.7346406386930385,
                    0.38630163066519624,
                    0.8577249002819353,
                    -0.4667263524857074,
                    -0.8259030072605016,
                    -0.42103768118528373,
                    0.735642875163936,
                    -1.0115545844104779,
                    0.8638826599284735,
                    -0.5063042008448312,
                    0.7715000835209581,
                    0.0772223945361958,
                    0.7504995926406418,
                    0.13810729334759783,
                    0.3649195915637847,
                    -0.6811213823188754,
                    0.6145270435559844,
                    0.7574816503026551,
                    -0.9146514853155329,
                    -0.13414174708129986,
                    0.7463896551718925,
                    -0.5323274698753971,
                    -0.23341653358411665,
                    0.48353714418695815,
                    -0.15658171608060978,
                    0.7673937402480382,
                    0.730674529520751,
                    0.8468608086187094,
                    0.9738065224323758,
                    -0.8122076795871188,
                    0.3003923245426255,
                    0.8076315044797067,
                    0.5140583205349513,
                    0.45513624941243375,
                    -0.1522095056337738,
                    -1.1253964513625427,
                    -0.5448805961297863,
                    0.42988873567236685,
                    1.0270533567560212,
                    -0.30297499132446987,
                    -0.30963854846595007,
                    0.8353924693025166,
                    0.261594371677514,
                    0.42649172185943685,
                    0.33721376683989135,
                    0.11535680100939721,
                    0.3618610330916501,
                    -0.4479055639212109,
                    0.6143135302464934,
                    -0.34158258619770654,
                    -1.069338348359914,
                    -0.4159821562211777,
                    0.2869931420877702,
                    -0.8434384546234939,
                    -1.026152019724783,
                    -0.6702734757487526,
                    1.0782949480732666,
                    -1.766482903305388,
                    0.7047713598715599,
                    -0.014768416627978485,
                    0.9155002836626392,
                    0.6796055956366711,
                    -0.47634078625835685,
                    0.2056319842521124,
                    0.4154261583058299,
                    -0.5254914121398236,
                    -1.0586782305194293,
                    0.6455225075255256,
                    0.5703627998718891,
                    -0.7837264105343182,
                    0.18422872581639604,
                    0.2535974736676751,
                    -0.3150912566169054,
                    0.004780715836584302,
                    -0.7568319642060176,
                    -0.4374956693758662,
                    -0.27464140633436,
                    0.5696311986495659,
                    -0.8541984179911006,
                    0.9894947873896628,
                    0.034436553289804384,
                    0.8189162523279443,
                    0.8390621683004742,
                    0.6168161429882456,
                    0.805445462579896,
                    -0.4213351487473087,
                    0.8533526882896565,
                    0.4202381666886122,
                    0.3103297152104221,
                    -0.26249443433506864,
                    -0.023528995358536507,
                    0.4389470305529236,
                    -0.6829853877689509,
                    0.4303036238994234,
                    -0.44413659407097517,
                    0.6286662710451919,
                    0.5802978436428374,
                    0.2234582306532056,
                    -0.5859423557874073,
                    0.38636528537480563,
                    -0.6628616786522391,
                    0.15761496964061267,
                    -0.3596301948571405,
                    0.5744223104456659,
                    0.49300981785054215,
                    -0.7991822032595245,
                    -0.645576166394504,
                    0.532729527574559,
                    0.8080668544079148,
                    0.4369045576743511,
                    -0.8199319818000425,
                    -0.7226374198104119,
                    -0.3281423825354544,
                    0.20370664685842332,
                    -0.4074529196812397,
                    0.029505246067321893,
                    0.05091420864257657,
                    1.0097409713188399,
                    -0.8677497520853075,
                    -0.8091299200629565,
                    -0.2822364521285105,
                    0.5377170650397118,
                    -0.9461903528486489,
                    -0.08573590691490254,
                    -0.06939975155110648,
                    0.3132275913464561,
                    0.389178808654914,
                    -0.9636746607897152,
                    -0.19615093714343362,
                    0.48835100709751544,
                    -1.0306300413652147,
                    0.38439447797182275,
                    0.7606225921748109,
                    -0.3169176721737636,
                    0.7327111384604454,
                    -0.10906477287303931,
                    0.7535212067583741,
                    -0.9169457024711128,
                    0.22360795926584348,
                    -0.08178084760701099,
                    -0.22690420361671668,
                    0.4178079420392134,
                    0.8095685602813465,
                    0.28521982573796456,
                    -0.08707416473846502,
                    0.29466478523945666,
                    -0.19264380310516416,
                    -0.6278645120938905,
                    0.24031270043854935,
                    -0.9387354317863097,
                    0.496106792991155,
                    0.08139731454035742,
                    0.7505865120788141,
                    -1.0666264797966574,
                    0.14411617545365277,
                    0.011557715782338602,
                    0.05776279967797897,
                    -0.14723345745213473,
                    0.07589001638663208,
                    -0.9973146212818457,
                    0.9473901160537695,
                    -0.07443929655555737,
                    -0.007144269968099176,
                    0.880080658284913,
                    -0.3526628065688408,
                    0.4827150875597882,
                    0.05650845628909745,
                    -0.8186054173684193,
                    -0.5778018379094146,
                    0.8985792757881522,
                    -0.4406738217260349,
                    -0.14188526549867253,
                    0.48015368507950806,
                    0.9046500320781379,
                    0.9105900783058345,
                    0.9139685943416681,
                    -0.3061881526413923,
                    -0.5734934931691599,
                    0.40543995803641975,
                    -0.08068952152512354,
                    -0.6574103515521778,
                    -0.8436149499675805,
                    -0.23322258805890744,
                    -0.5344756890447296,
                    0.11564056108200844,
                    -0.7502334238018735,
                    -1.0117301942672592,
                    -0.043441711307985,
                    0.6895343512732569,
                    -0.572600773343147,
                    0.21921643350820497,
                    -0.5950824249095491,
                    0.8405976978298754,
                    -0.249398853069323,
                    -1.0826576789616145,
                    -0.006024707825042383,
                    0.5010273834451207,
                    -0.20542986164459118,
                    0.6117511538582514,
                    -0.46641963316988816,
                    0.8675364116751,
                    -0.39934538722514346,
                    0.47137357788025464,
                    -0.8140459044114366,
                    -0.32558229659381577,
                    -0.5778266492022786,
                    -1.089019846331988,
                    -0.14496640591736493,
                    0.5204563280832838,
                    -0.23934489745340806,
                    0.843176126602751,
                    0.3171323264085552,
                    0.7703828267528581,
                    0.9294651182906998,
                    0.7833989663049507,
                    -0.2978846738782635,
                    0.1854527978323425,
                    0.18384956870589816,
                    -0.757302409006076,
                    0.124922883739998,
                    -0.8492305094018713,
                    -0.7623862834651038,
                    -0.08742180874234054,
                    -0.6505942191750824,
                    0.3048052498376686,
                    -0.5144439936099099,
                    -0.5623629220216975,
                    0.604369355937402,
                    -0.1937066593486099,
                    0.4288501554622284,
                    0.21300929518705572,
                    0.7218660021292126,
                    0.6024573897506426,
                    0.23617662458779956,
                    0.6159378479794351,
                    0.22832995529319453,
                    0.3277613635814061,
                    0.4168185063333737,
                    -0.47307012314938857,
                    0.32247926685722716,
                    -0.5397234165377105,
                    -1.0078002649705036,
                    -0.5673605323710709,
                    0.5357520134227705,
                    0.1870127201506174,
                    -0.636345642293979,
                    -0.051933820082827584,
                    -0.031956706258440014,
                    -0.41820282411155824,
                    -0.06594676946218539,
                    0.5799337516632914,
                    -0.5830774568888126,
                    -0.134302557702745,
                    -0.03368793660640452,
                    -0.5593827538208359,
                    0.42858033410347524,
                    -0.5124662425948829,
                    0.37086311238452874,
                    1.028559049396119,
                    -0.1470969745718533,
                    -0.6804292617497858,
                    0.060541218417362465,
                    -0.19907225228103442,
                    -0.9015379963768395,
                    0.2522427371186575,
                    -0.2100197813732688,
                    0.5408103002079327,
                    -0.9025245228241968,
                    0.8241334843979854,
                    0.4067695679567832,
                    0.3788790400942644,
                    0.5361681112279906,
                    -0.9324872162319909,
                    -0.7426995167828355,
                    -0.4565135278412409,
                    0.26185517937339253,
                    -0.06025384789374498,
                    -0.862316234760236,
                    0.7388983890138661,
                    -0.5385276916653241,
                    0.1811268286480651,
                    -0.10537089353871931,
                    -0.23852597340897594,
                    -0.9346113195099671,
                    0.041688564268135934,
                    0.9232557006342166,
                    -0.302608576410971,
                    0.20104001224988213,
                    -0.5552180947498346,
                    0.7566781919474825,
                    -0.02422106461448281,
                    0.827452298268787,
                    0.8874819635557823,
                    -0.3075988782400703,
                    0.07964829380365869,
                    0.8314973516772154,
                    0.49910984872556996,
                    -0.16955293590177956,
                    0.059243392543731774,
                    0.31858321319864313,
                    0.7000174273019546,
                    -0.48486018138602455,
                    0.5537934160447753,
                    0.11758173114976661,
                    0.5159389815134384,
                    0.6650845709607307,
                    -0.5789551725312726,
                    -0.5450849421891755,
                    0.499576712884174,
                    0.5082015985907095,
                    -0.7967315114185101,
                    0.7484978943648898,
                    0.4948765856764444,
                    0.6328668296784925,
                    0.12467254725558383,
                    -0.7539171144338384,
                    0.24235978801474775,
                    -0.552767315743771,
                    -0.9629186654185418,
                    -0.2769471427874605,
                    0.2588722345361253,
                    0.0728970638763429,
                    0.04519797369680957,
                    0.805808961886129,
                    0.38038302301586696,
                    0.5371991231626566,
                    -0.8277804478123398,
                    0.6042472233807914,
                    -0.8352992135378461,
                    0.2945575641848299,
                    0.7828058921405383,
                    -0.3864931734779869,
                    0.198689652732213,
                    -0.5289877361050638,
                    -0.8700408546554961,
                    -0.8109498566895724,
                    0.177732361108106,
                    -0.5063833336008327,
                    0.6012665912610301,
                    -0.43677400123912896,
                    0.703976553665074,
                    0.3814468034997564,
                    -0.0871390418670313,
                    1.0250947528506287,
                    0.11795195772053263,
                    -0.00659484049963157,
                    0.10030311550641417,
                    -0.16630051237996288,
                    -0.8023367755276248,
                    -0.17794882141452223,
                    -0.061673307356986506,
                    0.1388889154622629,
                    0.5120951714495252,
                    -0.35512655334137366,
                    0.32244016372545015,
                    -0.07771129694165922,
                    0.024185870019617778,
                    -0.6614460039724367,
                    0.4419464730881545,
                    -0.6303071494283511,
                    0.037692861246520624,
                    -0.23241089106766957,
                    0.5510660687504975,
                    -0.5374462244156584,
                    -0.703495081313148,
                    -0.6118421120384563,
                    -0.9654829968529249,
                    0.8388782528953687,
                    -0.8204660925522459,
                    0.31977754474714926,
                    -0.6351460457809206,
                    -0.868676169271886,
                    0.0065372735049845,
                    -0.5321853787063039,
                    -0.3827782047429113,
                    0.9622985032352118,
                    -0.4377649140120564,
                    0.9472328993303718,
                    0.7306215785566211,
                    -0.560820001727426,
                    0.7034799171747949,
                    0.062534099386138,
                    0.027973021497207047,
                    0.9606787646340023,
                    0.2654837836153915,
                    0.28925923300431666,
                    0.8058552448084216,
                    0.46418231386616365,
                    -0.19165058652503278,
                    0.686841360317436,
                    0.4155339137869206,
                    -0.5282052100805203,
                    0.077016866835599,
                    -0.5154368112883124,
                    -0.953013906160037,
                    -0.11851499352794811,
                    -0.48714436817772466,
                    -0.6819959462026101,
                    1.0119834533845213,
                    0.9112117194085536,
                    0.8750613551686245,
                    -0.7174765874418267,
                    -0.7155899083896835,
                    0.6405374226694026,
                    0.15332232701015988,
                    0.9171261880862902,
                    -0.049722063558952825,
                    0.07847580841018904,
                    -0.7749866651883487,
                    -0.4582972078869735,
                    0.23325541919340564,
                    -0.5578064189890808,
                    0.5382637874785048,
                    0.5119685919582199,
                    -0.5319607997152141,
                    -0.7295559615470494,
                    -0.3060507552790015,
                    0.6794481123660642,
                    -0.19552318748640007,
                    0.8488436509007319,
                    0.220642892177679,
                    0.20980688987151197,
                    -0.4425940168748,
                    0.7321579484864783,
                    -0.7975254202143292,
                    0.0030586740026790882,
                    0.3542422300120237,
                    -0.5751208613636113,
                    0.4214340466852772,
                    0.36754734921502136,
                    -0.0896937622890389,
                    -0.5854107590594365,
                    -0.5538659137661214,
                    0.022934281194851944,
                    0.26633683049604817,
                    -0.32273790318324497,
                    0.5960714646003101,
                    -0.42542916356227123,
                    0.30349207521469,
                    -0.8556990266068163,
                    -0.5226202746655273,
                    -0.562448385212424,
                    -0.028478891482766167,
                    0.0314012711645627,
                    -0.15834009133883833,
                    0.40801471695800684,
                    -0.4415227786012179,
                    0.29981567698949674,
                    -0.1433786188460811,
                    -0.5416605872458825,
                    -0.4667647674031387,
                    -0.7914550902104572,
                    -0.6476424324731694,
                    -0.8354751993875279,
                    -0.4673314973481171,
                    -0.5088888113723727,
                    0.18369987844370053,
                    0.1835339178106621,
                    -0.6632184683746132,
                    -0.6073646611802893,
                    0.08752433324298989,
                    -0.4894730378431235,
                    1.010399683009764,
                    -0.11810536469147644,
                    0.6177016419150411,
                    0.5000283976293944,
                    -0.4397727312479142,
                    0.020926240209569433,
                    -0.07058760115581887,
                    0.5887377069562615,
                    0.8759496548336543,
                    0.7160265098572808,
                    -0.5208221717760112,
                    0.5930949836707291,
                    -0.16647630918419135,
                    0.23585867116747722,
                    0.9480421972940032,
                    0.6909881934647774,
                    0.34281566941147085,
                    -0.7829902597281304,
                    0.05576148703767059,
                    0.5096688872232836,
                    -0.9883848985943992,
                    0.6163542940982105,
                    -0.9234402195509068,
                    -0.316244866342817,
                    0.9608444541243093,
                    0.7490554789490523,
                    -0.5901541848772756,
                    0.3628072142215732,
                    -0.9804973673068009,
                    -0.6893006096587398,
                    0.09764425608925056,
                    0.6159934342803213,
                    -0.009102099252843533,
                    0.6035883145692758,
                    -0.3703574602595601,
                    -0.05525375736506632,
                    0.07579798967103159,
                    -0.13846308282350864,
                    -0.9511148817054469,
                    -0.7142344278704624,
                    0.8929261970238666,
                    -0.2538684971956674,
                    -0.015454969813155906,
                    0.2124401906651164,
                    0.35783030025148854,
                    -0.3759688868434794,
                    0.8543988959314687,
                    -0.31378595124901076,
                    -0.6197787781500119,
                    0.1050091124916234,
                    -0.8256352238032485,
                    -0.07701427732736997,
                    0.4371307953758389,
                    -0.8169410440585801,
                    0.857904774427476,
                    -0.0839562404625527,
                    0.4942544303233222,
                    -0.4670864548809265,
                    -0.5368394822207764,
                    0.33867441001522985,
                    -0.5366478908329337,
                    -0.8901754640609135,
                    0.6374664514374122,
                    -1.2185353603266846,
                    -0.6038422747206031,
                    0.7036405035279973,
                    -0.6200038568322456,
                    0.4206216502758398,
                    0.569585263273822,
                    0.8253285603408954,
                    -0.7300894229252378,
                    0.2441103274922031,
                    -0.49171772670971503,
                    -0.23485121238215834,
                    -0.5221294288359352,
                    -0.5823071149555492,
                    0.5861315966798637,
                    0.3916129861885691,
                    1.0020514311687008,
                    0.8900089974445903,
                    0.9270523219501966,
                    -0.31412889462416377,
                    -0.5158191142165343,
                    -0.646087911107587,
                    0.7376817418467856,
                    -0.6394780479494577,
                    0.2780520876271173,
                    0.03151228869602613,
                    -0.3984204253151386,
                    -0.762774953361012,
                    0.7708203775289264,
                    -0.8781900194974666,
                    -0.5105816138359772,
                    -0.5716103902051102,
                    -0.4239824893080417,
                    0.1088879213873381,
                    0.19314790534139753,
                    0.46869216414145537,
                    0.24183939963533727,
                    0.3504381256502572,
                    -0.18346686658292752,
                    -0.44254416573934197,
                    -0.049088166632423,
                    0.20626062979851667,
                    0.32830222631712125,
                    0.6097612810108127,
                    -0.25135571441734567,
                    0.486916703657695,
                    0.25348287815868004,
                    0.06309932010387101,
                    0.9353791634138346,
                    0.38525029799746013,
                    0.27694173681769585,
                    0.5536632098768298,
                    -0.12943607833587148,
                    -0.6132174069899833,
                    -0.0258670618087902,
                    -0.8498544332461287,
                    0.282990041685856,
                    -0.8855664993652208,
                    -0.9298136843250733,
                    0.2117194323477882,
                    -0.12009395945135269,
                    0.4410858958534938,
                    0.12890370336618934,
                    -0.5077458824164768,
                    -0.9385203393989511,
                    0.21842169963217886,
                    -0.7328654613194561,
                    -0.6297094963332265,
                    0.9885823213454636,
                    0.6258381373245618,
                    0.15160071541141562,
                    -0.20232229381456768,
                    -0.7064929580275902,
                    -0.7660112748425006,
                    -0.7766410337946944,
                    -0.46429034516225554,
                    -0.4011217898120341,
                    0.12907425082410282,
                    0.37676208810527095,
                    -0.6565773267391148,
                    -0.47734823852481356,
                    0.4157319261842864,
                    -0.2773850614615662,
                    -0.6172271537964823,
                    -0.18153406780416115,
                    -0.1498092138186746,
                    -0.6428747466214544,
                    0.8611873972729266,
                    -0.7042147647363405,
                    -0.4884751653885103,
                    -0.8384277595269573,
                    0.22754757874885373,
                    -0.0004842646111724852,
                    0.5313985426430777,
                    -0.21893965577279825,
                    0.7115971857257447,
                    -0.223802156387138,
                    0.16844979964363166,
                    -0.002205106061000984,
                    -0.9596263497960242,
                    0.34091140306646084,
                    -0.3231402169919103,
                    0.07756808885330281,
                    0.5906358213632396,
                    -0.28822268169736076,
                    -0.0031889698013844122,
                    0.4343855890261071,
                    -0.716455908757675,
                    -0.08539448126048649,
                    -0.01835113658287131,
                    -0.10385745602122948,
                    -0.5875946363249936,
                    0.882926225087221,
                    -0.8926136944858514,
                    -0.4887722918809536,
                    0.7083309178169508,
                    -0.6513745319849907,
                    -0.4486532570878399,
                    -0.9346199890075627,
                    0.01431441855215385,
                    0.19988410683032215,
                    -0.06751428942105164,
                    -0.728974504259683,
                    -0.1439608727173413,
                    0.549982158146861,
                    0.7941290053437409,
                    0.8648495505069169,
                    0.298378933110895,
                    0.25072271087866704,
                    0.2546108832592694,
                    -0.5910646494427668,
                    -0.3699320085167365,
                    0.7751458211810065,
                    0.6353752152935419,
                    0.7614506526366153,
                    0.3539664014078824,
                    0.40482966457232294,
                    -0.04408848382523196,
                    0.41939040818788537,
                    -0.09904400026438917,
                    -0.24726853798695847,
                    -0.017103503838701798,
                    0.16898276624818542,
                    -0.6852402136678515,
                    -0.030627873916975964,
                    -0.7691342294044442,
                    0.46355754311687325,
                    0.2858722875734338,
                    0.2759395954136786,
                    0.8202814205643846,
                    -0.1517160379060045,
                    0.7178130156306557,
                    -0.19951875778032283,
                    0.6849887707685193,
                    -0.7509537379063893,
                    -0.1679504613744586,
                    -0.7800537623225167,
                    -0.062461072598649275,
                    0.08468840085655235,
                    -0.7896909207167987,
                    0.3600839950654338,
                    0.3839961396007279,
                    -0.45663277315684764,
                    -0.07326751897431759,
                    -0.7093962548679416,
                    -0.41041947824657593,
                    0.8576279290129748,
                    -0.988887491613838,
                    -0.7730519537393543,
                    0.29187053076060704,
                    0.5681447879960427,
                    -0.17106433103639263,
                    -0.7247882853606862,
                    0.6656709689437329,
                    0.6283203488676562,
                    0.8603951297266202,
                    0.6461994431084084,
                    0.8438169016093198,
                    -0.1848432291442558,
                    0.7117992972556414,
                    -0.7104390293962817,
                    -0.10205600974889928,
                    0.5310223317934111,
                    -0.8175324068994111,
                    -0.5084054944127595,
                    0.2657960980796088,
                    0.02549312017917978,
                    -0.5765363965645215,
                    0.41896322688856763,
                    -0.918427109141962,
                    0.18985619736412432,
                    -0.8211239967835221,
                    -0.29431498972599246,
                    -0.884240243605653,
                    0.6227345455124341,
                    -0.008721582224362999,
                    0.9401260767063853,
                    -0.3079707223236947,
                    0.5940477839009082,
                    -0.8572577537275424,
                    -0.8543489284646287,
                    -0.2089138348973409,
                    -0.8671568429400736,
                    0.5106968819627992,
                    -0.04597217321022136,
                    0.7946188664592199,
                    -0.33766746182341056,
                    -0.8482866941129914,
                    0.5205366760147252,
                    0.7330269912532033,
                    -0.2578846795012379,
                    -0.5602287973710448,
                    -0.2872781467539872,
                    0.508354042453538,
                    0.781502412136439,
                    0.17137534399696672,
                    0.775222430995387,
                    0.8946014485869956,
                    -0.7989173902891241,
                    -0.3530246343543846,
                    0.8943144468786953,
                    0.4916126136774163,
                    0.3421536089065724,
                    -0.6217334043707271,
                    -0.999401781135145,
                    0.35348837397158217,
                    0.629943261194043,
                    -0.45616385856679464,
                    -0.9110967071303173,
                    0.31092486356421856,
                    0.6754982327337962,
                    -0.47340316181885195,
                    -0.2755403228681129,
                    -0.6083686024296313,
                    -0.8423510507749887,
                    -0.7475721181175939,
                    0.28013044333658643,
                    0.6977114387374932,
                    0.9832774255237513,
                    -0.2623245940429303,
                    0.5065297851744024,
                    0.3377446322520551,
                    0.5469323523349009,
                    0.7229922571950093,
                    0.8080596119525492,
                    -0.3332951870689235,
                    0.8889703084842145,
                    0.7114006997958715,
                    0.9054424752104749,
                    0.3734645908740677,
                    -0.6548909455024028,
                    -0.9474147757970582,
                    -0.35431109822406215,
                    -0.018691438435969692,
                    -0.8344553031181013,
                    -0.09360295728104039,
                    0.1781152061429678,
                    -0.3829082735659952,
                    0.8181517552683514,
                    -0.8013912263616059,
                    0.5605640715635392,
                    -0.13482085738567978,
                    -0.10875293696120956,
                    -0.3499334642967218,
                    0.9785394387647621,
                    -0.442018967848196,
                    -0.2748680926778962,
                    -0.415650806541189,
                    0.7350804416177674,
                    0.5594825527008859,
                    0.19925854159562115,
                    -0.011476344199595109,
                    -0.7446200749543322,
                    0.8067759562245581,
                    0.7203834345976635,
                    -0.39904499486579126,
                    0.24297352604308786,
                    -0.0828912991675054,
                    -0.9029934911302502,
                    0.13475684657941847,
                    0.44098520870227625,
                    -0.30082459533423556,
                    -0.9207136052602201,
                    -0.1513696757150697,
                    -0.9242187727612811,
                    0.3920376196703547,
                    -0.8233387739220174,
                    -0.6233889699492176,
                    0.6424887957189714,
                    -0.8254205484127005,
                    0.25538258886265236,
                    0.5406844483927159,
                    0.3099800980593484,
                    0.7083637415118917,
                    0.12552172478327162,
                    0.6779774264953946,
                    0.7055233220696275,
                    0.3945845955967796,
                    0.24161345215985655,
                    -0.6169329679924679,
                    -0.8547141006642611,
                    0.8130012604836964,
                    0.09076354250988226,
                    0.7325465314440085,
                    0.009995777526681664,
                    -0.1618393032881018,
                    0.38516983380532666,
                    -0.6035057803555874,
                    0.9105292286757801,
                    -0.9197885621249985,
                    -0.5180720172470317,
                    0.5049343119992563,
                    0.5260337449218153,
                    0.16020941620329912,
                    -0.4892159172517871,
                    0.6780745394809022,
                    -0.7889880591800043,
                    -0.1705771488546147,
                    -0.4834346088673371,
                    -0.25609810386754306,
                    0.5839197524058333,
                    -0.7742387694348123,
                    -0.47921543246213755,
                    -0.38978437269152005,
                    -0.6398156706336233,
                    -0.2584315466339348,
                    0.1952306009558273,
                    0.4930096462877814,
                    0.8900242824544491,
                    -0.5555402565499862,
                    0.062085864898944056,
                    -0.28104371612281814,
                    0.9875906914422765,
                    -0.025655367408098918,
                    0.2496228214767524,
                    -0.13363254911279354,
                    0.39549720720263914,
                    0.008206851485486086,
                    0.9553033094112492,
                    -0.4801280986403638,
                    -0.5426819479806685,
                    0.91421107143231,
                    -0.31271222164947643,
                    0.4452963305995573,
                    0.38618516953562454,
                    -0.22377929732997792,
                    -0.506713768075194,
                    0.22702980101208187,
                    0.4618972849659305,
                    0.5393230910812331,
                    0.37736365914425396,
                    0.6464158458932588,
                    -0.1798283205720067,
                    -0.2006546226928451,
                    -0.7537502089018493,
                    -0.13544290455248675,
                    0.18182354104442508,
                    0.08976924810511717,
                    0.5896737901116921,
                    -0.42993000475365184,
                    -0.6755085832297566,
                    -0.38620108378833884,
                    -0.7346754093210605,
                    0.48724023099753855,
                    0.17884567897278503,
                    0.8266084005821139,
                    0.2365192926654331,
                    0.6665961413623318,
                    -0.8445627194619982,
                    0.542323459698298,
                    -0.47026040758020626,
                    0.3084124636989728,
                    0.20471583850429387,
                    -0.7615616395241039,
                    -0.6976601801894027,
                    0.8718969417332204,
                    -0.29963579043489835,
                    0.04443471720894514,
                    -0.34768860955805986,
                    0.589906064597115,
                    0.1301928215305963,
                    0.9008896853286643,
                    0.5388345819421537,
                    0.33523163713016085,
                    0.5817111742148237,
                    0.1358210021295798,
                    -0.6458971816230512,
                    0.482754867882094,
                    0.37896707913312144,
                    0.3645336706563061,
                    0.16735078405618622,
                    0.28361404583250127,
                    -0.776595056061982,
                    0.24520127848055284,
                    -0.24396855701416983,
                    0.3055733968538173,
                    -0.2687932752070159,
                    -0.3716423619341831,
                    -0.028213933479080043,
                    -0.6686741552405535,
                    -0.19168178765419008,
                    0.8296533574721947,
                    -0.5829339878842558,
                    0.751360417507193,
                    -0.628008106121027,
                    0.6030966567074011,
                    0.5054042173465265,
                    0.6581356037662393,
                    -0.05982201810311318,
                    0.8835982903947698,
                    -0.18206721884638832,
                    -0.7780269829101364,
                    0.8117167649570863,
                    0.060401078176066776,
                    0.9541649634867906,
                    0.542087223839942,
                    -0.06686624455136132,
                    0.6553297646216726,
                    0.6804912479985447,
                    -0.08681635632573728,
                    -0.41487997729320647,
                    -0.5548902073310287,
                    0.2705416715801914,
                    0.24999403175938265,
                    -0.94336568789725,
                    -0.7485772197997881,
                    -0.773893658040237,
                    -0.5836521474792808,
                    0.9279446098451589,
                    -0.3007307563906777,
                    0.2438175300196103,
                    0.410389361751541,
                    0.06495042085593768,
                    -0.3206357787220332,
                    -0.327309808525773,
                    -0.9176513163385278,
                    0.7048825278846385,
                    0.6781117576592623,
                    0.01058882115785673,
                    0.6147656259760597,
                    -0.5947244240383869,
                    0.2677478965655833,
                    0.900320530317595,
                    0.035540880335206665,
                    0.39024752501346555,
                    -0.32813546661338894,
                    0.7684367903683964,
                    0.58257896479714,
                    -0.5832240084256449,
                    -0.011058298791223657,
                    -0.34970419970177724,
                    0.16074999313632463,
                    -0.06193708247012684,
                    0.7420969941140602,
                    -0.01592442113828854,
                    0.6665908913588473,
                    -0.33987640027604116,
                    0.9279598266595167,
                    0.8821992237183844,
                    -0.48703443492344156,
                    0.056303604762186765,
                    -0.1424346810738153,
                    -0.01763753175399764,
                    0.27052698437652,
                    -0.4463597480238492,
                    -0.41155762154479647,
                    -0.7656820948995023,
                    0.6479938190326915,
                    0.1985412315538937,
                    0.03383337275763588,
                    0.7842647983227304,
                    -0.9747435455759701,
                    0.39104096831355206,
                    -0.5083524107225356,
                    -0.4496847211160465,
                    -0.7014242410356236,
                    0.573652715505895,
                    -0.24577736095526503,
                    -0.22952417982257212,
                    0.24966744246759381,
                    -0.7055592381713797,
                    0.42436647911529574,
                    0.42435104008884705,
                    -0.3823575335119144,
                    -0.11960497489422355,
                    0.1360336055524089,
                    -0.6985827239383419,
                    -0.8398763146254355,
                    -0.48004265580836325,
                    0.18606274048865631,
                    0.44984513126061465,
                    0.775719560576763,
                    0.570769747167835,
                    -0.3717470881783645,
                    -0.11458892988559652,
                    -0.9813539335472757,
                    0.24976923333083043,
                    -0.5478468340081805,
                    -0.3000303348176281,
                    -0.9068756029571542,
                    0.13016422368804595,
                    0.32613952691281994,
                    0.29203851090818567,
                    -0.9313317799908627,
                    -0.5081802224225913,
                    0.10984383372191978,
                    0.7601565451501989,
                    -0.8816207426199723,
                    0.7538293049773234,
                    -0.3910743944327502,
                    -0.20345447891755766,
                    0.33789407888593687,
                    -0.569418951349542,
                    0.7610886045572238,
                    -0.9466972146258238,
                    -0.43067687674973537,
                    1.06639594251787,
                    0.38743619596035456,
                    -0.8527380947636134,
                    -0.006342800478208337,
                    0.463481894761767,
                    -0.955327926449896,
                    -0.1177188066698717,
                    0.8411983426245406,
                    0.6994941098749988,
                    -0.7423907149636392,
                    0.8689646654798033,
                    -0.6941728231385157,
                    0.23244944237731935,
                    0.1603362197875975,
                    -0.7876790173235727,
                    -0.0020528266041743857,
                    0.08950487662128301,
                    0.41805600421327127,
                    -0.1533605089188551,
                    -0.03052849215352582,
                    -0.6302941908542584,
                    -0.5026291284239487,
                    0.3890880380310316,
                    0.03992356980856869,
                    0.16271522062433708,
                    -0.13663172095269574,
                    0.8887522510185343,
                    0.22563569185797255,
                    -0.9014228463640032,
                    -0.29304650870192306,
                    0.15059480309565149,
                    -0.19399610735010406,
                    0.49785904446714907,
                    -0.685396748606425,
                    -0.010886204953452147,
                    -0.3833639380370798,
                    0.047642283197992165,
                    -0.7330435324752013,
                    -0.5528073032286736,
                    0.5499733564448718,
                    0.07503070477083751,
                    0.5832461931885972,
                    -0.7106458143131416,
                    0.9187844199119203,
                    -0.5775763417115174,
                    0.28844906672108506,
                    -0.7349255215653693,
                    0.685419707226801,
                    -0.5590282414585173,
                    -0.26112855706565763,
                    -0.8533880784314436,
                    0.7841196480711693,
                    0.7390793938145602,
                    0.7867774426099955,
                    0.45949983211620166,
                    -0.8448135258399507,
                    0.9698310321778221,
                    -0.7328063799317215,
                    0.37464260636437674,
                    -0.667128522036322,
                    -0.565515754559684,
                    0.8685904488038599,
                    -0.010998033883401512,
                    -0.8994857270901576,
                    0.9056869225880784,
                    -0.21122695366192262,
                    0.6902574218831475,
                    -0.4427566091744093,
                    0.6329780563288482,
                    0.6993796988686111,
                    -0.49618030587405465,
                    -0.5117190732552148,
                    -0.7087079135065066,
                    0.5868438806312973,
                    0.664078741630215,
                    0.1207556935088083,
                    -0.7271431275853606,
                    0.5706362892790098,
                    0.21569977226579967,
                    -0.024558086581705232,
                    -0.09671771802062075,
                    -0.13683802509104398,
                    -0.6366490843064131,
                    -0.2725233275848381,
                    0.13136726202084353,
                    -0.41101948951704137,
                    0.5881018377847329,
                    -0.07984821426358406,
                    -0.5870727022565714,
                    -0.2890665151492427,
                    0.712677333669757,
                    0.9142816679853099,
                    0.4019317190423979,
                    -0.21298508690337634,
                    0.2879213775532314,
                    0.6516350169566636,
                    -0.44193968841077463,
                    -0.12877800708267578,
                    -0.42143988274044814,
                    -0.13068214277068485,
                    -0.1287089902360032,
                    0.515480887394888,
                    0.16154887684839045,
                    -0.49862370161395975,
                    0.2044368180371673,
                    0.20318916551309607,
                    0.7180654748328736,
                    -0.7513636130540453,
                    0.10688762435382775,
                    -0.6143242841056344,
                    0.366840437898989,
                    0.060470959669275584,
                    0.46655937684663046,
                    0.9920120393277245,
                    -0.11361779680516976,
                    0.8308422641105774,
                    0.4225594277968765,
                    0.3409627165423305,
                    0.3533850594729307,
                    0.35995926578581255,
                    -0.7316171709775695,
                    -0.4871953860393406,
                    0.41602091247727596,
                    0.7680500334433972,
                    -0.22938687389718007,
                    -0.7001547820673818,
                    0.8548484671560547,
                    -0.43325486303093885,
                    0.3884532669059048,
                    0.9573132789998695,
                    0.9985796765895575,
                    -0.6190414118117592,
                    0.5834418637744693,
                    0.5484628013283614,
                    -0.3636223248843246,
                    -0.8638926855403948,
                    0.13710438272018025,
                    0.13979822894405175,
                    -0.6972560056075182,
                    -0.002645739299625096,
                    -0.11609828261031839,
                    -0.8276648062809302,
                    -0.4842587522633085,
                    0.7073331484334591,
                    -0.6246375426543789,
                    -0.053930955696101845,
                    -0.13829658405120762,
                    -0.05823578805387608,
                    -0.3587235636446048,
                    -0.7426889501931572,
                    -0.14591804341551856,
                    -0.24434310431376757,
                    0.6045724826115768,
                    -1.0239801138600395,
                    -0.8115971423051331,
                    -0.35909136541738573,
                    -0.9048899212021777,
                    0.1815414730781977,
                    -0.7266158049748709,
                    -0.40248815910994185,
                    0.1987379199726814,
                    -0.6146250261932843,
                    0.010225553696867085,
                    0.3419749443244887,
                    0.8105553696084333,
                    0.9295220872062666,
                    0.7942329940794313,
                    -0.018918666834799078,
                    -0.6381536521647863,
                    -0.7893350199189038,
                    -0.6391787303015467,
                    -0.482239185294728,
                    0.23397496999334355,
                    -0.5891916040465719,
                    0.43868708312534155,
                    0.749921647918084,
                    0.6336688089987789,
                    0.8948648308054422,
                    0.126226164004271,
                    -0.41211105617347205,
                    -0.5005500418181568,
                    -0.011592850942040897,
                    0.21074628112916108,
                    -0.23913507003757392,
                    -0.2323312896489428,
                    0.8619608618195971,
                    0.9601235554051171,
                    0.15791543583245699,
                    0.884762369026499,
                    -0.6314852452599706,
                    0.9224092777902393,
                    0.9929147901659352,
                    -0.08057705652374267,
                    0.19800979856302106,
                    -0.3504915705200032,
                    0.46493382800515676,
                    -0.22562579478050174,
                    -0.9691654596202997,
                    0.0684101442428495,
                    -0.29661400629735707,
                    0.16160713013151948,
                    -0.17770139443991845,
                    0.3425546841654216,
                    -0.5611628792060019,
                    0.7649907820538501,
                    0.4616157466081281,
                    0.5589228855317683,
                    -0.19696240278836427,
                    -0.5639670611332068,
                    -0.7043014104384343,
                    -0.12199150771394429,
                    -0.024892608317070512,
                    0.568387904413005,
                    0.6398763598752699,
                    -0.09904685512139853,
                    -0.43195348081193813,
                    -0.5504220964846608,
                    0.41764236661747695,
                    -0.6263171217758751,
                    -0.7390779279842516,
                    -0.4917878626970903,
                    -0.7293670372840674,
                    0.6049903007026328,
                    -0.32822563696839313,
                    -0.604706420546696,
                    0.13093892675284677,
                    0.5913412941901433,
                    0.20646491842498385,
                    0.7805674866345399,
                    -0.9255654241172065,
                    -0.4379026644147786,
                    -0.6835371632536763,
                    0.597098377044073,
                    0.7788272346965793,
                    -0.6488537100730983,
                    -0.679135565037816,
                    0.9427632794965356,
                    -0.9518855144202634,
                    0.8131378768247449,
                    0.7210019398915156,
                    -0.49295507810665173,
                    -0.024604459043423354,
                    -0.16983627104928534,
                    0.6241036028638925,
                    -0.31860941166418927,
                    0.3340272528243974,
                    0.4959231561158204,
                    0.21052635746510392,
                    0.6760168195248072,
                    0.951068446455849,
                    0.8067669301034598,
                    -0.607358389700576,
                    0.8699089577687783,
                    0.41901712651742085,
                    -0.2354697071857115,
                    0.4454278164031236,
                    -0.46686403543167876,
                    -0.46077438640476676,
                    0.6242575805913831,
                    0.46233282662562736,
                    -0.9522114873351649,
                    0.36788254073231064,
                    -0.7064272772476341,
                    -0.07843581289102693,
                    0.7500622392639892,
                    0.07727526529204858,
                    -0.7553351247157084,
                    -0.6758719509522324,
                    0.33619947981912257,
                    0.9614782867871134,
                    0.20973107200552668,
                    -0.1966521014564917,
                    0.13537680346946476,
                    0.6310432607127237,
                    -0.8577201755723869,
                    0.9316100314254788,
                    -0.5747509693518031,
                    -0.43296316897911796,
                    0.1495970254733132,
                    -0.24327289436334115,
                    -0.27604298399716676,
                    -0.3900465508586456,
                    -0.001131308048256233,
                    -0.6317725761014085,
                    0.5735806208770814,
                    -0.1845775154151341,
                    -0.10145985797803568,
                    0.4877740507189229,
                    -0.47126727356741777,
                    0.38736050993966903,
                    -0.40967822130701576,
                    0.7076456207292321,
                    1.0447227034006945,
                    -0.576623893301524,
                    -0.6448016615131584,
                    0.5691001701756802,
                    0.5387104915123947,
                    0.3721693813897383,
                    -0.005167764283200106,
                    -0.695819488855513,
                    0.7525143444083029,
                    -0.41606297303757916,
                    0.13213329579962055,
                    -0.3101020324524587,
                    -0.23661356971333478,
                    0.46086301701642296,
                    0.3964518765757973,
                    -0.5310938868229336,
                    0.12728044516578424,
                    0.3413262738802893,
                    1.0977727816050304,
                    0.3602553308220458,
                    -0.4590370436535304,
                    0.10267762827265231,
                    -0.026364331890776024,
                    -0.26263292579162856,
                    0.7024646975544856,
                    -0.4574690951870774,
                    0.4775216508146736,
                    -0.17285929617984075,
                    0.7954348686753645,
                    0.45476162262206926,
                    0.057855578035738514,
                    -0.23140283565064215,
                    0.4197185729300148,
                    -1.031482449446402,
                    0.25804782081850847,
                    -0.1987796136927474,
                    0.5934622998954098,
                    -0.6658166319757924,
                    0.7573584360567115,
                    -0.43062205506300827,
                    0.09150228552019782,
                    0.6964333995409802,
                    -0.18596952889414678,
                    0.846680846464279,
                    -0.6100133704240214,
                    -0.8278249852827466,
                    -0.46409495715571486,
                    -0.7587210939220255,
                    0.18719656750474273,
                    -0.10109373604118448,
                    -0.6734482080795967,
                    0.41292039606949704,
                    -0.6814513491015213,
                    0.574750725935353,
                    0.21264600549640456,
                    -0.5578069530473343,
                    -0.4708692379468354,
                    0.40011064152794396,
                    0.016004743321322373,
                    -0.11588070924154908,
                    -0.8819437599738718,
                    0.5437122592577764,
                    -0.534822669353333,
                    0.8629816363849054,
                    0.5112977566933259,
                    -0.07850443641308602,
                    -0.16758888340120526,
                    -0.13355388243897498,
                    -0.4698694694616341,
                    -0.055364919684866266,
                    -0.37959771089539684,
                    0.9000570297090753,
                    0.1732210703526609,
                    -0.8917164651380717,
                    0.49641555371098445,
                    0.08138880420910494,
                    -0.21153960356772047,
                    0.7223606783527947,
                    -0.9321599495839749,
                    0.6638972542679833,
                    -0.5968657529033097,
                    0.9734216246897721,
                    -0.5773628117897336,
                    0.5925699144530443,
                    0.3140085691452311,
                    0.20300725109080806,
                    -0.7418765009754124,
                    -0.030836895834162693,
                    0.5294736709105307,
                    -0.00614857461726376,
                    0.10803430960308591,
                    -0.22720123008376633,
                    -0.4651891165285552,
                    0.1856741992176039,
                    -0.17069655758719232,
                    -0.3643286663341984,
                    0.27164463601117766,
                    0.9549390880518496,
                    -0.16013976335203386,
                    -0.3681718784596618,
                    -0.23774453021545652,
                    -0.7968796806225197,
                    0.34022167589670327,
                    1.2868559344119381,
                    -0.09514227314284737,
                    1.0007618629884232,
                    0.5196624265454526,
                    0.6042022674892464,
                    0.663625713711071,
                    0.5505462630146686,
                    -0.0761582391392903,
                    0.22866104960927405,
                    0.10748703168078257,
                    0.8397602340229917,
                    -0.7507900931834457,
                    0.6323404546313205,
                    -0.7856927523874825,
                    -0.2425566350569211,
                    0.09123111808640716,
                    0.6067121931690325,
                    -0.23668434681996645,
                    -0.9149483732772407,
                    0.22032394166403116,
                    -0.9986582539458494,
                    -0.7554745211892243,
                    -0.5876367880233204,
                    -0.04810240632650658,
                    -0.5095221903080976,
                    0.04488357139065344,
                    0.09598030109677337,
                    -0.6090443784702734,
                    0.8462528033692007,
                    -0.44470699299384414,
                    -0.8781081995587035,
                    0.9585073048988084,
                    0.8138714817267314,
                    1.024906524228282,
                    0.3145521670337858,
                    0.8895082975956052,
                    -0.8850642483855086,
                    0.3700551222436054,
                    -0.5239894531884094,
                    0.28828086452900203,
                    -0.45720009688729546,
                    -0.9238521871139266,
                    0.3933554323097897,
                    -0.4890812411132998,
                    -0.06517859307663303,
                    -0.7216065272040062,
                    -0.38133979613418345,
                    1.0239181466980263,
                    -0.1597150721585084,
                    0.6893500147760148,
                    0.5675206179173681,
                    -0.798963064887355,
                    0.48431506623249565,
                    0.7069678346913495,
                    -0.40118824295542044,
                    -0.569192188770993,
                    -0.04209641870438355,
                    0.9751905649450155,
                    0.009777391143906604,
                    0.9813482157774719,
                    0.7508364805034796,
                    0.5868840944182505,
                    -0.22066320506169246,
                    0.13941643187780417,
                    -0.4708783375260262,
                    -0.8420795245127698,
                    -0.2514653291999448,
                    0.7530543410142861,
                    -0.9065060321424128,
                    -0.8369838381028625,
                    0.8104004432483717,
                    0.7591315126038072,
                    0.3577157704350584,
                    -0.7213566588536796,
                    0.9622719038821544,
                    -0.14146547539648663,
                    -0.9195168446309414,
                    0.42258025816439615,
                    -0.5459557363071367,
                    0.5470592178175394,
                    -0.8466637418280002,
                    -0.29155465662956875,
                    -0.02864976569772361,
                    0.8772948784282084,
                    -0.9045167779544129,
                    -0.30618173673654075,
                    0.6361695528378928,
                    -0.8732338893716176,
                    -0.40379146494845886,
                    0.06540756401208453,
                    0.4914907517024867,
                    -0.4876923309087293,
                    0.42044966081582297,
                    -0.42578115392905785,
                    -0.4936333407042298,
                    0.7000736640831178,
                    0.6349703907822741,
                    0.2586805526666555,
                    -0.03558402748039398,
                    0.43957442030742144,
                    -0.11721354351278372,
                    -0.7134511294221191,
                    -0.815458550826922,
                    0.7556177129194355,
                    -0.3862962874023982,
                    0.812416478434209,
                    0.9993071475270792,
                    -0.26459109677153647,
                    0.597602688230353,
                    -0.47996871285469267,
                    0.10105870162812214,
                    0.6353723335770532,
                    -0.16160558254374505,
                    0.1936561721756001,
                    0.6751525506067898,
                    -0.43864469657868743,
                    0.09838029814160802,
                    -0.7705321730749675,
                    -0.9850936363012087,
                    -0.21394579247209694,
                    -0.293583752223609,
                    -0.22110597110769536,
                    0.534980298095313,
                    0.740058626762889,
                    0.7546573499400392,
                    0.3267094703482821,
                    0.16839917196503487,
                    0.30051229726098666,
                    0.2906723979508257,
                    0.11557671028800852,
                    0.4536291222941325,
                    0.762844340357772,
                    0.5600320031979681,
                    0.36736205997236393,
                    -0.7592407398958836,
                    -0.5887661490936537,
                    0.5403915574130812,
                    0.023765360685270784,
                    0.6756351430628309,
                    -0.32532456952774447,
                    -0.9001070878156228,
                    0.15100708332447518,
                    -0.8062450989772871,
                    -0.7245879962056231,
                    -0.7012053912503312,
                    0.29036053049166044,
                    0.024979052569735313,
                    0.15684938297315001,
                    0.8980269780631496,
                    0.14391907405300616,
                    0.6355368134813049,
                    -0.0007087016423975701,
                    0.4646991293605963,
                    -0.797567509576328,
                    0.3512189351404706,
                    -0.6166685045735151,
                    -0.5151613246157586,
                    0.060850510339009636,
                    -0.7739763580268547,
                    -1.0001510557215907,
                    0.9697952966003185,
                    -0.30331156403380405,
                    -0.6979431914780653,
                    -0.5250838979769894,
                    0.2599006880770216,
                    -0.10557168066709782,
                    0.2995900759883776,
                    -0.0006909593903290664,
                    -0.4232998403738785,
                    -0.2249948956695277,
                    -0.8859758017557992,
                    -0.4312118206574072,
                    0.6084414831182405,
                    -0.7258437245749491,
                    0.6968600847986626,
                    -0.7741992878081587,
                    -0.48977946691172713,
                    0.9548287580356909,
                    0.9562670150621069,
                    -0.6751763909543108,
                    -0.4136850178504513,
                    0.724526859971376,
                    -0.12382272904649154,
                    0.5904999624734553,
                    0.139799573596406,
                    0.44473958920457834,
                    -0.6290895751173147,
                    -0.450698186638886,
                    0.3105853281562136,
                    -0.11437214350032854,
                    0.8678651236350898,
                    -0.3574507279382835,
                    -0.6713935872503644,
                    -0.10317050073050005,
                    -0.5208475041064596,
                    -0.4657790698227097,
                    -0.5685796950612407,
                    -0.35591602820262663,
                    0.08922788485601267,
                    0.5809019331491038,
                    0.7340531710084962,
                    -0.3972224748694792,
                    0.12895120253427544,
                    -0.1287518866210306,
                    0.14900814527893208,
                    0.86616377229512,
                    -0.8567408436666685,
                    -0.6562653945194057,
                    0.4611834215144139,
                    -0.4232400129703971,
                    -0.24335782342403087,
                    -0.05693505919603221,
                    0.27689983399705076,
                    0.9452424840818495,
                    0.09138673304086825,
                    0.8406714181561917,
                    -1.0187915301876218,
                    -0.4486503204857265,
                    0.5599911382708153,
                    0.7450493110376281,
                    -0.29475100514224417,
                    0.5882639107714405,
                    0.5947303480362739,
                    -0.6393551159197584,
                    -0.04450633353236259,
                    -0.24921761835916814,
                    0.5373939208852045,
                    0.263985302038355,
                    -0.6986976775884445,
                    -0.44915127395835375,
                    0.13273085370565688,
                    -0.029627017493162086,
                    0.2868888993308959,
                    -0.12473175405152859,
                    0.6603169744593389,
                    -0.5547061261147195,
                    0.8511231906931725,
                    -0.828990396141289,
                    -0.11686642874869638,
                    0.370599461317279,
                    -0.6159682909173307,
                    -0.8422944819718662,
                    -0.6062943275817713,
                    -0.7292872689511244,
                    0.3724426681198941,
                    -0.3684231000174951,
                    -1.1006632538935992,
                    -0.584532057499424,
                    0.3401023893718734,
                    0.7925688614358417,
                    -0.5083692588851959,
                    0.11187737405259537,
                    -0.5421685338112153,
                    0.6084350196387682,
                    0.7804196317220969,
                    0.2228267808869763,
                    0.44819179346634014,
                    0.09338267578120701,
                    0.5539875238655972,
                    -0.364328326515059,
                    -0.3055273289303505,
                    0.8500279136331768,
                    -0.7609196899608275,
                    -0.009538769190971212,
                    0.2603081559780473,
                    0.41944637540161656,
                    -0.5509257450170604,
                    0.011478280039783111,
                    0.8983289082546168,
                    0.8538666125506724,
                    -0.8955718879915381,
                    0.583319084700336,
                    -0.8392008261911347,
                    -0.3316079021781594,
                    0.5122352890094285,
                    -0.03134369408639756,
                    -0.5320397989070828,
                    -0.9530678305333112,
                    -0.7642719551322544,
                    0.3485100309594202,
                    0.18037926745856625,
                    -0.2371583789037513,
                    0.7347386055557616,
                    -0.08833715797839276,
                    0.8792454855687066,
                    0.8248759397029438,
                    -0.708344566115395,
                    -0.02356177815714929,
                    -0.27405393095755753,
                    -0.03970819120413905,
                    -0.045523261056246614,
                    -0.17591908746469084,
                    -0.4335638407002679,
                    -0.67924799444455,
                    0.008748665038267234,
                    -0.14264009946068734,
                    0.3423500796179549,
                    0.09832822989040416,
                    0.9172259219601542,
                    0.7104272703613513,
                    0.8058937187421286,
                    -0.6101947220231576,
                    0.5837067785630171,
                    -0.738587399563872,
                    0.3250461492965991,
                    -0.21660115000404923,
                    -0.04234028115305315,
                    -0.7034448339398145,
                    -0.43096755905771844,
                    -0.07768376855652556,
                    0.9217652773122599,
                    -0.8886618241678502,
                    -0.28844672663372917,
                    -0.1933157151377279,
                    -0.09246166745129676,
                    0.772827834136814,
                    0.20301420791091143,
                    -0.7096978182099125,
                    -0.6688795832609796,
                    -0.747725119884458,
                    0.1667570032202447,
                    0.6247811094164778,
                    0.051143016202382,
                    0.856869528032753,
                    -0.4963955883471671,
                    -0.7165682929902087,
                    -0.9494785738554501,
                    -0.639531775999008,
                    -0.4958963016131764,
                    0.4402842461156342,
                    0.36734820889567316,
                    0.515977236259677,
                    0.7733976172430772,
                    0.6815043757703617,
                    0.8665687940019479,
                    -0.413901080124559,
                    -0.8642730980280565,
                    0.5470021042006183,
                    0.6223004668640243,
                    -0.04532279453853193,
                    -0.8945446436029102,
                    -0.7800632497494543,
                    0.1933339910368097,
                    -0.8776583287825205,
                    -0.016883112914589184,
                    0.4414721496109358,
                    0.3932025380266327,
                    -0.8228713540778,
                    0.9234506703315754,
                    0.726216713302703,
                    -0.7223195056625831,
                    0.48659453083624576,
                    -0.8175025830363823,
                    -0.4934009228561321,
                    0.8254741580500929,
                    -0.6548568370108976,
                    0.5115497103493032,
                    0.7896647798998151,
                    0.8679102168400219,
                    -0.4684118193509905,
                    -0.6796070751172312,
                    -0.608297365175383,
                    -0.39098227692415277,
                    0.9347194702229076,
                    -0.9418330742746069,
                    -0.0952556104900313,
                    0.6338023833924172,
                    0.04108127099335104,
                    0.17038079032027767,
                    0.23502225121800124,
                    0.14920832771865594,
                    -0.3290010074944139,
                    0.04194098640893968,
                    -0.7912033802942773,
                    0.7429961255838403,
                    -0.45870075884956546,
                    -0.8575204101994175,
                    0.0055298498529058665,
                    -0.6167470160512059,
                    -0.1553456403963715,
                    -0.23339959297339977,
                    0.626277684575712,
                    0.11344308603175358,
                    -0.769635929234541,
                    -0.6147554100485377,
                    0.22359855947579355,
                    -0.3162387762595132,
                    0.3236695971334647,
                    0.9889090498352735,
                    -0.1514211959379873,
                    -0.5787467080703927,
                    -0.0968846517959332,
                    0.4562359999622047,
                    0.023083817243527274,
                    -0.6896024875460263,
                    0.719365650208456,
                    0.6778763902619488,
                    0.9236962195725286,
                    -0.9923434238318739,
                    0.2997822126338783,
                    0.8521505957995341,
                    -0.37116000526204107,
                    0.5406993349546311,
                    -0.6268482775764973,
                    0.5510113190866646,
                    -0.7422234870864046,
                    -0.5644696839562694,
                    -0.1953181322892124,
                    -0.5985952680711148,
                    -0.5310758623960427,
                    -0.001676233862567216,
                    -0.6670887416320509,
                    0.5747256231532906,
                    -0.6784486137683309,
                    -0.9580229098737653,
                    -0.556408793237158,
                    0.7920738804944258,
                    0.7752641918106783,
                    -0.734994706796856,
                    -0.4367486011235226,
                    0.5387773626592076,
                    -0.8888375992138567,
                    0.7575713202432847,
                    0.9557090670068665,
                    0.4892560561656792,
                    0.7415440331158284,
                    -0.51808582040506,
                    0.11524050799790125,
                    0.3207429864887863,
                    0.4930576204002436,
                    0.8416352734035464,
                    0.12610088327173388,
                    -0.012974405970020421,
                    0.7006714009513126,
                    -0.4420453217940865,
                    0.3628999235164216,
                    0.5690880250506684,
                    -0.7165920469623953,
                    -0.7722809470163756,
                    0.38223710083075274,
                    -0.36219151770672525,
                    0.30857050271790437,
                    0.5156922991098978,
                    0.9559805674654285,
                    0.3258703008846989,
                    0.8239496841946096,
                    -0.01714527839904955,
                    0.6854627195031513,
                    0.9818135106037398,
                    -0.4280512307058355,
                    0.2041227899942534,
                    -0.23381315172122916,
                    -0.8096104284360798,
                    -0.40567216967044356,
                    0.3627322658614894,
                    -0.6219626307985484,
                    -0.6549836537050383,
                    -0.6822512955576935,
                    -0.674006010818082,
                    0.8778725828893752,
                    -0.0940649868550246,
                    -0.16269003439470334,
                    0.03696050821586104,
                    0.6809120718547382,
                    0.02802293234437993,
                    0.6472703429032468,
                    0.9101976711856375,
                    0.02905006210270234,
                    -0.0651193972127152,
                    0.5644471146100004,
                    -0.10434367179720129,
                    0.805718139458428,
                    -0.052198792520846825,
                    -0.030195677291562906,
                    0.689512272819781,
                    0.1308270515940812,
                    0.45180169613403776,
                    0.36011702758877556,
                    -0.036682614565907094,
                    -0.26136405009577224,
                    -0.36530740192114386,
                    -0.6818539494213955,
                    -0.5147143982721114,
                    0.22313500200462263,
                    0.2726980104124372,
                    -0.1595096402945037,
                    0.5543525656563809,
                    -0.4500333286285881,
                    0.4846047817415889,
                    0.08652260401832043,
                    -0.4008534136837879,
                    0.19047541857057637,
                    0.7167010177055889,
                    0.8635421779927,
                    0.8183739270604219,
                    0.04767330585083392,
                    0.5237842328568142,
                    -0.6947285291764195,
                    -0.6176839240707834,
                    0.9576617796648139,
                    0.9380183231560214,
                    0.3353430120401001,
                    0.7874668175238723,
                    0.4083634228336524,
                    0.6843006562482568,
                    -0.0078054405423145495,
                    -0.9553575871673493,
                    0.2896747173962592,
                    -0.6512421717572329,
                    -0.2746985513397571,
                    0.7370137319710789,
                    -0.8957792019638066,
                    0.2693080984594952,
                    0.7166349795723084,
                    -0.6370790034361279,
                    0.05074108846566485,
                    0.9781858416872747,
                    -0.4904412642210043,
                    0.7071202967647885,
                    -0.467402954595783,
                    -0.13919315673430896,
                    -0.9080046674955196,
                    -0.13910080799545452,
                    -0.1783208499292453,
                    -0.9009658506514603,
                    -0.3970696730143355,
                    -0.4004288669589208,
                    -0.09983464987202445,
                    -0.7357120573043449,
                    0.8104641081775928,
                    -0.07437317510467106,
                    -0.3792471955169057,
                    -0.6321626966427962,
                    0.8791893344050911,
                    0.3208038156863266,
                    -0.583860201308386,
                    -0.6524272673640672,
                    0.11256398495018918,
                    0.7537870770669035,
                    -0.18994161131859705,
                    -0.12128265736433828,
                    0.7616590044540821,
                    0.17931424612561098,
                    0.032832241812334274,
                    0.008268734776697567,
                    -0.2299784172597729,
                    -0.756965355196796,
                    0.7090062087399672,
                    -0.3464739205094962,
                    -0.1535529343963308,
                    -0.711861682610443,
                    -0.8040568162205216,
                    0.49100741280288845,
                    0.28343874829866833,
                    -0.5264868383540626,
                    1.0293166660059307,
                    0.3199908380091844,
                    0.9141055239254666,
                    0.3410316694008448,
                    -0.6259413510780506,
                    -0.011338827077416095,
                    0.37083984346281706,
                    0.38177569455338595,
                    -0.02469268057900526,
                    -0.2193647734031098,
                    0.1540650019486446,
                    -0.2749027397602143,
                    -0.01166226808233044,
                    1.0636643421150733,
                    0.9686549891458186,
                    -0.7184655452772117,
                    -0.5855992393358672,
                    0.239593548985608,
                    -0.09061948124792549,
                    0.29157115044563153,
                    -0.48669242762880166,
                    -0.4397177713720254,
                    -0.14560550457872926,
                    0.8691955943987334,
                    0.5362611563751322,
                    0.8728402864326518,
                    -0.2865520927284677,
                    -0.8321310072478589,
                    -0.5424484788064179,
                    0.5968964318595581,
                    -0.9307390997914227,
                    -0.6807341110447671,
                    -0.6883351681456904,
                    0.9235595421525121,
                    0.15870824849609247,
                    -0.7046718145583964,
                    0.9027928236842253,
                    0.500438548440632,
                    -0.05693631681148545,
                    -0.8557696230574612,
                    0.8089638431252463,
                    -0.5165420727337595,
                    0.3550736355078843,
                    -0.6657401647851725,
                    -0.2068646062483585,
                    -0.454778759779744,
                    -0.052118687998249334,
                    -0.3983226349089246,
                    -0.023110123551332924,
                    0.30608802719681866,
                    -0.7418408732194492,
                    0.4446661197210237,
                    -0.5356631572971363,
                    -0.01009269696620388,
                    -0.15925707191240676,
                    0.01134415626805417,
                    -0.97656688845376,
                    -0.8664595861475325,
                    0.841182225483512,
                    0.6234143655539138,
                    -0.5341400056576624,
                    -0.28949228501266056,
                    -0.21317677033152851,
                    0.8209831752967721,
                    -0.4366543044435853,
                    -0.24346727244254254,
                    0.5776404283576931,
                    -0.06946941547808168,
                    -0.22292838440468007,
                    0.7748949447336617,
                    -0.4203629698318649,
                    -0.6679459509946515,
                    0.5693464867076012,
                    -0.3910799709264251,
                    0.27057562000478597,
                    0.6107814534640388,
                    -0.5749307682200399,
                    -0.7726743413151194,
                    -0.4979443275491761,
                    -0.23668414289269804,
                    -0.9794716898790149,
                    0.8622582922723014,
                    -0.7577150636731824,
                    -0.33445526995489677,
                    -0.44037756330610106,
                    -0.03167474573759299,
                    0.13316681581891823,
                    -0.21804922057521395,
                    -0.32671589638966864,
                    -0.9930979086554437,
                    0.4710761155679982,
                    0.058867650340263596,
                    -0.8360842621591047,
                    -0.19620534254621216,
                    0.508317112179341,
                    -0.116145588249621,
                    0.8594292635295278,
                    0.11031090090223494,
                    -0.18700880199396272,
                    -0.7812467388879384,
                    -0.05474757089607389,
                    0.09664647210983472,
                    0.8310239583229445,
                    0.8519687666773791,
                    0.16023106066896198,
                    -0.044153875287820256,
                    -0.03769451137571535,
                    0.9176677038808095,
                    0.7562284798078566,
                    0.5870317607346764,
                    -0.33176368191644146,
                    0.5464523254629978,
                    0.4797115288391144,
                    -1.015508295577382,
                    -0.6383384899071524,
                    0.9573057375499053,
                    -0.9400526996558526,
                    0.9279962199582048,
                    -0.6758853612166315,
                    -0.6304271802750658,
                    -0.33307242928063924,
                    -0.8320169188212833,
                    0.8801759984110465,
                    0.603472898790264,
                    -0.3048756138767157,
                    0.4436244940517699,
                    0.7212843785039768,
                    0.11193932554448305,
                    -0.5369327693429568,
                    -0.8414014399052856,
                    0.8768259307029675,
                    0.4532633665831324,
                    0.7109826074013984,
                    0.7364715314334368,
                    0.44813990008797855,
                    -0.22130566246804972,
                    0.05964236343770509,
                    -0.35718052941345535,
                    -0.808917435579485,
                    -0.6257972544430258,
                    -0.522141947143473,
                    -0.04123396769429876,
                    0.24795297430896937,
                    0.2155798090132074,
                    0.1820753722619389,
                    0.8887435832548672,
                    0.9305783684454549,
                    0.8447626891753374,
                    0.6230428853542683,
                    0.025345395245029316,
                    0.07504462216589573,
                    -0.8153530805660321,
                    -0.2754847835340288,
                    -0.0985908515862508,
                    0.37678732548114086,
                    0.7276432189515792,
                    0.2149332467621371,
                    0.9742371014114353,
                    0.29474512375916334,
                    0.757777502580879,
                    -0.27262167706334073,
                    -0.3036069674349335,
                    0.894679940963453,
                    0.3344349896835126,
                    0.4309720613496289,
                    -0.8084476184611821,
                    0.09603094157750554,
                    0.837940194887655,
                    0.18168078810424448,
                    -0.04542266974769842,
                    -0.09664681980777276,
                    -0.8875991225916652,
                    0.9536281160515275,
                    -0.4345302367622914,
                    -0.11235033439327974,
                    -0.9136995163604875,
                    -0.5379840234639843,
                    0.10492549608055543,
                    0.42103657546794376,
                    -0.2263849551480826,
                    -0.2039533514977956,
                    -0.6892764707315532,
                    -0.9170876344455221,
                    -0.9356091654961246,
