{
    "networkId": "network-3",
    "status": "inactive",
    "activeCard": false,
    "layers": {
        "layer-1": {
            "errors": [],
            "layerConfig": {
                "inputSize": "3000",
                "outputSize": "1",
                "activation": "sigmoid",
                "type": "recurrent"
            },
            "layerName": "Recurrent Layer",
            "valid": true
        }
    },
    "valid": true,
    "inputSize": "3000",
    "outputSize": 1,
    "network": {
        "0": {
            "input_size": 3000,
            "output_size": 1,
            "weights": [
                [
                    -0.02855186228418269,
                    0.6123826330186031,
                    -0.27301673566281787,
                    0.09611429749774526,
                    -0.48421190321060287,
                    -0.27895439634937036,
                    -0.6350410731039684,
                    0.14684113650647346,
                    -0.11448504368303405,
                    0.628459332793297,
                    -0.8357606806724003,
                    -0.2216335003193337,
                    0.4222187781430476,
                    -0.4487124425536211,
                    0.07809336531645768,
                    0.40201418893340274,
                    -0.7496578684354418,
                    0.2647496678236472,
                    -0.8356478295891554,
                    -0.09952661662893819,
                    -0.05566408600839119,
                    -1.1089195981516742,
                    -0.7236340281156258,
                    0.40337429935439656,
                    -0.20881919056141526,
                    0.2931630696286587,
                    0.04493102457367404,
                    0.17684279265073707,
                    -0.987675344591505,
                    -0.533180024522835,
                    -0.527437424796323,
                    -1.0211319427631609,
                    0.19311664518806346,
                    -0.38902267365013865,
                    0.46785495370944435,
                    0.6345821584027161,
                    -1.1215082937680636,
                    -0.08426596257232379,
                    0.05505596101716163,
                    -0.30189539413820443,
                    0.7187747415906254,
                    -0.5269471502927252,
                    0.021655757082064686,
                    -0.3608924861942689,
                    -0.42289592186622627,
                    0.34830259885282305,
                    0.4212883928654933,
                    -0.32747735395087274,
                    0.6964765264191631,
                    0.5420159140501325,
                    0.00014833005051304555,
                    0.1749783127603521,
                    -1.2686791384330207,
                    0.15106244021256732,
                    -0.31637960970182827,
                    0.14278130310920817,
                    -0.32328364610051047,
                    -0.4939920649022305,
                    0.07366720948116048,
                    -1.0022411419422026,
                    -0.2954958752918356,
                    0.5005224426621803,
                    0.6557329382998639,
                    0.14096933368996256,
                    0.5038011739133,
                    -0.3021339385024421,
                    0.04059496201689176,
                    0.7917919383175764,
                    -1.302384537779985,
                    -0.28274558056020666,
                    -0.6446148234850672,
                    0.7301735253843887,
                    -0.7302219314012729,
                    -0.38068237509979536,
                    -1.024074742902222,
                    -0.49196850662220803,
                    0.6405159720854671,
                    -0.05928921687683656,
                    -0.39640920937805635,
                    -0.11019491839548608,
                    -0.9282387020098779,
                    0.3658151855390148,
                    1.015706554669092,
                    -0.6186218233059336,
                    -0.6561653230339051,
                    -0.796198874448614,
                    0.012880210387387537,
                    0.22905764613296375,
                    0.7903807332462858,
                    0.04031958324031504,
                    0.4417659610516291,
                    0.518767209832611,
                    -0.06892567376555603,
                    0.32468292405220456,
                    -0.5329039855107542,
                    -0.566092638690462,
                    -0.2798713334684812,
                    0.5151190012397414,
                    -0.981825989265467,
                    0.8098508075512074,
                    -0.4071964171471649,
                    0.4255850946211397,
                    -0.5129274042152281,
                    0.18811234487113296,
                    -1.1171374958940117,
                    0.4250564262867892,
                    0.5825415158974679,
                    -1.376064435475553,
                    0.16085744247577508,
                    -0.510177133099203,
                    0.5899053648591788,
                    -0.054439110893456516,
                    0.6280423227564101,
                    -0.07175552314374925,
                    0.18087973492426396,
                    -1.1014583622111918,
                    -0.9505780506479662,
                    0.46910553146952133,
                    0.3991893752156226,
                    -0.737922451883501,
                    -0.14267073505711192,
                    -0.9824884049046857,
                    0.11065730400536294,
                    0.9160050539813244,
                    -0.7972244143122811,
                    0.16226618892801103,
                    0.4885498233634148,
                    0.5135977199895834,
                    -0.18113541323307653,
                    0.33838357106985145,
                    0.3058726005531286,
                    -1.0790927553548095,
                    -0.5485676875203326,
                    -0.16687847277276013,
                    0.42421226104237136,
                    -0.2098609230389861,
                    0.539379891448641,
                    0.07005364822198776,
                    0.5216959912443411,
                    -0.305765992119773,
                    -0.0962389739682276,
                    0.38514338192171355,
                    0.31313023531420303,
                    -0.5966216135099225,
                    -0.3560607498819677,
                    -0.38535188025397704,
                    -0.014540941232601879,
                    -1.021328318941692,
                    -0.2708502830268674,
                    -0.7608494536350027,
                    0.1256241554384998,
                    0.5243612311283098,
                    -0.16389378789409384,
                    0.8348120028969178,
                    -0.46804783090964075,
                    0.29284557029209446,
                    0.14717859967132824,
                    -0.6218584726517968,
                    0.02584279885354726,
                    -0.0010808458083980696,
                    -0.8190834061855707,
                    0.15928745402198416,
                    0.24890419797299326,
                    0.35053702315503865,
                    -0.5681806636610344,
                    -0.8710683521794143,
                    -1.3064448581493042,
                    -0.22633744715859086,
                    0.8470009431441642,
                    0.0004342852039451203,
                    -0.06848913074856217,
                    0.30137288233999227,
                    -0.1681685218425086,
                    0.14125617655628717,
                    -0.07554441817241268,
                    0.8610662227190136,
                    -0.6292994785869684,
                    -0.7456966026454974,
                    0.03753507096599808,
                    0.8377735675686178,
                    0.7104007580240723,
                    0.7446641951983595,
                    -0.439166234787953,
                    0.51803305321012,
                    -0.4097722825370401,
                    -0.4024870743937662,
                    0.36229929446326287,
                    0.8589305705086929,
                    -0.5970723886220197,
                    -0.9028413207610915,
                    0.7086405342973013,
                    0.10522786495530675,
                    -0.6768879985669018,
                    -0.7702430708628959,
                    -0.689040547871977,
                    -0.8456684079421571,
                    0.7495488131416036,
                    0.7339903948841877,
                    -0.7756100173897469,
                    0.7491901290496504,
                    -0.8896609131570132,
                    -0.3417030092346855,
                    -0.8090935387874536,
                    0.47640297905180584,
                    -0.39587267196976555,
                    -0.061112130990721825,
                    0.16887483839090767,
                    -0.5507744162079496,
                    -0.4907291312841143,
                    -0.08115271156593051,
                    0.8819627082132202,
                    -0.428082070259351,
                    0.7637740597063213,
                    -0.4383851051574601,
                    0.18105840443152266,
                    0.48772155094711045,
                    -0.20144041894828524,
                    -0.04903403826364025,
                    -0.1855182704841841,
                    -0.24144633162625714,
                    0.7185622770009362,
                    -0.30671144161779146,
                    -0.7273735331034282,
                    0.7937975461050545,
                    -0.5723867722727376,
                    0.4464075746038956,
                    -0.9272220773181746,
                    0.5289229034364622,
                    -0.5928555428874648,
                    -0.7955402402261496,
                    -0.31242815642451194,
                    0.23464939083840233,
                    -0.58912206493309,
                    0.6651057281047983,
                    0.09919945846950147,
                    0.18321323497635958,
                    0.11776075975091041,
                    0.23986923755233727,
                    0.9267301151493388,
                    0.14929354074360957,
                    -0.5753671821570949,
                    0.5301509830043007,
                    -0.2849649294385866,
                    0.6706855768745571,
                    -0.6366430883929936,
                    -0.5029552255726111,
                    -0.5569772920802877,
                    0.034353966406143646,
                    -0.10426607618322294,
                    0.5667768683579117,
                    0.21544243565561916,
                    -0.42892163908227243,
                    -0.27715855662665184,
                    0.7333008586473028,
                    0.5373411404788806,
                    -0.600982508238068,
                    -0.6191980972046405,
                    -0.4787433483417312,
                    0.19234313769454978,
                    0.18373118887466777,
                    0.9433439084010398,
                    0.2933386163510063,
                    0.5737164498666073,
                    -0.32939719201228645,
                    0.280284167636519,
                    -0.6280773809147003,
                    0.6000509395889174,
                    0.08797191224903636,
                    0.8634079793138646,
                    0.2338446669570913,
                    0.35679408630757936,
                    0.6315135666390739,
                    -0.8210855047040674,
                    0.2594728804473698,
                    0.38501930509708165,
                    -0.07095947086280073,
                    -0.9661607853022092,
                    -0.022756967519962562,
                    -0.6893803241269096,
                    -0.38225764850152744,
                    -0.5728185021604707,
                    -0.8276159306529882,
                    -0.8103868630770039,
                    0.6562421593671135,
                    0.10747405436661879,
                    0.14373295339152053,
                    -0.11218751273307374,
                    0.3634428094551962,
                    0.007885673249521224,
                    0.41128402737807995,
                    -0.42152459174382784,
                    -0.6710773276233127,
                    0.1858860283184887,
                    0.14960980183944594,
                    -0.012802806492479024,
                    -0.47411617078900326,
                    -0.6278824674992987,
                    -0.08158469200492144,
                    -0.3029382465787419,
                    0.4405028448895517,
                    -0.540721387675474,
                    -0.2658798996992073,
                    -0.19746866957255302,
                    -0.4714877062198393,
                    -1.0088020724423359,
                    0.25555462928683026,
                    -0.3024807908572357,
                    0.7654626579459181,
                    -0.9777380112747294,
                    -0.10330665866202085,
                    0.5115142933835226,
                    0.0007190085689102213,
                    -0.03540112377654531,
                    -0.35283800259704917,
                    -0.5880072164574317,
                    -0.3263081210598308,
                    1.108074736027392,
                    -1.1624710670902239,
                    -0.8914918425281867,
                    -0.8986099658009031,
                    0.41835798412498687,
                    0.4798874055734845,
                    -0.5113716244742732,
                    0.7745131618655489,
                    -1.0363444894484772,
                    0.6751735030217105,
                    -0.2534782636940309,
                    -0.7232199494636422,
                    0.8781730360227747,
                    -0.6616908193974543,
                    0.07342528896647449,
                    0.585400669916631,
                    -0.28765760750931235,
                    0.4239665329332752,
                    -0.9750562060382194,
                    -0.5451769181328565,
                    0.7416918493840238,
                    0.07368082485099227,
                    -0.9837813889566804,
                    0.30906584280504823,
                    0.25584351334766875,
                    -0.7593722660268986,
                    -0.3713044436694038,
                    -0.49247914343948157,
                    -0.8639327089107958,
                    0.9943314849145464,
                    -0.7034318222081427,
                    -0.1805386897097648,
                    0.6208431027625301,
                    0.6766780159718149,
                    -0.005225805456810189,
                    0.19824752304811114,
                    0.05933564540583998,
                    -1.025211624533533,
                    -0.2648852720954445,
                    0.6400304889120934,
                    -0.7121181690409889,
                    0.49673300858285313,
                    0.8096803583936649,
                    -0.2509113484890822,
                    0.12842839138832782,
                    -0.9343869292515872,
                    -0.9111124754295092,
                    -0.5476910887919954,
                    0.45200237338208,
                    0.8989590817568147,
                    -0.48035609153609676,
                    0.6404885109377678,
                    -0.13440712318199452,
                    -0.39359947293290076,
                    -0.6263837696925916,
                    -0.6786928052068143,
                    -0.03700951581357614,
                    -0.46185166548965345,
                    -0.605037971990127,
                    -0.1777556258796288,
                    0.23663355508600836,
                    -0.9793607044645822,
                    -0.434007670116036,
                    -0.5757385529472162,
                    -0.7094026063092584,
                    0.42321197038322916,
                    0.5928690546615676,
                    -0.21653173577453735,
                    0.17164628912980348,
                    -0.9923683424743669,
                    0.5460072409505758,
                    0.7764016825075513,
                    -0.7171536649293663,
                    0.1004880885957551,
                    -1.0109837524768899,
                    0.3982722094640199,
                    0.660750789279592,
                    -0.12018032724142742,
                    -0.050538959327313615,
                    -0.756219307180534,
                    0.7269505246600624,
                    0.1458229381769343,
                    0.33985148832092466,
                    0.3982303668886086,
                    -0.6654288567553134,
                    -0.8056332724431694,
                    0.3708981892223148,
                    -0.8307327253369851,
                    0.3102390029176221,
                    0.3921975639133111,
                    -0.5115793416789916,
                    0.2210909824592806,
                    -0.14769719062754294,
                    -0.30288615569312227,
                    0.44036278392827594,
                    -0.6582961877354375,
                    0.8628266185358544,
                    0.7146309605021786,
                    -0.5244462717831718,
                    0.7845750769800234,
                    -0.2886056398338404,
                    -0.20485228875636224,
                    0.06952804730365961,
                    -0.7674963037057339,
                    0.5283978057351485,
                    0.614327003449127,
                    -0.21731715391372472,
                    0.4138823085307653,
                    -0.9913677969320784,
                    -0.8582827688697983,
                    0.2622636274888943,
                    -0.5208745822042183,
                    0.43281726092142003,
                    -0.6211521102362674,
                    -0.4383265133756553,
                    -0.212429640491871,
                    -0.3270245555974137,
                    -0.1264247801245104,
                    -0.40503692359252513,
                    -0.2633314891480327,
                    0.5117651677664637,
                    -0.020900772202459672,
                    -0.5412788859952425,
                    -0.6581516853948892,
                    0.3192328328856911,
                    -0.35983222364496614,
                    0.4627325767724152,
                    -0.5969790923924453,
                    -0.21698558679650498,
                    0.7551804810219187,
                    0.19348280635099738,
                    -0.47436230371522387,
                    0.9658206873839813,
                    0.10409886627125431,
                    -0.21537708005307082,
                    -0.3354270832908985,
                    -0.4541957405878068,
                    -0.0628817976738657,
                    0.04132578278573483,
                    0.39728819016996325,
                    0.21050855356076711,
                    0.813391168096096,
                    -0.12921908164286525,
                    -0.8652397869212726,
                    0.5734920952267927,
                    -0.8572491904165853,
                    0.2652644324321314,
                    0.9041593083484827,
                    0.046499187844013516,
                    0.24648759306136916,
                    -0.8421752773668061,
                    -0.9771915638293484,
                    -0.3385062195181086,
                    0.45788444663944194,
                    0.6125181990978265,
                    0.8002417112922171,
                    0.6333295978214251,
                    0.46735675093078405,
                    -0.4882415809501583,
                    0.4330405059308917,
                    0.24226436548267283,
                    -0.8828663942391228,
                    -0.48966593349597515,
                    0.41084144766942093,
                    -0.10748872278922877,
                    -0.32044526002690993,
                    -0.29416357750304356,
                    0.44959470859592027,
                    0.6037748833594818,
                    -0.47311526803085385,
                    -0.7819379053671627,
                    -0.7315163302997172,
                    0.42343981251272433,
                    0.6548939833544251,
                    -0.7678213252487087,
                    0.9037907024961952,
                    -0.58321146440462,
                    0.5501017284893496,
                    -0.2703212723413079,
                    -0.8646753805837106,
                    0.6757265209078757,
                    -0.39058807253774086,
                    -0.2056477241707316,
                    0.17979093906491986,
                    -0.9865885801377521,
                    -0.5962103192285539,
                    0.8507971182051491,
                    0.5361347784093518,
                    -0.7163560843398219,
                    -0.1526024021974899,
                    -0.9245643114243934,
                    -0.6307992803205629,
                    -0.13924520093877338,
                    0.7439501722212443,
                    -0.4526446650779023,
                    -0.15425789220605426,
                    0.1535560104466006,
                    -0.31651621054530354,
                    -0.07453585692573739,
                    0.2211808338853112,
                    0.4723528640267405,
                    -0.4673316128457487,
                    -0.3985248434126847,
                    -0.9925330315073757,
                    -0.02370303102676758,
                    0.9593073561328428,
                    0.346618118814241,
                    -0.08976259750744892,
                    0.8266650019339448,
                    0.2849370508847201,
                    0.35977097070877023,
                    0.6073218363163665,
                    -0.741392018716813,
                    0.5757119197237,
                    -0.4021525572272207,
                    0.46566287553252983,
                    0.5074778182792608,
                    -0.3817649585657836,
                    -0.3420113234891946,
                    -0.7182769521203973,
                    -0.04739481854631326,
                    -0.36185351271646493,
                    0.5015477457431312,
                    1.0460560206021057,
                    0.42627374661707873,
                    -0.044309093538167976,
                    -0.2407587976207839,
                    0.22581375887119956,
                    0.8249824909826105,
                    -0.9506511309336999,
                    -0.5989471075200201,
                    -0.7667966398393282,
                    0.30854444430504363,
                    0.6191506707128578,
                    0.30374700186741904,
                    -0.6823579743292028,
                    -0.3685901322382613,
                    0.06313911523383108,
                    -1.0113424267759668,
                    -0.8090524990770592,
                    -0.8166556179408673,
                    0.6736811430723588,
                    0.8459329098769552,
                    -0.25683569078705654,
                    -0.4260183629685725,
                    -0.3741840100741933,
                    0.6039228086220767,
                    -0.6265521237791102,
                    -0.5850533651527181,
                    0.016336178684711253,
                    -0.3339237231010292,
                    0.5836432274527071,
                    -0.021177730426537568,
                    -0.6224690481257259,
                    0.6030782094194896,
                    -0.8113933462684244,
                    -0.6382447858180336,
                    -0.9233448473618965,
                    0.6007180811439486,
                    -0.8104540063642984,
                    -0.3484510254877138,
                    0.5438183921439135,
                    0.7475377149375789,
                    0.4543717306127656,
                    -0.37481084373887585,
                    0.2890910645900405,
                    -0.5452884508865519,
                    -0.8321373491331382,
                    0.3541968387235883,
                    -0.45351930699618315,
                    -0.38501984449583393,
                    0.8183815140258793,
                    -1.02144390854148,
                    -0.6580119147746658,
                    0.1680552050211899,
                    0.08440852740939829,
                    0.036156535460981604,
                    0.2637640953769165,
                    0.8391198685500743,
                    -0.9219643166561297,
                    -0.37232905181200265,
                    0.49454299621595765,
                    -0.4103355545230154,
                    0.03265330543232976,
                    0.9661456716954802,
                    -0.72916553007135,
                    0.6799091154612011,
                    -0.7233712749121384,
                    -0.19447635323083903,
                    -0.8942569851996546,
                    -0.9813959385809373,
                    -0.0054337388554164395,
                    -0.6920476593724597,
                    -0.5705607082518075,
                    1.1415159908468886,
                    0.034422230904867644,
                    0.9056509771987095,
                    -0.07426259258251369,
                    0.5585448605661596,
                    0.8419985938110297,
                    -0.5005161055911775,
                    -0.5731651643324526,
                    0.025575874244854448,
                    0.8908189893939955,
                    -0.8953977925744182,
                    -0.3347334886367744,
                    0.1487029658153969,
                    -0.4560536561804468,
                    0.5472423285084119,
                    0.9852689418770909,
                    -0.8138581053583861,
                    0.6842383360328765,
                    0.7983193794676052,
                    -0.6532784634755999,
                    0.21227827030099947,
                    0.1694003893212747,
                    -0.0875008916583479,
                    -0.7650729648377924,
                    -0.26598967774286447,
                    0.038388380634383004,
                    -0.19553598690224946,
                    0.4027119901861211,
                    -0.06967657399236073,
                    -0.07800973556825325,
                    0.2915908917704914,
                    -0.8303417782501012,
                    0.07842500692413264,
                    -0.06431850581026993,
                    0.3140558042764474,
                    -0.21820026638742407,
                    0.017061239245462396,
                    1.0287978241571916,
                    -0.8876375876246434,
                    -0.7551083160045258,
                    -0.3277527277218043,
                    -0.2707761468929895,
                    -0.8227496768117277,
                    -0.5600616290480892,
                    0.28567388117996456,
                    0.39014396730263423,
                    0.8269374064854214,
                    0.5494596262595631,
                    -0.5185612586831583,
                    -0.3867564682245487,
                    -0.5184159580455913,
                    0.7228279652421894,
                    -1.0021898719097626,
                    0.6067780673753068,
                    0.4685339337165115,
                    -0.6519584549443134,
                    -1.016381354040249,
                    -0.44438435541645455,
                    -0.5472344901542567,
                    0.06275774220924288,
                    -0.7326708060581373,
                    0.6444298221132402,
                    -0.2538811674627712,
                    0.1510210543044639,
                    0.6285304014892766,
                    -0.4681776836514834,
                    -0.31393734203688445,
                    -0.6146209671121204,
                    0.4148872439173868,
                    0.2724980665938661,
                    0.09923765851025593,
                    0.250897839527085,
                    -0.040455856319983524,
                    0.06474607008516263,
                    0.6361181446859996,
                    0.46592861458403506,
                    -0.6206400214723378,
                    -0.6111851575639583,
                    0.3205675796535467,
                    -0.7051985526319697,
                    -0.0753671400667932,
                    0.3868439791338692,
                    -0.2742543029588216,
                    0.7412022132014935,
                    -0.20165936443101767,
                    0.5143672210827819,
                    -0.5667019665207458,
                    -0.2799257253561386,
                    0.20500324159471064,
                    0.26065719974950563,
                    -0.26009215247686024,
                    -0.9942680441293241,
                    0.7272256430923243,
                    1.0855417116599844,
                    -0.5556809501593397,
                    -0.48717554084654324,
                    0.7645191821042797,
                    0.2866621502898517,
                    0.24829806206818886,
                    -0.11552172908593283,
                    0.29644968164231367,
                    0.2767982229902512,
                    0.6353023986579173,
                    -0.3193736396607732,
                    -0.543122425560201,
                    0.35968277632589185,
                    -0.44296236547241513,
                    0.26022523279629056,
                    0.7646496739538357,
                    0.25491312335306504,
                    -0.30510370926844727,
                    -0.269765195242739,
                    -0.23206283829265548,
                    0.5800992080707397,
                    -0.8216256527808249,
                    0.8226901646708854,
                    -0.6655452465862302,
                    -0.724354581252124,
                    0.6684945817866698,
                    0.6066316307811888,
                    0.1970155120300511,
                    -0.15769815058357523,
                    -0.10035429037198958,
                    -0.12265741870076918,
                    -0.6654879067619861,
                    0.04588537617993043,
                    0.6263419371870165,
                    -0.7631369883718023,
                    -0.25764674955294514,
                    -0.5197496859483202,
                    0.45310222518997645,
                    0.7428598585315914,
                    0.07957036213617764,
                    -0.328189471195235,
                    -0.9982186618487305,
                    0.23736552432504282,
                    -0.23530845182108162,
                    0.7791627419526674,
                    -0.17376400375977175,
                    -0.0014035573898292728,
                    -0.2938062855608092,
                    0.5792415640573768,
                    -0.2412561783932523,
                    0.6312094222224447,
                    0.9926378724364625,
                    -0.8457006013242607,
                    -0.7245012327397782,
                    0.655433067352886,
                    -0.49367436736499887,
                    0.2656541779346177,
                    0.9346283879351888,
                    1.0306287407276231,
                    0.7170432482864842,
                    -0.9711093058040506,
                    -0.8151291936683821,
                    -0.6064537145461157,
                    -0.9211350606622454,
                    0.8482003962954049,
                    0.08547923000773772,
                    -0.5896933392970961,
                    -0.6050535073660211,
                    -0.9410094743350617,
                    0.32401792226263504,
                    1.195425077334786,
                    -0.785619160561687,
                    0.837077696902885,
                    0.5417226515139654,
                    -0.6583639388478809,
                    0.5878904553480012,
                    0.7932866270467137,
                    -0.051802919673709896,
                    -0.36415947241758484,
                    -0.8485552599542157,
                    0.18998545534933808,
                    0.6239708008348941,
                    -0.38525129379407114,
                    -0.3260609303813877,
                    0.9543694405171504,
                    -0.28232844522332623,
                    -0.06936243700640422,
                    0.07358882921542738,
                    -0.6420542024644887,
                    -0.6337197110585596,
                    0.7635766470666027,
                    -0.363455965879386,
                    0.7261769354232429,
                    0.2867195024952162,
                    0.24852764869370508,
                    -0.8817448316996567,
                    -0.43691422157885496,
                    0.697631241352983,
                    0.938300160048738,
                    0.23980555305838927,
                    -0.5418493715849427,
                    0.23076195688197598,
                    -0.18097977270079432,
                    -0.3932976251348062,
                    0.9424123676608147,
                    -0.5601555230258177,
                    -0.16918311412611176,
                    0.7093929147451975,
                    0.7858790085397007,
                    -0.9289875896621718,
                    0.743387025042909,
                    -0.12862993224785926,
                    -0.6368270972464027,
                    -0.4148946194092193,
                    -0.3482440338794223,
                    -0.3844794763279888,
                    -0.6860097956777891,
                    -0.32536213646130935,
                    0.05032157681254488,
                    0.7499952187506904,
                    -0.08584193202512111,
                    -0.9275341073134399,
                    0.14053177931804522,
                    -0.7954813894334318,
                    0.015629887475438656,
                    -0.2850873519083784,
                    0.26853069925823925,
                    0.6195979884409921,
                    0.01625106503479475,
                    0.9567092204444395,
                    0.6505668934578657,
                    -0.6979161865657123,
                    0.8087531244418795,
                    -0.6343385000836631,
                    0.13065437032768648,
                    0.24512265548670054,
                    -0.50441416838402,
                    0.9212441168126243,
                    -0.24853285434764408,
                    0.09355580605416443,
                    0.5925468083168834,
                    0.32190567334890036,
                    -0.1176353202659509,
                    0.7415664359341403,
                    0.8480668261146608,
                    -0.9995589394834582,
                    -0.06332787777687929,
                    -0.3296981982589786,
                    0.4742758054551199,
                    -0.5393498444045681,
                    0.5114731695590018,
                    0.7968662593562698,
                    0.8006329950029278,
                    -0.6024329585941269,
                    0.3921737031348362,
                    0.8138883001027807,
                    0.5473334739867972,
                    -0.7495900545087527,
                    -0.4658937218202107,
                    0.2003897054239933,
                    0.24708476805931864,
                    -0.13818680484234766,
                    0.34307369857036707,
                    0.6921995748610197,
                    0.4225865908398657,
                    0.6962842459993753,
                    0.6622541238693036,
                    -0.15984630879680548,
                    -0.2391780472377251,
                    0.1902149619829578,
                    -0.9034477943248217,
                    0.6504989261692756,
                    0.8537569001148309,
                    0.47634856519217883,
                    0.5105207148427185,
                    0.66315340412167,
                    0.7216285457789251,
                    0.044368213464394936,
                    -0.22197194450917185,
                    -0.7935300764260351,
                    0.8873859021498405,
                    0.37190400509664534,
                    -0.15814850591537694,
                    0.5102545377406139,
                    0.48724615933125776,
                    -0.5890491902090416,
                    0.7249876133275719,
                    -0.7912378927045078,
                    -0.1334207475306956,
                    0.3587573120957112,
                    -0.05396912533734284,
                    0.05303279682616551,
                    0.913782478501938,
                    0.7402401892464596,
                    0.37528676422196605,
                    -0.2863191084481935,
                    0.6380591080206083,
                    1.0815819073806774,
                    0.7998622278170144,
                    -0.9115556088835066,
                    0.9539288724896126,
                    0.6419782128167317,
                    0.410774182581186,
                    -0.41270975118751424,
                    0.6607268311600015,
                    -0.2981946305480517,
                    0.5936248407422923,
                    0.42768552857461706,
                    0.6158285432638315,
                    -0.8175881081791806,
                    0.49764880067130746,
                    0.25879337413372905,
                    -0.5694304313973895,
                    0.637783071670244,
                    0.9237461380617507,
                    -0.9609938459558975,
                    -0.8843719735630076,
                    0.2475780138713381,
                    -0.7958435427133911,
                    -0.7556431093928884,
                    0.8601220390551284,
                    -0.6829745121010807,
                    -0.6000874061176921,
                    0.37997331669452455,
                    0.29329910184042746,
                    -0.928281664797095,
                    -0.7116138260651529,
                    -0.9058205135678659,
                    0.14928993501989657,
                    -0.7567666227101499,
                    -0.8998380683232563,
                    -0.6717978631489426,
                    -0.03931562070700027,
                    -0.19951693593430583,
                    0.3910125555604613,
                    0.21608800860345445,
                    0.5139190580445974,
                    0.6539199115104698,
                    0.06267302645221069,
                    0.7714917422145344,
                    -0.014922771086690415,
                    -0.9246007039642058,
                    0.07265628300212151,
                    1.0358855225479995,
                    -0.7374106112826709,
                    -0.8017008114664543,
                    0.12937460686388846,
                    0.24571113707134926,
                    0.6764284403239789,
                    0.40007861584344695,
                    0.8608335513628581,
                    -0.19071892820338682,
                    0.06532877579646601,
                    -0.3251927078039854,
                    -0.11542760424789268,
                    0.5941323208188292,
                    -0.8783093587197135,
                    -0.45713915532712573,
                    0.49764738121201774,
                    0.13511926957459425,
                    0.039276380483813135,
                    -0.9136210160568323,
                    0.49199180865693953,
                    0.151582786581557,
                    0.3092754543183864,
                    -0.0900600718747849,
                    0.2738443887911681,
                    0.4003244668100543,
                    0.39056959760595855,
                    -0.8887123375827428,
                    -0.34940746942604056,
                    0.1753958048191984,
                    -0.39063382924543755,
                    0.8177732850172513,
                    0.5624377702685609,
                    -0.5009031337434514,
                    -0.46510886658687084,
                    0.04202334413550007,
                    -0.8343091573054143,
                    0.7540723146766409,
                    -0.3714830011455529,
                    0.8608468270351183,
                    1.0219858264300985,
                    -0.708674599885331,
                    -0.14880840520111416,
                    0.18741521031291328,
                    0.36088833861622094,
                    -0.2168007118482879,
                    -0.45113134393475085,
                    0.6575870504659217,
                    0.27493828861036484,
                    0.822743124200814,
                    -0.5301896812591524,
                    -0.9716187177265619,
                    -0.8750018609880429,
                    0.6455168391542946,
                    -0.32485251759060507,
                    -0.7746953797222424,
                    -0.14599086187050234,
                    0.0020621247815647645,
                    -0.1681469442754489,
                    -0.10870397882403268,
                    -0.1693450273541297,
                    -0.9430439419906297,
                    0.3458421338192357,
                    -0.8112181129030747,
                    0.36498160228872223,
                    -0.4484519693304473,
                    -0.024054562728198444,
                    -0.14644288763698962,
                    0.47682807106626757,
                    0.5168911180398239,
                    -0.8846705905501097,
                    -0.5135105464957895,
                    0.06217117624455981,
                    0.8275038516186614,
                    0.816588494151939,
                    -0.4508325395132755,
                    -0.9496775267896052,
                    0.6157887794819843,
                    -0.0055640972762202034,
                    0.7269095571035588,
                    0.6959921193533551,
                    -0.4856354213494951,
                    -0.5237105928722334,
                    0.018665161738998653,
                    -0.3638940908586802,
                    -0.41463610018850816,
                    0.5473917254704893,
                    -0.45191297909362865,
                    -0.5506624428330025,
                    0.05410857637281004,
                    -0.5113876318310688,
                    0.8591645298888463,
                    0.08558354048167323,
                    -0.22098150374475387,
                    -0.67325998326287,
                    -0.8779392319311131,
                    0.00602474643714229,
                    0.7741509653026228,
                    -0.7083377398761406,
                    0.5955631065140365,
                    -0.3010549010464931,
                    0.3779457367359959,
                    -0.4564888655531297,
                    -0.4571762231199552,
                    0.7832620184697282,
                    -0.5687459532329071,
                    0.5849398073357918,
                    0.6780017263066588,
                    0.9285301378651507,
                    0.9990639345718716,
                    0.5286466626102622,
                    0.7035626218980113,
                    0.3420327886800636,
                    -0.2487304393957482,
                    0.24446524844815434,
                    -0.8466245582045346,
                    -0.6025012462675421,
                    -0.853744842495458,
                    0.7517655394555263,
                    -0.654717034369194,
                    0.18573442789639982,
                    0.8388508091081139,
                    0.8378060825845243,
                    -0.8011931071018283,
                    -0.4515134755580213,
                    0.8161326046571868,
                    0.08918987432382039,
                    0.05349233415148828,
                    -0.08432041284734203,
                    0.6541480698504708,
                    -0.7694339192047394,
                    0.3682198834526309,
                    0.4949432046548305,
                    -0.1522163162815986,
                    -0.19365686731473591,
                    0.7156656300844562,
                    0.6132648629045333,
                    0.657145987252688,
                    0.8569123149544902,
                    -0.12984523994148522,
                    0.5327847573174561,
                    0.3593530863121458,
                    0.5087990690960504,
                    -0.33982429035630335,
                    0.6476565304105949,
                    0.9772886045564936,
                    0.1256534880003941,
                    0.7360377055432507,
                    0.10209506047931013,
                    -0.3753182942075711,
                    -0.7056817841508997,
                    0.44535555280920713,
                    0.1417351848141321,
                    -0.738824301783402,
                    0.42131039133421083,
                    0.7853674651856559,
                    -0.6019227722922673,
                    0.09953573441597562,
                    0.9852125060359433,
                    0.4026605838632132,
                    -0.44077407379725175,
                    -0.024214380848831894,
                    -0.8666527489123209,
                    -0.6036877535152598,
                    -0.29975684230502125,
                    -0.7342028990857217,
                    -0.539377358659697,
                    -0.5708109352561525,
                    -0.4456609619001456,
                    0.6578228999420875,
                    1.0180972996887263,
                    0.0014581777610114784,
                    0.4392291250563648,
                    0.06521417421281135,
                    0.7016519115229762,
                    -0.5874865432401233,
                    0.566425042127448,
                    -0.43581513892946544,
                    0.7301014959535751,
                    0.5215910767600157,
                    -0.26126386705252885,
                    0.8394571048840686,
                    -0.6017395591596906,
                    0.6471717691393878,
                    0.15306508517562706,
                    0.14402270709210693,
                    0.12669405483229826,
                    1.074059303363857,
                    0.7927827466207628,
                    -0.09686212143600297,
                    0.9292839755911773,
                    -0.09520117746521897,
                    0.026811451637177342,
                    0.7516590953305531,
                    -0.2007307099753971,
                    -0.28882516917740975,
                    0.35506575623347664,
                    -0.11130800435831298,
                    0.020527267727590663,
                    -0.26229573704987835,
                    0.030350329807364206,
                    -0.904891108249618,
                    -0.3796205417809619,
                    0.3052007873004027,
                    0.8422608122907613,
                    -0.5259308132009224,
                    0.9751180344603966,
                    -0.4717373604421848,
                    -0.9539796021877153,
                    0.6639720270174173,
                    0.6531464239842767,
                    -0.9240294563305836,
                    -0.7253237990139078,
                    0.8369403818810514,
                    -0.3287262741993864,
                    0.0318026965799159,
                    0.4346056609670109,
                    0.37362075987369947,
                    -0.6321763939153345,
                    0.5672080009067137,
                    0.979248017192233,
                    -0.21042290440444572,
                    -0.20514721492079518,
                    -0.4259225520499159,
                    0.6871653443870932,
                    1.0603760303984455,
                    0.6196637307585886,
                    0.8103370630936918,
                    -0.49181884262384756,
                    -0.10385776683124671,
                    0.1555749686521456,
                    0.054605686742109714,
                    0.44905488407367217,
                    0.7001958138749196,
                    0.12115359552266192,
                    -0.7711325499932014,
                    0.8053964207392414,
                    -0.5782012435803247,
                    0.43367696388211396,
                    -0.27294473964017646,
                    0.03214839710393665,
                    0.8082624473216011,
                    0.9286073778836288,
                    -0.7936315011007077,
                    -0.4307659523565893,
                    0.01511958003839413,
                    -0.31241348492784343,
                    0.10054345680601176,
                    0.6290024114783707,
                    -0.7880524338664435,
                    0.5570725545411852,
                    0.5893474663464999,
                    -0.7555466900788222,
                    0.48796550534674815,
                    -0.4069784794038955,
                    0.29181311312547786,
                    -0.5513743012193799,
                    -0.33161603947545953,
                    0.6150724392941519,
                    -0.5751154565817127,
                    -0.31532792620443617,
                    -0.35275831348884923,
                    0.0374225482024356,
                    0.4377404838733057,
                    -0.09367707233891202,
                    0.05821347984883683,
                    0.16450616897261963,
                    0.4357818922848656,
                    0.6734922018617794,
                    -0.8883103988015574,
                    -0.03971155250618902,
                    0.06061916241554334,
                    -0.7231837141779064,
                    0.6272767452412812,
                    -0.12587981651879737,
                    0.5029550945195539,
                    0.8664076930981632,
                    0.835700480288967,
                    -0.05184936146455556,
                    0.5744088397585936,
                    -0.5783947975477304,
                    0.019695977654714692,
                    -0.020574848476134104,
                    0.523015888513229,
                    0.8706876982125037,
                    -0.1706778717510159,
                    0.6007448283052907,
                    0.1072811819055534,
                    -0.5860354874663375,
                    0.3455544739017301,
                    -0.4996802266084103,
                    0.2932424430999118,
                    -0.3226495031772074,
                    -0.017309809712376178,
                    -0.7321695378375167,
                    0.022312879742269996,
                    -0.23867567851093918,
                    -0.9695784144113715,
                    0.8437302171274395,
                    0.03675824429687665,
                    0.6002398800577097,
                    0.24006027926919263,
                    0.7682740883718694,
                    -0.20376659270143999,
                    -0.9735612723052538,
                    -0.36592796192879534,
                    0.5875951034325201,
                    -0.39492204464070063,
                    0.8084053813175927,
                    0.7986223786489802,
                    0.8544815223348299,
                    0.5448690910244709,
                    -0.19420965086499853,
                    1.0795535495775175,
                    0.8084357076964239,
                    0.2082039764986777,
                    -0.34089710828988323,
                    -0.28558604852836966,
                    0.08343922824841038,
                    0.49756844040284365,
                    0.19754383627922611,
                    -0.48932805588628875,
                    -0.33782975408346566,
                    -0.6811540306610014,
                    0.8845180419510491,
                    -0.2699276768372401,
                    0.22655355273723585,
                    0.23632907050150168,
                    0.3093142800550096,
                    0.7904636192812584,
                    -0.5216266567470098,
                    0.007196613965555842,
                    -0.15077550781987578,
                    0.4397394736662444,
                    0.700413467779429,
                    0.2912489915656567,
                    -0.8700254182779148,
                    -0.21068076113465461,
                    0.5336984781906471,
                    -0.7818423406470673,
                    -0.42408179236688753,
                    -0.4616393551430948,
                    -0.9306190847542685,
                    0.8900497104301143,
                    0.2111532366286069,
                    0.3206093359548557,
                    0.5783957284641246,
                    -0.48204659206222294,
                    -0.9639068618099778,
                    -0.7711564545035801,
                    0.15257469602205298,
                    -0.6351928641704357,
                    -0.42055102885288953,
                    -0.5658477694973124,
                    -0.9810714477850861,
                    0.03153033022028115,
                    -1.0178033379720661,
                    0.5818317426895667,
                    0.44680685250950986,
                    -0.9428792033925171,
                    0.6767875086885613,
                    -0.8188302169581804,
                    -0.4548713767570005,
                    -0.8589729052727826,
                    -0.8459526592215564,
                    -0.21520305413193022,
                    0.29219747312105876,
                    0.644096731966534,
                    0.4513771314196103,
                    0.3013904038943886,
                    -0.8729478847483096,
                    -0.18636916839902065,
                    0.32182907227697016,
                    0.5517122423050272,
                    0.6839340478672277,
                    0.25273346666557717,
                    0.5852852648375491,
                    -0.11892089391817004,
                    0.7700947889812666,
                    -0.7903502788834472,
                    0.5443858623290062,
                    0.04537331828474181,
                    -0.32840883782998326,
                    0.030708892030556836,
                    0.3637004201098558,
                    -0.2746740024319319,
                    -0.5286621232169079,
                    0.6551439384371941,
                    0.9063264139117133,
                    0.33268995066777074,
                    -0.18471130282485607,
                    0.03830747590902409,
                    -0.8231822213072713,
                    -0.30443697999849956,
                    -0.4127351380304629,
                    0.7434078676097016,
                    -0.999041888062602,
                    0.28181128960110663,
                    0.18852537389455312,
                    -1.0414365993089307,
                    0.5939842123184986,
                    -0.6094378944607202,
                    0.13009030838404484,
                    0.8199137093594172,
                    -0.4401732111899441,
                    0.3224673040627277,
                    0.3904403947880394,
                    0.44042932624037295,
                    -0.39007317800238217,
                    -0.0821530695733737,
                    -0.7143852790741233,
                    0.2853500547784848,
                    -0.777180831042691,
                    0.10896017942807022,
                    0.07542846178493395,
                    -0.933679796041374,
                    1.17786960994304,
                    -0.29745462760700414,
                    0.41905146500020785,
                    0.39052561349616016,
                    0.8113955146693028,
                    0.663478518301385,
                    0.3115026756914877,
                    -0.6535200677615636,
                    -0.4384277402683096,
                    -0.4987479584743159,
                    -0.14347967105376958,
                    -0.6803145063288867,
                    0.5252207352983472,
                    -0.7953874101754119,
                    -0.4255455381095167,
                    -0.37640267041798353,
                    0.24744730646714755,
                    0.5670185306114318,
                    -0.6804423899202029,
                    -0.10630350019866011,
                    0.049718848983343646,
                    0.06559774248059878,
                    -0.696405227757923,
                    -0.19317633360738215,
                    -0.299010932762637,
                    0.7657559631123332,
                    0.811143237092564,
                    -0.45727701394467746,
                    -0.2999363013344804,
                    0.16104888460002073,
                    0.3659208149127676,
                    -0.08991763306212004,
                    -0.29179688372029106,
                    0.36373351496596557,
                    0.3439028261127579,
                    -0.6726961931648877,
                    -0.0821035756315117,
                    -0.7354185495668367,
                    0.7496905059969146,
                    0.1025242253708096,
                    -0.3911904888390546,
                    -0.14527902594438855,
                    -0.15944154578654113,
                    0.21716586272088173,
                    0.3229966590145246,
                    -0.517730577273919,
                    0.6087175515776666,
                    -0.04221109801989956,
                    0.5213206394118836,
                    0.26471253336914585,
                    0.20664074412889105,
                    -0.842023943519039,
                    -0.3656466103152164,
                    0.08418301714178396,
                    0.45127056770613205,
                    -0.04405581513603993,
                    0.7473775557006792,
                    -0.0994732385185083,
                    0.15472579000042458,
                    -1.0238200777654243,
                    0.5454513577599249,
                    -0.3733162912469745,
                    0.7919345437753258,
                    -0.2550177331189281,
                    0.49026210176008417,
                    -0.5261964972067427,
                    -0.49755906333186994,
                    -0.5306683586451666,
                    -0.35934117981571534,
                    0.17137833637167044,
                    0.5415593115507314,
                    0.8636311297523235,
                    0.8029760000245524,
                    -0.07548558349909759,
                    0.8706294794023455,
                    -0.6961527880758297,
                    -0.3071032730191529,
                    0.9120920879838659,
                    -0.31305876812096545,
                    -0.5943072939906132,
                    -0.08160405465184481,
                    0.029518075361059604,
                    0.6406501580354287,
                    0.40892197464384145,
                    -0.7876006295116685,
                    -0.12402911134908107,
                    -0.42255318110854223,
                    0.28585704976017823,
                    0.43114543194191973,
                    0.44621250163398546,
                    0.6191270385716718,
                    0.5131599800790931,
                    -0.6486755627179253,
                    -0.8039832054121254,
                    0.4750345297248821,
                    -0.15520914850506523,
                    0.9056446351710489,
                    -0.5598754119969773,
                    0.8609075666791415,
                    -0.2902970759913886,
                    0.3528951924336072,
                    0.503595796324442,
                    0.06905627501611553,
                    -0.7004891630349724,
                    -0.09771944090212256,
                    0.6016155363720322,
                    0.30547592456348877,
                    0.8345191525648817,
                    0.8758183162922665,
                    0.32049907720836873,
                    0.10202347189026914,
                    0.3738653959526656,
                    -0.0698942477423119,
                    -0.25013965047189035,
                    0.9968057826280461,
                    -0.7367682683196585,
                    -0.648423860139563,
                    -0.3016298516400407,
                    -0.7974091467252985,
                    -0.3382651636043779,
                    -0.13716526411199118,
                    -0.49475073561732974,
                    0.8808106814076179,
                    0.05312445509820044,
                    -0.5677289710913739,
                    0.13983707263059988,
                    -0.9705533489748139,
                    -0.857010365475595,
                    -0.6924916663563343,
                    0.3349154396551504,
                    0.01379213293923365,
                    0.544031261935799,
                    -0.3368329304243274,
                    0.8313536248036484,
                    -0.9621921174344059,
                    -0.6372187760018634,
                    0.28946501006562037,
                    0.07425332556683029,
                    -0.2925351368876717,
                    0.9372846047449369,
                    0.3791265250169869,
                    -0.9125225891722804,
                    -0.57686308063204,
                    -0.6712974954231555,
                    0.8765515061422582,
                    0.1401886235091118,
                    -0.7379915113974238,
                    0.14261623055724235,
                    -0.04790979850147323,
                    0.7115044149181905,
                    -0.23640264738313552,
                    -0.22547630948469397,
                    -0.41191111581366485,
                    -0.798544149297113,
                    -0.6378915575325385,
                    0.9213038525505367,
                    -0.31868702695406836,
                    -0.3222216049238269,
                    0.532762415228522,
                    0.17523589489800956,
                    -0.6329248754942077,
                    -0.023150582803221426,
                    -0.13600524091433078,
                    0.623484090671986,
                    0.20704785742490864,
                    0.49212360026008856,
                    -0.656252324070521,
                    -0.5881752250067167,
                    0.1743658260965027,
                    0.24278299094686093,
                    -0.14465676639984953,
                    0.6929285020524697,
                    0.17811252956298912,
                    -0.925368960399429,
                    0.70685082003618,
                    -0.7959066322938889,
                    0.23274554006791975,
                    -0.7351362477131901,
                    -0.4368137531156625,
                    0.9297309899963454,
                    -0.4354339362310381,
                    -0.43864567636966395,
                    0.3431638567932169,
                    -0.8550421228189389,
                    -0.24721548162076717,
                    -0.019396425595832753,
                    0.978685892517026,
                    -0.2624933066089037,
                    -0.10117045717953739,
                    0.3963265901583637,
                    0.24907410601862065,
                    0.9364737903216094,
                    -0.1950455583848349,
                    0.8701126931666336,
                    -0.842275768529986,
                    0.6238577197786449,
                    0.730052521394054,
                    0.6139313748994261,
                    -0.25997170218020293,
                    0.3897480275259338,
                    -0.683706227490714,
                    0.04497015088354743,
                    -0.97556246636277,
                    -0.45101516172566686,
                    -0.5079042928543016,
                    -0.6681772125015645,
                    0.022457819340749422,
                    -0.3013059437703185,
                    0.43912209426925797,
                    -0.806149530100183,
                    0.9645068892397332,
                    0.7416119283809878,
                    0.5965906215137807,
                    0.6347813920416345,
                    1.0743565527507328,
                    -0.5133685918491304,
                    0.8531615552500413,
                    0.3447203371077061,
                    0.470858234645195,
                    -0.7195224746521177,
                    -0.08889108414665292,
                    -0.8267857279123464,
                    0.7076944172961389,
                    -0.2742042624388681,
                    -0.5059078745314757,
                    0.9776527169246262,
                    -0.3996307097117659,
                    -0.6451296623305716,
                    -0.882045881133835,
                    0.14203015574686645,
                    0.4699907829855887,
                    0.8048081849955366,
                    0.8354936472449945,
                    -0.3185181126157035,
                    -0.10287931083804838,
                    -0.3648173835762221,
                    -0.11953092056955306,
                    -0.19394334025496246,
                    -0.6444905030596983,
                    -0.2636788581210693,
                    -0.9270705638619873,
                    0.2558750425506408,
                    -0.6951188466741822,
                    0.027507321395764256,
                    0.5241248162148939,
                    0.44380574713955456,
                    -0.1642005034056141,
                    -0.3693510488066762,
                    0.6863819339972913,
                    0.4629640574919292,
                    0.8655059525483145,
                    -0.8188333214041822,
                    0.08066727036288093,
                    0.5686234577609877,
                    0.26309715237137565,
                    -0.3539271288664244,
                    0.14326993018153034,
                    0.5803641654215164,
                    0.48419695193526646,
                    -0.28491436713199436,
                    0.546740958234133,
                    -0.8627964428014716,
                    -0.15878505572150933,
                    0.7945038373451389,
                    0.6964227181995072,
                    0.3753481073973628,
                    -0.5130250287679924,
                    -0.7979616047055714,
                    0.517583700890008,
                    -0.5788352492535143,
                    0.962294689991805,
                    -0.21989570037351017,
                    1.0125724851886926,
                    -0.20698613151198586,
                    0.20420147103611042,
                    -0.8321493374250614,
                    0.8888002630931776,
                    0.060010643620256154,
                    0.7791160317072833,
                    1.0002521544173772,
                    -0.49009794125682055,
                    -0.8501197754929537,
                    -0.9261801140926402,
                    0.7973363881793833,
                    -0.11484040519231438,
                    0.12489006731569675,
                    -0.002497672218018957,
                    -0.6119542988988252,
                    0.9356729863653402,
                    -0.9162613348182252,
                    0.8728613100233387,
                    -0.24688007592813177,
                    -0.16291743116733878,
                    0.46760016763029744,
                    -0.8449355730133625,
                    0.43267778519344147,
                    -0.17362980001211198,
                    -0.8058818899462518,
                    0.07686492254538699,
                    -0.8119551775751634,
                    -0.6639796933561795,
                    0.045087487145817146,
                    -0.42738466710506123,
                    0.548713851166857,
                    -0.6137641891665271,
                    -0.16057451247226126,
                    0.11869325096956757,
                    -0.7774634624055269,
                    0.20120986904632632,
                    0.3414386339597054,
                    -0.7465070383715633,
                    0.33163128034096545,
                    0.7059059421284857,
                    -0.4799671534862445,
                    -0.05066458556178867,
                    0.523662548605854,
                    -0.15522819527887713,
                    0.861748315794461,
                    0.9690641691602072,
                    0.7534424788867119,
                    -0.3840585968966324,
                    -0.4624505794868536,
                    -0.5832626107960033,
                    0.78760844868069,
                    0.4465046090673652,
                    0.6440529235989471,
                    0.5278113124874114,
                    1.332823214148475,
                    -0.39989957775469687,
                    -0.8247874748925509,
                    0.5330763185152794,
                    -0.5329446096525817,
                    -0.5467208114306886,
                    -0.6075613850317511,
                    0.8610747686237845,
                    0.5715602790172825,
                    0.293248224292343,
                    -0.09925879749624655,
                    0.6263139814443942,
                    0.2857409569092118,
                    0.6546783725383729,
                    -0.6967365228342787,
                    0.2591613509104383,
                    0.09253533748188393,
                    0.9053451882038326,
                    0.5597859262862114,
                    -0.3468185008769278,
                    -0.9256549494342327,
                    0.5390089342957147,
                    -0.7174844753095055,
                    0.07698680140627794,
                    1.0405222223052983,
                    0.552858681114119,
                    0.3832392030094592,
                    0.26110835706673463,
                    0.0709797122662413,
                    0.6017420380175852,
                    -0.33897339117120673,
                    0.9679526138496695,
                    -0.23064350060829744,
                    -0.8357279906197834,
                    -0.7624980824676579,
                    0.24333626980950568,
                    -0.2159097451227394,
                    -0.3578952569370514,
                    0.37978672889471377,
                    0.7591300235536114,
                    0.4545030588156865,
                    0.7310658875052416,
                    0.36909909039648997,
                    -1.0062897776359967,
                    -1.011665821968816,
                    -0.8780582902780184,
                    -0.553190704509514,
                    0.3375090279236829,
                    -0.3919404906702032,
                    -0.02391392383313768,
                    0.9501770035545521,
                    -0.7139910340018031,
                    0.7845264023598909,
                    -0.5039461530118385,
                    0.3430668898596986,
                    0.6060568111650119,
                    -0.34667852785212194,
                    0.04806650992238848,
                    -0.10879041699076866,
                    -0.6102188535588756,
                    0.46489451993674524,
                    -0.5081593990925775,
                    0.5547802535334153,
                    -0.8581144900763485,
                    -0.5957128358220584,
                    -0.8042767088557604,
                    -0.5876912487427709,
                    0.9854686175292252,
                    0.29237580477526487,
                    -0.23055772969543212,
                    -0.9445346253451498,
                    0.03862064438017752,
                    -1.0184820852877359,
                    0.8605847238036545,
                    -0.9517449486750899,
                    -0.835908738000256,
                    0.7695973190447276,
                    0.4363513417006019,
                    -0.4893226935436913,
                    0.8898325695696109,
                    -0.760143836913928,
                    -0.0575520341648247,
                    -0.9136289896679061,
                    -0.4042916429829198,
                    0.8436763469626304,
                    -0.3126292873520739,
                    -0.45138848903956263,
                    -0.9593095858927039,
                    -0.8458533497537791,
                    -0.7036131881886085,
                    -0.10921166485100492,
                    0.981640438339251,
                    -0.5150218630677786,
                    1.0545987180038767,
                    0.17881146431928685,
                    0.9582364767482195,
                    -0.0778965776508708,
                    0.10449458503017742,
                    -0.9950611887550751,
                    -0.9657636232379438,
                    -0.23191753872693113,
                    -0.08607831225139291,
                    0.549775449470386,
                    0.8543115692030834,
                    -0.632091740115793,
                    -0.8053171419643022,
                    0.2675975938714853,
                    0.43876685501299517,
                    0.19206608235180728,
                    0.892959376053329,
                    0.06912634967460785,
                    0.6839575896701088,
                    0.12644260008113847,
                    -0.2976407135391728,
                    0.04538993458633481,
                    0.4175458427810257,
                    -0.5542196643242078,
                    0.394499537853885,
                    -0.6297525292195937,
                    0.26205534339139536,
                    0.25076143632026987,
                    -0.7645952563793112,
                    -0.20057829162651547,
                    0.7225466560529967,
                    0.04740966475083383,
                    -0.5749266417511838,
                    0.7403696266992703,
                    -0.867812194363516,
                    0.5532922132820388,
                    0.7525778332695877,
                    0.40265790211877667,
                    0.9637583948212627,
                    -0.16481723888655886,
                    0.20764972934347656,
                    0.6496014995783699,
                    -0.08743782284987878,
                    0.331617912251946,
                    -0.153919380238361,
                    -0.6591780352577989,
                    0.4677226439769064,
                    -0.43481363972691,
                    0.7149398432279686,
                    -0.12095167279796852,
                    -0.8536463544280952,
                    0.49935602672216933,
                    -0.5695339034158872,
                    -0.034555967033398416,
                    0.25010531236899547,
                    0.11061434440486081,
                    -0.2948857599101926,
                    0.3814697296715318,
                    -0.43227781463860404,
                    0.9827704976303259,
                    -0.7861333389883185,
                    0.5278101304719943,
                    -0.16051565265234297,
                    -0.11509418333060868,
                    -0.6840814650980704,
                    -0.17786347443866263,
                    -0.1206330615662557,
                    -0.6367586726140626,
                    0.04328597387530451,
                    -0.5136074586609823,
                    0.7256667849099994,
                    -0.5742209429910379,
                    0.23623939094496765,
                    -0.46797677528738274,
                    -0.30200033371098395,
                    0.3162113702428967,
                    -0.46378353496548647,
                    0.44328057448695807,
                    0.9835336315220463,
                    -0.5861858646455628,
                    -0.4290923862705947,
                    0.13863177741355553,
                    -0.1811441753984036,
                    -0.36663560950829455,
                    -0.8088675325889733,
                    -0.3226905656851475,
                    0.22857341299580367,
                    -0.08569266770760087,
                    0.2632763722783139,
                    0.8444854230444424,
                    -0.21772320577015536,
                    -0.51140121977464,
                    -0.40394362146302987,
                    0.47288838694884106,
                    0.8897666912210936,
                    -0.168198271845596,
                    -0.8772178886897368,
                    -0.013818871987547292,
                    0.392892161245262,
                    -0.13633957520712833,
                    0.0941981978518984,
                    0.547581552219758,
                    -0.8624380121480112,
                    0.0666458073655251,
                    0.7964075628295906,
                    -0.8643731804225181,
                    0.6614975673786062,
                    0.09246879194806386,
                    1.0521253504228516,
                    -0.05814251369884626,
                    -0.7444821240680943,
                    0.9951683924295447,
                    0.6519998221016989,
                    -0.43332408760086666,
                    -0.1417982284625332,
                    -0.7831369423153904,
                    0.5820699797741531,
                    -0.8659460966659958,
                    -0.6696149118229414,
                    -0.5457023089634574,
                    -0.9262062274540191,
                    0.32591797415494017,
                    -0.12938436643224746,
                    0.7117077833303633,
                    0.8233110653050874,
                    -0.4462491865794111,
                    0.5237755709312415,
                    0.9421102193571208,
                    0.0029733002450270654,
                    0.5414108895792548,
                    -0.9828722420555502,
                    -0.7183820142528119,
                    0.8724848378861533,
                    -0.8775371796640182,
                    0.5939252749033559,
                    -0.8185800706286254,
                    0.2059435023940113,
                    0.7340922733579927,
                    -0.7149302310904084,
                    0.04161851796929004,
                    0.9275630178613932,
                    -0.5948275654309957,
                    0.9345251574102839,
                    -1.064275752726182,
                    0.37741938069317404,
                    -0.7456800991146207,
                    -0.7364904708887103,
                    -0.45241750564645505,
                    0.40069566975564275,
                    -0.7918113878899594,
                    -0.11732995955647568,
                    0.8692538665860137,
                    -0.5246507073659182,
                    -0.5487989517343697,
                    1.013117969171186,
                    0.4510048674422542,
                    0.3745493440190085,
                    0.544069607299188,
                    -0.8216653019110851,
                    -0.03820325518458177,
                    -0.6008348874075223,
                    0.7987799922795691,
                    -0.9398639151161267,
                    0.0754376424360505,
                    -0.11105865257964705,
                    -0.7096417392285812,
                    -0.5196125939110929,
                    0.742458249676982,
                    -0.8199196894127994,
                    -0.20387058929245278,
                    -0.6668587471360171,
                    0.1985929030804647,
                    0.5236690786123814,
                    -0.9030986761560538,
                    0.2318499506586443,
                    -0.4656230758330114,
                    0.6552094799574959,
                    -0.3729008275615003,
                    -0.5922272310136434,
                    -0.261078143716181,
                    -0.9828388486688391,
                    -0.21985134568684914,
                    0.14054724978023952,
                    -0.8511706705658141,
                    0.918075768449808,
                    -0.2303208765116452,
                    0.45540889390360445,
                    -0.36572880071511504,
                    0.544498598100006,
                    0.6848800342527468,
                    0.4345884563745847,
                    -0.5518963347936648,
                    -0.20392752953960416,
                    -0.3278235273446673,
                    -0.5654595201893261,
                    -0.19025591047419332,
                    -0.016047489763248043,
                    -0.8794483607055567,
                    -0.21708026201002467,
                    -0.9160983504809304,
                    0.04852940824434445,
                    0.45802092608325956,
                    0.43801175117104346,
                    -0.4903216930370542,
                    0.9393418267563325,
                    0.9473986040389324,
                    0.5188449898230139,
                    0.8456173445210148,
                    -0.9627225844283752,
                    0.9648287118414461,
                    -0.4042643490985332,
                    0.903093790207941,
                    -0.14375057203585873,
                    0.8357875971902596,
                    -0.17700537025193935,
                    -0.004569512868793339,
                    -0.3858135416926546,
                    -0.3162862217917485,
                    -0.26844326644975053,
                    0.4971295145080877,
                    -0.032934278232148916,
                    0.39826708517039583,
                    0.7754468277852887,
                    0.679348071511175,
                    0.43366356444558246,
                    -0.944035257546859,
                    -0.4726417278741823,
                    -0.32560273719164934,
                    -0.6562111633971949,
                    -0.47393671115950375,
                    0.22916673088307027,
                    -0.10986589927274736,
                    0.5150583556074132,
                    0.17289307087998587,
                    0.745651734524139,
                    0.17414379721644438,
                    -0.3098578981241227,
                    0.2744904686922052,
                    -0.48214461948777165,
                    0.019709065290049545,
                    0.9010079453324232,
                    -0.7815618203931659,
                    0.30201516526336986,
                    -0.5582212691495096,
                    -0.27260605507038327,
                    0.16480474959715807,
                    -0.09441193482486385,
                    0.3375048244206866,
                    -0.46844560899569576,
                    -0.38028630203809827,
                    -0.690793312235175,
                    -0.3591058156615367,
                    -0.05783408371821777,
                    -0.6802498316242542,
                    -0.2427419741813658,
                    0.25256923863720127,
                    0.04141647842042455,
                    0.8473253461069151,
                    0.11875888474294313,
                    -0.4653665905261137,
                    0.12241031178426268,
                    0.8798513297685576,
                    -0.8065756641741414,
                    0.3538491191311588,
                    0.16308041344021268,
                    -0.6712960004246563,
                    0.22720764578675492,
                    0.272646798228629,
                    -0.9193924832650512,
                    -0.6744246470267071,
                    0.10055125617942486,
                    1.0214233961530426,
                    -0.6355531911811587,
                    -0.5481696400439977,
                    -1.0382973875242176,
                    -0.7952937153162495,
                    0.37582001466975,
                    -0.5521112754585255,
                    0.3379367047230214,
                    0.0009159658667068917,
                    0.038435144006127,
                    0.4344651120325274,
                    -0.06789743441327083,
                    0.6091687504335948,
                    -0.02371192150116448,
                    -0.1634886454994365,
                    -0.6822487231541889,
                    -0.2613153351415793,
                    0.29920031140369885,
                    -0.5665195285359972,
                    -0.4523647545209352,
                    -0.5801862525707815,
                    -0.03039454686088194,
                    0.6581414698507744,
                    -0.7135369232362199,
                    -0.6509614714970553,
                    0.4519025458506296,
                    0.21270789474481736,
                    0.5058753962908628,
                    -0.5128513497855146,
                    -0.9724044916093085,
                    -0.024564076599131766,
                    -0.38892073594302495,
                    0.5901643424702993,
                    -0.8937687996420743,
                    0.12926904072994533,
                    -0.45396369541945975,
                    0.3236259642909192,
                    -0.3504834332214801,
                    -0.003926874087592013,
                    -0.62052688051268,
                    -0.21760292888084592,
                    -0.5694384470224646,
                    -0.7741814348514011,
                    0.1525387207161916,
                    -0.08705748670709612,
                    0.1059498655128908,
                    0.13516610576610727,
                    -0.050688974817357874,
                    1.0844870600915215,
                    -0.4168358581181183,
                    -0.2854048271757505,
                    0.40751890493845794,
                    -0.7239030202613695,
                    0.2828102244345704,
                    -0.48972413634847656,
                    -0.9698631845793624,
                    0.5501462621629225,
                    0.7826949223300023,
                    0.9859349925978186,
                    -0.4600686323522397,
                    0.6811985663950421,
                    -0.9069433039908121,
                    0.6671290241287824,
                    -0.2818138786817842,
                    -0.2719751657998358,
                    -0.19698007662220005,
                    0.2884510952678354,
                    -0.49589325115111865,
                    -0.7467239026585398,
                    0.29596712448040774,
                    -0.16888703339397707,
                    0.10363214881483379,
                    0.6738055386335996,
                    0.7045619929231739,
                    -0.5826381373811689,
                    -0.5749964320395521,
                    0.4575254877693873,
                    0.32417242265356894,
                    -0.5030799545322192,
                    0.41417499686471415,
                    -0.28781883948246223,
                    0.023451401610414355,
                    0.5116320617493413,
                    -0.726973933424051,
                    -0.7130356542373759,
                    0.6366204240934134,
                    0.17707179246427215,
                    -0.9574438494074502,
                    0.6659405692914814,
                    -0.4135190893138367,
                    -0.30449035069995434,
                    0.11940768159942237,
                    -0.15113867618100316,
                    0.3127881006253273,
                    -0.9168275578220936,
                    -0.0009467001206118258,
                    0.2647765837456415,
                    0.23000101410746668,
                    0.8096853130553259,
                    -0.9895354759078447,
                    -0.7328223677210901,
                    0.07892531570796159,
                    0.2562353014417806,
                    -0.6455693012422701,
                    0.4666502383584709,
                    -0.424712197693285,
                    0.030190038409790357,
                    0.3130333702218288,
                    -0.5095919856083048,
                    -0.3395442491872056,
                    -0.2982536214774175,
                    0.7617999009694277,
                    -0.5411933657656075,
                    0.08169047897747361,
                    -0.5872078361479309,
                    0.7678023140238242,
                    -0.06225289774229086,
                    -0.7682455478525725,
                    -0.2872521035763676,
                    0.1501152998925005,
                    0.8057986608758023,
                    0.3214457308265517,
                    -0.8056298104365889,
                    0.8347485318429169,
                    -0.9800188955787145,
                    -0.4607553542003816,
                    0.6693943088010097,
                    -0.886610424296237,
                    -0.404708525790194,
                    0.7878220816596261,
                    0.06977159396878357,
                    0.45889296138091124,
                    -0.33522347701731525,
                    -0.1970426502955548,
                    0.565235103027394,
                    0.8372676212801256,
                    0.742992859218347,
                    -0.2356066654637602,
                    -0.2921997827870222,
                    0.021998552743445747,
                    -0.794717331917152,
                    0.3496544374731198,
                    -0.8030748010535061,
                    -0.3446635395479986,
                    -0.6490797466636848,
                    -0.5945581409080046,
                    0.3952456291242521,
                    0.4674133601396576,
                    -0.008727488333575836,
                    0.5156388234265955,
                    0.7836331883265608,
                    0.24918530419968432,
                    0.705560474241526,
                    -0.555028378045364,
                    -0.23017748892779155,
                    0.8492934582425095,
                    0.5396578697239951,
                    0.09998543926633335,
                    -0.00034792551212936237,
                    -0.7524700220895146,
                    -0.7234156310738986,
                    -0.738955581510138,
                    0.9994268894536001,
                    -0.6225060347742652,
                    -0.1352017348138189,
                    0.20219946821829063,
                    0.2622078326191642,
                    0.219590322106816,
                    -0.7500600812965296,
                    0.9194098684553765,
                    0.8289106362020963,
                    -0.9678697276248619,
                    -0.7142657861505253,
                    0.08356028809432206,
                    -0.18835407716103,
                    -0.8712579941211064,
                    -0.34228899130770024,
                    0.4562812867960522,
                    -0.9259888499852386,
                    -0.5761895220155887,
                    0.5375616229432445,
                    -0.5810813261917318,
                    0.08167019538835711,
                    -0.9177514871106741,
                    0.05153872994915983,
                    -0.37505687535875143,
                    0.35517948135965427,
                    0.014823036869496013,
                    0.6721792131043851,
                    0.7353041529641914,
                    0.804613031667474,
                    -0.7083864114601459,
                    -0.25575958151877565,
                    -0.5008412973754355,
                    -0.42575771799423995,
                    -0.7053650561746946,
                    0.4299533712192007,
                    -0.5220306114845922,
                    -0.4447368932777473,
                    -0.9990436358440733,
                    -0.2000989670301732,
                    0.2254671425493436,
                    0.7569738723488166,
                    0.5405207992303627,
                    0.2667568355481411,
                    -0.03865585236549836,
                    -0.5332739209041694,
                    0.8417128183275161,
                    -0.8220430238935709,
                    0.2650809514988684,
                    -0.23577243664105485,
                    0.410483011620729,
                    -0.6737803817372686,
                    0.7288592219019149,
                    -0.10706096368911508,
                    -0.11759786221425227,
                    -0.3962831038347668,
                    0.31532096629126566,
                    0.7408398212810657,
                    -0.4474913449387854,
                    0.14143432574991102,
                    0.391678562533025,
                    0.8898932184803412,
                    0.18426455107722647,
                    -0.8600970031839843,
                    0.012357671023608838,
                    -0.7699329347975785,
                    0.36641675137530094,
                    0.507194660915793,
                    0.6755578445212272,
                    0.8091050483474185,
                    0.3597757216560535,
                    -0.9121803364978155,
                    -0.34550686339997216,
                    -0.5814595692666961,
                    0.9740042196424458,
                    -0.8094453009750199,
                    0.10446610370155121,
                    0.3595179139361573,
                    -0.6023697743560686,
                    -0.7750926751503129,
                    0.648317053236536,
                    0.3496732272604331,
                    -0.6803100155182789,
                    -0.5658481203917783,
                    -0.9587270153954235,
                    -0.5385605315238614,
                    0.4821035948829289,
                    0.5272360802697102,
                    0.22452436241763227,
                    0.4604771212082627,
                    0.16188072503968307,
                    -0.3488786917662687,
                    0.9709093037747871,
                    -1.2682517751951263,
                    -0.554628529234678,
                    -0.18568057939139826,
                    0.30787653733309744,
                    -0.28294935287209644,
                    -1.2662041110211448,
                    -0.3889222693432761,
                    -0.73980160494326,
                    -0.17178588956762444,
                    0.18183352477275316,
                    -0.4545071017067055,
                    -0.5670720884591841,
                    0.497019940971194,
                    0.10661483673729161,
                    0.5764650041144171,
                    0.3186744495667296,
                    -0.38479447452548077,
                    0.1501924676657049,
                    -0.17148072764997552,
                    0.6569376498520976,
                    -0.6168365543698194,
                    -0.3087685499878312,
                    -1.0039906872442252,
                    -0.7078245343015286,
                    0.5796199924497538,
                    0.9478282244536901,
                    0.43252659552190265,
                    -0.5562970522643689,
                    -0.9949806962746736,
                    0.9113970523013859,
                    0.018181818777976387,
                    -0.1515811805906804,
                    0.17217917521379308,
                    0.3979630036839382,
                    0.061199181743454435,
                    -0.560926577640545,
                    0.7925628523850348,
                    0.6813976215431687,
                    -0.20021257543231505,
                    -0.621730135671386,
                    0.08751792212236222,
                    0.9748788399909453,
                    -0.4648442736373805,
                    0.18770421728318357,
                    0.2526754094521928,
                    0.7682543840210698,
                    0.16459731176118272,
                    0.6864177119701761,
                    0.8735611898059373,
                    -0.9714338337225513,
                    0.2992515935008393,
                    0.38842027689757125,
                    0.3331164297200274,
                    0.6334826568943059,
                    -0.5999928026935816,
                    0.986705907868658,
                    -0.11014185684773102,
                    0.26371556893602455,
                    0.1581999536915189,
                    0.569202042784034,
                    0.5195619592664411,
                    -0.40712769805839094,
                    -0.45980917165685814,
                    -0.6202519472051058,
                    -0.04084652901052345,
                    0.265124324542703,
                    0.02040530212076861,
                    0.5409613947758551,
                    0.4217750685119868,
                    -0.09093098529439295,
                    0.5915252877300605,
                    0.017661222931873853,
                    0.7731032775854366,
                    0.7675782918085814,
                    -0.34989225109153765,
                    0.38637365178248856,
                    0.9706768089270656,
                    0.3806031372812346,
                    0.10316791648360124,
                    -0.7547263135921808,
                    0.11976763113048403,
                    0.2622560927622267,
                    -0.11947624349366548,
                    0.6619580290426901,
                    -0.7046069224675822,
                    0.7367500480744091,
                    0.6662804067002206,
                    -0.5507915685484952,
                    0.2090479827730602,
                    -0.22679941154361397,
                    -0.5888713759141179,
                    0.6792125533071784,
                    -0.033675125692559524,
                    -0.5277828361358881,
                    0.7348522159791832,
                    -0.3320722205890313,
                    0.9731402359026973,
                    0.47083576031485413,
                    -0.4424695673785334,
                    -0.9981301684008776,
                    0.3583122826137676,
                    0.7027346733111645,
                    0.9309239251996783,
                    -0.43427414408604764,
                    0.544619631227211,
                    0.721111356802427,
                    0.28011689137877394,
                    0.924906771377628,
                    -0.49833120961138294,
                    -0.8308755520581566,
                    -0.8304082029067209,
                    -0.9169067558717043,
                    0.8729798520314047,
                    0.8601597413527174,
                    0.8275525444102247,
                    -0.3284259114185169,
                    -0.07108331665529755,
                    -0.0048600654102884215,
                    0.09926337895544439,
                    -0.16064225600525794,
                    -0.048352518014970244,
                    -0.8893253289672929,
                    0.5589166385825496,
                    -0.3494880904316421,
                    0.8880884087541829,
                    0.1377432645712332,
                    -0.9160387258785079,
                    0.4097607354069867,
                    0.9133084413102268,
                    0.47866391931068797,
