{
    "networkId": "network-3",
    "status": "inactive",
    "activeCard": false,
    "layers": {
        "layer-1": {
            "errors": [],
            "layerConfig": {
                "activation": "sigmoid",
                "inputSize": "3000",
                "outputSize": "5",
                "type": "recurrent"
            },
            "layerName": "Recurrent Layer",
            "valid": true
        },
        "layer-2": {
            "errors": [],
            "layerConfig": {
                "activation": "sigmoid",
                "inputSize": "5",
                "outputSize": "1",
                "type": "recurrent"
            },
            "layerName": "Recurrent Layer",
            "valid": true
        }
    },
    "valid": true,
    "inputSize": "3000",
    "outputSize": 1,
    "network": {
        "0": {
            "input_size": 3000,
            "output_size": 5,
            "weights": [
                [
                    -0.6563872479875164,
                    0.6051097273345755,
                    -0.09509117723949963,
                    0.15433330822608185,
                    -0.694670771623331,
                    -0.8478998736245409,
                    -0.9447331907494522,
                    0.6963730909881435,
                    0.3927798732619922,
                    0.42854279371861115,
                    -0.6012271278465997,
                    0.42648001000482527,
                    -0.7994523037007666,
                    0.9468066396859551,
                    -0.21277252500953436,
                    0.4841599295938524,
                    -0.35881522568815055,
                    0.03609488863923933,
                    -0.6387074423701345,
                    0.9178931510473054,
                    -0.3199140427018543,
                    0.7942618427777058,
                    -0.7763916200867509,
                    0.3392814026882787,
                    0.14751916065418336,
                    -0.8840515540062865,
                    0.8578351425221065,
                    -0.42591221954238373,
                    -0.39968824113730894,
                    0.1409692507116181,
                    1.098654724150962,
                    0.5318566966733281,
                    -0.8039019399680565,
                    -0.8641076760149325,
                    0.6729893454013612,
                    -0.21221222773082737,
                    -0.2876930540012934,
                    1.0408439724514544,
                    0.5447363782520722,
                    -0.26773664757403814,
                    0.3581764685977378,
                    -0.5859532729182785,
                    0.5483168436914141,
                    -0.8094376776701174,
                    -0.9730998086717937,
                    0.2684673328797792,
                    0.3173932870914008,
                    0.8452605775185091,
                    -0.6987474029773225,
                    -0.8135535229070914,
                    -0.5328797738850262,
                    0.2053844328656714,
                    0.45475966259912165,
                    -0.6585780996798859,
                    -0.03291629722144528,
                    -0.7342275498444731,
                    -0.7734850913878212,
                    0.9506958746481228,
                    0.985252723679543,
                    -0.7796564422411377,
                    0.4088832479874925,
                    -0.710084001377105,
                    0.7203955104566612,
                    0.5245055387692913,
                    -0.8461258253333992,
                    0.4797453917766939,
                    0.7095783193637323,
                    0.8794481923312175,
                    0.548219253629247,
                    0.3797095614551164,
                    0.7262512325458409,
                    0.2280956743959822,
                    -0.5501010139560197,
                    -0.6375612920537327,
                    0.4285882795156967,
                    -0.6595263147490188,
                    0.18740087525368893,
                    0.8726295358601136,
                    -0.6484551838724616,
                    0.12110943605770669,
                    0.99211287845478,
                    -0.26054775438839606,
                    0.8526262396259368,
                    0.41700212511121243,
                    -0.5602064387381954,
                    0.19459227179638144,
                    0.3375026681685814,
                    -0.6162057596244771,
                    -0.01345956573672395,
                    -0.5691873445870171,
                    -0.21308102683768432,
                    0.24611265312860123,
                    0.28567357951619327,
                    -0.8868696590157135,
                    0.11403772749076951,
                    0.307154153820219,
                    -0.3759198935618285,
                    0.5003264260999456,
                    0.7286184022402455,
                    -0.6367784320377755,
                    -0.7330018613988044,
                    0.5383626035851753,
                    0.7190206531839851,
                    0.4882259534477859,
                    -0.03437751409957403,
                    -0.46508999343897545,
                    -0.26271784646468327,
                    -0.5130791585497598,
                    -0.8000247889785295,
                    -0.05882552445726284,
                    0.935616608169629,
                    -0.14877052580999137,
                    -0.48750753111540185,
                    0.8494740282757157,
                    -0.08220995219864546,
                    -0.8160438902475637,
                    -0.053774541514922725,
                    -0.8969179558805924,
                    -0.1171671957771222,
                    -0.45824995289813036,
                    0.1806127183682599,
                    -0.2827223185645114,
                    -0.09969184160140136,
                    0.8346526044401172,
                    0.5950863474317472,
                    0.8528288185647438,
                    0.9974920958346136,
                    -0.2118197562542028,
                    -0.3457371934008236,
                    0.36710003571569977,
                    0.7735254811951908,
                    0.47794508833759963,
                    -0.1319650483243942,
                    -0.10138203285182848,
                    0.1329417049981934,
                    0.29646703388550444,
                    0.22521492400635032,
                    -0.1585638987521092,
                    0.7461348825130191,
                    0.6475853336398512,
                    -0.8414594673147456,
                    1.055757760476684,
                    -0.8174583151101988,
                    -0.4729417664990717,
                    -0.9916548511211456,
                    0.7125855649866931,
                    0.5440349349755085,
                    0.46221705347422526,
                    -0.607727189088148,
                    0.9359327863500797,
                    -0.5451579360983814,
                    0.4192580277037301,
                    0.25664975376183563,
                    0.523383548272423,
                    -0.06830869464538009,
                    -0.23991479231733662,
                    0.917044214272946,
                    0.3450976600843766,
                    -0.33092184740155556,
                    -0.862499551637325,
                    0.14915392322992618,
                    0.6695965780051913,
                    0.1498137852442296,
                    -0.6369102912474,
                    0.3106780466398295,
                    -0.39869906068941985,
                    -0.12481411426149787,
                    0.034648551929150895,
                    -0.7839334702684333,
                    0.09819650131002607,
                    -0.9588731933070236,
                    -0.28015767541801245,
                    0.7348601920683497,
                    -0.6305464312073246,
                    0.4572587541736232,
                    -0.8341625041557955,
                    0.4720277614521614,
                    0.6296163499768663,
                    -0.8543440232123422,
                    -0.15566643796578875,
                    -0.198783589743668,
                    -0.2145757089973025,
                    -0.5683682271089187,
                    0.9044444401282391,
                    0.07742736185380455,
                    0.033146799161377964,
                    0.8414537544042212,
                    0.287996600379607,
                    -0.18303452097768286,
                    0.8069469103712087,
                    0.24696649024525724,
                    0.5574407297915634,
                    0.21767601342686616,
                    0.9600964059983481,
                    -0.7824399446317485,
                    0.5975688081519603,
                    0.6562690171020888,
                    -0.6942351023640022,
                    0.4686876167147382,
                    -0.9801279421029648,
                    -0.15686117632077826,
                    0.9500712232059251,
                    0.7297242960243597,
                    0.9414765056317248,
                    0.7709350244773102,
                    0.9385718312829819,
                    -0.059161157796804316,
                    -0.6773687377001116,
                    -0.9949621427252878,
                    0.3781121691628956,
                    -0.2984104953130145,
                    -0.10422022997300795,
                    0.3924198151520859,
                    0.08642942059319067,
                    0.6634333766374183,
                    0.901442319621665,
                    -0.846797776603977,
                    -0.27136440439783044,
                    0.09667696465900336,
                    -0.9702997983410576,
                    -0.8882248148599217,
                    -0.29279296576126856,
                    -0.4427623187685901,
                    0.9083627266143114,
                    0.1414939604550985,
                    0.6590317261754874,
                    0.4086999470086974,
                    -0.6827413491077008,
                    0.6645823227675752,
                    -0.35033782388856555,
                    0.4980726154455104,
                    -0.5220490501941667,
                    0.7936043764978397,
                    -0.14992374763931823,
                    0.23443869045812857,
                    -0.4657813149814598,
                    -0.7150666609670007,
                    0.0018279672996428967,
                    -0.2150532516194377,
                    0.49281276979966276,
                    0.6085896838204521,
                    -0.8646726805055297,
                    -0.4278086586215774,
                    -0.587838734726946,
                    -0.6689176885749816,
                    0.8851906884483141,
                    -0.23744380471024415,
                    -0.06871968285107122,
                    -0.47390477330307085,
                    -0.288408439046442,
                    -0.7128315942375734,
                    0.7794318474194531,
                    0.16542607147484953,
                    -0.7692554666751645,
                    0.816419959035393,
                    0.3673649319028403,
                    0.9682523803478822,
                    0.9740446437196795,
                    -0.08365893799681291,
                    0.5189076491235365,
                    0.012078614760640545,
                    0.35764754166436186,
                    0.155392233565854,
                    0.5867678321269262,
                    0.4656941998968019,
                    -0.39511759069133473,
                    1.0299470344146642,
                    0.03020317452562626,
                    -0.29797546727829927,
                    -0.8278127040197857,
                    0.19155028173714242,
                    -0.3932632105292877,
                    0.5716349071470059,
                    -0.02660516205944946,
                    0.33024021705930756,
                    0.9222867036683123,
                    -0.618313996223366,
                    0.8351532213160056,
                    -0.331436350662299,
                    0.1399601356235581,
                    -0.4214924690116025,
                    -0.5412113052882676,
                    -0.9061116103562403,
                    0.015708151564909616,
                    -0.562602845503951,
                    0.8209055777014126,
                    -0.8453534969741197,
                    -0.16202686677104877,
                    0.9189488081596439,
                    0.17866845235146572,
                    0.5629207350996186,
                    -0.925374556094911,
                    0.38790554260908944,
                    0.569421115255262,
                    0.7545290998212265,
                    -0.5924463741906645,
                    -0.5753681885508846,
                    -0.013575849215063454,
                    -0.5261857341257569,
                    -0.24179428467389613,
                    0.5370093820012145,
                    -0.6527709919864259,
                    0.9559322104483304,
                    0.6296881895467817,
                    0.2607422092085952,
                    -0.7128734449914509,
                    0.04559707045874268,
                    0.880931034336556,
                    0.9301503091199085,
                    -0.17800991300251506,
                    0.6843198948362774,
                    0.5517464329972814,
                    -0.03994844429948081,
                    0.03384658960075192,
                    0.013566189285014638,
                    -0.7298799918500982,
                    0.4532644662931265,
                    0.895310712127668,
                    -0.23282328844535896,
                    0.3557024571176962,
                    -0.7181361668791384,
                    -0.695292956523405,
                    0.9935919525049163,
                    -0.2359648345801643,
                    0.7938494588614629,
                    -0.8951568456721792,
                    -0.3570024618286086,
                    0.8650464401573092,
                    -0.6120313812376393,
                    -0.4906024510754244,
                    0.11347835247549859,
                    -0.09975044556400055,
                    0.662895544739601,
                    0.5831178246891394,
                    0.945690797773589,
                    -0.03527970176416634,
                    -0.7483932451650513,
                    0.1610904177237478,
                    0.5398285356871202,
                    -0.310123153174501,
                    1.0063156689937631,
                    -0.2674959674952119,
                    -0.06516562401959033,
                    -0.8297274215159549,
                    -0.330664009235579,
                    0.8889017360120645,
                    0.34918555553614133,
                    0.20451900226983383,
                    0.6192266430021325,
                    0.30325116947201314,
                    0.37108955450163633,
                    -0.5194537999450782,
                    0.06797916802704952,
                    0.027759867958437347,
                    -0.8090838278826475,
                    0.6997926881123687,
                    -0.8618864447629254,
                    -0.014240103625279147,
                    -0.7690092536730708,
                    -0.8611401566688652,
                    -0.48953234070303026,
                    -0.8816238067915793,
                    0.9136707137265692,
                    0.7814104031858227,
                    -0.4925692098260967,
                    0.7849178024668565,
                    0.5082269106051545,
                    0.24175572213441274,
                    0.051577765137327855,
                    -0.9009700582320649,
                    0.4897471104261487,
                    0.2319886888652431,
                    -0.9037525738943298,
                    0.2728344282975621,
                    -0.05699586974232087,
                    0.6888943447590296,
                    -0.8597426417265096,
                    0.44733524378309786,
                    -0.23589902290041867,
                    -0.33941089958603826,
                    0.2049729392049073,
                    0.6219265786743614,
                    -0.8918069468243212,
                    0.6784759499138028,
                    0.16465741807777753,
                    -0.006840174209805776,
                    -0.43785253930345347,
                    0.9399709085449114,
                    0.6092554999817259,
                    0.035436602414192706,
                    -0.9733714289639172,
                    -0.9548151768816331,
                    0.3356848256315995,
                    -0.06685653516554042,
                    -0.7402529536966888,
                    -0.32440437923433885,
                    -0.5792234166997093,
                    -0.6330386099111748,
                    0.2523228003991452,
                    0.49534969511608035,
                    0.798852939792462,
                    0.46166648891467765,
                    -0.23260839542202366,
                    0.35522025537492974,
                    -0.74367865877315,
                    0.3306590729519008,
                    -0.11884937846331227,
                    0.9405963676084567,
                    -0.45825971007250654,
                    -0.7818071757825292,
                    -0.9159210619209005,
                    0.15797087724100387,
                    0.7482385625191136,
                    0.44162128110000676,
                    -0.8328844461750671,
                    -0.12821199626541205,
                    -0.16070004378058725,
                    0.1636316065911858,
                    0.9160471770056304,
                    0.40673721547444186,
                    -0.3033997655663291,
                    -0.15753498194213822,
                    -0.6037891104946053,
                    0.3309965825855482,
                    0.2543117138248853,
                    -0.6038031289570047,
                    -0.6242227411461628,
                    0.7300358855618345,
                    -0.7033660686356884,
                    -0.5847692148938645,
                    -0.9320019573137552,
                    0.2842285682117403,
                    -0.3241571132522389,
                    0.5541083176625364,
                    -0.46320954331083114,
                    -0.6203017132036684,
                    -0.7298963024208402,
                    -0.15906888129630303,
                    0.41367348927569714,
                    0.1542007196972153,
                    -0.09308088746156196,
                    0.9451712145586437,
                    -0.9779135052913273,
                    -0.8463450358492582,
                    -0.33700948636330275,
                    -0.24766663586261878,
                    0.8826631514922845,
                    0.23120983936396405,
                    0.793796319622975,
                    0.09854003455312986,
                    0.9129018305039925,
                    0.10920273844321185,
                    -0.5746773809315048,
                    -0.8543471543612762,
                    0.05129553057082932,
                    -0.41404811930775615,
                    -0.7310332768599647,
                    -0.16374413826848705,
                    -0.09585797299748866,
                    0.7717228302271789,
                    -0.8908969102669213,
                    0.0074965528815727185,
                    1.0216593725624614,
                    -0.7754158862700349,
                    0.6503705047550016,
                    0.5788700512338477,
                    0.07607220753818704,
                    -0.6746474195693007,
                    0.6331314185692021,
                    0.4491842447405086,
                    0.992537214823473,
                    0.2984989648704497,
                    0.5268128576896461,
                    -0.6829027401195982,
                    -0.0674565524630546,
                    -0.16051952407747913,
                    0.5480738027371681,
                    0.2872715018833339,
                    0.880162791575691,
                    0.46296711120380896,
                    0.863654994075942,
                    0.9434708578572503,
                    -0.48696144403848574,
                    0.9479788859873247,
                    0.6862520139661947,
                    -0.37118319944420836,
                    -0.2496458693084914,
                    0.4552397138378528,
                    0.8361930271040373,
                    1.0003764724610582,
                    -0.29654096164249993,
                    -0.7528361667745286,
                    -0.46447825749257665,
                    0.9163682838710296,
                    -0.744273062248883,
                    -0.7685771005279187,
                    0.5108816193551531,
                    0.979870991399177,
                    0.11185131822828512,
                    0.6146551265381955,
                    0.3928801528835109,
                    0.0313036971049841,
                    0.08650118636297201,
                    0.09816206509282345,
                    0.2134108717751965,
                    -0.30567342584800733,
                    0.9458486730961836,
                    -0.7218318040538343,
                    -0.01908594642278576,
                    0.3904261701415216,
                    0.13965205831946542,
                    -0.8820432592166827,
                    0.45771574363207773,
                    -0.5638763563776192,
                    0.25871482504493853,
                    0.35681868709890824,
                    -0.690172396288588,
                    0.921191924495096,
                    -0.8855012488267362,
                    -0.7310668986239477,
                    0.7655371853490961,
                    0.7393434209818057,
                    -0.5437506540922364,
                    0.832417069479837,
                    -0.43227724711595633,
                    0.935091791417629,
                    0.9316121608510481,
                    0.48580762492173946,
                    0.6989287944793324,
                    -0.8172795124146273,
                    -0.8787521815412386,
                    -0.6277964674315707,
                    0.7195810863561398,
                    -0.5734494101388826,
                    -0.15904884021205082,
                    0.9620289470140408,
                    0.2813834027487219,
                    0.15046242629612425,
                    -0.3256959142907194,
                    -0.48136005521960534,
                    -0.8796771022153533,
                    -0.5486905754532521,
                    0.4455014059022345,
                    0.9345551746484442,
                    -0.5241181895073237,
                    0.35278193461799956,
                    -0.17847280613551036,
                    -0.2622625806520719,
                    0.8878831124817375,
                    -0.6853498623757986,
                    0.94893161499671,
                    0.8761354361034455,
                    0.9258128199813788,
                    -0.654452189672081,
                    0.367057039330617,
                    0.7217793827130475,
                    0.0034267714570628163,
                    0.732884027441362,
                    -0.9322025942516099,
                    0.32443579753016405,
                    0.5153663064115978,
                    0.32913832064364784,
                    -0.8256315311629888,
                    0.7180891012328822,
                    0.5480324845392706,
                    -0.2380108673811763,
                    -0.9034667953542549,
                    0.897931488355794,
                    -0.9074552090044673,
                    0.5717120750511789,
                    -0.878697659628993,
                    -0.652047901982202,
                    0.40104172966272134,
                    -0.6476585373892444,
                    0.7532456939495733,
                    0.4326941870180328,
                    0.06101317443579366,
                    0.03551989719064109,
                    0.6354429763831524,
                    0.8268609053898621,
                    -0.1921892243085093,
                    -0.7952693564323806,
                    0.70899503345998,
                    -0.36571295418591276,
                    -0.2217839511942997,
                    0.47422490259029876,
                    0.25057274426639753,
                    0.7131622478476393,
                    0.13786110611355246,
                    -0.8576921911843931,
                    -0.4575911492987112,
                    0.37448771519099405,
                    -0.6780437501080075,
                    0.9524163153825208,
                    -0.5640913462258108,
                    -0.1082593157935284,
                    0.6567842657414096,
                    -0.8504410562278978,
                    0.2608852453236661,
                    -0.9569387369178778,
                    -0.042423501653127395,
                    -0.03737802836364128,
                    -0.6615511241113553,
                    0.00697230624917875,
                    -0.5530502664681313,
                    -0.21059200924986995,
                    -0.12008854727269676,
                    0.9056600735598529,
                    0.7008639398881157,
                    0.3625202626063781,
                    -1.0351133574297722,
                    -0.9397255933523594,
                    -0.48947398768745953,
                    -0.23596324888829212,
                    0.890220998933883,
                    -0.03604072763333979,
                    0.7383351512022898,
                    -0.9727586604282902,
                    0.310266960786212,
                    0.07158105699337379,
                    0.9518017558975511,
                    -0.6648535967346065,
                    -0.6629998105211092,
                    -0.29873828285847936,
                    0.3116054305245701,
                    -0.4564411556005287,
                    0.13869496606601553,
                    0.668040918544193,
                    -0.22582153533651633,
                    -0.6406112001397197,
                    -0.02367819028706365,
                    0.05340419798555683,
                    -0.8109118361720677,
                    0.860843821386823,
                    -0.9787779790460343,
                    0.6372860191638552,
                    -0.9947930752372354,
                    -0.546192104330944,
                    -0.0283531658077756,
                    0.3399860180451936,
                    0.8037541330505604,
                    0.8694911095791406,
                    0.013360047367173307,
                    -0.866232708494636,
                    0.8480169650955331,
                    -0.04701731189544359,
                    0.26780275684984484,
                    0.4741217483083445,
                    -0.47355740026665816,
                    -0.28562310652639655,
                    -0.617119370494098,
                    0.8544625537069669,
                    -0.7485520484169189,
                    -0.7489136146199038,
                    0.8072159093319407,
                    -0.7815456507559654,
                    0.38209178260005205,
                    -0.7091773332112812,
                    0.43704551205556824,
                    -0.7307954036678262,
                    0.49212819455241585,
                    -0.36706582122263975,
                    0.12698117523712169,
                    0.38049240119970407,
                    -0.8767071234127535,
                    0.06415263889086378,
                    0.7426378461003467,
                    -0.44866161964780793,
                    -0.8233197927543174,
                    0.5497310708942386,
                    0.8789381830202476,
                    -0.8326489067560712,
                    -0.8316935140273287,
                    -0.6632063539279496,
                    -0.8987648232819734,
                    0.621481328611716,
                    0.9004629336845046,
                    -0.8206110971289159,
                    0.47379202673418463,
                    -0.8421412919770292,
                    -0.36477841563740193,
                    0.5255165507440741,
                    0.2078715875987027,
                    0.043619076428905584,
                    0.7272327115006099,
                    -0.4576652266803999,
                    0.6730796298298746,
                    -0.3007144674793731,
                    -0.08061712984409102,
                    -0.22157544912415872,
                    0.8105773639010545,
                    0.6409393710318714,
                    -0.2527843927944497,
                    -0.5277794347389628,
                    0.20644032669268306,
                    0.5476135829588058,
                    0.6802130315822384,
                    0.5654086276651239,
                    -0.7276513809027253,
                    -0.2013329760220342,
                    0.5889223689400075,
                    0.3237479992443473,
                    0.542384229284853,
                    -0.8497739578177741,
                    0.4574786267096823,
                    0.5766302732621642,
                    0.7022384233297715,
                    0.029310735188714725,
                    -0.5700277730041863,
                    0.811283393276275,
                    -0.2938706940624193,
                    -0.01800738742584682,
                    0.11247774273052158,
                    -0.581617213739911,
                    0.32340315620501925,
                    -0.3586284148180126,
                    -0.28392184466503156,
                    0.40247666597954873,
                    -0.15895202760544627,
                    0.6887720408927317,
                    -0.596919688694696,
                    -0.596168099218325,
                    -0.46028604412377555,
                    -0.9696527632300105,
                    0.8403127677896028,
                    0.10474653298516005,
                    -0.9423975571664341,
                    -0.8339954921012629,
                    -0.8529788506305593,
                    0.3783289074518068,
                    0.6913342206659913,
                    0.9104210123783189,
                    0.449094658263792,
                    0.18924531510290687,
                    -0.4006005913204643,
                    -0.29320495101867716,
                    0.7687253755520697,
                    0.23998464614412449,
                    0.8628536929261542,
                    -0.2881447217727829,
                    -1.0113654004166512,
                    0.9934591804694569,
                    0.9576467093632964,
                    0.6448317552341883,
                    -0.753076486717321,
                    -0.26604356221670594,
                    0.6306146298646416,
                    0.9551370062649334,
                    0.8601406258977533,
                    0.21539357281047605,
                    -0.7271359032167013,
                    0.40561467379258476,
                    -0.41320941056018545,
                    -0.2432592180869533,
                    -0.9168585852586548,
                    -0.5074824472122003,
                    -0.10647994743602875,
                    0.44809590260782056,
                    0.16425827427257833,
                    0.8646771196911658,
                    0.1493178949983466,
                    0.6648619279483259,
                    -0.13481637048877035,
                    -0.8418579176371557,
                    0.09947849821706557,
                    0.46232349679608997,
                    -0.520235730492406,
                    -0.4686091617111096,
                    0.38349767842564836,
                    -0.5273443651401322,
                    0.10195799972565542,
                    -0.9919915478922819,
                    0.5363531169462448,
                    -0.6315813631157784,
                    0.20859504210223542,
                    -0.7598946540284268,
                    -0.41103125398701007,
                    0.3001088687219928,
                    0.7847144616308052,
                    0.7985336505529567,
                    0.21942363368681242,
                    0.9074020742841228,
                    0.9919603013683868,
                    -0.6247791404293805,
                    -0.6663271292355475,
                    0.9445207806348936,
                    0.585670538757836,
                    0.3253304804151213,
                    0.0844525014247166,
                    0.29937954411907514,
                    -0.17601343007507347,
                    0.985387604141742,
                    -0.6534620661799427,
                    -0.7135804465313839,
                    0.8516607115491373,
                    0.009663080394944176,
                    -0.05224821782762858,
                    -0.1419295316482904,
                    -0.4288899468593443,
                    0.7612590294723773,
                    -0.8382899089306859,
                    -0.8581497782392118,
                    -0.8919149072548739,
                    -0.04501825098150947,
                    0.19938381533225127,
                    -0.19390306880397823,
                    0.2643164204673426,
                    0.1417862611476158,
                    0.856524579303294,
                    -0.38880717466074766,
                    0.14625123048583968,
                    0.9686162417275147,
                    -0.524634094948427,
                    0.0025206099389317423,
                    -0.39807472864599086,
                    -0.23453934344056543,
                    0.366057613491077,
                    0.25796303689955163,
                    0.7369031499044046,
                    -0.6207682843514325,
                    0.6100093065727659,
                    -0.06754618530757704,
                    -0.6001895640380851,
                    -0.6435964703124208,
                    0.13045742574170904,
                    0.3928448089181172,
                    -0.42430269684141525,
                    0.3868432786993984,
                    0.2574980723893964,
                    0.03840652881214214,
                    0.5222956010808592,
                    0.3022510261988423,
                    0.9388518149190053,
                    0.3091527939475948,
                    0.07077274711473208,
                    -0.2959147244684959,
                    -0.042427179026744526,
                    0.3594878205237209,
                    -0.7540757237862427,
                    -0.285296447597637,
                    0.3115973002211997,
                    -0.32528339791074407,
                    0.7510360515978491,
                    0.6261010707232878,
                    0.4554153419070392,
                    -0.9185205442385799,
                    0.32743551812741706,
                    -0.43324925719311264,
                    0.8753375885877867,
                    -0.0192228499656514,
                    -0.21282730771477387,
                    -0.6491107830132656,
                    0.8009686775423979,
                    -0.687282621487814,
                    0.9824922680276206,
                    -0.27188344787254815,
                    -0.10208578970988648,
                    -0.5009934224509462,
                    0.32449923061388286,
                    -0.27722874580974255,
                    0.3913409063749166,
                    -0.7936115116041834,
                    -0.5457560812092754,
                    0.6738448882211285,
                    0.3652900201333111,
                    -0.404750171404152,
                    0.8303864484090437,
                    0.4805350651540686,
                    0.32122008976090277,
                    0.6866404527252897,
                    -0.963213030981044,
                    0.4677272392675466,
                    0.00048289982839865535,
                    0.17412356112804242,
                    -0.6418485657057326,
                    -0.45142701310729283,
                    -0.7226242261803317,
                    -0.14773848808626472,
                    0.055192736066389074,
                    0.25853883669440325,
                    -0.6987538857915542,
                    -0.27832324248264184,
                    -0.9374092875341157,
                    0.4438688024874532,
                    -0.6880302781162254,
                    0.15707188420092583,
                    0.2803197483694388,
                    -0.3426432563847481,
                    -0.7173321491538764,
                    0.9738805634276707,
                    -0.1242785965847712,
                    -0.30783143314518885,
                    -0.24821914801742828,
                    0.4411806132904468,
                    -0.8964454216598868,
                    0.46877296876777697,
                    0.2030772391608566,
                    -0.7850422917819906,
                    0.07181807879723645,
                    -0.16250357688909037,
                    -0.6677502065218929,
                    0.8983746897031805,
                    0.07056925755578206,
                    0.44173409258760565,
                    -0.37326697888076044,
                    -0.04566147650686837,
                    0.9304863101833213,
                    0.25020720991847367,
                    -0.4777995715777229,
                    0.30235387790445445,
                    -0.20203911576799408,
                    0.9693354301410692,
                    0.2717170617193559,
                    0.2743454021606866,
                    1.003850314214272,
                    0.2180948810660209,
                    -1.0796328318147295,
                    -0.7579659875780104,
                    0.6376289532001708,
                    -0.28548512667915793,
                    -0.0943081236754031,
                    0.4203684110416521,
                    0.3809997617111262,
                    0.3005414275367134,
                    -0.6125718632736896,
                    -0.3040041546168437,
                    -0.20197498645907427,
                    -0.4933560911340157,
                    0.8177610458995936,
                    -0.600384003239876,
                    -0.9747729862457546,
                    -0.901794546088055,
                    -0.8325037096197563,
                    -0.49527036788466927,
                    -0.9681605709103219,
                    -0.9629732362827719,
                    0.96937505059117,
                    -0.38132526791484156,
                    0.7288381515539947,
                    -0.5652049271480235,
                    0.30346600383229605,
                    -0.5925636092767789,
                    -0.7830182358366173,
                    -0.975147270605549,
                    0.7500685804278397,
                    0.16250045113954312,
                    0.857166146312451,
                    -0.29756146336959977,
                    -0.41002789139743745,
                    -0.22120678123130197,
                    0.12270466326745812,
                    0.20127155426381552,
                    -0.1668330020262717,
                    -0.5720738978742153,
                    -0.25446664779736183,
                    -0.48593245131762913,
                    -0.44645838308540153,
                    -0.7770646864489529,
                    0.6129486285983304,
                    0.3438437661985729,
                    -0.09143236479239165,
                    0.7313669137972209,
                    0.9340532329992374,
                    -0.577757695978273,
                    0.23991354797693923,
                    -0.03444023672870393,
                    -0.49547561953995034,
                    0.7572015599442526,
                    -0.9789557364473718,
                    0.9984785018047759,
                    -0.36086749290151604,
                    0.19954889045227253,
                    0.6317978248994268,
                    -0.3830649476679042,
                    -0.4557364489678442,
                    0.7340445436492408,
                    -0.387892698680353,
                    0.8863345652763036,
                    0.2917163010359423,
                    -0.47301840233115955,
                    0.723459713518839,
                    0.09058429773603562,
                    0.7327954860035096,
                    0.8249153443909883,
                    0.3173969021729077,
                    0.5119087272198246,
                    -0.7214669323566059,
                    -0.4876417673936727,
                    0.44889429455595314,
                    -0.41335830786943606,
                    -0.05874936729058656,
                    0.8346456973403977,
                    -0.7030892797421197,
                    -0.43221205065264634,
                    -0.7799708200670014,
                    -0.10702993543816515,
                    -0.9341680022812059,
                    -0.16108926776601717,
                    -0.5360000661578868,
                    -0.5766198916272596,
                    -0.5111750495077284,
                    -0.8178014362848306,
                    0.8131328002505054,
                    -0.14491218729015498,
                    -0.2446057937922669,
                    0.38308751731033946,
                    -0.33379490239048715,
                    -0.1408528989786065,
                    -0.3563149580253871,
                    0.1169376295610118,
                    -0.1615123687390398,
                    -0.39024138088053706,
                    -0.6211361351990923,
                    0.13445098949095552,
                    -0.0028537186076600463,
                    -0.6006768083140115,
                    -0.24259766822850634,
                    -0.8595508484463359,
                    -0.539225604567039,
                    0.4019283135517391,
                    0.28947701304279894,
                    0.9517283206813644,
                    0.40331376092570126,
                    0.6451317070889078,
                    0.9423384985332572,
                    -0.7431331598239749,
                    -0.23641188211273453,
                    -0.827208306390324,
                    -0.639682718316023,
                    -0.11602328228897887,
                    -0.17874483324145254,
                    0.32480972660502355,
                    -0.2492676512105371,
                    -0.521303981896421,
                    -0.599425197868265,
                    0.8145434086256116,
                    -0.7315135400750848,
                    0.042166602645748175,
                    0.42658269274980987,
                    0.22858152788062985,
                    0.2917336180077125,
                    -0.050229479243367944,
                    0.6768541907600787,
                    -0.9727979600686977,
                    -0.27790080525883837,
                    -0.6336193523629804,
                    -0.9097207251690766,
                    -0.283883271411863,
                    0.8756161123488606,
                    0.8923838964691437,
                    -0.8559295766535806,
                    -0.9745748301186472,
                    -0.2655594209571028,
                    -0.5965111734257925,
                    -0.43697720046506355,
                    0.29308339253349225,
                    -0.26777155967083566,
                    -0.5555528887295572,
                    0.562331596874811,
                    0.33343865338368645,
                    -0.6796206029986888,
                    0.6051146925436206,
                    0.03427441002109672,
                    -0.376236257518094,
                    -0.5786922547975523,
                    0.6472591379632983,
                    -0.05792149869242311,
                    -0.1259076933341442,
                    -0.33251542731367,
                    -0.7717448283083929,
                    -0.040942277602809884,
                    -0.9444508132965376,
                    0.7052126469979251,
                    0.3162788655132706,
                    0.5044237340744768,
                    0.38508256802536905,
                    0.4016464497913949,
                    -0.03226717466675787,
                    0.2618956964148812,
                    0.1629459495584607,
                    0.5913346293008364,
                    -0.6873674774682462,
                    -0.2151429791112818,
                    0.18599539104235402,
                    0.48039107180059487,
                    0.265959256241558,
                    0.29096550499841384,
                    -0.2703655405374419,
                    0.7993789056205465,
                    0.44452215286996327,
                    0.7374578435519161,
                    0.9673922974906054,
                    -0.4394560334059589,
                    -0.7865545400574745,
                    -0.8960376627002731,
                    -0.08119138989102952,
                    0.4844452686705414,
                    -0.7251982954338788,
                    0.49696500028523455,
                    -0.4727773828133594,
                    -0.0556092110806183,
                    0.30959313368275654,
                    -1.0076360147818304,
                    0.7457072979975559,
                    0.9777730272085589,
                    -0.5516236695223021,
                    -0.08431865104547018,
                    -0.3456096299309885,
                    -0.3516736808004322,
                    -0.35249772435644944,
                    -0.7326865787547324,
                    0.5174187788122596,
                    -0.26441979053332443,
                    -0.829639143344126,
                    -0.37799255703209017,
                    -0.47757222471088634,
                    0.7636828351019761,
                    -0.21152027799474102,
                    0.78786692320557,
                    0.03217042077743324,
                    0.923502901497736,
                    0.530324087892849,
                    -0.29492140387117827,
                    -0.21026697446186018,
                    0.02969849520607805,
                    -0.8206643402939013,
                    -0.6284923235646737,
                    0.48798748001542364,
                    -0.5844640971577671,
                    -0.8140176343925837,
                    -0.08877493906343834,
                    0.9487887025528816,
                    -0.7076805602160637,
                    -0.3290005421710715,
                    0.9454994132865856,
                    -0.13248033706540366,
                    -0.9954032654591879,
                    -0.45340412886005105,
                    0.5278170911291146,
                    -0.5912023710774124,
                    -0.02787922382896475,
                    0.234291315728864,
                    0.05561056365627665,
                    0.28393558736774127,
                    -0.6775615573255065,
                    0.2998101678078171,
                    -0.23710589545320768,
                    -0.30899472275889667,
                    -0.5472664839251793,
                    -0.08804760779540906,
                    0.6046607877584868,
                    0.6664187521923705,
                    0.34883404374916116,
                    -0.014485742694801493,
                    -0.38254325179241316,
                    0.00819182438209518,
                    0.6126280288651966,
                    -0.5719159516179981,
                    0.7107662432576312,
                    -0.3949932764469516,
                    0.1900943837562154,
                    0.30416395978772864,
                    -0.5899142284094916,
                    0.26769175458803357,
                    0.3163510449527687,
                    0.19560615997690614,
                    -0.9108746324870984,
                    0.6398037819917907,
                    0.17240342804946754,
                    0.6013446496124927,
                    0.9519723356463097,
                    -0.10672751896770145,
                    -0.3351918840709735,
                    -0.20115045067471166,
                    -0.4100527848907992,
                    0.8893580398256749,
                    -0.48497383844365294,
                    0.3126277259640735,
                    -0.673127115654729,
                    -0.7657495947173599,
                    0.005933758282587308,
                    0.9543512223605409,
                    -0.4190626645271225,
                    0.32238508107569847,
                    -0.27332472695033383,
                    -0.8835712979043828,
                    0.28714217629593064,
                    0.02563997985496953,
                    -0.46293114335884616,
                    0.36609617965175617,
                    -0.15077338913854332,
                    -0.6709290617164686,
                    0.2235662646720779,
                    0.34987997925969505,
                    -0.5600586367642094,
                    0.8155306008851553,
                    0.27777896391224993,
                    -0.7587120606894162,
                    -0.13581038541592133,
                    -0.4590884700257045,
                    0.8883897962628944,
                    -0.4854452148806993,
                    0.4778057067869654,
                    0.9628552931145473,
                    -0.6144025101435887,
                    -0.6311013904049364,
                    0.8815135712835597,
                    0.49588066477575815,
                    0.9260665867534856,
                    0.5354745656277949,
                    0.23917357991120733,
                    0.33537880958138766,
                    -0.04355607945065915,
                    0.6737296083367031,
                    0.7420603658909732,
                    0.37975963662517065,
                    -0.7185246910404154,
                    0.9812651834768148,
                    0.4522915919831446,
                    0.24384760387831644,
                    -0.9794332631014191,
                    0.2169876424618723,
                    0.6999602926523185,
                    -0.5434310979021452,
                    0.6807574520534807,
                    0.11344265557095616,
                    -0.6095793011923277,
                    -0.777333788732729,
                    0.2729184070726211,
                    0.9179708710998915,
                    -0.0427442373889794,
                    0.8466022291535624,
                    -0.5082158677027335,
                    -0.8756320696575883,
                    0.8440512938064664,
                    0.6703574853522196,
                    -0.24177230430052585,
                    -0.5571330648729008,
                    0.657810817636495,
                    -0.5797778251051121,
                    0.6867651070519339,
                    -0.6747309724388559,
                    -0.5886636625511128,
                    -0.3842901901279473,
                    0.911721183164838,
                    -0.8699855437852847,
                    0.525022940207293,
                    -0.47241103060518636,
                    0.7383729677492945,
                    0.8277063981682158,
                    -0.5144041565550118,
                    -0.40107026730683,
                    -0.9723082211925814,
                    0.07988934048742788,
                    -0.1377851867215473,
                    -0.9390350706339448,
                    0.6114116177630373,
                    0.6895847064147946,
                    -0.4619670186571446,
                    0.2529104830573024,
                    0.4698652682889321,
                    0.463663205070341,
                    -0.37356231396473966,
                    0.8366312828109421,
                    0.298656996215069,
                    0.25792829291305924,
                    0.2761768816119616,
                    0.271501872481309,
                    -0.8424871963619031,
                    -0.14802695028235122,
                    0.652637131712814,
                    0.3859030148486311,
                    0.38722417293497424,
                    0.31722433914398507,
                    0.4094433142051712,
                    -0.5548350350177562,
                    -0.5776642108551732,
                    -0.8506307792407272,
                    0.5976556953932235,
                    0.11042509243737181,
                    -0.3995325602834716,
                    0.5956774364278721,
                    -0.14002898203966663,
                    0.750545044457948,
                    -0.40322374413472845,
                    0.982592026983252,
                    0.6853128875429426,
                    -0.9694559730607059,
                    0.3761994958948265,
                    -0.6803356717826038,
                    -0.07458428393171124,
                    -0.07144196883904501,
                    0.6718954425398291,
                    0.018824600374469713,
                    0.1519455661401638,
                    0.27537281069055597,
                    -0.27757163588730294,
                    -0.9645818920719269,
                    0.3070727212552607,
                    -0.8385957038701227,
                    -0.24156258156614638,
                    0.733374001264863,
                    0.1336697506241411,
                    -0.9085535169745437,
                    0.3140707885185413,
                    -0.3803019876876274,
                    0.12887044185459828,
                    0.6161863047262637,
                    0.8554668353300702,
                    0.20322601406469346,
                    -0.5874568577078244,
                    0.07162936214515973,
                    0.053121997997757055,
                    0.4781982583230726,
                    -0.3536781275781012,
                    -0.3659124020366026,
                    -0.8700333451805311,
                    -0.41046139024586775,
                    0.027192628706983964,
                    -0.7519982762303153,
                    -0.5860616531802555,
                    -0.4825572375855291,
                    -0.7909934794892827,
                    -0.9604703256163306,
                    0.4044692288219781,
                    0.9390832729481469,
                    -0.9639338733538585,
                    0.0013725632674298294,
                    0.3763330184800496,
                    0.3091528396379173,
                    -0.6112382521658656,
                    0.058548728976357024,
                    -0.5412196574431668,
                    0.2229420845771192,
                    0.809221331468446,
                    0.45457419240804436,
                    0.251047826047406,
                    -0.20120277240856874,
                    0.5955814870034198,
                    0.06206213821717258,
                    0.7407168207905748,
                    0.3199621619415292,
                    0.1228096280468094,
                    -0.11058348299907608,
                    0.2866798384206408,
                    0.6607099450689715,
                    -0.955336036912059,
                    -0.7270827796705106,
                    0.9480596386966913,
                    -0.4621274031585362,
                    0.9555093051408963,
                    -0.34998173068804467,
                    -0.7727658354065378,
                    0.7719795444520351,
                    -0.07830014304700543,
                    0.7363253641270249,
                    -0.028380942522434952,
                    0.26677108617405443,
                    0.4187626903134139,
                    -0.8267917947185179,
                    0.31448768689977463,
                    0.8514949456264365,
                    0.35158020289126446,
                    0.9707041872086724,
                    0.9138684140908176,
                    0.6192621688601125,
                    0.7025887468092599,
                    0.38283721208213234,
                    -0.4650004628988131,
                    0.48037153685231926,
                    0.6614146311289463,
                    0.9666105454645835,
                    0.9595782534398812,
                    -0.8321331348090301,
                    -0.9762732164186452,
                    -0.49382359075676313,
                    -0.305833169263793,
                    -0.7622733970450649,
                    0.5434435343178258,
                    0.3827786830930584,
                    0.5527446118638931,
                    -0.7364700072732466,
                    0.606068634941501,
                    -0.6993627912452041,
                    -0.19557700245853918,
                    0.34126248646423674,
                    -0.4852231872597183,
                    0.34472061579779595,
                    0.3031092598706186,
                    -0.707872822951143,
                    -0.8028701046656327,
                    0.11485959348330732,
                    0.06122855895497099,
                    -0.12144543909555239,
                    -0.86851063287515,
                    0.28176435270437195,
                    0.7828127090124486,
                    -0.7311227766989488,
                    1.0011259990990489,
                    -0.661880754422251,
                    -0.7215658361295457,
                    0.17692734128518925,
                    0.7975820805482327,
                    0.8596873353008861,
                    -0.9629450418160022,
                    -0.6382004805184287,
                    -0.9473668772906472,
                    0.4547224312782935,
                    0.46702096294763773,
                    0.798776962222724,
                    0.687500692975192,
                    -0.9967353416543623,
                    -0.24374433710452204,
                    -0.1364295661301162,
                    0.9479823179192819,
                    0.9122944322946845,
                    0.46743583636989217,
                    0.7997041656445284,
                    -0.15098612101881062,
                    0.5149528027784506,
                    -0.03687242043541277,
                    -0.18413127391848588,
                    -0.15247310233068634,
                    0.5557079205280832,
                    -0.22965946320744465,
                    0.615587991731777,
                    -0.6880865585528434,
                    0.5414539810429913,
                    0.5932897916465099,
                    0.970696179789782,
                    0.5769095085168744,
                    0.06766084334346027,
                    -0.6194589938936638,
                    0.17424280791157484,
                    -0.17404890867726344,
                    -0.8929585472389041,
                    -0.01178997859422579,
                    0.37951077090202634,
                    -0.9792640190521511,
                    0.6839787479001724,
                    0.7013804168714153,
                    0.7156944054474356,
                    -0.030413385358123424,
                    -0.907087251949718,
                    0.7813538708020004,
                    -0.35714886818108316,
                    0.75652350469242,
                    0.38400484171760924,
                    -0.03441059551714128,
                    0.5919708838085622,
                    0.9033389020697531,
                    -0.053427992051532675,
                    0.38900784838925595,
                    -0.28810026470533656,
                    -0.8195575224183776,
                    0.29865797014594875,
                    0.6023976867598321,
                    0.8598573501465827,
                    -0.8519894636504441,
                    -0.9474445990275943,
                    -0.6668893896795776,
                    -0.8805281279870043,
                    0.6990165566146799,
                    0.7724404547768241,
                    -0.5372819045131865,
                    0.7872457062577775,
                    -0.3212683792119888,
                    -0.5485865288924213,
                    0.15234694479231048,
                    -0.5774856955018175,
                    -0.6792071286893986,
                    0.12826544499247938,
                    0.7114038698346082,
                    -0.5806872622628017,
                    0.7492733755297927,
                    -0.09933065985857809,
                    0.4378677926998391,
                    0.2994108558680092,
                    -0.6105992427567576,
                    -0.4772777874080506,
                    0.7956276806291291,
                    0.9180394411062437,
                    0.9918590836879142,
                    -0.054991384343253145,
                    0.5542717667709429,
                    0.6847882235850322,
                    -0.2529349240089033,
                    0.5831084910761126,
                    -0.2717915417894522,
                    -0.7170803470883446,
                    -0.27908857190658115,
                    -0.06008340701268502,
                    -0.5572964536514838,
                    -0.456072410299095,
                    -0.7000656090024648,
                    0.7945752018615868,
                    -0.29769998531780617,
                    0.8764017874134662,
                    -0.3054355784110344,
                    0.23142108890432256,
                    -0.6891607391664589,
                    -0.4489820616276817,
                    -0.1504122342215758,
                    -0.3142487571974968,
                    0.6337239574517926,
                    0.007205921537041852,
                    0.5308997777042709,
                    0.5949192812316841,
                    0.8681529937121978,
                    0.3119548366795348,
                    0.46453328107355313,
                    0.6580098146622931,
                    -0.6542926567209815,
                    0.7800579316370436,
                    0.42591109742935546,
                    0.16649937316666671,
                    0.34958467418348455,
                    0.4394104131474182,
                    0.1920069947329164,
                    0.4223103720269921,
                    -0.8292467212455081,
                    -0.5237814859503773,
                    -0.8047023500252732,
                    0.513956944923566,
                    -0.36284023884938,
                    0.07472893892939417,
                    0.5992791136466041,
                    -0.5914100042402604,
                    -0.08704307352969425,
                    0.9725904625523161,
                    0.5744702271292433,
                    0.8797590924607899,
                    0.8497018407690762,
                    0.5678418258509581,
                    -0.4648953084178563,
                    0.653799383311473,
                    0.49980510323750943,
                    0.003619064089936631,
                    -0.7525901910288285,
                    -0.7857958774227062,
                    0.022810658090673484,
                    0.13425727809678703,
                    0.6156355571015905,
                    -0.9691794996732473,
                    -0.8398204676937749,
                    0.03894790350492111,
                    0.5957394166439003,
                    -0.5430086028614354,
                    0.12202223241806161,
                    -0.8155771994667619,
                    -0.7599176082181263,
                    0.9883570910902907,
                    -0.3932847542237392,
                    -0.17257405488109917,
                    0.2435546885616117,
                    0.584243820519264,
                    0.34649280396888005,
                    0.828658208491348,
                    0.19772987845477336,
                    0.5031517084476747,
                    -0.35304439776043955,
                    -0.03362092497720659,
                    0.30127678586814993,
                    0.7877269889539239,
                    0.3429909376455359,
                    0.7576728833739781,
                    -0.9427085205046878,
                    0.647910458627685,
                    0.11053544535213865,
                    0.36826541255981277,
                    -0.9095972600854101,
                    -0.3932099914572879,
                    -0.0962920069665022,
                    -0.7771540856247442,
                    -0.36939365101319027,
                    0.781450289777151,
                    0.5617141402880649,
                    -0.31988337810023404,
                    0.9965472755301223,
                    0.17160517225120767,
                    -0.7212233946282164,
                    0.888970816416457,
                    0.3071149178481044,
                    -0.4873548355775897,
                    -0.4043380238896127,
                    0.3885740954103371,
                    -0.033875720979343944,
                    0.21686040706736587,
                    -0.03264380656436229,
                    0.8845522045295647,
                    0.34679878405352266,
                    -0.28154685626175563,
                    0.9531382431042227,
                    0.18592269723278232,
                    0.30024110694406,
                    -0.9385414946546417,
                    -0.3161340377242811,
                    -0.914004758346647,
                    0.43766509096711803,
                    0.4021117938965234,
                    0.11303721880610759,
                    -0.36767421594258004,
                    0.22544748498286188,
                    -0.19581874853643427,
                    -0.5790156132967698,
                    0.47685955230548166,
                    -0.3682625391711847,
                    -0.17165525131466897,
                    -0.8318919178313887,
                    -0.50637965446706,
                    -0.6777275583117754,
                    -0.7104549598346084,
                    0.62675885375524,
                    0.04007126647162751,
                    -0.44118395039601194,
                    0.3921647466929862,
                    -0.12414110487122179,
                    -0.5263064759693528,
                    0.7062687664861905,
                    0.9914123728103961,
                    0.7349467116276672,
                    -0.25953963074283826,
                    -0.8966813868445396,
                    -0.16511264242826432,
                    0.03787776607328892,
                    -0.8601351520472852,
                    -0.35440170422508305,
                    -0.32519282129374216,
                    -0.580474395615676,
                    -0.6625321371422948,
                    0.8144994583010495,
                    -0.5280398678734955,
                    -0.01320119229039065,
                    0.26203570988500746,
                    -0.660932757775833,
                    -0.8966430139404602,
                    0.5194219925307347,
                    0.6172004777347876,
                    0.4587648601891494,
                    -0.5294654974445526,
                    0.8825788578929911,
                    -0.3960950692593341,
                    0.14416085666762657,
                    -0.5185170431712334,
                    0.3626205697486278,
                    -0.09785756898558569,
                    0.38974024667872986,
                    0.8954452513382115,
                    0.8532738597566226,
                    0.5090943691200562,
                    -0.6183449747371181,
                    0.18945099963262987,
                    -0.5058692059851905,
                    0.13548747824597332,
                    0.8302257240758617,
                    -0.6512210247098003,
                    0.41942072760312704,
                    0.4685692794555441,
                    0.7422798098436935,
                    -0.5000381806674546,
                    -0.43200395548505416,
                    0.3917635052000338,
                    0.04238659396542224,
                    0.9973193097483332,
                    0.5544442473100091,
                    -0.9119693649315707,
                    -0.4864210952814737,
                    -0.7208539641819367,
                    0.34669490085526017,
                    -0.3480636634763388,
                    -0.16888697578521866,
                    -0.4185231124849458,
                    -0.9189602765389087,
                    0.6914823028179096,
                    0.3262953114727576,
                    -0.7282527498526173,
                    -0.15679443221090716,
                    -0.9119908697815329,
                    0.7199484659498138,
                    0.6252532912528938,
                    0.00867539560439523,
                    0.12109222199829298,
                    0.3003399924024699,
                    -0.6985835464488437,
                    -0.7745961434058403,
                    0.6836553051434784,
                    0.756700234305118,
                    -0.03890138621714942,
                    0.8508533295066395,
                    -0.42980392186601246,
                    -0.7390302639253121,
                    -0.5357703267849095,
                    0.5034957947407002,
                    -0.15986854891694527,
                    0.78381412571215,
                    -0.7837495014752687,
                    0.4122406670131471,
                    -0.34630482173600674,
                    -0.24538790173306113,
                    0.7307415189544754,
                    0.05533359065116138,
                    0.29737798763765544,
                    -0.15728553918854135,
                    -0.7675154844721326,
                    -0.16360936699467124,
                    0.4388561336033223,
                    -0.3406474044332146,
                    -0.40481084756100427,
                    0.06704665750443868,
                    -0.1242638598800269,
                    0.17743726724102482,
                    -0.5693283556072384,
                    0.19847252029790283,
                    -0.9846022787451788,
                    0.48282276644512556,
                    0.6006767674198505,
                    0.83184548899866,
                    0.3566701335378154,
                    -0.30360741177714057,
                    0.9370774274231495,
                    0.37631453847662,
                    0.6476252980781111,
                    -0.5292050316161003,
                    0.7741790285239332,
                    -0.8180782920142834,
                    0.31494917299746705,
                    0.1330528238005862,
                    -1.0944000961920823,
                    -0.46277904030561434,
                    -0.36165628988328,
                    0.4582614036367263,
                    0.9561860906612006,
                    -0.020898497249812017,
                    0.959432513367147,
                    -0.718013143149579,
                    -0.6326783729970084,
                    0.5645027979083422,
                    -0.2887682288480917,
                    0.3848229523772459,
                    0.5480768123294464,
                    -0.13454041805654396,
                    0.5948562727325079,
                    -0.3107180303436764,
                    0.4822316900812588,
                    0.07724165538200173,
                    -0.5100758553373514,
                    0.4433085421743764,
                    0.10377254565277885,
                    -0.7439892537423002,
                    -0.6181877878212344,
                    0.0320391886986087,
                    0.11993307106710586,
                    0.7944776223400583,
                    -0.8311568153737675,
                    0.8949023543995882,
                    0.19900698718120657,
                    0.019653174579746822,
                    -0.23647218939630102,
                    -0.2801575528580966,
                    0.28291423028086765,
                    0.8143037693376635,
                    -0.3555704415757333,
                    0.09289225516305893,
                    0.6932535255795845,
                    -0.702975094160546,
                    -0.2171937112271683,
                    0.7085653544731959,
                    -0.5540274711481958,
                    -0.715632497233588,
                    0.11025788895726799,
                    -0.6077195521900676,
                    -0.6180260583236158,
                    0.20452794952804415,
                    -0.8889121314288956,
                    -0.11396253949405538,
                    0.6920425301286725,
                    0.4680762539179602,
                    -0.8646084873404403,
                    0.5248014692250561,
                    0.5754625586700219,
                    -0.12999373959845786,
                    -0.280057628413727,
                    0.62475300775321,
                    0.9069264459821199,
                    -0.5458723430650656,
                    0.7616184172207386,
                    0.9980074252651856,
                    -0.15152322898587722,
                    0.7668927447314671,
                    -0.04995368711376795,
                    -0.05353182997410552,
                    0.826816885807196,
                    0.21831119730306242,
                    0.6941667838975234,
                    0.8861851158739344,
                    -0.3698152657289912,
                    -0.6866718460232407,
                    0.5301863190030045,
                    -0.9524872827697801,
                    0.27531129505671076,
                    0.43360555288350583,
                    0.6325715241968225,
                    -0.40314180687486617,
                    -0.06292054633820447,
                    -0.19683852788402117,
                    -0.9324555468110289,
                    -0.12369558537147202,
                    -0.9653852088039315,
                    -0.5670943026913617,
                    0.5308451425743169,
                    0.9908724076389902,
                    0.46768840399189915,
                    -0.12527747881661083,
                    0.35737271890301653,
                    -1.0101233443441058,
                    -0.00672790588959328,
                    0.41983257219135306,
                    0.3319649921103543,
                    -0.08354654881689194,
                    0.8457136261541681,
                    -0.4632230264298265,
                    0.942962561472734,
                    0.41284259637813847,
                    -0.46795772099009647,
                    -0.2169878939059274,
                    -0.6075364688380718,
                    -0.1570163773172909,
                    0.2971050256409594,
                    -0.37178059800886437,
                    -0.7466283325299875,
                    0.15535470574325866,
                    0.46331755787556267,
                    0.9008816673646568,
                    -0.8586940184823882,
                    0.36747697187914397,
                    0.33520130172908535,
                    0.2538825736375611,
                    0.004933786461338017,
                    -0.5557152612219913,
                    -0.19451327728695988,
                    0.42305228038086384,
                    -0.7144726358660186,
                    0.1250002410295198,
                    -0.26107652658298364,
                    0.013977167382794014,
                    -0.5357536760909115,
                    -1.0023878855250894,
                    -0.6307970002411836,
                    0.3782355669062321,
                    -0.871860515494022,
                    0.37695934676628107,
                    -0.8641911529558437,
                    0.42102138317416193,
                    -0.05094199051643972,
                    0.21831008528453327,
                    -0.7874161240419725,
                    0.25580366850459263,
                    -0.9098927057679117,
                    -0.25035815760123886,
                    0.31508826836062337,
                    -0.519348855215986,
                    0.17572261653522883,
                    0.11491327483769638,
                    -0.977189341947718,
                    0.8683613823644812,
                    -0.39762762565689713,
                    0.22321172965212485,
                    -0.17338219424808735,
                    0.9923721281884711,
                    0.9384421788327869,
                    -0.09942410133847031,
                    -0.9888099450446164,
                    0.2554113912195436,
                    0.12833873865019085,
                    0.7953702834765558,
                    -0.994821696990766,
                    0.555191032331948,
                    0.8980602463339702,
                    0.673601354878342,
                    -0.18207324843003245,
                    0.4612590077058432,
                    -0.32092221324752296,
                    -0.675117899437917,
                    -0.2744448072505923,
                    0.5940226427492505,
                    -0.08083532315590516,
                    0.30403697597006746,
                    0.40691677749763566,
                    0.21961631824849928,
                    -0.7565479742796111,
                    0.6798681853283796,
                    -0.6340047317905105,
                    -0.515634502225205,
                    0.2208969008855538,
                    -0.8857487134781903,
                    -0.6745635186563583,
                    -0.9271649290481649,
                    0.9758983213485914,
                    -0.4807968886808474,
                    -0.9085942195645238,
                    0.3524446536242105,
                    0.19391451664080603,
                    -0.15916916491459976,
                    0.231778599646839,
                    -0.8705045881504296,
                    0.6633927980950476,
                    0.2925516366631382,
                    -0.7867212030194628,
                    -0.08531884805885115,
                    -0.8475943984280508,
                    -0.8841357722326989,
                    0.0866918387791312,
                    0.1685147308053878,
                    -0.059516984017535746,
                    -0.12703184580579915,
                    -0.1884411787218134,
                    -0.10529549403363771,
                    0.48088786659622385,
                    0.20856335869231488,
                    0.7504339836109799,
                    -0.5618588192914141,
                    -0.3126463333343289,
                    -0.2709540786946678,
                    -0.1925386543136929,
                    -0.6864152694997043,
                    -0.6598921779422164,
                    0.009331215308375173,
                    0.5916601824393114,
                    0.4187767978760403,
                    0.8782867539159459,
                    -0.8375278835624603,
                    -0.014636732817060438,
                    0.955994976683956,
                    -0.5715511924960051,
                    0.6613279086240371,
                    -0.1243940375947188,
                    -0.07536843057419125,
                    0.2991376259736739,
                    0.7598175460389502,
                    -0.9246743201218385,
                    0.44424175168724367,
                    -0.695962983261469,
                    -0.1517650726944187,
                    0.9633664442233547,
                    0.7756051429637297,
                    -0.7768421739155865,
                    -0.6462911221078075,
                    0.9046662340616619,
                    0.19108133230671573,
                    0.17408480347089159,
                    0.550206423425204,
                    -0.34345504849996705,
                    -0.48342850340250904,
                    -0.09854851460836646,
                    0.5261019490325596,
                    0.3720851203350706,
                    0.2678977816232908,
                    0.22530707865312044,
                    0.185730036368238,
                    -0.9490751375690204,
                    0.8158542921313015,
                    -0.23042864354516707,
                    -0.6311804842427383,
                    0.22809120802851643,
                    0.735577619666508,
                    -0.09131978151352345,
                    -0.2787588515079393,
                    -0.8818444872083162,
                    -0.2804215743593115,
                    0.9402463865344627,
                    0.5809090419162792,
                    -0.4718663088022622,
                    -0.38573390319327067,
                    0.8023929552541255,
                    0.09275731152173929,
                    -0.2311968397371449,
                    -0.000611059197746086,
                    -0.46026398851444256,
                    -0.47449081553562794,
                    -0.4836877381687264,
                    -0.03116275363073536,
                    0.4211951547442008,
                    0.8436889568419529,
                    -0.12408050046042149,
                    0.5956073706693055,
                    0.3332996789754929,
                    0.013070396306717406,
                    -0.18104059534766417,
                    0.8431147504564661,
                    -0.6827766921723555,
                    0.8705054904706303,
                    0.08329628773776634,
                    0.7656973627965646,
                    -0.3226277611035558,
                    0.016100714299576657,
                    0.6180537598497114,
                    -0.44292563839647386,
                    -0.27521677240322484,
                    -0.7361281680375091,
                    0.8548616408742228,
                    0.8084266249056008,
                    -0.23200688942525605,
                    -0.3228458457895203,
                    0.695016222407985,
                    0.1157103719421078,
                    -0.5593348730408434,
                    0.11016963641688987,
                    -0.11022113268339874,
                    -0.08142704981590315,
                    -0.7996711955578104,
                    -0.33706796271376144,
                    -0.18282094831312234,
                    -0.8271052730104104,
                    -0.6394997131251001,
                    0.5058377904563248,
                    0.4543724353469419,
                    0.8978983265254838,
                    -0.5432426800450796,
                    -0.5978931554347487,
                    0.5677938413093614,
                    0.7040127459102387,
                    0.28359178485940917,
                    0.2061674168926386,
                    0.5941796590634265,
                    0.5334279264325659,
                    0.4291370077171163,
                    0.5918544676539634,
                    -0.9101123953492481,
                    -0.752257105516477,
                    0.39489700576356723,
                    -0.7064550014563883,
                    -0.6509370224057918,
                    0.5452078012171692,
                    0.14637564027602412,
                    0.3159944064057215,
                    -0.2856569027378223,
                    -0.6664041990748584,
                    0.3225015602556677,
                    -0.18061680303390712,
                    0.40479758484022704,
                    -0.16927978578309122,
                    -0.7945030277777093,
                    -0.9291439012305741,
                    0.22136593302085283,
                    0.02972630316077027,
                    -0.40712443562663314,
                    0.7450646911357823,
                    0.7704064631508856,
                    0.6953739431248975,
                    0.6428387570408427,
                    -0.8999202083567126,
                    0.5037400391497127,
                    0.7464192788400209,
                    0.1912159315442534,
                    -0.689555256684969,
                    -0.4250463052405306,
                    0.9007305904695726,
                    -0.014149049981937292,
                    0.3420096155293006,
                    -0.3626503829732224,
                    -0.27288369965768006,
                    0.7393813183845475,
                    -0.8774593826618888,
                    0.37565271568831343,
                    0.24514602882952688,
                    0.9823102448907453,
                    -0.3531738659184767,
                    0.8708630815780798,
                    0.11668296456681346,
                    0.6775335744705577,
                    -0.9175740745360281,
                    -0.7261491678164386,
                    0.6378174774521659,
                    -0.520397730939457,
                    0.38790106519891526,
                    -0.3961192258811402,
                    -0.7449505112330663,
                    -0.8913241800075792,
                    0.5078974924928209,
                    -0.0392009649948849,
                    -0.9051824752714778,
                    0.2661600901871382,
                    0.34967217610542173,
                    -0.39553487508748575,
                    0.7209014108520441,
                    -0.357945422704244,
                    -0.8720579898472923,
                    0.35495709836927475,
                    0.4981247713174709,
                    -0.08133665414156747,
                    0.512094407092225,
                    0.6541042325756355,
                    0.9814319722556039,
                    -0.9584326780994131,
                    0.8729043058913803,
                    0.9658583512036651,
                    0.23182371685647055,
                    -0.09400353249905113,
                    -0.5314169600635047,
                    -0.7569125982520932,
                    -0.9190256372206038,
                    0.03668240031514706,
                    0.5753421221633387,
                    -0.23523292429961107,
                    0.9965136370372861,
                    -0.46186060568519427,
                    0.8091446371199739,
                    -0.5480854386075779,
                    -0.9671372247229201,
                    -0.5956743500090855,
                    0.9865361941813898,
                    -0.29472696577231206,
                    -0.0730521377897077,
                    -0.9022973883269341,
                    -0.8468588580015695,
                    -0.47733410570299417,
                    0.24395186826661558,
                    -0.7846370715903721,
                    0.38522872542307746,
                    -0.9737086065849392,
                    0.026987955024957908,
                    0.6229882792179965,
                    0.030754702574070175,
                    -0.5336437663944743,
                    -0.4650918480960719,
                    0.33263966542397777,
                    -0.3299593580046564,
                    0.7982392205792054,
                    0.8918552583764401,
                    0.8825107822835745,
                    -0.689358987090343,
                    -0.6504528635873289,
                    0.2881526599443425,
                    -0.048811900526430044,
                    -0.6812349072156969,
                    0.9233233642674249,
                    0.19829441478689863,
                    -0.7582805711707389,
                    -0.005628668764629418,
                    0.37438480332317803,
                    0.12148360561391557,
                    0.25363997790078147,
                    -0.13687932833981742,
                    -0.9844005098238957,
                    0.9774221492579733,
                    -0.813262579408187,
                    0.6524325094085053,
                    -0.2255701338115422,
                    -0.28004377303515876,
                    -0.05058360062355954,
                    -0.33958829978113836,
                    -0.7291013498423959,
                    -0.7533388444831763,
                    0.06531116173724184,
                    0.16695479752753217,
                    0.9701621348371904,
                    0.4438311505177322,
                    -0.9202236934454179,
                    0.9839594686790102,
                    -0.7362971625641157,
                    0.9183453772346121,
                    0.21423100095157735,
                    0.9968577633766071,
                    -0.03635887252416087,
                    -0.9011220675630162,
                    -0.2532177991449256,
                    -0.18289967895324158,
                    0.5821727031566529,
                    0.26722356761938565,
                    -0.050190404195777784,
                    0.05699141252106637,
                    0.994904650809523,
                    -0.5094254541981998,
                    -0.3791721801942118,
                    0.33537864564299846,
                    0.18367959943851117,
                    0.8561198630297009,
                    -0.018261248857610178,
                    -0.047080349781475975,
                    -0.4839989646759013,
                    0.814970160590148,
                    -0.780338416367044,
                    -0.42015928246213635,
                    0.8429920710824755,
                    -0.22872997486975868,
                    0.06174587283042746,
                    -0.22592814830685115,
                    0.6523878335147029,
                    0.7490468454115136,
                    -0.5727162271078322,
                    -0.3643955644840209,
                    0.018382475311553275,
                    0.57080227038845,
                    -0.4566889387003909,
                    -0.06370678208595378,
                    -0.11945550821798039,
                    -0.16971592332449612,
                    -0.3738920625044083,
                    -0.835697601352086,
                    -0.25219456950712826,
                    -0.8027132440160654,
                    0.549467469302948,
                    -0.7494553118446557,
                    -0.013646496477013985,
                    -0.8760202457463648,
                    -0.44450071501783656,
                    -0.07212635044911722,
                    -0.6771953218068975,
                    -0.48564044359795255,
                    0.5812068208433963,
                    0.5445050551937757,
                    0.7674286776504614,
                    0.10803267512734885,
                    -0.816292275525351,
                    -0.30618267412335765,
                    -0.8520755713769508,
                    -0.28737080570141826,
                    -0.3293887062976131,
                    -0.06378529537658785,
                    -0.04615868230617069,
                    -0.9462214920323742,
                    0.5564793113981368,
                    0.4488543309698724,
                    0.1106053906324532,
                    0.7173005423653325,
                    -0.011369721458374957,
                    0.660207299469365,
                    0.6499363005944369,
                    -0.8508363147432585,
                    0.8546610599285295,
                    0.0987379415864546,
                    0.5102731752131421,
                    0.4079172557241486,
                    0.7046604538543915,
                    0.6607437023843439,
                    0.009951700993055493,
                    -0.8113647669987795,
                    -0.6204647877244299,
                    -0.8336767190524773,
                    -0.3199016664289014,
                    -0.4496344160481728,
                    0.43464276312383426,
                    -0.8739865960688334,
                    0.8597002690364501,
                    -0.03644563556420317,
                    0.5263651126582162,
                    -0.015487740948497036,
                    -0.9937009493699692,
                    -0.8763898866461973,
                    0.2515172639992232,
                    -0.9660108204647504,
                    -0.36275234716548,
                    -0.30987404478924463,
                    -0.5305210816848905,
                    0.7079541558399187,
                    0.839988597893951,
                    -0.6028240800840183,
                    -0.6965890103454573,
                    0.6518377065337875,
                    0.9706869339161079,
                    0.38134471409339693,
                    -0.10230286044432663,
                    0.770539450847432,
                    0.6225759073689611,
                    -0.31646711628334984,
                    -0.04252837676005665,
                    0.5118412841108034,
                    -0.08575396491896119,
                    -0.9889042240622201,
                    0.04140520169993159,
                    0.4059256493824814,
                    0.9555070456834377,
                    -0.8560698881286642,
                    -0.49079678123208564,
                    0.53837958846883,
                    0.9362428369197705,
                    0.8372594643429427,
                    -0.9006814952447443,
                    -0.2351996769843413,
                    -0.14116970865422573,
                    -0.41914892026269096,
                    -0.8475109423953442,
                    -0.18275888922397457,
                    -0.7176913451745018,
                    0.35990043607692374,
                    -0.8360647017590156,
                    0.12094130964405686,
                    0.8831757438896817,
                    -0.24658416149351636,
                    -0.30079611948831203,
                    -0.23893797908232287,
                    0.21569399610913192,
                    0.9784965919402472,
                    0.9171495322923617,
                    -0.19342338185628202,
                    0.11399039187460486,
                    0.30104567720814307,
                    -0.32450847087542584,
                    -0.9389957470091973,
                    -0.5343377666306145,
                    -0.8748036717869958,
                    0.6729102764923975,
                    -0.2510523265934177,
                    -0.2960065776349191,
                    -0.7959355156258824,
                    0.3280605997455117,
                    1.0454786202439625,
                    0.9007095499339577,
                    0.7768001571457086,
                    -0.04762130453731948,
                    0.8520515041228462,
                    0.9168812082391182,
                    -0.4895457140934079,
                    -0.9786216748868853,
                    0.9614868753046577,
                    0.8133864224083828,
                    -0.7844829850556385,
                    0.1611269404486611,
                    0.4788960801863094,
                    -0.760049167165608,
                    -0.406343448796864,
                    -0.5488651798200387,
                    -0.8827446606981829,
                    0.024373000364697577,
                    -0.9405624981059072,
                    0.08396120621071994,
                    0.08424537416603894,
                    -0.3359835634229072,
                    0.7015928897855447,
                    0.1561282810974599,
                    -0.11797858543184214,
                    -0.7102819812558311,
                    -0.3367550836736882,
                    -0.5060942025928268,
                    0.6494746281767025,
                    0.7903886865260795,
                    -0.5568309422766755,
                    -0.929580508401392,
                    -0.21806494557879663,
                    0.053231325922508656,
                    0.4052691728617002,
                    0.6133013064344497,
                    0.7906575634475528,
                    -0.3907032167979458,
                    -0.5012563930309778,
                    0.2425570207386739,
                    -0.6789270000030848,
                    0.20398171106017715,
                    -0.910229821129312,
                    -0.07417120591539068,
                    -0.9623643576485338,
                    0.23021380069184633,
                    -0.16800190112040989,
                    -0.9495919190706014,
                    0.09647108385206268,
                    -0.8437200394969633,
                    -0.4777562959518892,
                    -0.2973093909690711,
                    0.3371519690468737,
                    -0.743744944068999,
                    -0.45069954863002787,
                    -0.07559682866240089,
                    0.5678475966455563,
                    -0.5837096775326415,
                    -0.807977958037421,
                    0.9061558715701082,
                    0.4544523440531283,
                    0.2846948999121818,
                    -0.7169969926202172,
                    -0.11013483437690562,
                    0.44584301821240874,
                    0.9578995108082159,
                    0.31068778100640093,
                    -0.17057413680810954,
                    0.6373693367708546,
                    -0.13870643099776106,
                    0.9577102614803549,
                    0.7871475918700471,
                    -0.5491478477663831,
                    0.17132400483542698,
                    -0.1728555933956979,
                    -0.48515382410103625,
                    -0.09595193834095025,
                    -0.7619339413734553,
                    0.48410767677670224,
                    0.41656127806912674,
                    0.8755157023129251,
                    -0.27346307562794175,
                    -0.8574201069666219,
                    -0.61609896654179,
                    -0.6681361116335702,
                    0.04351353889613291,
                    -0.2983685441109275,
                    0.8894329771007322,
                    0.6770766273557697,
                    -0.09320306596481065,
                    0.8582704483109242,
                    0.05986358904343654,
                    0.4236396395030676,
                    0.8579300403063473,
                    0.45591892590667693,
                    -0.3241010107803391,
                    0.6617577810372306,
                    0.6077712305372497,
                    0.4950343447247226,
                    -0.38600193904474006,
                    0.21568066674061623,
                    -0.30627671225398956,
                    -0.9952944375018454,
                    -0.9701078762558776,
                    -0.724645543167441,
                    0.7687692833600649,
                    0.8412636924841115,
                    -0.5991835042865918,
                    0.9731671353380801,
                    0.9392661867326735,
                    -0.9730842414975595,
                    -0.18668596767242068,
                    -0.403450400810204,
                    0.860251126473439,
                    -0.9006710388263465,
                    -0.026134582959384204,
                    -0.10213751229086658,
                    0.5071805760719813,
                    -0.3417968971679474,
                    -0.4620160256367672,
                    -0.1952698445015998,
                    0.15873270543814957,
                    0.0692036920655896,
                    0.418838434989045,
