{
    "networkId": "network-3",
    "status": "inactive",
    "activeCard": false,
    "layers": {
        "layer-1": {
            "errors": [],
            "layerConfig": {
                "activation": "sigmoid",
                "inputSize": "3000",
                "outputSize": "1",
                "type": "recurrent"
            },
            "layerName": "Recurrent Layer",
            "valid": true
        }
    },
    "valid": true,
    "inputSize": "3000",
    "outputSize": 1,
    "network": {
        "0": {
            "input_size": 3000,
            "output_size": 1,
            "weights": [
                [
                    -0.7371971345961909,
                    0.3175552607227952,
                    -0.6759491679301654,
                    -0.19618020264099115,
                    -1.387182569934379,
                    0.4341302164024415,
                    -0.2103755776216582,
                    0.934689743871008,
                    -0.8005266531885271,
                    -0.1677115924003382,
                    -1.0156831223724123,
                    0.15249102238578707,
                    0.05354900026141773,
                    -0.5937225946215366,
                    -0.7311506878174715,
                    0.12427565642470799,
                    0.4896130797866099,
                    -0.33630725932325023,
                    -0.6836503184588173,
                    0.25071627886982234,
                    1.2066639053813295,
                    0.4044406379871553,
                    -0.3560394661675332,
                    -0.3572948714814111,
                    -0.40647869679105186,
                    0.7461933008630202,
                    -0.6921332970390376,
                    0.9668650437752386,
                    -0.2723336119134218,
                    -0.419565173952997,
                    -0.29890830844029886,
                    0.6693506953870026,
                    -0.34265338422697983,
                    0.6508027932990974,
                    -1.022464157114173,
                    -0.44332852585736127,
                    -0.6873497420489464,
                    0.35732114392244513,
                    -0.008868105054797704,
                    0.3008858767381203,
                    0.9272267709246603,
                    0.132337131854294,
                    -0.12450476743278975,
                    -0.903597975708869,
                    0.7524926214001482,
                    0.4038522891749307,
                    0.7672570147152923,
                    0.10921085433082364,
                    0.8810758463052343,
                    -0.5351896477678466,
                    -0.33559821837283876,
                    0.5688715609276466,
                    -0.8424321139884686,
                    0.578732761990963,
                    0.742706808340898,
                    -0.5845657949110497,
                    -0.9485540483436173,
                    0.30322558314789366,
                    0.3811853808259426,
                    0.6305203376441635,
                    0.1248225602039802,
                    -0.5143465932933741,
                    0.7358075629695817,
                    0.4554263441580645,
                    -0.38273992735459994,
                    -0.5687566991221186,
                    -0.29248392222955366,
                    0.4406272607552998,
                    -1.4120281829147154,
                    0.15896760787028225,
                    -0.42851615399326504,
                    -0.5473584431327327,
                    0.6187535820843147,
                    -0.8673829713344567,
                    -0.6154047401581004,
                    0.4309780069957366,
                    -1.022295937587008,
                    -0.3524886490916281,
                    -0.8517431192395886,
                    0.3687434183123749,
                    -0.7758350605301493,
                    -0.12321266019057593,
                    -0.28945045275797004,
                    -0.25383690569432155,
                    0.172059357355562,
                    0.10002143513689979,
                    -0.8276993110230216,
                    -0.11209320980533087,
                    0.7781622456522137,
                    0.3039714855570733,
                    0.2616465771618184,
                    -0.368785897813821,
                    0.8942151248926434,
                    -1.099462639640175,
                    -0.02515032500105661,
                    -0.40204679112901853,
                    -0.271494220673552,
                    -0.6918765015510976,
                    -0.3795738222796079,
                    -0.3588458414998183,
                    0.8870260149704159,
                    -0.3492445514308877,
                    -0.2451871363180055,
                    0.04297750723895435,
                    -0.6680773305947612,
                    -0.780915208807582,
                    0.26643916839241416,
                    -1.4754689210875527,
                    1.1406461734683826,
                    0.6958996149992489,
                    0.6008097242286834,
                    -0.324028342641703,
                    -0.4498357593103668,
                    -0.0685365570199261,
                    -0.7141780383607347,
                    0.5959330856141837,
                    -0.9949522918306495,
                    -0.19011493723774084,
                    -0.43514544278374506,
                    0.7491076800496984,
                    -0.6109696225978928,
                    -0.1896664269568994,
                    0.04112897288949826,
                    0.2333356763071147,
                    -0.7171386924964969,
                    -0.18897797912038133,
                    -0.6347505645818152,
                    0.8828314211279945,
                    0.23109501044507735,
                    0.23981600426872304,
                    -0.6797640229264016,
                    0.2580127431445608,
                    0.7690382301578024,
                    -0.27964382944050586,
                    -0.22096254026426826,
                    0.3400479750013146,
                    0.6312878138532372,
                    0.5415477007038054,
                    -0.29534931074646625,
                    -0.8790727693890515,
                    -0.6600096889553025,
                    0.64727154524984,
                    0.4004862964202264,
                    0.5175852444949196,
                    -0.044768485427175715,
                    -0.9023103379393476,
                    0.2021011729140298,
                    -0.18436523132919264,
                    0.18827276752037744,
                    -0.9037932435901719,
                    0.35425552149003703,
                    0.5391724115330935,
                    -0.36288526428790735,
                    -0.5002393553830796,
                    0.7622329280629605,
                    -0.5482872595292413,
                    0.35026314161194416,
                    0.5665415857679454,
                    0.3850735234893706,
                    -0.14505472311438333,
                    -0.9078734456512203,
                    0.03952409163759456,
                    0.7538357262474739,
                    -0.5196721555963189,
                    -0.3883662749588612,
                    -1.0545110810877818,
                    -1.0576318474318749,
                    0.7853105961484204,
                    0.7511921592575296,
                    -0.3674500298789908,
                    0.6766502757340295,
                    1.021838189318553,
                    0.7310456669984421,
                    -0.6406884048882303,
                    -0.5296280257736963,
                    -0.7953892063510591,
                    0.14962370192048308,
                    -0.4197707627207527,
                    0.3783448961427766,
                    0.5627350513961293,
                    -0.032884160151332456,
                    0.8804426321783363,
                    -0.4335505015623313,
                    0.8243337813155217,
                    0.31886346517496206,
                    0.15941300849915938,
                    -0.5303703244417736,
                    0.34376831232334165,
                    -0.03443268026386389,
                    0.30283885521642145,
                    -0.22377848259853161,
                    -0.38873575922376585,
                    0.10600145046399956,
                    -0.3354014715189922,
                    0.46403335225606307,
                    0.8677103563707449,
                    0.46312085747366283,
                    -0.2533374134936972,
                    0.6004754670467408,
                    0.6736175470219495,
                    0.8410783244958239,
                    -0.5071361706430888,
                    -0.09534820932002828,
                    0.45047762689435483,
                    -0.8582403765191917,
                    0.3431124867832104,
                    -0.12052272989147476,
                    0.6633975132077394,
                    -0.4541780079929641,
                    0.932957335250217,
                    0.28237734800633363,
                    -0.6000372500214952,
                    0.47426688165640873,
                    -0.8152202633896423,
                    0.3445112676656935,
                    0.34163421495242197,
                    -0.18253527001122136,
                    -0.368665043971977,
                    -0.9488425550762989,
                    -0.5707862372183092,
                    -0.7218232596087857,
                    -0.8482423735849285,
                    -0.48336439082230975,
                    0.21078694777951681,
                    -0.6469999706987805,
                    -0.9393407624252401,
                    -0.7209448675050912,
                    0.4826036139485313,
                    0.7481810560587904,
                    -0.7811265952357792,
                    0.13596046457340585,
                    0.23330897438934567,
                    -0.2508746790938937,
                    -0.7880016333116933,
                    -0.4580788551163181,
                    -0.46579872636625436,
                    0.8707604861284243,
                    0.6346583769667322,
                    0.8144877725700947,
                    -0.939642816217984,
                    0.16501774404747496,
                    -0.8097916277994494,
                    -0.329181038013879,
                    -0.7147940006309396,
                    -0.30156939078714123,
                    -0.4435096386073743,
                    0.7598840059908448,
                    -0.21292296160852664,
                    -0.8998713980942831,
                    -0.5007532329563726,
                    -0.9253639199523318,
                    -0.523203348034271,
                    -1.1209315551249328,
                    -0.09436892397139719,
                    0.17386744521030983,
                    0.6777709319649703,
                    0.7485454769628124,
                    0.45687038088936965,
                    -0.09013454979675052,
                    -0.1319094009543319,
                    0.9041606170124253,
                    -0.9670377449766815,
                    0.19487929628003767,
                    -0.37206365755642634,
                    0.0011608462018465491,
                    -0.42453366176143786,
                    -0.6619885617595833,
                    0.4111812074052375,
                    0.45969956624721076,
                    0.38141933940093214,
                    0.6627444970009186,
                    -0.7608003161104419,
                    -0.2527962343385803,
                    0.8641154859979826,
                    -0.5829969668644328,
                    -0.3905809833531709,
                    -0.6479100268311502,
                    -0.3909820690141822,
                    0.4709415118368709,
                    -0.7704475945491821,
                    -0.1762687598787322,
                    -0.4366089128340322,
                    0.9229974828895557,
                    0.17301503929969858,
                    0.8269486994204909,
                    -0.08784483904896676,
                    -0.23089065678088264,
                    -0.030412186525318994,
                    0.36199480722476424,
                    -1.0204188199626316,
                    0.7860552634761737,
                    0.5848437188220981,
                    0.9235902161397247,
                    -0.05415127892414274,
                    -0.4979853327670645,
                    0.0959195610608304,
                    -0.2156476674510725,
                    0.8576902308109802,
                    0.634667039674421,
                    0.5430384673454847,
                    -0.24795696229677536,
                    0.12651791839851886,
                    -0.9125283762713248,
                    0.5378801996090214,
                    0.11794022402612687,
                    0.718546049065568,
                    0.750028149162115,
                    -0.42417148942583854,
                    -0.2206120790280029,
                    -0.4743777117792335,
                    -1.0568746822593376,
                    -0.22819763407643873,
                    0.4318458350924297,
                    0.08898044845753743,
                    0.06448773236119243,
                    -0.41055990196399744,
                    1.0575429543468753,
                    -1.1762705296845775,
                    -1.0613145795029406,
                    -0.26330438621804625,
                    0.15085419819153534,
                    -0.5168148773820016,
                    -0.4825831514085892,
                    -0.5653413208513105,
                    -0.08390696194552132,
                    0.514923261972809,
                    0.5372600501249173,
                    0.057808910847292616,
                    0.45682759540183315,
                    0.48969502309665836,
                    -0.14420283920943408,
                    -0.13353595921992636,
                    0.9072542737324745,
                    -0.4687889315574548,
                    0.12572996386305324,
                    -0.18354045055143556,
                    -0.196065146820153,
                    0.26795038019984846,
                    0.8157465247644742,
                    0.08371599803137106,
                    -0.8445041921074915,
                    0.3409418007609239,
                    -0.25160496224163154,
                    -0.7239760665574584,
                    0.5607317615146316,
                    0.041852606007823895,
                    -0.9778994123318775,
                    -0.23372833987462138,
                    -0.29434534114128724,
                    -0.6875762506636409,
                    0.12655728869542685,
                    0.29799913439023085,
                    0.7035819551101514,
                    -0.7499237669499295,
                    0.48007131140919435,
                    -0.905015758529888,
                    0.524200919619019,
                    -0.7811753744449113,
                    1.0305397793835545,
                    0.6046854104129538,
                    0.6500081279148285,
                    0.8496528761762332,
                    0.8483558920468038,
                    0.8019775078769128,
                    -0.8608968641206861,
                    -0.7507568985609842,
                    0.1795908765029935,
                    -0.002629259501126576,
                    -0.9106204685903272,
                    -0.9746763168916661,
                    -0.8295467863797792,
                    -0.4683041223229621,
                    0.9565707596750056,
                    -0.8154769448945024,
                    -0.7266300364495949,
                    -0.027655797657939536,
                    0.8811289549143819,
                    0.6420635070458381,
                    0.611018597811753,
                    -0.8312605000324195,
                    0.4357409528752508,
                    0.610716020169827,
                    0.4392315544249533,
                    -0.5575848433438959,
                    0.5348739038641257,
                    -0.38363717999907493,
                    -0.8670189721222501,
                    -0.22248634393923983,
                    -0.1794901336347166,
                    0.19497502848772288,
                    0.49680440321338165,
                    0.14211397005823012,
                    0.7306819239769393,
                    0.48620934441995317,
                    0.1871381970447389,
                    -0.44000568149361324,
                    0.12096003789734708,
                    0.2926039630933186,
                    0.24821143377950836,
                    -0.2849133863083183,
                    1.0542748924308531,
                    -0.6717399302628785,
                    -0.5302837269613239,
                    -0.6496718528298941,
                    0.5885486679559324,
                    -0.10988580043878075,
                    -0.48112103571100867,
                    0.8204437061407114,
                    -0.017662529395242686,
                    0.23129249926265344,
                    -1.0365702751822194,
                    -0.12756731319054657,
                    -0.5181057179482448,
                    -0.6589762171502948,
                    -0.4738577618709684,
                    -0.35903614854248944,
                    -0.014013558661575345,
                    -0.5075641538236157,
                    -0.08663302475297255,
                    -1.0490317489997092,
                    0.04628644487800073,
                    -0.22776153613998196,
                    0.48077824986237533,
                    0.6247783633915134,
                    -0.8752644866815209,
                    0.44954087570868667,
                    0.5247800854505835,
                    -0.07552534373677568,
                    -0.46143443083986124,
                    0.7931389936858421,
                    0.3407443273308317,
                    0.6564610516080978,
                    -0.02560847961681576,
                    -0.6976097520683351,
                    0.16567923644464946,
                    0.4615928563583432,
                    0.34061218598363086,
                    -0.7332437955383814,
                    0.11344898496457265,
                    0.7437800575576428,
                    -0.7514558563613785,
                    -0.07677254324264347,
                    0.194252780166739,
                    -0.23739539726664577,
                    -0.5139020642033554,
                    0.2533203308926284,
                    0.9110256105996488,
                    0.4759142196289188,
                    0.845561530242497,
                    -0.44947835353482346,
                    -0.11401715563626466,
                    -0.25652188713660695,
                    -0.6895404969094561,
                    -0.7702175436527198,
                    0.4312367394988458,
                    -0.9556133010684891,
                    -0.7645300957073867,
                    -0.09481826460254081,
                    0.2260323759742816,
                    -0.7875780257520462,
                    -0.8295948038548295,
                    0.6748799848885146,
                    0.4368911902935706,
                    0.12981439569755995,
                    -0.5377129400497045,
                    -0.26426474396407,
                    -0.9715526401633543,
                    0.6096195614371676,
                    -0.8788666414245716,
                    -0.24799075256659783,
                    0.5578768464476489,
                    -0.29337213468793316,
                    -0.36451810011821784,
                    0.565956428019456,
                    0.535407932914807,
                    -0.7527519550045348,
                    -0.6157335845305502,
                    0.08921091657567909,
                    -0.8037816712815893,
                    0.4370891421475351,
                    -0.7690614307599434,
                    -0.7480796054616652,
                    -0.12606555654301213,
                    -0.7312010408896842,
                    0.031105106112033463,
                    -0.4226197712908802,
                    0.31410301780188,
                    -0.8801038030423521,
                    0.60212756412852,
                    -0.9171108348487242,
                    -0.8117108306227363,
                    0.6850246926844853,
                    -0.5480447793447334,
                    -0.10371840009750849,
                    -0.1843971326856379,
                    -0.787423680689866,
                    -0.6080295424352973,
                    0.5460950782271938,
                    0.2764944957341715,
                    -0.19207630983044582,
                    -0.32292754616911273,
                    0.32959225570548345,
                    0.8598150481106825,
                    -0.0009476788181844716,
                    0.009943787757436946,
                    -0.4280039443724512,
                    0.05773525201479763,
                    0.8709717166932204,
                    -1.0303984220520221,
                    0.26466290799901415,
                    0.8998827564756334,
                    0.6923690215996436,
                    0.1957731573778192,
                    0.05602991463075434,
                    -0.17622248233474647,
                    -0.3610316280191437,
                    0.11002921195050236,
                    -0.05024332384557128,
                    0.46960503269514714,
                    0.6108508218593147,
                    0.08795727695800325,
                    0.4094439060114459,
                    -0.9708798460530434,
                    -0.26972140171399794,
                    -0.050146124704875825,
                    0.23033621449662348,
                    0.6809589172619991,
                    0.54528195421198,
                    -0.8404609131731626,
                    -0.1647548848920384,
                    -0.8003301551549904,
                    0.6793138384119388,
                    -0.24847486394329146,
                    -0.4769881527780636,
                    0.13438951506199018,
                    -0.8158293689859405,
                    0.6176237772071679,
                    -0.24452551779983941,
                    0.5175759544520709,
                    -0.23954754356062807,
                    -0.7473952720974032,
                    -0.843682723257227,
                    0.7907954585938733,
                    -0.43013373620853684,
                    -0.24246399256818782,
                    -0.7018039967569573,
                    0.15882069433385992,
                    0.8806967080761701,
                    0.6791144653082665,
                    -0.7114697628516342,
                    0.349035527431178,
                    0.8296619684304282,
                    0.015941452341896638,
                    -0.15142250767043047,
                    -0.31488468560239996,
                    0.01491304177017903,
                    0.9361072133485628,
                    -0.8801520478642961,
                    0.06462930222517439,
                    -0.8756540161471912,
                    -0.11500923085408811,
                    0.2865035634761169,
                    0.6416518960125742,
                    0.19006232621983954,
                    -0.43411923665569324,
                    -0.1569699078258723,
                    0.3568461742451878,
                    -0.5200922713032011,
                    -0.6116982347800106,
                    -0.39161630173358924,
                    0.33963606718338546,
                    0.8700955016612594,
                    -0.4731933374331444,
                    -0.5522736592865146,
                    0.1192142241848693,
                    0.3671007410840078,
                    -0.11264831199038118,
                    -0.8909239213749143,
                    0.9173434849820202,
                    -0.40720449916642937,
                    -0.18959615185484535,
                    -0.09408134922042688,
                    -0.2629406637323049,
                    -0.016824037827494958,
                    -0.382401682747222,
                    -0.635018091814325,
                    -0.6017805945937159,
                    0.5060017057818955,
                    0.17619984333659772,
                    -1.0604116865345865,
                    -0.31052310317326487,
                    -0.45521418125340785,
                    -0.16264422198809908,
                    0.6283295053485932,
                    0.7788278580618876,
                    0.13099369282556544,
                    -0.972353921575557,
                    0.3896050593743903,
                    0.17318257631002326,
                    -0.573866956287724,
                    0.10111706468689344,
                    -0.352560558636749,
                    -0.6242601367497467,
                    0.791042766445719,
                    -0.6231936277165955,
                    0.21637837143546262,
                    -0.5907257675387324,
                    -0.03802911164243571,
                    0.6822220155389408,
                    0.7969917475223571,
                    0.9990243097642691,
                    0.7319571176545536,
                    -0.5756948711518232,
                    -0.5505396552038415,
                    -0.7343989283437039,
                    -0.14160480169670378,
                    -0.7362274609094153,
                    -0.9024401505161685,
                    0.4206030976040921,
                    -0.18253316498099795,
                    0.07820380360390616,
                    0.9186527963702191,
                    0.5409923778922362,
                    0.5609262234199697,
                    -0.602498683227299,
                    -0.8174568660805306,
                    -0.7084269827719193,
                    -0.1207324116777483,
                    -0.5133558253833634,
                    -0.18332437632959317,
                    -1.0193212600091834,
                    -0.2569196325332801,
                    -0.31874259586424064,
                    0.6862625511593973,
                    -0.45901715725012704,
                    0.8630107714078357,
                    0.29210647119694444,
                    0.8700054454889695,
                    -0.25383470483419396,
                    -0.7711425756915725,
                    0.8145139291782519,
                    -0.22542736701693222,
                    -0.6388650422622838,
                    0.7757451363655931,
                    0.7970104853550303,
                    0.1916190753647229,
                    -0.37750568506998305,
                    0.06141941983304171,
                    0.06239897522709318,
                    -0.5537317052366225,
                    -0.8167968334223806,
                    0.6547648523177206,
                    0.5754252563083313,
                    0.829059474809684,
                    -0.03984802202304189,
                    0.6786415664816402,
                    -0.43226025943467755,
                    0.7009274394906307,
                    -0.22338063821412796,
                    0.4857993275680169,
                    0.11902289968105499,
                    -0.05492968406554772,
                    0.4256199689698727,
                    0.5011871681617777,
                    -0.5299271343176937,
                    -0.8880565792398146,
                    -0.8273698383878882,
                    0.06755798951584026,
                    -0.4823854608870376,
                    -0.5020176810846612,
                    -0.38846982269676633,
                    -0.8501237225464964,
                    0.8900164094831857,
                    0.6836289981012269,
                    -0.21359091843576242,
                    0.36510332829916503,
                    -0.2151552022620348,
                    0.8012397542204103,
                    -0.535829698284358,
                    -0.9301322396415366,
                    0.8077539200089625,
                    0.6116744462563182,
                    -0.963006236519332,
                    0.2819600507522956,
                    0.6752456897545069,
                    -0.2635882141334922,
                    -0.019919829956229908,
                    -0.7601755111538842,
                    -0.7268282936576664,
                    -0.43193301658136307,
                    -0.4808433597579073,
                    0.3439707899208487,
                    0.4352013387367957,
                    -0.9337611767264,
                    -0.05179446956310895,
                    0.6678089572000906,
                    -0.8257205115280218,
                    -0.3372233195416486,
                    -0.31002772325305245,
                    -0.757782890325504,
                    -0.6607830039614453,
                    0.05797501867541458,
                    -0.8230319699248564,
                    0.5728499476193618,
                    0.5470191941307952,
                    0.8621083025122499,
                    -0.07867205604954579,
                    -0.1931549838155299,
                    0.2663117960388547,
                    -0.7910029828167291,
                    0.34216279796550664,
                    0.08282454859892616,
                    0.2814037041590793,
                    -0.017408226069662712,
                    -0.03549804245439836,
                    0.15840010542883773,
                    0.21954819001303974,
                    -0.8623027495708651,
                    0.2466085554250261,
                    -0.12603620586412526,
                    -0.008416716920802274,
                    0.6755947603161132,
                    -0.4562484013543893,
                    0.5445427932224728,
                    0.013917030917882468,
                    0.06152992717369426,
                    0.3024552253526441,
                    0.5124760284729231,
                    -0.8925002144176813,
                    -0.38108832875187565,
                    -0.7894512426543494,
                    0.255921964477481,
                    -0.008506344043604822,
                    -0.29544657267482655,
                    -0.038189264888867216,
                    0.5097499438688846,
                    -0.29870603137098406,
                    0.08182531155610087,
                    0.6734273817788518,
                    0.09388498515085353,
                    1.1367205153899842,
                    0.4234844600628343,
                    0.2590815685334946,
                    0.31687331246582123,
                    -0.8996145775518202,
                    -0.2655009568487604,
                    -0.48285680679117277,
                    -0.27006114364604483,
                    0.14686333326796827,
                    -0.14401066072079038,
                    0.40775280997643926,
                    -0.57394402587061,
                    -0.7296804435651709,
                    0.8145220832326227,
                    0.09675619524803683,
                    0.8374215997665856,
                    0.2648348893007387,
                    0.6855114676685546,
                    0.4875524351548761,
                    0.8039632121227757,
                    0.4398242970445301,
                    0.10967957715682362,
                    -0.39497631479558315,
                    -0.33059347159690633,
                    0.6017493626199257,
                    -0.3368832482539861,
                    -0.5143644464951187,
                    -0.039789113918002716,
                    0.6773553068645435,
                    -0.8969051711885113,
                    0.2928895230677097,
                    -0.7054317962414087,
                    -0.7135360556000263,
                    0.6943357152323315,
                    0.6210441899792959,
                    0.10287535742004522,
                    0.6070262025563985,
                    -0.44260918234488356,
                    0.5211865522694382,
                    -0.03363704441346873,
                    -0.6215023062782064,
                    0.6297681487051235,
                    0.8739021468006922,
                    0.8322639413773333,
                    0.8771481798576463,
                    -0.6167147018988945,
                    -0.25870907491193446,
                    -0.0471592910553859,
                    -0.024154176849245215,
                    0.5785642614770284,
                    -0.5737320781099772,
                    -0.5761268626481206,
                    0.27833388402275316,
                    -0.5353339662037049,
                    0.30764548636873523,
                    0.6509640476151278,
                    -0.06848096581285221,
                    -0.276252922236638,
                    -0.24480549971904209,
                    -0.14415051852452965,
                    0.5451543476709644,
                    0.5405645972965857,
                    0.17935161264582045,
                    -0.2279712879531605,
                    -0.7457306004197359,
                    0.6076503672788482,
                    0.14284941462663564,
                    1.0550861576662547,
                    -0.6086168788423935,
                    0.9538927314483264,
                    -0.21502658922319123,
                    -0.09009256276493896,
                    -0.09673992982074864,
                    -0.1252897212170655,
                    -0.6342640114787856,
                    -0.40632067025193813,
                    0.5265387314203888,
                    0.9047400157068058,
                    0.7500606481953204,
                    -0.7786782047661103,
                    0.39910265873800477,
                    -0.44161992112337334,
                    -0.4784711414904216,
                    0.20526705851656885,
                    0.783947588317328,
                    -0.9491295727790453,
                    0.26391621374068364,
                    -0.3334730212944089,
                    0.6173451778858439,
                    0.6327447497421917,
                    0.17456472519560914,
                    -0.9097217094349723,
                    0.48503924942829446,
                    -0.9219755179017061,
                    -0.5300659009003456,
                    -0.48752652594774637,
                    0.6206209725890505,
                    -0.09410601602218159,
                    0.035736438016866705,
                    0.18412665358225327,
                    -0.2280367005100931,
                    -0.05741033684628234,
                    0.10330947754154979,
                    0.2676565017184787,
                    -0.7712628239413528,
                    -0.6496723150765649,
                    0.4881350891119299,
                    0.7722751696700116,
                    0.5662161331532737,
                    -0.17675938989991732,
                    -0.3595909076050945,
                    -0.5908070274869085,
                    -0.16739356954832174,
                    0.02906528237325933,
                    0.036799455901013634,
                    0.33605621548758957,
                    0.15101727383043942,
                    0.43293846860271945,
                    -0.16783863578717215,
                    -0.6673277120355453,
                    0.7472412936422212,
                    -0.27722504655456703,
                    0.05613886478209828,
                    0.729472221942535,
                    0.11355879407793915,
                    0.3958508648906057,
                    0.44042241204518146,
                    0.4986880080951798,
                    -0.7135516304504077,
                    0.2937982168018528,
                    -1.07574639495011,
                    0.7035586419026283,
                    0.3557992422288003,
                    0.6960069671334231,
                    -0.028495572527811982,
                    -0.7113324340110696,
                    0.2757321041618273,
                    0.8767561044077312,
                    0.5814937550793268,
                    -0.2407046818952353,
                    -0.32448269516550027,
                    1.042569830785586,
                    -0.15896094165178032,
                    -0.3341928648098788,
                    -0.22533601419213065,
                    0.6003865175399559,
                    0.9276478360758553,
                    -0.795655078870524,
                    -0.24288129279933013,
                    -0.9734626257359151,
                    0.6207438057323127,
                    0.9146769564351203,
                    -0.5475075111317635,
                    -0.43124443938980195,
                    0.5888062732088295,
                    0.3723449330851369,
                    0.47345877636764166,
                    -0.069396489180311,
                    0.7444129232149063,
                    -0.5267498801249364,
                    -0.1445515379264135,
                    0.7792754914304781,
                    -0.28223323447470555,
                    0.6790857755848253,
                    -0.3895010459447773,
                    0.6169799305694619,
                    -0.1389571223012037,
                    -0.8866157706903743,
                    0.9572799917300907,
                    0.40922830160531487,
                    -0.7633163124080419,
                    0.26981099547560683,
                    0.9397558686892261,
                    0.2460165238161254,
                    -0.5740786839668853,
                    0.48408885316667094,
                    0.2503692441688148,
                    -0.824553952075471,
                    0.46283866034728016,
                    -0.9291235223663654,
                    0.8748375783463058,
                    0.4637097986634119,
                    0.5654363746225046,
                    -0.6977095174971295,
                    -0.11033357240765071,
                    -0.594953873268745,
                    0.2298161458603514,
                    -0.19714907557031416,
                    0.8175251565834475,
                    -0.9576284926820654,
                    0.36566789866728083,
                    -0.66035149814643,
                    -0.5122101603833025,
                    -0.16638785464420466,
                    0.38890946107502483,
                    0.5001412455271865,
                    -0.8204689059392606,
                    0.48368363512897533,
                    -0.8200358414376459,
                    0.4865715362498574,
                    0.5094535611667385,
                    -0.07698037370481593,
                    0.0026021776551779516,
                    0.6192818469366479,
                    0.7351222218199177,
                    0.36660533801346096,
                    0.49689003012191996,
                    0.9740263232466467,
                    0.3122706117463058,
                    -0.6907759139262389,
                    0.4576650749424003,
                    -0.6903341315887342,
                    0.40306488479556235,
                    -0.5442159430422387,
                    -0.9803252188340656,
                    -0.7209512967240888,
                    0.6077050647464134,
                    -0.04591647001150676,
                    -0.9790901924106455,
                    -0.047309595192035765,
                    0.9075197189186136,
                    0.43794146576165194,
                    0.8568337318435079,
                    0.42305477809567327,
                    0.331638441715508,
                    0.6198173466168698,
                    -0.4529617071823448,
                    0.32318864699964267,
                    0.8280189929194167,
                    0.8984036321433373,
                    0.5086500368559278,
                    -0.5045888032509187,
                    -0.9093859684577357,
                    -0.3484862410230603,
                    0.38325285905814455,
                    -0.6371923021203775,
                    -0.5333358680920475,
                    0.7276479342276352,
                    -0.5862830905163094,
                    -0.4112870071883997,
                    1.029971932957691,
                    -0.5834232999958224,
                    -0.696986952877621,
                    -0.6163381894158861,
                    -0.2637745987190144,
                    0.37730722833558816,
                    0.40022404878683393,
                    -0.670162542467205,
                    0.7954489661591962,
                    -0.5063715093887001,
                    -0.1729361699839144,
                    -0.7936748188095532,
                    -0.5867296260373199,
                    0.6735092191955432,
                    0.390901891689104,
                    0.5538670882565172,
                    0.4336824528980599,
                    0.5196057974715007,
                    -0.5340329277896456,
                    0.5458865167000362,
                    -0.39154259982035194,
                    -0.28850975252463407,
                    0.9362505225424838,
                    0.18652422799725946,
                    0.27212817479654977,
                    -0.40634823007274373,
                    0.8216824543891241,
                    0.40884602174477075,
                    -0.5572702139375066,
                    -0.4797400496726753,
                    0.1764950586733978,
                    0.2161769686305289,
                    -0.31712876286586916,
                    0.2507234696404298,
                    -0.32178638569252827,
                    -0.7966006656768865,
                    0.07883564655703319,
                    0.40372405796129934,
                    0.8549358563350544,
                    -0.05659003476382727,
                    0.48354045508062826,
                    0.8609343195037571,
                    -0.6660969213584085,
                    -0.3158480626036551,
                    -0.11947798289991066,
                    0.8300073150994537,
                    0.05528597660530466,
                    0.273824750355082,
                    0.19835660212395873,
                    0.739756765973291,
                    0.551782174656297,
                    0.8742052654624334,
                    0.8730714995967205,
                    0.7419267998396761,
                    -0.46555884913352336,
                    0.8926012417109389,
                    -0.9856928400659296,
                    0.9553753393952403,
                    -0.6890395094273571,
                    -0.8160353125075445,
                    0.12419685120356881,
                    0.3662666019327974,
                    -0.26809090536202407,
                    0.787483059088216,
                    0.622745883796006,
                    -0.2940063829955497,
                    0.5018134225554793,
                    0.26843137879544093,
                    0.3186466419515805,
                    0.9239181653838755,
                    -0.584736743830422,
                    -0.9096270316309664,
                    -0.6016655405482457,
                    0.3893711661912541,
                    -0.15445412898257063,
                    0.06100271475182167,
                    0.48124876675483846,
                    0.8900270404747642,
                    0.6259098492059262,
                    -0.14408156116015428,
                    0.18225523656415074,
                    -1.0209960966832092,
                    -0.5580661739706437,
                    -0.0656264775896701,
                    -0.9110754780072704,
                    0.6882995565259615,
                    0.48317054100147055,
                    -0.04227654974396515,
                    0.24449607340672252,
                    0.3114709962405501,
                    -0.5705519922418231,
                    -0.6158418684146756,
                    -0.31054181462538105,
                    -0.9848353832580423,
                    -0.13213208428448875,
                    -0.7935730153036803,
                    0.7973955384651201,
                    -0.48610036403018825,
                    -0.6408087409477788,
                    -0.3627755313324561,
                    -0.4353258720792578,
                    0.27193166691158793,
                    -0.5125243368265997,
                    0.2744153190299569,
                    -0.31540682483027405,
                    -0.23849307599372302,
                    -0.9208924226233035,
                    0.7920023067396892,
                    -0.18017412709525937,
                    0.6306738024712151,
                    0.30882129656797613,
                    0.09162567070089084,
                    -0.5359996588544229,
                    0.19272603571256836,
                    0.7004758370187395,
                    0.0016435117709860654,
                    0.2410230714071222,
                    0.6206900244089836,
                    -0.7945174654870611,
                    0.1927276982191076,
                    0.17305446945318625,
                    0.42350959572890473,
                    -0.8354663370024291,
                    0.7922196939419995,
                    -0.03844428987553517,
                    0.41937313008206983,
                    0.21699115343438863,
                    -0.06448203935340427,
                    -0.6657319031401026,
                    0.7071885523719819,
                    0.26996456059446067,
                    0.28206435013416203,
                    -0.3084361629376361,
                    0.11665964003873411,
                    0.962757852262007,
                    -0.11834498056280227,
                    -0.5477470098367927,
                    -0.38620931092212646,
                    0.7463228443016107,
                    -0.713874011029448,
                    0.5476397048184258,
                    1.084380403505529,
                    0.5399016857451828,
                    0.06711099892368158,
                    0.4648151120285205,
                    0.8601708208951343,
                    -0.6790816632927597,
                    0.06526743332798082,
                    -0.4236922066162837,
                    0.9466052622401177,
                    -0.5226275505713752,
                    -0.6711906421446006,
                    -0.34676152746957584,
                    0.3227920772919199,
                    0.5101655390102124,
                    0.7603507427098624,
                    0.8959197804142597,
                    0.7674513446615105,
                    -0.7645919191879039,
                    0.1678725878200404,
                    -0.6104561596570718,
                    -0.30078812253541715,
                    0.5459359674982098,
                    0.2323209558749708,
                    -0.6649866498116392,
                    -0.1572263789839068,
                    -0.48146725263198376,
                    0.6131774005667859,
                    0.16603647678020703,
                    -0.8058054519722226,
                    0.9884280454127256,
                    0.8298388062963216,
                    -0.9986281597119314,
                    0.039991046161702966,
                    0.529515378113295,
                    0.20910625980724112,
                    1.0196727407652562,
                    0.3024467038320243,
                    -0.6286012950889645,
                    0.21908129588742276,
                    0.9396513083321231,
                    0.31731496021519506,
                    -0.5490513904395418,
                    0.356189248180468,
                    0.7710029262481584,
                    0.9911806055531369,
                    -0.11046731427164548,
                    -0.7972035674096859,
                    -0.05158668575901079,
                    0.8262390033498155,
                    -0.31460976360172305,
                    0.043750364264911516,
                    -0.7965436033441773,
                    -0.28083161188088446,
                    -0.5673223073016415,
                    -0.5268873114501871,
                    0.3589167700817267,
                    0.84056246610878,
                    -0.9006138775466935,
                    -0.09727813621963348,
                    0.13752347491546782,
                    -0.15945082408010905,
                    -0.4265982076710508,
                    -0.8329084463406229,
                    0.473960960970781,
                    -0.8915875020383839,
                    1.1146777423491698,
                    -0.5022491714677897,
                    0.11366480555639996,
                    -0.6095644566145856,
                    0.8498518588924232,
                    0.5956760896216924,
                    0.6083118805591545,
                    -0.12441795503122596,
                    0.5064163563502004,
                    0.51774589811088,
                    -0.3383685477294705,
                    0.9558984252652856,
                    -0.4960819983386602,
                    0.6915719304806249,
                    0.5915034147559695,
                    -0.427083481921213,
                    0.24956787388348484,
                    0.8231323492121848,
                    0.28916786311185766,
                    -0.015269492213187078,
                    0.20541703851192156,
                    0.026921563483540814,
                    0.05970424097163622,
                    0.3984305606400149,
                    0.398866826396433,
                    0.3996930476304182,
                    -0.14474605189719947,
                    -0.767162958012153,
                    -0.6104425052236659,
                    0.5920232515024786,
                    -0.6419029138331331,
                    -0.3282232084912848,
                    0.3538807865350974,
                    -0.24341627703409957,
                    -0.8544040850237709,
                    -0.973756222455962,
                    0.6209976515529837,
                    -0.29842873212456883,
                    -0.10633984978378237,
                    0.9305798418093932,
                    -0.49877583067458114,
                    0.2552491809788087,
                    -0.060857146826158094,
                    0.3320522498261687,
                    -0.255342039403249,
                    0.33003387591742067,
                    -0.06667107355322902,
                    0.2664730022447127,
                    0.11155788418063989,
                    0.8064165185658315,
                    0.2873994018773625,
                    0.37741434235444116,
                    -0.766538676811707,
                    -0.37223698759086876,
                    0.6354242089453921,
                    1.0270003578797813,
                    0.3536783143963827,
                    -0.4754820076852437,
                    1.0322176594601122,
                    -0.40444675118890183,
                    -0.47711006828072366,
                    0.7644681151841908,
                    0.41359165520770513,
                    -0.9650211676617326,
                    -0.38256199880864633,
                    -0.31739988634671684,
                    0.02085288407174095,
                    0.2353260635860699,
                    0.6189274348048494,
                    0.8886835586305385,
                    -0.543862364001911,
                    0.6651437797251537,
                    -0.8538793640535018,
                    0.24914514465400564,
                    0.06881131888840795,
                    -0.311560337015153,
                    -0.524044086752252,
                    0.7514615033603921,
                    0.9392326106295888,
                    0.1106819091640882,
                    0.27511383434410813,
                    0.9761207482579979,
                    -0.6449422773067772,
                    0.4414172609992501,
                    -0.06996696091931391,
                    0.31586003707853216,
                    0.6329917294982268,
                    0.8934626700521711,
                    -0.7495625649198934,
                    0.7386178014457576,
                    -0.2706307842446668,
                    -0.32584888080403174,
                    -0.0692549402733599,
                    0.5812244124877406,
                    -0.38678282776620465,
                    -0.19530594576305035,
                    -0.6195100831284844,
                    -0.6397302933798131,
                    -0.7179651983100125,
                    0.25118888842841247,
                    -0.8749125165983934,
                    -0.1742473192406476,
                    -0.009819306653582995,
                    0.06177032008106219,
                    0.5561377328349355,
                    0.45106102351879307,
                    0.489938136408208,
                    -0.33311193535589034,
                    0.7072814906007703,
                    -1.0156187461832917,
                    -0.2926600272761772,
                    0.08119778412927897,
                    0.29911574744132574,
                    -0.2543763389960606,
                    -0.1403360045893446,
                    -0.9160249159819861,
                    0.6436663301179396,
                    -0.9682414661679631,
                    -0.06816094141607941,
                    0.7629093438074736,
                    0.1129461977496755,
                    -0.4338357908157345,
                    -0.6209515820621764,
                    -0.24922765604560415,
                    0.16710311209848214,
                    0.21505415618290502,
                    0.8537144616854846,
                    -0.12064041225343267,
                    -0.20824431245336347,
                    0.7585119588450411,
                    -0.5536057724057856,
                    0.7252928102808993,
                    0.5238628543384445,
                    0.47296057336309233,
                    0.47616289425467484,
                    -0.556658877723412,
                    0.011811769094995424,
                    0.5677864113758802,
                    -0.27129959832990347,
                    0.03618956170763457,
                    -0.4080654149538158,
                    -0.09096594848206722,
                    -1.0417002482424094,
                    0.27133198929517693,
                    0.2788976278683385,
                    -0.4303594588500707,
                    0.4431416407260161,
                    0.46418441656792203,
                    0.4774121382889431,
                    0.9720143856035554,
                    0.22165718042536625,
                    0.79021801764936,
                    0.0712114145645932,
                    -0.6921655073986976,
                    -0.4053504870498395,
                    -0.20543733509875317,
                    -0.5321103115030436,
                    -0.18829365427517641,
                    0.0738112439554722,
                    -0.08740654314307886,
                    0.8908936544419259,
                    -0.707600986417474,
                    -0.5139736641089389,
                    -0.5203680212027266,
                    0.6931161725195992,
                    -0.0584651911447963,
                    -0.8382472994030654,
                    0.3530401017645368,
                    0.8129683132841524,
                    0.8536949810635768,
                    0.6787579778208146,
                    -0.9340344743354825,
                    -0.49544679183451024,
                    0.5612787601438546,
                    -0.7723192901235005,
                    0.7130778822076341,
                    0.012239671726531353,
                    -0.5928584692963899,
                    -0.6758867690572454,
                    0.6668333936857344,
                    0.2479666324665849,
                    -0.7531300136209396,
                    -0.5586685291334615,
                    0.26283300696807144,
                    0.5623935971959966,
                    0.38579690299590885,
                    0.7133418584970272,
                    -0.4261810472934559,
                    0.6204664767015639,
                    -0.8755942618552706,
                    -0.4019312667985271,
                    0.5373704556355561,
                    -0.5074197449062487,
                    -0.4646071700718731,
                    -0.4350506657005964,
                    0.7660623743615296,
                    -0.22077640611347843,
                    -0.961225175731345,
                    0.34302446390601743,
                    -0.9532124490716793,
                    0.08829963780261381,
                    0.6044998757239877,
                    0.14795897638291355,
                    0.9963999134324153,
                    0.09210062641271567,
                    -0.3597489586409133,
                    0.002500330746695684,
                    -0.9444417892462009,
                    0.340543978135504,
                    0.09111220024117643,
                    0.7808173047625632,
                    0.10600824807282247,
                    -0.9116743237167491,
                    0.2784285752714588,
                    0.9798177244918913,
                    -0.08704807957276454,
                    0.6105646181324355,
                    0.7777972791146016,
                    0.025505125544780263,
                    0.7070682801456414,
                    0.25985835008255115,
                    -0.5965772341894074,
                    0.3988090486196311,
                    -0.5398679665621371,
                    0.22930113444543967,
                    -0.8551388536118752,
                    0.562416399610194,
                    -0.7752635920287478,
                    0.9923603259387962,
                    0.15104577597011318,
                    0.2633087657244108,
                    0.35464142294867856,
                    -0.41309527631146564,
                    0.7379646903403386,
                    0.7332453287210188,
                    -0.6767350883790406,
                    0.6213269360365585,
                    -0.76323188809184,
                    -0.3727074522058165,
                    -0.9030789371429224,
                    0.7302394800167864,
                    -0.13822461219154933,
                    0.15172955649557385,
                    0.9653311895680105,
                    0.9675072566641226,
                    -0.5478177330277183,
                    0.42315989099706586,
                    -0.1255684815618009,
                    0.2957679286612176,
                    0.7106099827131653,
                    -0.5393729301966643,
                    0.45729809406659594,
                    0.1597159890195243,
                    -0.028904921306420948,
                    -0.33528768618479005,
                    0.9152030833899868,
                    -0.43196867947128387,
                    0.6195358406617076,
                    -0.6079953277191631,
                    -0.6508039508208255,
                    -0.891943225893971,
                    -0.16108890917713167,
                    0.7985336468707307,
                    -0.8561374422380376,
                    0.5320540279256555,
                    0.841326717071835,
                    -0.19644933700788622,
                    -0.6215867105542896,
                    -1.0311967833701525,
                    0.08182716621305763,
                    0.35403114304622857,
                    -0.5247391973221276,
                    -0.19861772735950348,
                    0.7468334846891764,
                    -0.770590047659962,
                    0.6958491946247541,
                    -0.6496669670528188,
                    -0.15880857407947407,
                    -0.3012225984250432,
                    -0.23632786250380133,
                    0.48123397676795826,
                    -0.028801381372535143,
                    -0.32433815865840515,
                    0.35585505361311137,
                    0.20806949891907972,
                    0.7218224245032753,
                    -0.4705048634157982,
                    0.6569983118804176,
                    0.7825999962691197,
                    -0.03954518248009766,
                    0.12485022536241733,
                    0.1497323723166504,
                    0.3303770295326196,
                    -0.30759682568726776,
                    -0.3302552644270377,
                    -0.21663419676887832,
                    0.20084848903597388,
                    0.6958413258553279,
                    0.15664209471591678,
                    -0.3952865527031848,
                    0.1603940064431257,
                    -0.8634343931882492,
                    -0.15046960517192276,
                    1.0165511195351384,
                    0.5492010544248758,
                    -0.47610745697256945,
                    0.6352449875303559,
                    -0.2223583146260413,
                    0.3709952455159869,
                    -0.675620695361457,
                    -0.364519810364571,
                    -0.7209101458206951,
                    0.47500464104003376,
                    -0.8214367563468239,
                    -0.18366356832621414,
                    0.004450017876008309,
                    0.7789769759269983,
                    0.7461030010670364,
                    0.7646930022632554,
                    0.07741292333497399,
                    0.06439808134019116,
                    0.018866591469794306,
                    -0.44543910734925424,
                    0.27153803796259873,
                    -0.34223324049557985,
                    -0.34435459818367253,
                    -0.5763691539326935,
                    -0.3885249771044345,
                    0.4257700513343919,
                    -0.7909765079753505,
                    0.806106571129849,
                    -0.11252167885381259,
                    -0.7780824083802406,
                    0.352755472831373,
                    0.6548631549191068,
                    0.1058134610807604,
                    0.4220546041364606,
                    0.16161495280518384,
                    0.9206370515695441,
                    -0.14921468433995277,
                    -0.23983049211776927,
                    -0.6502719933883604,
                    0.21360027238741025,
                    -0.13786353659127898,
                    0.3302184868535663,
                    -0.06986665820559054,
                    -1.0241183511111114,
                    -0.25046572888778257,
                    0.5604883444527863,
                    0.06430437823828095,
                    -0.22791688463587986,
                    0.6296160275741508,
                    0.8844534407662005,
                    -0.6505865369535493,
                    -0.26939096765799736,
                    0.2950527454655493,
                    -0.03530167060371925,
                    -0.4958514655525826,
                    0.4242829303651807,
                    0.40615168305039046,
                    0.32091584654024435,
                    0.14765322318303686,
                    0.3034016122558607,
                    -0.9135260801837788,
                    0.6905506611624591,
                    0.2043435915855709,
                    0.8766022638383756,
                    0.044191648098662495,
                    0.1424247077917936,
                    0.32737039459245254,
                    0.37054604836227656,
                    -0.5945149966884271,
                    0.7266192629773197,
                    0.6645173465062079,
                    0.39939536576621176,
                    -0.48901513928896,
                    -0.7300273897804452,
                    0.05632875358963537,
                    0.9303933748672408,
                    -0.6634122005493562,
                    -0.795293842029862,
                    0.08563769048173334,
                    0.8001769710860416,
                    0.5178153054292985,
                    0.8454709427519317,
                    0.8142373365862562,
                    -0.9109256910004863,
                    -0.8127546935862526,
                    -0.5594583499526093,
                    -0.9196301320021066,
                    1.006297499797753,
                    0.1681793950150706,
                    -0.8687784192444937,
                    0.4684077847573952,
                    0.014754079740794164,
                    -0.1583461922535956,
                    0.18202971227532666,
                    -0.8113441408093328,
                    -0.5629965540553437,
                    0.41707326878263035,
                    -0.10621945789370002,
                    1.0135188839949598,
                    -0.4711582915378216,
                    -0.41690465907688706,
                    -0.39632230800739865,
                    0.1480093137563472,
                    -0.42912948383413335,
                    -0.6405770653064701,
                    -0.014543115567009657,
                    -0.25686277750441316,
                    0.8581595176370669,
                    0.6692992836569442,
                    0.39101017762593554,
                    -0.46031806605311404,
                    0.6911577738836265,
                    0.9662442463351663,
                    -0.868800739877168,
                    0.9084484842750451,
                    -0.7218201021290074,
                    -0.8243624134853224,
                    -0.1816398534918468,
                    0.34147720460089365,
                    -0.7530466457757147,
                    -0.49765267147816344,
                    0.2893668116825331,
                    0.029506069865334498,
                    -0.4595317229571967,
                    0.28645116111331725,
                    -0.753494949671308,
                    0.7195553060741746,
                    -0.35589427590044403,
                    -0.3508370590950921,
                    0.08819793490136103,
                    -0.09417362657050672,
                    0.7052455616696366,
                    -0.6851065626793362,
                    -0.06390804145057064,
                    -0.323696028476849,
                    0.7280698346671798,
                    0.3232358366270648,
                    -0.5398133678494635,
                    0.5846930263192616,
                    -0.2791151156288631,
                    0.2580630935740039,
                    -0.6027395817777796,
                    0.27089878798921047,
                    0.9313213679109249,
                    0.6980634005127831,
                    0.9029990857791228,
                    -0.9711206426649232,
                    0.32847878807070474,
                    0.45142668613915526,
                    -0.05805004436354546,
                    0.4507214084268083,
                    -0.37721465565948015,
                    -0.37345640937584057,
                    0.02102992465305069,
                    0.32241263577210055,
                    -0.19918857446065938,
                    0.6425568678546447,
                    0.06414387513743781,
                    -0.5394572933598658,
                    0.8485845172867097,
                    0.48986057347619755,
                    0.7031971314309367,
                    -0.47775017269802394,
                    0.41576694447997964,
                    -0.5034179536105731,
                    -0.13728147802047028,
                    0.35804063673275716,
                    -0.23650717412329586,
                    0.3671344056393796,
                    0.3320699117426696,
                    0.43523532213370425,
                    0.670281978915705,
                    -0.12644121403148878,
                    -0.3913347188287474,
                    0.0517499499096598,
                    -0.254375710964036,
                    -0.7258600821971294,
                    -0.10164862424874235,
                    0.30462788408604774,
                    -0.594168572389865,
                    -0.053675776107573,
                    -0.8877963355344003,
                    0.3179388754855354,
                    -0.13115107792595773,
                    0.1698684693816781,
                    -0.27998306941409895,
                    0.06409646275953915,
                    0.3446152535363388,
                    -0.4023993895479312,
                    0.2858451839138748,
                    -0.4353496131519787,
                    0.6899438167667706,
                    0.1705474225182481,
                    -0.8679534831621847,
                    0.4443303525238011,
                    -0.3575987571650086,
                    -0.3331348562430868,
                    0.33324823820355154,
                    -0.4597913173176098,
                    0.11912769821904216,
                    0.5107782449789362,
                    -0.39196521997516726,
                    -0.24076396814754744,
                    0.35385816619272753,
                    0.08872227291295562,
                    -0.7524715518140463,
                    0.34159039152195,
                    0.8516916386269712,
                    0.0926315300036822,
                    -0.8877406833659343,
                    -0.13793150425436576,
                    0.8504444416856254,
                    -0.5041659980443676,
                    -0.29776175220516476,
                    0.8363157316055669,
                    0.4833922868453153,
                    0.25151618553043675,
                    -0.23631669752117193,
                    -0.7163036507244034,
                    0.5440020863551356,
                    0.7178589298404119,
                    -0.3783140407075013,
                    -0.44821838265762864,
                    -0.759411914953751,
                    0.13055739908169,
                    -0.5723476497934621,
                    -0.9801835072252294,
                    -0.45263583341232505,
                    0.28547867216828543,
                    -0.3664816836581426,
                    0.16860531715098417,
                    -0.8958110255641121,
                    -0.8675699754710603,
                    -0.6217781158243008,
                    0.7848312171673744,
                    -0.7957430693506804,
                    -0.5511293336806753,
                    0.23476961372366167,
                    1.1321996825492444,
                    0.4968906286299429,
                    0.7489558859852946,
                    0.3878072136705673,
                    0.9171988876842619,
                    -0.29622406316791244,
                    0.560073996791737,
                    -0.6767182461344481,
                    -0.10449930025389026,
                    -0.5871912999532936,
                    -0.5914937144378415,
                    0.16484493709119769,
                    0.8081885793755543,
                    0.7442388162710128,
                    0.4507064573867995,
                    -0.3060355465657517,
                    0.8648245831760527,
                    -0.7673902791544716,
                    -1.0290706635933282,
                    0.7456910754387752,
                    -0.6040285499136665,
                    -0.8293203634763461,
                    0.8441646399107386,
                    -0.3850673010373667,
                    0.8296134568247361,
                    0.5249286523591216,
                    0.9703911614316751,
                    -0.8393514536050642,
                    -0.9125343842049924,
                    0.38080098545780694,
                    0.1628769005800064,
                    -0.6461266518126446,
                    -0.36428608603500334,
                    -0.9394867999362855,
                    0.9869299717102147,
                    -0.26360191113791215,
                    0.3460480067286688,
                    -0.8989207215199164,
                    0.5137441106280193,
                    -0.7065875977735413,
                    -0.92671325538526,
                    -0.023288518217535595,
                    -0.030583276054304116,
                    0.8210934334980838,
                    0.551309380865493,
                    -0.7822716471685897,
                    0.6974068815213377,
                    -0.3936737311017654,
                    -0.7333835704769043,
                    -0.9653677088972924,
                    0.10609060676841238,
                    -0.5582466705954975,
                    -0.7081792055543578,
                    0.5377270742086614,
                    -0.5299483391299796,
                    -0.6493970910920479,
                    -0.7445005875508488,
                    0.37732151425819926,
                    -0.5440650331621476,
                    -0.14460613206589143,
                    0.9545356387758052,
                    0.7547768245917245,
                    -0.0824672433441734,
                    -0.3555862799466241,
                    0.5571357977228816,
                    0.0982630477614571,
                    -0.7975702874399084,
                    0.9705284582512532,
                    0.38716952596529697,
                    -0.36658946405208204,
                    0.28264209752775005,
                    -0.7993319491911441,
                    0.21547177290383873,
                    -0.36381137360208426,
                    -0.8897034932577803,
                    0.5461369473270595,
                    -0.08455157349022345,
                    0.8388899276164633,
                    0.7662590626726667,
                    -0.5495366779972466,
                    -0.29640259316039086,
                    -0.5372444516615889,
                    -0.8344234031868443,
                    -0.94987958295587,
                    -0.8254733989959071,
                    0.5941193482383863,
                    0.06284928802571352,
                    0.5680088994953577,
                    -0.5301937773498467,
                    -0.4529385280572714,
                    -0.506114273930342,
                    -0.6171373048169336,
                    0.827123607078336,
                    -0.20065446010067012,
                    -0.1480644070019774,
                    -0.8411520437639334,
                    -0.7166317824140271,
                    -0.19940994665585723,
                    0.14080385439647208,
                    -0.894545099045226,
                    0.34584034140252157,
                    -0.05341336303563027,
                    -0.7672548535459064,
                    -0.6482686116275161,
                    -0.62642043184401,
                    -0.1344264394643629,
                    0.3152443865685156,
                    1.0228392925788137,
                    -0.1869670647343045,
                    0.07107111250892022,
                    0.8953340673080376,
                    0.7254400144337247,
                    -0.2719673737129642,
                    0.40243345540981157,
                    -0.4985847688420455,
                    0.7202051493564193,
                    0.8799420449165275,
                    -0.8124074454650642,
                    -0.7337613319156184,
                    0.3030894571540604,
                    -0.04375796527067219,
                    0.09995506481611305,
                    -0.021916383788020546,
                    -0.527710155451638,
                    0.10165812242880592,
                    0.5796193496526242,
                    0.003975441665631084,
                    -0.8944349794777814,
                    0.04379379888163293,
                    0.05257334949495898,
                    0.9192254344899294,
                    -0.34800536917405045,
                    0.9525971377515454,
                    1.1262527348266875,
                    0.5230961187304248,
                    -0.6366910469305189,
                    -0.9199283818243954,
                    0.37448361803194136,
                    0.12935010963460028,
                    0.32887913998684576,
                    0.022452086219504563,
                    -1.1308293990375513,
                    0.7386050452868453,
                    0.4137790327882001,
                    0.4201834981408009,
                    -0.36473713723461215,
                    -0.13818730534858711,
                    -0.6133083952073198,
                    -0.019236045904988588,
                    -0.8671619120666761,
                    -0.16106258835724072,
                    -0.5878054506986377,
                    -0.7115684175746321,
                    -0.9314765363003906,
                    -0.41999521633595494,
                    0.7186844926629516,
                    1.032555273036817,
                    -0.14211962097625772,
                    1.0461865690788352,
                    -0.08881933055933466,
                    -0.45039975825690576,
                    0.6406689371084057,
                    -0.5095566699544102,
                    1.0228335205100962,
                    0.46494547435424366,
                    0.6263330139637011,
                    0.4076691414933898,
                    -0.7984498619428168,
                    -0.19313518373885022,
                    -0.8692485664157568,
                    -0.22665221288148016,
                    0.09496763406208986,
                    -0.7563718092756366,
                    1.0672496669626372,
                    0.3434486894205556,
                    0.1946207031138351,
                    -0.8976848909038666,
                    0.5831074887339259,
                    0.4311296011066481,
                    0.18877949241962,
                    0.6765683036509347,
                    0.022893473224598736,
                    -0.6091382581039769,
                    -0.7367748476423039,
                    0.8314661333011866,
                    -0.28423385720781,
                    -0.2616760656175543,
                    -0.5054742632292719,
                    -0.9145679597015841,
                    -0.5137330436440012,
                    0.966240266050021,
                    0.26988300866893855,
                    0.4678777111700175,
                    -0.9950970481324449,
                    0.3030228132279212,
                    -0.45610451825460624,
                    -0.6235483173937616,
                    -0.9603233790423017,
                    0.020133005086337696,
                    -0.9833578203119964,
                    -0.25933630154782267,
                    0.6038884960805141,
                    -0.07973215870979279,
                    -0.35508306429315273,
                    -0.2692631611928522,
                    0.8028076386724493,
                    -0.8115918627898845,
                    -0.19615928010447695,
                    0.16755612731184094,
                    0.7400386854128359,
                    -0.17366123352242543,
                    -0.051132522367694354,
                    -0.6267191046916127,
                    0.9844408690196655,
                    0.5069799113075903,
                    0.2963693148037928,
                    -0.9614576865799063,
                    0.15162245337384558,
                    0.34507416859620776,
                    -0.6009271983598904,
                    -0.7940710417311142,
                    0.655571673726654,
                    -0.4906380942502233,
                    -0.496331260080223,
                    -0.03630020829396449,
                    0.8617442540758041,
                    0.6138082416172199,
                    0.8817321055336725,
                    0.08496050323782198,
                    0.9753955619448614,
                    0.9443477343855413,
                    0.6351269018026164,
                    -0.3140363027917647,
                    0.030580674075528263,
                    -0.568640336696669,
                    -0.0647605370710408,
                    -0.2266066073317694,
                    -0.7864699864174468,
                    -0.612924070397558,
                    -0.5781730394745884,
                    -0.9451863980371674,
                    0.5075093776631439,
                    -0.5130809089017911,
                    0.7005126178068377,
                    -0.42916713027939685,
                    0.7493788928382885,
                    -0.8007283925259878,
                    -0.3327492501883994,
                    -1.002155314335254,
                    -0.8235397029877257,
                    0.7904663412592423,
                    -0.22551535712945034,
                    0.45089834100843135,
                    -0.42853224329420136,
                    -0.49548879058441603,
                    0.6598296886091409,
                    0.34764038736925706,
                    0.8602211450164838,
                    0.06607943661492342,
                    0.3673838203675774,
                    0.36546274622897945,
                    0.8878335594486377,
                    -0.09140500285497387,
                    0.6676221795200759,
                    -0.4327959203190973,
                    0.7066865899477339,
                    -0.05763563697095613,
                    -0.6233930939524126,
                    0.4706195960068628,
                    0.5591671342372322,
                    -0.32082440874763174,
                    -0.67563425942809,
                    -0.24049140972191632,
                    0.4690319468751485,
                    -0.9089696255579656,
                    0.2515302329495909,
                    0.8960131829589074,
                    0.07670055271444265,
                    0.41269332861092606,
                    0.7537486207831293,
                    -0.8717810186473418,
                    0.6509796325108816,
                    0.1303034591282313,
                    -0.03348561846022642,
                    -0.47541059875258324,
                    -0.09394005409010867,
                    0.30796689491224793,
                    -0.5448550994138459,
                    -0.9136412169221102,
                    0.4019402279719543,
                    0.19366896911539366,
                    -0.7202140761410579,
                    0.7939787886103399,
                    -0.6154195799124664,
                    -0.8019997884691776,
                    0.6739841858950322,
                    0.19521708520787512,
                    0.7302641046109499,
                    -0.06918304218910824,
                    -0.8445722252530485,
                    0.09019470247788268,
                    -0.8512796678840718,
                    0.6014574255656748,
                    0.2950110563064562,
                    -0.09997722912098454,
                    -0.4952690350284957,
                    0.3643568337830854,
                    0.9780754319384072,
                    -0.4262010153180925,
                    0.4863046366104167,
                    0.4082049838009684,
                    0.15247551434483125,
                    0.04302255825851746,
                    0.5345667644666314,
                    0.14413654570648055,
                    0.9005816190000664,
                    0.8371793155667225,
                    -0.3399372894273302,
                    0.5136604929262804,
                    0.8042329167451601,
                    0.6521656994486205,
                    -0.505622090395578,
                    -0.653606117631429,
                    -0.9217294518821226,
                    -0.3995436297925049,
                    -0.5042722337239957,
                    -0.10516930559984423,
                    -0.8444024099592887,
                    -0.7437588781519454,
                    0.005889056913442097,
                    -0.2908491589697915,
                    0.9744164293362344,
                    -0.3470397151581829,
                    -0.12447603980927832,
                    0.7427570975658114,
                    -0.44320321451009276,
                    0.43057999681419046,
                    0.06962032346142938,
                    -0.4072366469156288,
                    0.90617889058934,
                    -0.7310388437832807,
                    -0.36109615096201325,
                    0.004400655538312039,
                    0.5130489614367881,
                    -0.40110130490149337,
                    -0.6619718325409364,
                    -0.15255606094607632,
                    -0.2756139275161073,
                    0.45689259337917665,
                    -0.8787157196290579,
                    0.03390345775734761,
                    0.7940057339342245,
                    -0.17428781793497994,
                    -0.230282112242742,
                    0.9693906928910992,
                    0.12308874949472004,
                    0.8611489713266374,
                    0.8804064600023374,
                    0.5053975283929442,
                    0.023671722254814474,
                    0.5767054037784491,
                    -0.7382439420563223,
                    0.9918963005564361,
                    0.6360537475709928,
                    -0.32279310447476206,
                    0.849445909125038,
                    0.6207706052504198,
                    0.30135325879042135,
                    -0.6619491102642028,
                    -0.924171548791686,
                    0.746141641023002,
                    -0.7464754950965579,
                    -0.6095596176417559,
                    0.06631643837908291,
                    0.47742888365063874,
                    -0.146901919013161,
                    -0.6268553626902681,
                    0.8733564028649117,
                    -0.12742659473952436,
                    0.9649546841832174,
                    0.9256286655544077,
                    -0.15216964628749793,
                    -0.6352278444137611,
                    0.32584813027895604,
                    0.5166337292928185,
                    0.7451106564458004,
                    0.24376360489219717,
                    0.3128283537814846,
                    -0.4622689359226025,
                    0.574308733828892,
                    0.8716052255735449,
                    -0.8472363253036489,
                    -0.942629375991444,
                    0.46947507395048793,
                    0.4749068602307746,
                    -0.047410264920337675,
                    0.33845594838879944,
                    0.8310556266455843,
                    -0.2868656141464937,
                    0.6484305470134745,
                    -0.9195879074166469,
                    -0.6403655415547619,
                    -0.7983103329350735,
                    0.7434423606283159,
                    0.1627407433570654,
                    -0.03525573519017348,
                    0.6670233344646255,
                    0.454128217806107,
                    0.09075411995924845,
                    -0.3176761547188029,
                    0.13932633742118847,
                    -0.31874003805257295,
                    -0.5428582289999346,
                    -0.38535793004814717,
                    0.8095308510796918,
                    -0.4578358669187086,
                    -0.7438274660836035,
                    0.6256870404531831,
                    0.06173724379941019,
                    -0.7021105571947355,
                    0.2933440310425917,
                    -0.2192273708371371,
                    -0.5491680586345977,
                    -0.3902962957344685,
                    -0.14636677182235605,
                    0.30174103088275256,
                    0.42793915097558644,
                    -0.38268098084339,
                    0.728345096532375,
                    -0.1113740045913503,
                    0.001442747311502881,
                    0.6285033359234052,
                    0.7842701908008485,
                    -0.84042770557633,
                    -0.008284199720776961,
                    -0.8410932265237189,
                    -0.01895009821472998,
                    -0.2575926400198267,
                    0.6765844145006763,
                    -0.5604173432827422,
                    -0.6024792133717721,
                    -0.16808348919850843,
                    -0.6252074446732115,
                    0.4193239975829336,
                    -0.17225451342825296,
                    0.8456608825474041,
                    0.5101964286329611,
                    0.40235792613999005,
                    -0.7295942766282336,
                    0.7430641817984941,
                    0.053892234614083184,
                    -0.3006466324116009,
                    -0.8883384892226938,
                    0.9160922105402928,
                    -0.3492838543835082,
                    0.589859942088477,
                    0.38429632881184533,
                    -0.8640717775708278,
                    0.616468004144529,
                    -0.20208645413481352,
                    -0.7525254473981154,
                    -0.6498562889945838,
                    0.36263718999341704,
                    -0.2657001980027488,
                    0.16791218517905704,
                    0.7590453566560079,
                    -0.8155491082946451,
                    -0.26886466855233676,
                    -0.610265559146656,
                    -0.07352418832941592,
                    0.39006442916789746,
                    0.09983963249738333,
                    -0.8005686811983805,
                    -0.33330441842453185,
                    0.37732947795746674,
                    -0.754744190292474,
                    -0.5385259077155127,
                    -0.187233487397973,
                    0.9469505739408249,
                    0.31283171984663954,
                    0.032189952791033705,
                    -0.7114509688499127,
                    0.8952350745118395,
                    -0.3294136440873364,
                    0.9881217966235301,
                    0.6507273924021594,
                    -0.3586395357655185,
                    -0.21407460313109686,
                    -0.6969313217973908,
                    -0.7123770943785,
                    -0.878122758690613,
                    0.7889939406372645,
                    0.9107619312546447,
                    0.937871082775094,
                    -0.6496949920074939,
                    -0.8407740924931422,
                    0.0938889984776802,
                    0.13866366931826246,
                    0.050973183487395636,
                    -0.9912629571676329,
                    0.4641202593453565,
                    -0.5477868276417249,
                    -0.4264109475720923,
                    -0.7383046259064926,
                    0.6041010530569378,
                    -0.2494706058316479,
                    -0.2759906201734445,
                    -0.29834617939821395,
                    -0.8838802183300809,
                    -0.6758756986496397,
                    0.25324491125405985,
                    0.4395890496705008,
                    -0.2696531710596549,
                    -0.44037370182096985,
                    0.3802873772897152,
                    0.9499332870369822,
                    -0.4594690278316868,
                    0.920095108927596,
                    -0.3612650835830537,
                    -0.3494507968294413,
                    -0.7925172356337273,
                    0.8500703582275336,
                    0.2699749728684172,
                    -0.32177623040986947,
                    0.47875547300253346,
                    0.8384192828262946,
                    0.9758093915124764,
                    0.4083770592581804,
                    -0.45629129638054783,
                    -0.7503585419125612,
                    -0.6597705204836363,
                    0.4222766621460395,
                    0.19733452161957213,
                    0.9640652159520348,
                    -0.34422710167375964,
                    0.34432234881872015,
                    0.7109753664382277,
                    0.31177189864679267,
                    -0.42019345208153513,
                    -0.1886966427279733,
                    0.3905692804625335,
                    0.16535009702228307,
                    -0.7604879879627369,
                    0.9114571218325923,
                    0.25652628735564814,
                    -0.4048237650086389,
                    -0.20514259020149006,
                    1.0674753055086716,
                    -0.7571926296449621,
                    -0.4947059317790322,
                    0.5787117787456614,
                    0.38736029047257786,
                    0.025148264966138596,
                    -0.7103162240907644,
                    -0.18043519744010175,
                    0.028320236520430257,
                    -0.8438954200806386,
                    -0.4786768561280271,
                    0.17054892265660385,
                    -0.1763280034365632,
                    -0.5730549297140808,
                    0.910429532329127,
                    -0.24153310187467047,
                    0.3809069609479265,
                    0.25308890394806804,
                    0.8452169839073062,
                    0.3454644869223752,
                    0.4088476248955948,
                    0.0675511419864692,
                    0.42540295988223015,
                    0.6774645285646392,
                    -0.16957460698744053,
                    -0.7109350114979031,
                    0.995586920821412,
                    0.3272551451613514,
                    -0.09314389936905144,
                    0.7431600665940129,
                    -0.7907553884679533,
                    0.7176930285698161,
                    -0.16872453694140693,
                    0.9680970154117975,
                    -0.938324629309557,
                    -0.6616249492373495,
                    -0.057424067375114435,
                    -0.7796077141981858,
                    0.6499405599389729,
                    -0.44568726341504844,
                    -0.3134521161501482,
                    -0.7190601566093745,
                    -0.1242443742795055,
                    -0.9755602830484583,
                    -0.12541770160012922,
                    0.059142455732537624,
                    -0.6556980130955471,
                    0.7131490089718147,
                    0.7320054380980098,
                    0.4486242006838916,
                    0.4149007047094487,
                    0.7947235116551407,
                    0.9326761780086736,
                    -0.3950964204344673,
                    -0.4833777443685927,
                    -0.813516176891864,
                    -0.906184314921872,
                    0.8670892461374138,
                    0.1669765829563551,
                    0.23271651149000103,
                    0.4702449611355639,
                    -0.3508737884039888,
                    0.6714089715337983,
                    0.15123079717137813,
                    -0.8879687558847644,
                    0.572801228519158,
                    -0.20104335358824965,
                    0.8449870028464709,
                    -0.023425452925403628,
                    -0.5437691191217406,
                    -0.591409263298698,
                    -0.039186739307159824,
                    0.34258141606336867,
                    -0.2222163185788537,
                    0.8874171925276303,
                    -0.7778262593805948,
                    0.37671912273992136,
                    0.26793611921046834,
                    0.025191524842515595,
                    0.12429220365956571,
                    0.35028641967057406,
                    0.9079044963794524,
                    -0.07211323920490674,
                    -0.8772791908126024,
                    0.8581943968288499,
                    0.1555040985698256,
                    -0.22699192262712056,
                    -0.126063464038662,
                    0.014521842173025757,
                    -0.14461657815905488,
                    0.5558935363812323,
                    -0.45020997837463883,
                    0.865363198155866,
                    0.5154772089703733,
                    0.2500556478113912,
                    0.13478846672617825,
                    1.1093240072437074,
                    -0.7133731587740609,
                    -0.5467284798200734,
                    0.09184239398613121,
                    0.5622172594827557,
                    0.22871143093214277,
                    -0.741198571775483,
                    -0.524846307997145,
                    -0.4256288313262552,
                    -0.25280032466800706,
                    -0.6735304498111183,
                    -0.08209505475602658,
                    -0.6962860851413042,
                    0.25417895714806565,
                    -0.9382418642283886,
                    0.9514362487499134,
                    -0.5938661775962141,
                    0.7964202702159946,
                    -0.22909310034271058,
                    -0.30353067606341955,
                    0.43830377918570745,
                    0.1171627273944838,
                    0.06602527153385036,
                    0.09005408826049408,
                    -0.21248843946508236,
                    -0.557078311777455,
                    -0.24106386209119934,
                    0.3458624830641486,
                    0.08942187169012143,
                    -0.028265829698120085,
                    0.5539624445089036,
                    -0.4100057649973891,
                    -0.14400143571013505,
                    0.5122328761297947,
                    -0.3429578764887845,
                    0.8532041187394591,
                    0.22281544667134853,
                    0.1779359314436294,
                    0.3835953357407734,
                    -0.7738282870895722,
                    -0.670016921088024,
                    -0.3934087398042474,
                    0.8073823475942986,
                    0.9608720530019859,
                    -0.23551859457050395,
                    0.8511233930651942,
                    0.3738377111262815,
                    -0.6698070921709827,
                    -0.04612069930826596,
                    0.10920177408428486,
                    -0.19573190466705023,
                    -0.530236042903689,
                    -0.2609818996825569,
                    0.31257593354730523,
                    -0.18306778455371217,
                    0.6181620112962465,
                    0.1665708290404808,
                    0.47260363819447426,
                    0.6962838952744836,
                    0.4033857278695339,
                    0.8365785103776168,
                    -0.03608204223278141,
                    -0.5132650180636057,
                    0.2519886161495065,
                    0.37295267910799385,
                    0.24555261838363415,
