{
    "networkId": "network-1860",
    "name": "Network network",
    "activeCard": false,
    "layers": {
        "layer-1": {
            "errors": [
                "Output size must match network output size of 1"
            ],
            "layerConfig": {
                "activation": "sigmoid",
                "inputSize": "3000",
                "outputSize": "2",
                "type": "recurrent"
            },
            "layerName": "Recurrent Layer",
            "status": "inactive",
            "valid": false
        }
    },
    "inputSize": "3000",
    "outputSize": 1,
    "valid": false,
    "status": "inactive",
    "network": {
        "0": {
            "input_size": 3000,
            "output_size": 1,
            "weights": [
                [
                    -0.05091747453075547,
                    0.15105977941899507,
                    -0.7236231228975613,
                    0.8534916356507521,
                    0.0717138449502643,
                    0.5928044885520007,
                    0.8563329478582546,
                    0.1993659650456879,
                    0.2775256501030332,
                    1.125077668519306,
                    -0.18374987713655028,
                    -0.6646079788867827,
                    -0.6306467797357133,
                    -0.8792695665224064,
                    0.06886391341059496,
                    -0.2532368924817869,
                    0.2369633842808233,
                    -0.3648226148418523,
                    0.027754061099813272,
                    -0.287785143101435,
                    0.008287126412203817,
                    -0.5806353781612066,
                    -0.23168749113052195,
                    0.3841893430993643,
                    -0.4190562296440132,
                    0.537890759830487,
                    -0.7799761181363196,
                    -0.10967557253050511,
                    0.36117081977638227,
                    -0.5958411799759458,
                    -1.0184972640607162,
                    -0.6843803864045838,
                    -0.9128407433929705,
                    -0.38733347664409556,
                    -1.0364545643109995,
                    -0.44543422745858086,
                    -1.1052029603417608,
                    0.11934568313367598,
                    0.23391819006364606,
                    0.5246039781683565,
                    -0.12837955194361686,
                    0.04140129967334635,
                    1.3507633976652222,
                    -0.8535298211429662,
                    -0.06452486523760846,
                    -0.9461480401539046,
                    0.07016158490081023,
                    -0.6574220272705887,
                    -0.48576400977325507,
                    -0.7787154621283956,
                    0.17397173519638975,
                    -0.5943368579558287,
                    -0.666159373466044,
                    -0.3452620934903681,
                    0.3147860720666298,
                    -0.1453334726465282,
                    0.052941731994637135,
                    0.7341397800232393,
                    -0.134841651329033,
                    -0.2995533534895286,
                    -0.22216225470658635,
                    -0.5886795844696322,
                    0.6608409521922769,
                    0.46562250183440324,
                    -0.006548938921966169,
                    0.09362527971395644,
                    -0.15506756563080246,
                    -0.3432317721767018,
                    0.10709118286702728,
                    -0.5344430806086389,
                    0.6706988022469058,
                    -0.47429103215011664,
                    -0.682765211368352,
                    -0.05544251872729765,
                    0.4118225664697488,
                    -0.6184363087553547,
                    0.5214499108506774,
                    -0.5558274310184322,
                    0.1250737838490369,
                    0.6645712166932907,
                    -1.2324892331994821,
                    0.1694344979863514,
                    0.35734907393720056,
                    -0.5662162308021351,
                    0.009164955835805738,
                    0.8041426095767588,
                    -1.1789500502031818,
                    0.5133579698336919,
                    -0.1577481668490119,
                    0.8074345355135962,
                    -0.45248077325568337,
                    0.6712353342957932,
                    0.7473110408383055,
                    0.6896670573890019,
                    -0.953963156309606,
                    1.197058819906041,
                    0.44209497728594227,
                    -0.739365602237451,
                    -0.0738423635586637,
                    0.305080193932565,
                    0.49899540599575737,
                    -1.142537509943519,
                    0.2797641669931399,
                    -0.8903893613935439,
                    -0.7121450545739587,
                    0.5553039746238325,
                    0.3119437899723995,
                    -1.2804298800661214,
                    -0.311638797269483,
                    0.6371242051986357,
                    0.03727200615261753,
                    0.10945258424735935,
                    -0.5197063359606979,
                    0.3232429708123919,
                    0.6887040178447917,
                    -0.7270793708713785,
                    -0.8108313606424629,
                    -0.5588130631573148,
                    0.5059776227357627,
                    -0.13829069720816406,
                    -0.8722759071241029,
                    -0.16248292817937127,
                    -0.9265052160329943,
                    0.33778256708790727,
                    -0.5918987359521201,
                    -0.6910378766934425,
                    -0.876804081805924,
                    0.157025485297981,
                    0.4548989702166364,
                    0.6575176120993512,
                    -0.5246865085950219,
                    -0.3834977362935565,
                    0.5720598725211916,
                    0.03009876585621541,
                    0.02134644090680612,
                    0.5296282001870066,
                    0.04481605340522124,
                    -0.8702773752495677,
                    0.6114939301121022,
                    -1.1006760933301936,
                    0.19232954353056125,
                    0.39023348184959433,
                    -0.1631330000951292,
                    0.5418178364537846,
                    0.848036049578222,
                    -0.006329963632447495,
                    -0.27326315241852545,
                    0.3948083366031698,
                    0.36364282105521095,
                    -0.9008328556007118,
                    -0.5911907631285638,
                    -0.31077967253147387,
                    -0.9533746622812242,
                    -0.21365647994350426,
                    -1.0422368903898314,
                    -0.7416904573051832,
                    -0.22924905545604055,
                    0.4708969272194001,
                    1.1797270054688322,
                    0.18366885204058536,
                    -1.4864424389748987,
                    -0.04314015219829091,
                    -0.8549894459564453,
                    0.13395130443929737,
                    -0.982728561009838,
                    0.07369014255319058,
                    -1.030667884304594,
                    0.31693566723994354,
                    -0.5011473431052653,
                    -0.8040870951588683,
                    -0.1408956021101893,
                    0.8407797176257122,
                    0.7477704069539864,
                    0.8856375526016218,
                    -0.5345408246437853,
                    1.1081011720978236,
                    -0.7432985841492544,
                    0.7231850270684517,
                    -0.5509012492363267,
                    0.28497125751744984,
                    -1.060923995375151,
                    0.9652005682339374,
                    0.6123216492195188,
                    -0.5685679790028003,
                    -0.3594442062767041,
                    -0.5735377191185291,
                    0.6521814968686699,
                    -0.18323842214322866,
                    -0.15501657781101807,
                    -0.7156760963353551,
                    0.012082950734513976,
                    0.6386986876233994,
                    0.6516054739835345,
                    0.7410479750863043,
                    0.5820862647462727,
                    0.8586932052234816,
                    -0.3045836049004642,
                    -0.5166837271055089,
                    0.041916026528866855,
                    -0.3151720885669852,
                    -0.6328762772582319,
                    -0.4520376777187685,
                    0.2035588872432481,
                    0.43865492519264604,
                    -0.08765289534593466,
                    -0.433613976575987,
                    -1.0110964589927196,
                    -0.3944834390448543,
                    0.5968377126163502,
                    -0.19068725836327094,
                    0.24324855650089086,
                    0.34642642488441827,
                    0.4998697711457431,
                    -0.36449877013951887,
                    0.6506874390189389,
                    -1.0920038435470616,
                    0.44894473403503743,
                    -0.509303646652834,
                    0.5347786356011582,
                    0.7250909646956494,
                    0.3174164901072195,
                    0.5306546244981022,
                    -0.9059749424513721,
                    0.3776488617949693,
                    0.10788286947414966,
                    0.7640521755679391,
                    0.2452284831816482,
                    0.5009803600786115,
                    0.5892804437810073,
                    -0.735929281482783,
                    0.005268989122825876,
                    -1.0283369215364062,
                    1.027248555599275,
                    0.617420184813732,
                    -0.6197377715516147,
                    -0.48235767140911606,
                    -0.5666855049244808,
                    0.2746115718606631,
                    0.0722531640698948,
                    -0.2390782702843825,
                    0.35923343909036315,
                    -0.09093525816967106,
                    0.36541718411509483,
                    0.6106488455250324,
                    0.46694087390230743,
                    0.6891346096072457,
                    -0.7603298175104005,
                    -0.4820565204753372,
                    0.23091637288148184,
                    0.9621306062774887,
                    0.4200602361868416,
                    -0.3667942758649815,
                    -0.9247733878828702,
                    0.4280745644981471,
                    0.6146116955358545,
                    -0.11190656702522533,
                    -0.5281860844598718,
                    0.004192050467770209,
                    -0.5715532530122166,
                    0.34198981903753745,
                    0.4251540630255876,
                    0.4034225145009359,
                    -0.582357967827297,
                    -0.05293074335047931,
                    -0.7912938140177429,
                    0.24796822840962837,
                    -0.46963402707137886,
                    0.7626015906037517,
                    -0.8222904548411111,
                    0.5747444095368546,
                    -0.23827646381836778,
                    0.08311044093448369,
                    0.4823879116227262,
                    -0.1478861787215381,
                    -0.11708913037686833,
                    -0.5540955659780425,
                    0.16663079948399034,
                    -0.5887424420164705,
                    0.0402890945041057,
                    -0.48917891077390807,
                    -0.17036118436357298,
                    0.7885641042612814,
                    -0.7275036405191978,
                    -0.6776200305312974,
                    0.3032734722103487,
                    0.13019010709104825,
                    -0.8938841563992903,
                    0.1354658143299321,
                    -0.2849229220153149,
                    0.06574590683829015,
                    -0.3253038828960389,
                    -0.7173384941760906,
                    -0.7666127273174039,
                    0.22808350398497723,
                    0.27190724022109447,
                    -0.7371502996817354,
                    -0.8582279087530253,
                    0.39123749657981105,
                    -0.09886402384581135,
                    -0.457008862503117,
                    -0.03906079847203992,
                    0.4709967259241213,
                    0.19389918985016322,
                    0.12791397306223157,
                    -0.2518775609537751,
                    -0.2133352902969577,
                    0.3088313269006823,
                    -0.043578671378837835,
                    0.36521296188523766,
                    -0.7624627458746864,
                    0.2820362232146734,
                    -0.16872832636221063,
                    0.06605938505591219,
                    0.2585890309426402,
                    -0.004105333237681274,
                    -0.5327228232161512,
                    -0.24853849653223237,
                    -0.7622730758184284,
                    0.18497198406719748,
                    0.4002273896571244,
                    0.46478198130804027,
                    -0.5973332610140653,
                    0.17878929728942297,
                    0.6326862586180267,
                    -0.027619796791354612,
                    -0.20765444452561996,
                    -0.8224124898955215,
                    -0.6522973761143069,
                    0.46243775536222975,
                    -0.9394472416401001,
                    -0.6254687998822328,
                    0.0032289582833476592,
                    -0.3521257210544908,
                    -0.8062802413862976,
                    0.6610655309873696,
                    0.6730469248965505,
                    -0.48611045880644316,
                    0.029152915014150352,
                    -0.017072259679183924,
                    0.4243360210658715,
                    -0.13848346531704459,
                    -0.7686403661617952,
                    0.8152247841570217,
                    0.5850417607318213,
                    -0.5713419568835416,
                    -0.5651419700524447,
                    0.49200162837502653,
                    0.8327687424809237,
                    0.019249006056178023,
                    0.007982227057212953,
                    0.1544796026624063,
                    0.9613705963709293,
                    -0.4805290866290327,
                    -0.5225884383375475,
                    0.6321866706839527,
                    -0.6822750159848409,
                    0.05405166541018063,
                    0.2786356858840057,
                    0.5552526731032486,
                    0.05985284949192536,
                    -0.1886690132700249,
                    0.4629439906027615,
                    0.14039704225941158,
                    -0.17394504077787615,
                    -0.4724818014064757,
                    -0.7841937513577558,
                    -0.08628576300043259,
                    0.8231264976435317,
                    -0.09756733652634701,
                    0.24464434832857476,
                    0.029952431849210998,
                    -0.5684713813651676,
                    0.13779280380173367,
                    -0.7256806884077904,
                    0.718759654185998,
                    0.7422508066762781,
                    -0.21665186045714172,
                    0.3860924509283357,
                    -0.6293611736286482,
                    0.7473950623399316,
                    0.5122083223299105,
                    0.25584232582464334,
                    0.6094652148328995,
                    0.35417455743248116,
                    -0.5083625602216267,
                    0.02122462374690893,
                    -0.8176944181682974,
                    -0.6121634168522833,
                    -0.9257007844596775,
                    -0.4201026440476732,
                    0.48985313125673174,
                    0.19060568469560885,
                    0.8434248418481103,
                    0.7382626303969408,
                    0.7799803695669254,
                    0.3658796486443712,
                    -0.18712477458173513,
                    -0.8824329841954586,
                    -0.6571419882752495,
                    0.8446444666842625,
                    0.4745537776370191,
                    -0.5098693285518147,
                    -0.20356323848387287,
                    0.285204401187811,
                    -0.4740259359632748,
                    1.1812425187806255,
                    0.610571069559027,
                    -0.45052300672718554,
                    -0.7017902409423215,
                    0.5018150289163166,
                    -1.0499313105572505,
                    0.2996189218210949,
                    -0.841292594825708,
                    -0.7716933117347451,
                    0.6821100863505274,
                    0.9295514425929089,
                    0.5500854366384308,
                    -0.12854047491927498,
                    -0.5666050432839908,
                    -0.3295748190301903,
                    -0.42156999921553706,
                    0.6796861512984128,
                    0.2593299515467854,
                    0.5034793680764167,
                    0.4225827676597525,
                    -0.5521432190919658,
                    -0.7440945677369212,
                    -0.8722106262346072,
                    0.5966856951173238,
                    -0.43784349903448955,
                    0.410684745012602,
                    0.5600912904504138,
                    -0.41188304025683226,
                    0.1301711050926984,
                    0.7527317624221731,
                    0.38381923723514433,
                    0.43773228437963096,
                    -0.9936965975727791,
                    0.12168706895444495,
                    -0.9641240878724366,
                    0.9099454143966822,
                    0.24277254968425044,
                    0.7696537766926652,
                    -0.5358360487995101,
                    0.35933056267006624,
                    -0.02287347340656685,
                    -0.5251469318054223,
                    0.6664138060533183,
                    -0.9239099501634742,
                    0.3333929032343792,
                    0.5747959202997154,
                    0.5821880428097985,
                    -0.8165254400502616,
                    0.5093290866199026,
                    -0.3096513560669636,
                    -0.07829973111373974,
                    0.05933828848515677,
                    -0.14795025179204319,
                    -0.10461672112159773,
                    -0.2634380082030971,
                    -0.646260667404191,
                    0.10060524360266102,
                    -0.1459001800255701,
                    -0.37589212405859607,
                    -0.18128196689238174,
                    -0.6512486302365668,
                    0.25514583083854664,
                    -0.08994709897678793,
                    -0.8926380467521384,
                    0.4876064144206294,
                    0.3559228990028531,
                    0.283251573852494,
                    0.3560260473938891,
                    0.2702263933690499,
                    -0.40700323296957674,
                    0.6896270431096582,
                    0.43977164509010913,
                    -0.7790295804514416,
                    -0.7538674341377425,
                    -0.5977418484753227,
                    -0.8587671849695542,
                    0.40546806874932306,
                    -0.8008051714932253,
                    0.45447022975507523,
                    0.9665398883461495,
                    -0.909919392930103,
                    0.0031056006131486976,
                    -0.0268012069569336,
                    -0.38105825431185797,
                    -0.3787185717135421,
                    -0.26101243029981885,
                    0.7690270662910911,
                    0.7976294466767029,
                    0.5171746791803938,
                    -0.7023613337062984,
                    -0.3363574628815627,
                    0.3408751848446958,
                    0.2407370220816918,
                    0.027436030108288517,
                    0.21963149573225588,
                    -0.29148996863803184,
                    -0.02072128900858241,
                    -0.5342303668863618,
                    -0.5193373329117232,
                    -0.9518388855373356,
                    -0.23795634599219023,
                    -0.288940464779389,
                    -0.32221563224155103,
                    -1.0986522995960122,
                    0.7083824577811937,
                    0.9055740707676647,
                    -0.512678934280214,
                    0.92178159276503,
                    -0.705251316371539,
                    0.618107403706474,
                    0.41432730693911723,
                    -0.8763896149129485,
                    -0.6126184895693174,
                    -0.43992693139101924,
                    -0.7499746362519984,
                    0.28838011067682956,
                    0.49053678157003394,
                    0.27348189585578314,
                    0.8194054789612382,
                    -0.19237879229636196,
                    -0.2671391436634568,
                    -0.037847968848113256,
                    -0.5671524609087965,
                    0.08101012122582181,
                    -0.6908206931770507,
                    -0.35254345524333897,
                    0.34608643913396525,
                    -0.806308045628555,
                    -0.8213146125990324,
                    0.20611810398130892,
                    -0.5996988308090873,
                    -0.7887342029378512,
                    0.21023543108599269,
                    0.1710748797145566,
                    0.142888979248202,
                    0.40618409057174015,
                    0.4602475868100855,
                    0.5479218967414403,
                    0.029678263010512625,
                    0.740702250529866,
                    0.8173955637845578,
                    -0.1622448005037414,
                    -0.9766542997776333,
                    0.13917524332906167,
                    0.6276620182165775,
                    -0.9478201185164047,
                    0.14395416156669388,
                    0.4542606708441024,
                    0.9422014145648129,
                    0.6049605777801622,
                    0.263195317255361,
                    0.2384127026028834,
                    0.08743850294811825,
                    -0.3496138737516864,
                    -0.7044982688474685,
                    -0.8954574345277911,
                    0.5841401797427257,
                    0.498819319977388,
                    0.3103350189242531,
                    -0.5567823648328188,
                    0.7276725949438285,
                    0.5685777311513244,
                    -0.3701057395254641,
                    0.6056750114106156,
                    -0.6403510126473533,
                    0.8889595331305425,
                    -0.118598593832383,
                    0.46965434616588847,
                    0.01628688254777772,
                    0.9706940823529014,
                    0.2549515602303494,
                    0.8063744638388729,
                    0.2950331674667832,
                    0.24992417914294957,
                    -0.3714847860190228,
                    -0.4637312600123406,
                    -1.084935747712697,
                    -0.7438806197793644,
                    -0.5795834731027292,
                    0.2621443413595926,
                    -0.8607515257474024,
                    0.8413662635602681,
                    0.26142361232648387,
                    -0.8667845139612921,
                    0.5917068341778109,
                    -0.2722013497051736,
                    0.8585765903888266,
                    0.4594460803096398,
                    0.7140348641036294,
                    -0.7901060330598679,
                    0.4732843262520167,
                    0.02036398695407183,
                    -0.8158110976575109,
                    -0.45348272708674126,
                    -0.508734662545047,
                    0.12856900925077788,
                    0.3844471013333092,
                    0.7998033561847137,
                    0.3675194548796123,
                    -0.256364841079878,
                    0.31576884927518556,
                    0.560239929277915,
                    0.6272070009066544,
                    -0.31339969362324516,
                    0.9899278586078396,
                    0.4662648705774027,
                    -0.6857058746215282,
                    -0.6982005862211113,
                    0.4754105663014473,
                    -0.3761312548590843,
                    0.7453460027871722,
                    0.03557676241367384,
                    0.6614729007190784,
                    0.8469671271744212,
                    0.6872025126007788,
                    0.48243430207176424,
                    0.7478981211651139,
                    0.22664895922017586,
                    0.588690920307722,
                    0.8717066590853719,
                    -0.27373888471064006,
                    0.2487967986431221,
                    0.18406163589474142,
                    -0.5708397395441726,
                    -0.4150158026329395,
                    -0.7188112847902894,
                    -0.3461531882067225,
                    0.499509544424062,
                    0.7261997526164221,
                    0.8437223546833585,
                    0.47769452644764154,
                    0.8450973867090539,
                    -0.8803324110971871,
                    0.4314945787524311,
                    -0.7817147116840721,
                    -0.326493653459757,
                    -0.02607223469034594,
                    -0.15847116486893675,
                    1.1128917994963976,
                    -0.5616819111303057,
                    0.4772154606596385,
                    -0.46170744019502785,
                    0.8745541352375585,
                    -0.9030077500428592,
                    -0.860671404219219,
                    -0.7904786470850889,
                    -0.5974311460710199,
                    0.035081662299342835,
                    -0.8203454576914292,
                    -0.5613489260348251,
                    0.04863146313822315,
                    -0.14520775041607042,
                    0.031339613850236946,
                    0.6835106561780969,
                    0.0579367956546841,
                    -0.5363192351773756,
                    0.007575667530145287,
                    -0.23574896785005653,
                    -0.18027969613857536,
                    -0.7429833481822953,
                    -0.49066039987500076,
                    0.27158598063211586,
                    0.5060975154845024,
                    -0.41185325256089783,
                    -0.24984336240161048,
                    -0.21148520708122928,
                    -0.9255818867733969,
                    -0.4292240841020025,
                    0.5552185356642706,
                    0.6908881059212568,
                    0.35430896472395396,
                    -0.21856843578786625,
                    -0.6301974563393776,
                    0.710907727913607,
                    0.933517091321627,
                    -0.19025304882876615,
                    -0.6142210722216336,
                    0.7717427308429964,
                    0.27819607593947354,
                    -0.058935352665476406,
                    -0.495065780732604,
                    -0.5360477207670808,
                    0.1025582202542521,
                    0.11581983393167704,
                    0.15114468429987316,
                    0.8759674250876376,
                    -0.5822921424290889,
                    0.49409894131213455,
                    -0.2096561394912122,
                    -0.3675618582809648,
                    0.3616023716987686,
                    -0.629513610213522,
                    0.8833169047647561,
                    0.49172912952522996,
                    0.7430973250140989,
                    -0.2757461848042639,
                    0.19833582250209467,
                    0.016284644776625935,
                    0.6118901272301971,
                    -0.34134511295797787,
                    0.8464313186123568,
                    0.4897907064506346,
                    -0.9086018744876281,
                    -0.30058726027148924,
                    -1.26214618882554,
                    -0.12706119354347162,
                    -0.010754087182245685,
                    -0.346119162478195,
                    -0.4150799788606856,
                    -0.08629548175516434,
                    -0.5658842199083645,
                    0.029521708324807043,
                    0.9585754639315162,
                    0.7093964135946632,
                    0.4153490170671368,
                    1.147359249023237,
                    -0.20115980057766067,
                    -0.5965626167917983,
                    0.6578262395403208,
                    0.6261310620117695,
                    0.37035919067836226,
                    -0.6456976026282155,
                    0.3847968119214142,
                    0.42660140224524956,
                    -0.5655867937665484,
                    0.6851773054752351,
                    0.005384403334124996,
                    -0.12640956113924504,
                    -0.33771736788313206,
                    0.6151091260521271,
                    0.2673235261381509,
                    0.9502615495707121,
                    0.8497563797404369,
                    -0.980953817217342,
                    0.8361237503096685,
                    1.0418106224683008,
                    -0.5657201660509605,
                    -0.34094982154481435,
                    -0.982727868865787,
                    -0.6541672204777319,
                    -0.13079167641312778,
                    -0.5577084933537972,
                    -0.9453080085889038,
                    -0.7999255803157741,
                    0.6101247433626708,
                    -0.6958753221077237,
                    0.3491972948712823,
                    -0.09949407124638376,
                    0.3081082385994955,
                    -0.7341017930159546,
                    -0.09436587050131193,
                    -0.6561157313448842,
                    0.2032005705540796,
                    -0.3744082995627327,
                    -0.6539299586817207,
                    0.8787068333102784,
                    0.4934842468888008,
                    0.4928562567532063,
                    0.35978003522162605,
                    0.4800578635116982,
                    0.5174047213020208,
                    0.08404033200292621,
                    -0.0628972395064718,
                    -0.06808152533993497,
                    -0.4505295449330816,
                    0.824808838814994,
                    0.05083281886988231,
                    -0.8887591186566285,
                    -0.28849904408742316,
                    -0.2031026823542688,
                    -0.4898976990313871,
                    -0.8557415159414845,
                    -0.6199362041752899,
                    0.834911019856994,
                    -0.6698503065135982,
                    0.22959178365738714,
                    0.7028257191079399,
                    -0.9034239428423878,
                    -0.887167558853065,
                    -0.7634917414475612,
                    -0.5317227346720519,
                    0.6097115905432396,
                    -0.8302126216692515,
                    -0.10436950318634752,
                    -0.1535056639994951,
                    0.16981042466621415,
                    0.7472705935610676,
                    0.00583411329698768,
                    -0.22667758469712088,
                    0.5817189106510768,
                    0.7214640769703005,
                    -0.5467642320605017,
                    0.6756636482150786,
                    0.21787286219460253,
                    0.17122170470780776,
                    0.5447315696263499,
                    0.5974074006512801,
                    -0.24233393743025802,
                    -0.1400833136766036,
                    0.7866810044341891,
                    -0.06158087134758366,
                    0.7187712380555755,
                    -0.21283087501028503,
                    0.8205728535564563,
                    0.9416867806506241,
                    -0.639054883343977,
                    -0.02145409936623617,
                    -0.5418474423704334,
                    -0.4670501746696776,
                    0.2631531578637233,
                    0.6535219101269228,
                    -0.8128821547434981,
                    -0.23963706064544996,
                    0.19584820198514297,
                    -0.9641584204524332,
                    -0.8091279447766309,
                    0.5020522780350949,
                    1.0314822281779372,
                    0.4387778763064261,
                    -0.9439337835185695,
                    -0.6082733948726476,
                    -0.26090884070518267,
                    -0.10264433103938565,
                    -0.7905978927878401,
                    0.024700539779685275,
                    -0.08240449886014445,
                    -0.18065899880766975,
                    -0.18755067952492707,
                    -0.7715290064769247,
                    -0.354816882333718,
                    0.5644670286589591,
                    0.5150737127037291,
                    0.727253966594044,
                    0.9612100200824102,
                    -0.8982798609153146,
                    -0.05041939524153429,
                    -0.9919535729768827,
                    0.5310620331788404,
                    0.28833539617003306,
                    -0.7990315724916159,
                    0.39224621028709905,
                    -0.7312893635715451,
                    0.5153640196456117,
                    -0.9328398928106084,
                    -0.3808045508865443,
                    -0.567710082710443,
                    -0.8374437972951672,
                    -0.4514090742587204,
                    -0.6171643345208675,
                    0.33564064008561895,
                    -0.9252538049009492,
                    -0.8233334763303091,
                    -0.10555009584317605,
                    -0.6688249292958817,
                    0.025447676867067424,
                    -0.8839342583805373,
                    -0.9124504057786437,
                    -0.1941582105848506,
                    0.23628494135522785,
                    0.572695270041502,
                    -0.8024234004472094,
                    0.6702257718656386,
                    -0.3104328440888031,
                    -0.8416016336652561,
                    -0.01768297113590863,
                    0.25311540122489906,
                    0.16329904463111344,
                    0.6465684365775096,
                    0.8045220218806465,
                    -0.9103450304092945,
                    -1.0051213168243414,
                    0.29843038502607366,
                    -0.8223633121062485,
                    -0.636167327378629,
                    0.48951351421815353,
                    0.0010900998533877391,
                    0.28163307382328434,
                    -0.6470253099463065,
                    -0.9833249173211784,
                    0.8124105041391461,
                    0.6347040827109349,
                    -0.4934846383876911,
                    -0.7736476089237534,
                    -0.0206634300770141,
                    -0.23346647046474023,
                    0.7679200449988783,
                    0.4022047333809686,
                    -0.13767704010469073,
                    0.6746788428206698,
                    -0.08388408664741867,
                    0.5451032247883831,
                    -0.6047796593813599,
                    0.12206249709256232,
                    0.7718924332135313,
                    -0.2383443479449162,
                    0.8828016173807532,
                    0.38892551260450153,
                    -0.7320746746096587,
                    -0.17288749305293863,
                    -0.4728197633727664,
                    0.818846634498673,
                    0.8506993041966162,
                    0.5518629119884143,
                    -0.4285778464951592,
                    0.6265098888608776,
                    -0.07028757839274782,
                    0.11474233708856439,
                    -0.18392484840003803,
                    0.5729738275967824,
                    0.09915047584298999,
                    -0.16150301098226752,
                    1.4691996449127727,
                    -0.22270764451158093,
                    0.00602493427895862,
                    -0.7605106841028692,
                    0.719081326777331,
                    0.2746187046699924,
                    -0.742506371462355,
                    -0.5585800136961747,
                    -0.9007745629656909,
                    0.16350425628202153,
                    -0.905220315210489,
                    0.901177348629059,
                    -0.9786662945500515,
                    0.8726316722218956,
                    -0.8814305737587801,
                    -0.9992962095118306,
                    0.7119289853261553,
                    0.32633737924215445,
                    -0.7562334655368844,
                    0.5738924340392114,
                    0.5071279573369325,
                    0.5126602484507322,
                    -0.6573869140458528,
                    -0.937491148606532,
                    0.6476674120892156,
                    0.3593772700075496,
                    0.6915817058103141,
                    0.03145283518472933,
                    -0.25906403926938243,
                    0.8663443447957803,
                    0.46021929693296326,
                    -0.4828697931036251,
                    0.1813105241382768,
                    0.6862812677061627,
                    0.2331639505727459,
                    0.4214265228070807,
                    0.08085900477220394,
                    -0.04004625043681704,
                    -0.5515371690169756,
                    -0.45729657705677684,
                    0.8010091437852074,
                    1.0815115721451558,
                    0.8850420570890954,
                    0.2823275331802946,
                    0.43432222545795796,
                    0.7021369741421445,
                    -0.9633986604884216,
                    -0.3955236956188365,
                    -0.3396335807409764,
                    0.5454583770474163,
                    0.65723638675009,
                    0.7978646720556978,
                    -0.6215278504508184,
                    0.37436775756621055,
                    0.7145694767770552,
                    -0.3118569011766089,
                    0.09822970461654432,
                    0.5502864630580778,
                    -0.2933425139971376,
                    -0.8391914524404546,
                    -0.7255197513630077,
                    0.14756783035289667,
                    0.3835213378403726,
                    -0.6966697259550002,
                    -0.7394281684059325,
                    -0.4153607744521198,
                    0.4365430989062173,
                    -0.4997603664369154,
                    -1.023872779975388,
                    0.7509042065430194,
                    0.7453338251560798,
                    0.041347198789141504,
                    -0.9135333950241358,
                    -0.5017462956862426,
                    0.5371830846599625,
                    0.2701367791793084,
                    0.5770693767182622,
                    0.9055232832720694,
                    0.24695906905328163,
                    -0.728020754417036,
                    0.07905270465165862,
                    -0.4346499507024711,
                    -0.4032947185992607,
                    0.6436935172475661,
                    0.7757193647862757,
                    0.47174335514476423,
                    0.31687040569498975,
                    0.32232143250768536,
                    -0.20093085703446834,
                    -0.5132937451149514,
                    0.39475503770105574,
                    -0.1586998016430335,
                    0.6503810680991553,
                    0.7949530171252448,
                    -0.05381265956206251,
                    0.1386278027876484,
                    -0.4067874648483641,
                    0.44549339495132484,
                    0.8173115792810942,
                    0.7978140167486366,
                    -0.9479463338463117,
                    0.05558687730413948,
                    0.07638421487042663,
                    0.09508516891813429,
                    -0.2694902061660747,
                    -0.3259636559423436,
                    0.6877605711012171,
                    0.5980147516044559,
                    0.793321891902014,
                    0.24408753807043213,
                    -0.2659433601605839,
                    -0.7657368875058063,
                    0.5783774741227653,
                    -0.8208735560009868,
                    -0.7917375169267167,
                    -0.08383496381667035,
                    0.7346558657747247,
                    0.9825029923617906,
                    0.7015872685962737,
                    -0.948441764497826,
                    0.66764712360888,
                    -0.03413517330530738,
                    -0.8415879096936193,
                    -0.6510859208404536,
                    0.4533382476829381,
                    0.2817540837166171,
                    -0.5988781948381466,
                    -0.5357130304556018,
                    -0.7967971176235316,
                    0.8907092476064902,
                    -0.7236622050231797,
                    0.6768770881361906,
                    0.3167586546735034,
                    0.3165084804884131,
                    -0.496922449973748,
                    -0.15628227411004503,
                    0.11301229926025678,
                    0.9023221923097305,
                    0.2985644415451015,
                    -0.1746663249853724,
                    -0.24541238390274767,
                    0.5476446563097797,
                    -0.21218174190706254,
                    -0.21272254518828956,
                    0.9114567542334017,
                    0.8713554675943702,
                    -0.4927913671427158,
                    -0.10448122020363212,
                    0.05359324344614779,
                    0.2821885563999695,
                    0.524876337130487,
                    -0.6003327917637813,
                    -0.7774204445782383,
                    0.5283368406958808,
                    0.8005033152134382,
                    -0.7275972479814536,
                    0.2889716959698439,
                    0.1553159072291847,
                    0.17060300684199078,
                    0.7827551205443952,
                    0.5454116367864391,
                    0.10545872780418265,
                    0.11454351408281463,
                    0.6078533436624557,
                    -0.836553269024148,
                    0.8603363477766165,
                    -0.35855599188241677,
                    0.0861825347781589,
                    0.014342254774192039,
                    -0.9887127419990982,
                    -0.7371663811628515,
                    -0.5935518149674842,
                    -0.7289099423075108,
                    0.1637444063945862,
                    0.2664360258669216,
                    -0.18766861770579762,
                    0.10722519105937148,
                    0.19666126433719025,
                    -0.7051093752332048,
                    -0.62171427439209,
                    -0.5241686896813414,
                    -0.20371173719409233,
                    -0.8346225528508054,
                    0.8719681809029867,
                    -0.11565500930434697,
                    0.7476911568498825,
                    -0.23480124680880368,
                    0.46472239067943927,
                    0.7492192267471465,
                    -0.2634660203909814,
                    -0.892705738018614,
                    0.7719411876618117,
                    0.38328354831611366,
                    -0.6674114881325985,
                    0.06889531915444977,
                    -0.5435787174305765,
                    -0.05340586963486655,
                    -0.17546268591818642,
                    0.6637597053578611,
                    0.6349898988816894,
                    0.8507212065885987,
                    -0.6193203134929468,
                    -0.039537516991429086,
                    0.12336585664312671,
                    0.5515675178611928,
                    0.6845717009481815,
                    0.8844950180173431,
                    -0.5075071024438711,
                    -0.7883207599949281,
                    -0.12100228050107649,
                    0.6649137168906053,
                    -0.3033919597490716,
                    0.36194278170200656,
                    0.8274996841505255,
                    -0.7412208978601182,
                    -0.770627427795271,
                    0.5612540790839143,
                    0.5916983924282356,
                    0.6695259348787673,
                    -0.18628297615840547,
                    0.20031390831279558,
                    -0.055217810107852476,
                    0.4225736975556996,
                    -0.5786369583378358,
                    -0.004578919174330429,
                    -0.2601140201459964,
                    -0.6058194161550915,
                    0.698936474172265,
                    0.8348917869697012,
                    0.4211519529466971,
                    0.2746571166781645,
                    -0.677646499315885,
                    -0.22243185280971112,
                    -0.6085621377884902,
                    0.29824258798376196,
                    0.025487369698755657,
                    0.405603233662264,
                    -0.28406387599687005,
                    0.3090406100976963,
                    -0.3781201646895674,
                    -0.6524007904190463,
                    -0.8037951651380163,
                    -0.9151424102649937,
                    -0.6138041630676593,
                    -0.3803621682658548,
                    0.41809594132649636,
                    0.0702850038503717,
                    0.6086086000779645,
                    -0.6239877206957186,
                    -0.9084694325564179,
                    0.4452269066071599,
                    -0.9459171474916623,
                    0.47925487804127886,
                    0.8691866624293234,
                    -0.879861852524295,
                    -0.2908322201936189,
                    0.15977788922449868,
                    -0.2938732735570204,
                    0.8920310699998171,
                    -0.9709367595302326,
                    0.743619212658719,
                    -0.33897544352250286,
                    -0.19309077186943924,
                    -0.713814680145684,
                    0.31714011726749414,
                    -0.3204922935139091,
                    0.7106519959815397,
                    0.05056824447591067,
                    -0.21892188713881772,
                    -0.21062298288675088,
                    1.1422794639252767,
                    -0.4346746380500864,
                    0.18689956957976753,
                    -0.865187138038766,
                    0.7844522894111622,
                    0.8146134035267711,
                    -0.9607174726041666,
                    0.6007050289591463,
                    -0.6472402577038,
                    -0.5895618063149867,
                    -0.8964148679067587,
                    0.4371689737212867,
                    -0.7396662802463662,
                    1.0662507739990048,
                    1.0249308645732675,
                    0.8080941489936516,
                    -0.19141143747634506,
                    0.055358885190491515,
                    -0.2993801791900116,
                    -0.8225699887869522,
                    -0.09745570683985577,
                    0.033220395851047545,
                    -0.3513685951118629,
                    -0.2766457184127069,
                    0.766343239322806,
                    -0.2329811732785329,
                    -0.41518295719978093,
                    0.7469889172416707,
                    -0.5041520088375522,
                    -0.42267725455332156,
                    0.22360574931697905,
                    -0.814021549628344,
                    -0.23800494167973482,
                    -0.2233583057770057,
                    -0.88503472133905,
                    0.5525602289326564,
                    0.845418482119637,
                    -0.07922326474453248,
                    0.015215320494528634,
                    -0.15243610443638916,
                    0.2826584354690577,
                    0.593006106388115,
                    -0.3819187437700996,
                    0.6593875718967378,
                    0.5633759419632499,
                    -0.31875232338408305,
                    0.547067274652651,
                    -0.1777573591913284,
                    0.1679730910444677,
                    -0.07541590723698452,
                    0.7912862351661569,
                    -0.6116433292343129,
                    -0.24027484435560553,
                    -0.1973118855950839,
                    -0.45398925048970984,
                    -0.22920054324155795,
                    -0.28584057606574265,
                    0.9996745719480896,
                    0.7605839744750056,
                    0.7904539315420344,
                    0.668893979487792,
                    -0.8047895189528295,
                    -0.10928812070511598,
                    -0.3273164935097772,
                    -0.38603203206657677,
                    0.27151189470905873,
                    -0.44844628823057586,
                    -0.4174486470482205,
                    -0.12329351372086537,
                    -0.8958676783857472,
                    -0.6943762175595266,
                    -0.7325835994361926,
                    -0.5115959053720557,
                    -0.18474319296944539,
                    -0.028372856817068786,
                    0.39297436157362897,
                    0.17596476108307146,
                    0.22880546586084463,
                    0.963134196876488,
                    0.039666079042984435,
                    -0.2743133688164613,
                    0.3647716938597109,
                    -0.8665487399086068,
                    0.3880848885349997,
                    -0.0032482715115417005,
                    0.11436388017714517,
                    -0.5751609562066338,
                    0.23282233953069495,
                    0.7246437979626806,
                    -0.24283662099604783,
                    -0.04637099857224693,
                    -0.19162309342604336,
                    0.45786627044715156,
                    -0.26480931521638595,
                    -0.7955448789794604,
                    -0.7497700882542562,
                    0.4146183204706617,
                    -1.0012450816192715,
                    -0.8426885310795593,
                    0.550666294291831,
                    -0.7547619255550927,
                    -0.09608860847598505,
                    -0.4191088087060181,
                    1.1701456326188502,
                    0.28166906018319254,
                    0.08431508207469518,
                    -0.5069861750800352,
                    0.5872808895072663,
                    0.43181436374284077,
                    0.17241161874485111,
                    0.2841457458321246,
                    -1.0731641315768596,
                    -1.0543132107921178,
                    0.7958405315222659,
                    -0.18265220193415116,
                    0.32567567344599047,
                    0.9639652948336692,
                    -0.5425165509850538,
                    -0.12506608779102632,
                    0.2941618569750591,
                    -0.20113095172959367,
                    -0.28711522521167704,
                    0.00921110152134897,
                    0.8029471900194316,
                    -0.5435562402896386,
                    -0.8484037041298801,
                    -0.846224410061205,
                    0.9385265292908297,
                    -0.27413407808130397,
                    0.7611911591974028,
                    0.6499663426905529,
                    0.10747523109372259,
                    0.4488056143413438,
                    -0.5106269335809644,
                    -0.8509589268356867,
                    0.4743187351147315,
                    0.6222004396160514,
                    0.5962726373669558,
                    -0.18677634397435647,
                    0.21901231071253868,
                    0.2222484336810576,
                    -0.30779149905946385,
                    -1.0201598149323128,
                    -0.527572621578811,
                    0.7122594607594017,
                    0.8050164182890147,
                    0.7962690773166763,
                    0.423236362448074,
                    -0.3182050149709953,
                    -0.6950362925592933,
                    -0.13718687393097603,
                    0.2673383299098748,
                    0.5883616374503805,
                    -0.10161514233378979,
                    -0.07299479699787918,
                    -0.6034774526012384,
                    0.05056653931897788,
                    -0.4063352764679062,
                    -1.0025175675475944,
                    0.4716149009245551,
                    -0.13525032995541283,
                    0.08633654244742256,
                    0.6713391673180169,
                    -0.17010695135746184,
                    -0.02319949418339487,
                    -0.2517370971854323,
                    -0.1449409429493316,
                    0.7928713933661847,
                    0.11232483702036797,
                    0.767913637426742,
                    -0.8827610163633698,
                    0.9781274257796916,
                    0.648413835930299,
                    -0.7637528222372573,
                    -0.705083522652693,
                    0.6961609379018407,
                    -0.3041057533339463,
                    -0.6303223014308641,
                    -0.16516049772024047,
                    -0.0723324097688255,
                    -0.21952767612837212,
                    -0.10900219468002433,
                    0.28689214170300437,
                    0.6281712051225972,
                    -0.6182676460861928,
                    0.011350202333247966,
                    0.5240110819621726,
                    -0.7904012800536313,
                    -0.84914933377585,
                    -0.9834148329193985,
                    0.796366742914821,
                    0.11906408759201739,
                    0.2979374446265263,
                    -0.8092468792430981,
                    -0.0037408808619724607,
                    -0.2090477672195898,
                    0.906209930529281,
                    0.6144679514287862,
                    -0.851052566106854,
                    -0.08550312058021443,
                    0.13463928845958958,
                    -0.8248245177884653,
                    -0.63868566291302,
                    -0.792952481214325,
                    -0.280924204029005,
                    0.10932693093814425,
                    -0.5495610314142152,
                    -0.9710494665105135,
                    0.390592946734499,
                    0.2074132715593794,
                    0.4130250642408943,
                    -0.09226256292838252,
                    0.8149050706064054,
                    0.6945902280443398,
                    0.8678011251115225,
                    -0.08784212308166041,
                    0.6056059153289404,
                    -0.03537889116563602,
                    -0.501657532366276,
                    0.6392956132305886,
                    -0.4228391637098603,
                    -0.20119317124188996,
                    0.43221674798143617,
                    0.2552916410710093,
                    0.8192722578234944,
                    -0.11448185171278837,
                    -1.0256243433894427,
                    0.8323347931327707,
                    -0.6057478040275065,
                    -0.3309445261147785,
                    0.11722958710217476,
                    -0.9083337154050208,
                    0.13887509128146133,
                    -0.38424797929102816,
                    -0.4878009254482312,
                    0.5747916260825187,
                    -0.7264803276191749,
                    0.5773943924411965,
                    -0.021786152808983123,
                    0.3011803517567048,
                    -0.7912351201816593,
                    0.7801187225041596,
                    -0.03291881352175876,
                    -0.6400601328311263,
                    0.4953529672702142,
                    -0.3503256236530038,
                    -0.5187540492382879,
                    0.31920326962652074,
                    -0.7957290599962148,
                    -0.8620872595933696,
                    0.48126164429064144,
                    -0.15844783596790485,
                    0.13502368284912955,
                    0.5058704467624475,
                    -0.4387176670504676,
                    0.3271098999618316,
                    -0.8453003396573885,
                    -0.12466972066961703,
                    0.16374335442607782,
                    -0.32592477515618246,
                    -0.8046561127736402,
                    0.3866083793049728,
                    -0.7477048259441519,
                    0.6799779776968352,
                    -0.8856431272418489,
                    -0.9435881306826969,
                    -0.5942687120435602,
                    0.25271759660542364,
                    0.7155087739366267,
                    -0.38167388172875705,
                    -0.456239617912248,
                    -0.9423246322907315,
                    -0.24215552979640528,
                    -0.567595410139383,
                    0.40023245511612776,
                    -0.3226333317043978,
                    0.21061888096670967,
                    -0.12054326743639038,
                    -0.6689015701775299,
                    0.5240423226706961,
                    0.1137056173391925,
                    0.7001972233613979,
                    -0.29703288070034817,
                    0.9489846443279369,
                    -0.9482826310465466,
                    -0.4856022911449986,
                    -0.4616653545862616,
                    0.6504116570894345,
                    0.8967749790465681,
                    -0.8610432585260772,
                    0.8259035509994959,
                    0.15739904254147,
                    0.5907549853489905,
                    -0.9906251991046118,
                    -0.7022110113252099,
                    0.9276723076334424,
                    0.2314777030259796,
                    0.2904300323849374,
                    0.6223911202006341,
                    0.442554822140381,
                    0.8552944207306838,
                    -0.5864582326144963,
                    0.32437028038345983,
                    0.012792429799907142,
                    -0.7107109629758502,
                    0.3174928311151729,
                    0.6203094872421704,
                    0.3324870207425368,
                    -0.5531403482832805,
                    0.787065830001621,
                    0.7377701605514946,
                    -0.7818729550790644,
                    -0.05540386787129628,
                    -0.6084173469496265,
                    -0.65866605198782,
                    0.5887210574892405,
                    -0.1449835907698527,
                    0.3226423101705528,
                    0.7849543769694793,
                    0.9285226116870391,
                    0.42466161118273554,
                    -0.7608305628251639,
                    -0.48091251416300934,
                    0.6881354359501053,
                    -0.6366705884227033,
                    0.23432296180322934,
                    0.30090026676582204,
                    -0.8274800127787678,
                    0.9478448771504312,
                    -0.24530106818917505,
                    -0.2551051923092143,
                    0.8172011103424477,
                    -0.16463671293862334,
                    0.3590049252776506,
                    -1.0009606442020407,
                    0.08224581073945098,
                    0.4077596413003622,
                    -0.14150058914595315,
                    -0.48134268240691486,
                    -0.15779108447374837,
                    -0.8973137335234148,
                    0.10260253478172679,
                    0.9041220134869079,
                    0.6596031408472026,
                    0.3927264193259507,
                    0.9334186646301036,
                    0.7418456167312889,
                    0.029592216316890897,
                    0.1612367693254456,
                    0.6766271820443678,
                    -0.8554730142888465,
                    0.3349739299600609,
                    -0.8685960794946833,
                    0.03987635335469239,
                    0.8514737271874879,
                    -0.3231653088172931,
                    0.7388089295930079,
                    0.8779471204865923,
                    0.41292648511522284,
                    -0.8437872738449333,
                    -0.44047499501901605,
                    1.0351382222892722,
                    0.57280495781693,
                    -0.13498080132026785,
                    0.9341378280893724,
                    0.8968511701465467,
                    -0.7632509188445981,
                    -0.7225951926085277,
                    -0.12216027638364756,
                    0.6009928083989668,
                    -0.11837250701087126,
                    0.6118578999175223,
                    -0.5428657570038558,
                    -0.17395499770407133,
                    0.7711775301549479,
                    0.43246400724613104,
                    -0.031409633682251706,
                    -0.08136976149258221,
                    -0.034560849586315015,
                    0.7237997269710749,
                    0.0696247746056263,
                    0.274248498131448,
                    0.06170912243713925,
                    -0.3123833336194541,
                    -0.6586339462212691,
                    -0.5996741300253228,
                    -0.41635255750588046,
                    -0.2820954254409487,
                    -0.7986873112488452,
                    0.7726048586674596,
                    -0.5952927986217689,
                    -0.7562227719220919,
                    0.6228991113006801,
                    -0.13123212535152706,
                    1.100856777501985,
                    -1.0244601201738284,
                    -0.9006239242729797,
                    -0.1207373938710263,
                    0.19494313277858155,
                    0.5284230934504367,
                    0.2236165430668482,
                    -0.4688820612947673,
                    0.4811107183292694,
                    0.5032627739859343,
                    0.5920399722809779,
                    -0.4690322180653885,
                    -0.008114857537969963,
                    -0.20022582361823,
                    0.3912091672565099,
                    0.38982855209173983,
                    0.7964795608474119,
                    -0.11135460889036213,
                    -0.3441382239404312,
                    -0.4430181374897729,
                    -0.20082372461577785,
                    -0.7479352060347689,
                    -0.5847290311934059,
                    0.8072093706511068,
                    0.22884454679404567,
                    0.7699323738071651,
                    0.1785055365009576,
                    0.8436899295103435,
                    0.3318569514198901,
                    -0.4000986905358961,
                    0.3720120388019855,
                    -0.40068130783380185,
                    0.18671332528827606,
                    -0.07578627004707378,
                    -0.44729730048508454,
                    0.7033293988116309,
                    0.8215065468227255,
                    -0.3372422294272419,
                    -0.36345871996126605,
                    -0.005817753707730516,
                    -0.5723054893633055,
                    0.889679545740774,
                    0.037635573735315085,
                    0.42672218052025984,
                    -0.2081932153923248,
                    -0.025881582327544887,
                    -0.527248643569642,
                    0.5882155121181835,
                    -0.6414789006276038,
                    0.777588821359738,
                    0.358365703854765,
                    -0.2826723069507555,
                    -0.8154461411282327,
                    0.4694712288201527,
                    -0.23030450877800063,
                    -1.0381976348788915,
                    0.28662872337578893,
                    0.642160206875224,
                    0.6527923216885313,
                    0.2954736813828925,
                    0.9755358585060745,
                    -0.6526264663921618,
                    0.08209613950705155,
                    -0.5676581772798317,
                    0.23887920278143865,
                    -0.036068474512978586,
                    -0.35453678196171634,
                    0.3448067028613448,
                    0.450326409594608,
                    -0.3019218682227374,
                    -0.3355820948583396,
                    0.9802722616317502,
                    0.3890214212520758,
                    0.5145950754825765,
                    0.9990363892064185,
                    0.4761278995605663,
                    0.7123371137959928,
                    0.8077296817272378,
                    0.841700451930362,
                    0.9315145531827359,
                    -0.31193068451557654,
                    0.7908103805496066,
                    0.8984711454518721,
                    0.424630632617155,
                    0.7859016959057837,
                    0.6833847694828485,
                    -0.27814630286553843,
                    -0.6670765711363613,
                    -0.59407241601082,
                    0.1651252562683432,
                    -0.6614188062617662,
                    0.5879130853017404,
                    0.9645454065540788,
                    0.6495237841432265,
                    0.23578831253593432,
                    -0.4646176597580614,
                    0.05432889538592041,
                    -0.5992525782907749,
                    -0.4653949852687825,
                    -0.5782801592831797,
                    -0.5737880630852767,
                    -0.4788729314630958,
                    -0.9388302329314419,
                    -0.00667715491382191,
                    0.09992939284829175,
                    0.32911788116517965,
                    0.37450187108426647,
                    -0.11587614410579747,
                    0.08817463204199572,
                    -0.009549564795791684,
                    0.5293809136315264,
                    0.7156748811943158,
                    1.0039809920926424,
                    0.6769303647159869,
                    -0.4922787919721923,
                    1.0800076739769775,
                    0.5857646857420787,
                    0.44511583757004963,
                    -0.9225994400753633,
                    -0.3401647552975414,
                    -0.18004189420403588,
                    -0.7819682155636946,
                    -0.450678409623747,
                    0.8380817704980468,
                    -0.9348489278435993,
                    0.6315264853946865,
                    0.5394376888988238,
                    0.08605991213370068,
                    -0.2813391232569295,
                    -0.10907320040785863,
                    -0.05341626996697785,
                    0.2686942979011562,
                    0.32883487495084174,
                    0.11890556151267781,
                    0.09789793611515743,
                    0.4848291184328103,
                    0.35272061651481806,
                    0.017926052861045788,
                    0.4817792294467309,
                    -0.4406687540536856,
                    0.5683570875544195,
                    -0.9450998054743461,
                    -0.07858423490602427,
                    0.7967432007585384,
                    0.37181744455028765,
                    0.8858804476021065,
                    -0.8489132336637875,
                    0.4079999360548029,
                    0.9101877975258401,
                    0.7479432316561799,
                    -0.7854262657132557,
                    0.08718548517835703,
                    -0.05275507345148597,
                    -0.4241246321702812,
                    0.3932094164451228,
                    0.596876640773076,
                    -0.06665898508867617,
                    -0.09278810486996614,
                    -0.5213943546773486,
                    0.7026439371275551,
                    -0.2504241479963099,
                    0.5211643914841924,
                    0.8057008275537544,
                    -0.3927157677895244,
                    0.769276561553814,
                    -0.5830023232202977,
                    -0.28916428595422405,
                    -1.0283421496226233,
                    0.3800211359706927,
                    0.37217569886608054,
                    0.8488604035383854,
                    -0.49449457551069226,
                    0.0712266189350493,
                    -0.13971150840200358,
                    -0.6476050426129365,
                    0.5797308241017661,
                    -0.27635292929430316,
                    -0.14728237450769124,
                    0.6407870434935756,
                    -0.6961354927852881,
                    0.4028286645664696,
                    -0.2586196128269143,
                    -0.08361660312140241,
                    0.708222731381849,
                    -0.4342557577320359,
                    -0.7222650345521193,
                    -1.0109106471853102,
                    0.0722132398301152,
                    0.9127269890649464,
                    -0.32844356411058495,
                    -0.4438194412310727,
                    0.5555186924468419,
                    -0.44810888817510414,
                    0.32141986079699597,
                    0.5139554410098913,
                    -0.816476913032752,
                    0.060637097095309525,
                    -0.8740252135814804,
                    -0.8110303743148709,
                    -0.028113969088688944,
                    -0.2553239072098449,
                    0.4306891323389336,
                    -0.9235390390890255,
                    0.732925644944341,
                    -0.5694491119168602,
                    -0.3723809826562142,
                    -0.00035641755634876663,
                    -0.22423152887377576,
                    -0.2468554202091304,
                    -0.623267727115316,
                    -0.7234227527349492,
                    0.721407276749026,
                    -0.2803467406814951,
                    -0.12183487466196949,
                    0.22417210970002388,
                    -0.1718091974268793,
                    0.8466274457419419,
                    -0.5214482900687966,
                    0.6183151301897425,
                    -0.03137685560453954,
                    0.8519008226779616,
                    -0.8702139624426207,
                    0.14103727268619917,
                    -0.007475306897465954,
                    0.7054851781880019,
                    0.8490321034465821,
                    -0.9129026661331243,
                    0.6166816550039518,
                    0.454080110405933,
                    0.24519741567441977,
                    -0.3302019902596546,
                    0.8463445967464973,
                    0.042460629782904075,
                    -0.14916315800008023,
                    0.6808841021679589,
                    0.7674990981027895,
                    0.07213063243297896,
                    -0.299554797401217,
                    -0.25360010694859303,
                    0.18118919483318713,
                    -0.38368282858827174,
                    -0.29816249621563284,
                    0.008378824439858554,
                    -0.061366092954090644,
                    -0.9380288512221047,
                    -0.7632565514784269,
                    0.09611253621494113,
                    -0.9704310131891989,
                    0.20618415480714106,
                    0.2318233653992013,
                    -0.783174315244879,
                    -0.23636107586768001,
                    0.7065721438097863,
                    0.15299747024307156,
                    0.9654056167503403,
                    0.15101384384113659,
                    -0.02501590409315302,
                    -0.4246130002124924,
                    -0.3013916402227844,
                    -0.1343874241820776,
                    0.13657345387367395,
                    -0.6564838895002756,
                    0.9555704700291108,
                    0.6218335255569243,
                    0.4874172004236076,
                    0.1203126519093375,
                    -0.4281732275855082,
                    0.7684576873283967,
                    -0.566572921904862,
                    -0.8080692622951964,
                    0.5564630765578068,
                    0.035349410539644605,
                    -0.2150473890626199,
                    0.12929974945005226,
                    -0.15583615674877258,
                    -0.7358006171254793,
                    -0.5764383225391151,
                    0.7756881139159093,
                    0.006254041860354816,
                    -0.578135729121758,
                    0.5783663663964976,
                    0.059676291563337536,
                    -0.6775137884375761,
                    0.4543789876657274,
                    0.4935215428313556,
                    0.8865755850253849,
                    -0.807967615684481,
                    0.7547991244788311,
                    -0.7001186356334125,
                    -0.2744025395617272,
                    -0.7119196837979914,
                    0.7082843884134495,
                    -0.8375415553425225,
                    0.6183373540917748,
                    -0.39439034037955845,
                    -0.1424041975282731,
                    0.5585629722214116,
                    0.871087922321006,
                    -0.8604214773470683,
                    0.7759031677479138,
                    0.23745079750100406,
                    -0.12732149489393693,
                    -0.8495475055876412,
                    -0.8147083897265439,
                    -0.9069434426819953,
                    -0.022976019191456688,
                    -0.8192436641280341,
                    0.09932779826895866,
                    0.8068541630421006,
                    0.21375307039045283,
                    0.6867794606229661,
                    -0.33702662065232925,
                    0.6307243894968255,
                    0.2788810385826144,
                    -0.8988655753368141,
                    0.8920089282403921,
                    -0.24540841946711012,
                    -0.6075838732975782,
                    -0.2919668499835195,
                    0.7668496641789286,
                    -0.08127863835070623,
                    -0.8858927264431492,
                    0.3467160683933122,
                    0.7088445454237876,
                    0.0809979245735145,
                    0.6404086579115764,
                    -0.7808639191365279,
                    -0.6933402565885589,
                    -0.449039045228088,
                    -0.11388462010659942,
                    -0.8625162930218767,
                    -0.2066683625141294,
                    -0.16425137022504344,
                    0.5766051211304942,
                    -0.7979388255651025,
                    -0.3583525572854768,
                    0.9444323018222511,
                    -0.4224175908727388,
                    -0.6740073254442787,
                    -0.6442271169878735,
                    0.9057196525760595,
                    0.5226081070945715,
                    0.49098275131185853,
                    0.37590402726936867,
                    -0.48669266945865913,
                    -0.39904058110644014,
                    -0.576016067117739,
                    0.6939360726323556,
                    -0.9369919698569539,
                    -0.355513044150283,
                    -0.9345165515481175,
                    -0.2568786979464462,
                    0.7351984785030898,
                    -0.3138111981030851,
                    0.35419611272527973,
                    -0.5513669606958121,
                    0.839180232032629,
                    0.9123992627851188,
                    -0.5799844951922113,
                    -0.07188392844811628,
                    0.9352469701734631,
                    -0.14201513637298036,
                    0.8171697920697758,
                    -0.51896180060023,
                    0.5730430074985217,
                    -0.005241969343118347,
                    -0.9181922001930187,
                    -0.2339153533937069,
                    0.44406859597852744,
                    0.6602182569907787,
                    -0.33534349032746796,
                    -0.4669050725473101,
                    0.5450574241521502,
                    0.3122941598833747,
                    -0.6159894162706847,
                    -0.2508213023951507,
                    -0.13848778604194079,
                    0.5282776799387411,
                    -0.2861506352848242,
                    0.1869095079537448,
                    0.4435760488544831,
                    -0.5055508550610961,
                    -0.47576433066721896,
                    -0.5145545791436538,
                    -0.05393355693987873,
                    -0.08913431373606166,
                    0.6023371971882534,
                    -0.5961698159707636,
                    -0.5753958221284957,
                    -0.25996394594670774,
                    -0.24195887563251775,
                    0.38463642180868113,
                    -0.23201398549884564,
                    0.7113831723423895,
                    -1.0333531383414796,
                    -0.511710259164358,
                    -0.8559014691628455,
                    -0.6959082629414587,
                    0.8889259329533674,
                    -0.9614277569804419,
                    0.9054068645695127,
                    0.5587668309454693,
                    0.5578582831400939,
                    -0.7445767480332214,
                    -0.24817880861677305,
                    -0.7726546043481867,
                    -0.08301595646903584,
                    0.5157207641339522,
                    -0.15625435678167407,
                    0.36583897569650564,
                    -0.016942469625894185,
                    -0.7388129349338528,
                    0.6374886000962373,
                    -0.20505248121638714,
                    -0.09111514624786878,
                    0.24567300128982578,
                    0.8649208044559614,
                    -0.6403732924886752,
                    0.47152055733489234,
                    0.4154916122188879,
                    0.852725344324148,
                    1.0031372038218869,
                    0.9204993982003405,
                    0.29797398118684837,
                    -0.055053703295330186,
                    -0.14418558764889072,
                    -0.15905724846415684,
                    -0.5580877866408845,
                    0.6448818652769436,
                    -0.5268782909793756,
                    -0.691069547450153,
                    0.059801401912704236,
                    -0.48605214169055544,
                    -0.5100547045400501,
                    -0.684992505791879,
                    -0.8220472806602108,
                    0.2806049549574906,
                    0.16331940234844936,
                    -0.5739508697909331,
                    0.7265771483598021,
                    -0.08336917838696743,
                    -0.838338255405839,
                    0.4485376229974573,
                    -0.20925509361807143,
                    0.65630418703058,
                    0.3444889455153141,
                    0.27235367763205887,
                    0.5551922983446129,
                    -0.5644091673520623,
                    -0.30342070215258793,
                    0.5512340830820787,
                    -0.14623517274894413,
                    -0.12123262892302511,
                    -0.5072654433507119,
                    0.9529700413655605,
                    -0.2794003051475653,
                    -0.20229878453724426,
                    0.24397422072772101,
                    0.2816889459616851,
                    -0.6920334391409237,
                    0.9722343962530828,
                    0.31906776937315506,
                    -0.20889600760101656,
                    0.44013759155297416,
                    -0.38693802504529834,
                    0.01650767375138476,
                    -1.0211509118786983,
                    -0.25017147403835666,
                    0.6135384993798723,
                    -0.48152401871001826,
                    -0.5084530213363587,
                    -0.3129001843101408,
                    -0.8525436725908967,
                    -0.0732454496084064,
                    0.6728492448407428,
                    -0.28946959401703226,
                    -0.47379484417575923,
                    0.6652701007409775,
                    0.13952982383554421,
                    0.5302523263829145,
                    -0.6017071890839113,
                    0.516262891261261,
                    0.5816490561402977,
                    -0.006720995612439577,
                    -1.018017943469126,
                    -0.8858322004257388,
                    0.19120168217949815,
                    -0.33837431416083347,
                    -0.7321819750025657,
                    0.3718996842229706,
                    -0.2017191244297647,
                    -0.8305909744917619,
                    -0.5597430696971676,
                    0.0407506457431427,
                    0.8446768918813156,
                    -0.5926269645179684,
                    0.3256925102065576,
                    -0.3603443733872335,
                    0.42893005106615434,
                    0.6127176653729406,
                    -0.10562501395476895,
                    -0.3682584646710278,
                    -0.5629457072047003,
                    0.22107714888173108,
                    -0.31599105388491333,
                    -0.36344646984512985,
                    -0.5669347228490534,
                    -0.46505644672430163,
                    0.8719154815275223,
                    0.7185385822776124,
                    -0.8082539837781899,
                    -0.4321005449443947,
                    0.5037175381579468,
                    -0.36538233038711904,
                    -0.680533826527105,
                    -0.7188219610727262,
                    -0.21774810490445168,
                    -0.11992241703837724,
                    -0.14362546969485923,
                    -0.8317304205488693,
                    1.1938137180266728,
                    0.8093270005056304,
                    -0.28542217478914916,
                    0.8600139515064563,
                    -0.5467829853651572,
                    0.2959736985026465,
                    0.6201711443542842,
                    0.3073244789924396,
                    -0.05370734496299694,
                    0.15804647317666964,
                    -0.2136529089285517,
                    -0.40163748543520866,
                    -0.5418531097812029,
                    0.25783043459803434,
                    -0.9205959209460579,
                    -0.8277643211025578,
                    0.6413818691497452,
                    -0.42982690521908046,
                    -0.9313734232314511,
                    -0.19052173229906752,
                    -0.5110877629043888,
                    -0.21048470912637465,
                    -0.9001083946835612,
                    -0.4338100411808784,
                    0.09060563775440755,
                    -0.06787899446588809,
                    0.3868740849926958,
                    -0.6347086087956973,
                    0.6437536842972614,
                    0.7152195270396114,
                    -0.2988231108728923,
                    -0.41142399005970004,
                    -0.3457783314679806,
                    -0.3556722575124804,
                    -0.3515179851885739,
                    0.04391408048514631,
                    0.1849874788778578,
                    0.9216464649203617,
                    -0.9032672828899473,
                    -0.34591877158154605,
                    -0.22590364252598877,
                    0.24470614926953752,
                    -0.28572000495435196,
                    0.6767933653851933,
                    -0.5132043684258379,
                    -0.7690152636953346,
                    0.8221349554560814,
                    -0.426412792526564,
                    0.666340192486493,
                    -0.8475373010289802,
                    0.24822919133007423,
                    -0.03602876661490849,
                    -0.7237776036932678,
                    -0.5737075416520437,
                    0.7829102186603962,
                    0.1918374524151758,
                    -0.7144974875319413,
                    0.7400341565912867,
                    -0.00413679348729099,
                    -1.0630522282451094,
                    -0.2593280825770029,
                    -0.4936998065141473,
                    -0.5277511721297204,
                    0.4403343498451152,
                    0.45971372818184275,
                    -0.8152795967431798,
                    -0.08524742228519956,
                    0.6683963598870222,
                    -0.9223587806573166,
                    -0.373925028644435,
                    -0.4341999929204063,
                    -1.0167067831212386,
                    -0.778231920673257,
                    0.9984596144960561,
                    -0.03180121182040059,
                    -0.2566660294821435,
                    -0.3595512959787738,
                    0.6990033995306232,
                    -0.6058998349379264,
                    0.26198485312634645,
                    0.717159935963713,
                    0.40083899750253693,
                    -0.00865582501117287,
                    -0.7616988860477809,
                    0.02683626405668717,
                    0.4445631958049976,
                    -0.4534178214020732,
                    -0.4294767824608157,
                    -0.2763779739292679,
                    0.6355019309490213,
                    0.03277026913670682,
                    0.6330689108716248,
                    -0.7177051094891814,
                    -0.5864517245460023,
                    -0.9981402384119318,
                    -0.39722347076654735,
                    0.3153086493448144,
                    0.8295209752143045,
                    0.7573116862446372,
                    0.018750852572023153,
                    -0.8165575028976834,
                    0.5731245230234624,
                    -0.8593362879072834,
                    -0.4393238880071999,
                    0.8390026877404226,
                    -0.5404719109702829,
                    0.013662357842656098,
                    -0.9679501592823945,
                    -0.6986219369956881,
                    0.14030748601180612,
                    -0.6094984074567308,
                    0.7135884535985395,
                    -0.8288790638293008,
                    0.838096249499803,
                    -0.08681863285547686,
                    -0.21441803588054173,
                    0.013625905897850876,
                    0.10547893308758768,
                    0.6325971782055093,
                    -0.046306063385333884,
                    -0.13683998619573565,
                    -0.3216006753635667,
                    -0.993853882035065,
                    0.5373299657367525,
                    0.8620917522653873,
                    -0.6607071941189434,
                    0.13523280195594994,
                    0.1930595641023066,
                    0.4618825182436922,
                    -0.5163845875546497,
                    -0.543793012958028,
                    -0.6057406401921059,
                    0.3774648280243649,
                    0.7143491122894049,
                    -0.8527811756374785,
                    0.5531930987166029,
                    -0.810414081989017,
                    -0.11842204377666682,
                    -0.4410885342285181,
                    -0.44126550723347197,
                    -0.9555271883083498,
                    -0.40126241915783956,
                    0.02583117162523391,
                    -0.06424383007354606,
                    -0.7213578836670373,
                    0.8143441615777667,
                    -0.319571567784754,
                    0.12689836014423142,
                    0.2922480093781635,
                    -0.6279417008071807,
                    0.2694496311698295,
                    -0.28919827872680537,
                    0.8837608110636855,
                    -0.21403668230237313,
                    -0.26892279849297446,
                    0.8184953870639811,
                    0.4807352666356968,
                    -0.6211088955708997,
                    -0.5596423457051285,
                    -0.3332332524991243,
                    -0.28462739228831263,
                    -0.8791712343679807,
                    0.507446494430296,
                    -0.029336472558479945,
                    -0.7442546786905705,
                    0.6138586285192156,
                    -0.7319946180813776,
                    0.7796037815684924,
                    -0.789202412612716,
                    0.6505534714696943,
                    0.7929885518912516,
                    0.19408930756302667,
                    -0.05111336461856167,
                    -0.023585723810389966,
                    0.9155244801589824,
                    0.9292605987042472,
                    -0.3658658325990528,
                    -0.967036482157206,
                    -0.9621200286205043,
                    -0.05560528428791869,
                    0.6078890475480242,
                    0.7503416778894761,
                    0.7999508753397112,
                    -0.7011601686923109,
                    0.9633024893608492,
                    0.4602588387730664,
                    -0.114939322252981,
                    -0.2445597221242823,
                    0.5622911089931192,
                    -0.6743174487084145,
                    -0.8074655161734463,
                    -0.8127714050796033,
                    -0.3930905056351743,
                    0.4829511124470588,
                    0.7175491992837671,
                    -0.8805230170333641,
                    -0.3186492854178029,
                    0.15834445086411347,
                    -0.45517735894991196,
                    0.05635496416182667,
                    0.730652078921917,
                    -0.7476554937697151,
                    -0.6745062191625704,
                    -0.6199283397509184,
                    0.7811622196070033,
                    -0.5743179628160463,
                    -0.01310946849849433,
                    -0.5978705266582421,
                    -0.04886571455165671,
                    0.5048145384981487,
                    -0.03972312900646673,
                    -0.06568033229878069,
                    0.6110689297870208,
                    -0.7377906965643797,
                    -0.3408231365554775,
                    -0.2948486357479006,
                    -0.3868185425377505,
                    0.006706963577004352,
                    0.05839770610128697,
                    0.7511363577121278,
                    -0.7232938687666093,
                    0.5294357534822911,
                    -0.4282606812252571,
                    -0.46606005116712396,
                    0.05075408031773794,
                    0.21720288753827116,
                    -0.9314327651400361,
                    0.44051335759001653,
                    -0.5414939727085718,
                    0.4459337920249495,
                    -0.40083948231592503,
                    0.48704543849018067,
                    -0.12380510496426059,
                    0.2378933762648479,
                    0.5672244842771117,
                    0.5875158326641581,
                    -0.9198654964451559,
                    0.7349840478701017,
                    0.6776417323204545,
                    -0.2816157479622703,
                    0.32668774770579206,
                    0.30564536575068874,
                    -0.16475440539175737,
                    0.3460253302269428,
                    -0.7946700827844652,
                    0.5437218957361916,
                    0.4000377198769645,
                    0.2051566131264631,
                    -0.7382781423505127,
                    -0.5934538949666822,
                    -0.6168912000798868,
                    0.09311646387611588,
                    -0.1370399354787736,
                    0.6475572391356791,
                    0.5663255144618918,
                    0.8210086274774901,
                    0.4486572238423236,
                    -0.49982230156119184,
                    0.17529620777183355,
                    -0.13249818551618694,
                    -0.5133220302216442,
                    0.007532677362842027,
                    -0.21528953350329222,
                    -0.6989346333655306,
                    -0.829911979784818,
                    -0.46826243046258764,
                    -0.3542432497550721,
                    0.282212480397153,
                    -0.8496454212835005,
                    0.1976549524135128,
                    0.8037143785735329,
                    0.794382676051231,
                    0.5506730879428235,
                    -0.30137302321530157,
                    -0.318258536179945,
                    0.3699470630136191,
                    0.7496316184595355,
                    -0.6887591402805077,
                    -0.0347541738081836,
                    -0.6606528240416911,
                    0.12276307632199845,
                    -0.27668119287171355,
                    0.29508941102093905,
                    0.5659054112457891,
                    -0.9418382350027685,
                    0.24053852053738203,
                    0.25809766111425825,
                    -0.149674695858808,
                    0.9142147062515581,
                    0.6470185089234621,
                    -0.48320320946010076,
                    -0.4803430561346677,
                    -0.6900363253405655,
                    -0.5806898400827726,
                    -0.9307560611480206,
                    -0.8736858801785897,
                    0.15748681408238133,
                    0.39005517517372407,
                    -0.9469984813970969,
                    0.630368300216178,
                    0.592351202198961,
                    0.8300584598404651,
                    -0.484159871052736,
                    0.5884984898638035,
                    -0.5777681566944174,
                    -0.5099414127342735,
                    -0.3615515278451752,
                    -0.6566226506965631,
                    0.1677763278536242,
                    -0.13786280413853122,
                    0.5467012721880425,
                    0.36010377499872764,
                    0.5139692644687055,
                    0.2664363713151717,
                    0.19765033280964217,
                    -0.2429411519244021,
                    -0.8912351855637172,
                    -0.7449754412183648,
                    -0.8083075120934546,
                    -0.23206437510564784,
                    0.8231668698364477,
                    0.1274110216812734,
                    -0.519723909645623,
                    0.3219605396997442,
                    -0.7950468449897222,
                    0.366554960854477,
                    -0.2779532475207002,
                    -0.6763577617222536,
                    -0.7810062098495149,
                    0.07655989682668074,
                    0.8296909160461919,
                    0.2957274273693235,
                    0.35274405309910123,
