{
    "networkId": "network-3",
    "status": "inactive",
    "activeCard": false,
    "layers": {
        "layer-1": {
            "errors": [],
            "layerConfig": {
                "inputSize": "3000",
                "outputSize": "1",
                "activation": "sigmoid",
                "type": "recurrent"
            },
            "layerName": "Recurrent Layer",
            "valid": true
        }
    },
    "valid": true,
    "inputSize": "3000",
    "outputSize": 1,
    "network": {
        "0": {
            "input_size": 3000,
            "output_size": 1,
            "weights": [
                [
                    0.08586823687010797,
                    0.42829944277258786,
                    -0.24716290994165085,
                    -0.030340902595363366,
                    -0.20301249500862487,
                    0.7750599667919739,
                    -0.4988439664703531,
                    0.7433093649677734,
                    -0.7581912841500008,
                    0.691831314495948,
                    0.27891598656552535,
                    0.7584305548197338,
                    -0.8908986315286226,
                    -1.4636941038453126,
                    0.24942779987894179,
                    0.7263108061511605,
                    -0.6879742284239534,
                    -1.2017391818434964,
                    -1.1474378071800195,
                    0.026804530319411653,
                    0.2953656138764142,
                    -0.8598427357327755,
                    0.6303953071506982,
                    0.6406472071776964,
                    -0.735458981057573,
                    -0.2579690618289346,
                    -0.21324141481458245,
                    0.34764355075746617,
                    -0.5288723786849514,
                    -0.15532565288095415,
                    0.07895179924577209,
                    0.411747954673767,
                    -0.961983006123961,
                    -0.08240321408473678,
                    -0.977691260469668,
                    -0.6302524572332374,
                    -0.5814570428552464,
                    -0.9210640994484605,
                    -1.2198436193601172,
                    0.32897196467186046,
                    0.43139976814984754,
                    0.633040582827726,
                    1.1288346047664053,
                    -0.42460731607236396,
                    -0.13865327141083472,
                    0.721763968377504,
                    0.5058962322342944,
                    -0.1651478672063862,
                    0.47463245524289766,
                    0.4178583485654468,
                    -0.19898701564423668,
                    -0.29743265554678755,
                    -0.023082916558633888,
                    0.6126909135863343,
                    0.10105196265267158,
                    0.05904604540273648,
                    0.36540077976765695,
                    0.4875959745708267,
                    -0.45136038366382686,
                    -0.24930077125274305,
                    -0.2897288504459049,
                    0.31775607467076095,
                    0.9453020707853155,
                    0.2665216088724272,
                    -0.23112945036282054,
                    -0.3265367801686995,
                    0.4759172891586769,
                    0.7150482652307416,
                    -1.2632945274538192,
                    0.3707164224115088,
                    0.7785190262100549,
                    0.4660541780570548,
                    0.4056940632127381,
                    -0.8107703743434197,
                    -0.550350354511602,
                    -0.5804300393827702,
                    -0.23514677806470569,
                    -0.9142859544618497,
                    0.41073848045740446,
                    0.7529877288825239,
                    -0.4034236294830633,
                    -0.5691256708293049,
                    0.8003896569849488,
                    -0.19825756107451276,
                    -0.020775354429807193,
                    0.011561635306851973,
                    -0.7742736929929238,
                    0.028843125745268733,
                    -0.13011021886164556,
                    0.13751712300297603,
                    -0.09997960489174385,
                    0.3560145185453742,
                    0.7534015939901652,
                    0.39504001558628465,
                    0.293859228433486,
                    0.5757741855180714,
                    -0.45168413994105366,
                    0.22261828380137633,
                    -0.24977997069607008,
                    0.24205506926542372,
                    -0.4491413022460981,
                    0.3383895972295055,
                    -0.9108789910052796,
                    -0.4193325148951441,
                    -0.6070653134302763,
                    0.3414287846846836,
                    -0.769425388555469,
                    -0.12123621757475733,
                    0.25175932280681496,
                    -0.41928869435648264,
                    -0.8374313599479153,
                    -1.1672433281112895,
                    -0.840821450480314,
                    0.41774888938924004,
                    -0.8418334796525252,
                    -0.0037113971423140516,
                    -0.5527018549703567,
                    0.8663532523090787,
                    -0.6327716516289011,
                    0.05512499048039004,
                    -1.1165569587909234,
                    0.5904619292881944,
                    0.5671866157411478,
                    0.702183207096019,
                    0.24750231815228863,
                    -0.32990477282405267,
                    0.10867784442724641,
                    -0.22484727528356394,
                    0.14431425693796793,
                    -0.34229806064489693,
                    -0.4338557217338573,
                    -1.0472305129472055,
                    0.5046284351110149,
                    -0.18140980378077226,
                    0.33458412800175996,
                    -0.43991373606772727,
                    0.27628569043828644,
                    0.3158615111100775,
                    -0.741515903208818,
                    -0.15669978399609757,
                    0.4637035300796754,
                    -0.7837333051189116,
                    0.8517547076167942,
                    0.556047003897204,
                    -0.5433388489110721,
                    -0.8288039997233401,
                    0.1575349645391255,
                    0.13377804513299998,
                    -0.8043285012197029,
                    -0.01325843723012987,
                    -0.12999286298336699,
                    -0.38630850055008403,
                    0.3140461918797032,
                    -0.6714025097325478,
                    0.6669866383383058,
                    -0.2040553563169869,
                    0.8101575382878402,
                    0.5239520386416143,
                    0.2661322671426773,
                    -0.5825159752719612,
                    -1.04789506969175,
                    -0.10919190657553929,
                    0.18801325175539346,
                    -0.811868236610634,
                    -0.3803739776726988,
                    -0.302984132066046,
                    -0.9687801484555276,
                    -0.4268096142780305,
                    0.9360706455796023,
                    0.285290736854186,
                    0.4620575433343755,
                    -0.1339304185165146,
                    0.5875285993870483,
                    -0.2360040523380191,
                    -0.007549686701198865,
                    -0.5797714125702917,
                    0.5200936657537012,
                    -0.9068795951378525,
                    0.6069285254677134,
                    -0.49151603755743334,
                    0.25263181383061195,
                    0.17487800506457432,
                    0.4397566032210331,
                    0.694375058073007,
                    -0.6737015350180718,
                    -0.2687425436185146,
                    -0.9479879149260242,
                    0.09638464140105159,
                    -0.4551208043350381,
                    -0.29256614731631303,
                    -0.1892344217855546,
                    0.9365174724157759,
                    0.6768815522311988,
                    -0.06457431415914296,
                    -0.32822892910782453,
                    0.13655736904429852,
                    0.5709263756303946,
                    0.14221402749053005,
                    0.2792906291373097,
                    -0.388353072301787,
                    -0.7686946362573499,
                    0.015062159346404123,
                    -0.22718082191845015,
                    0.06351414620233056,
                    -0.3423998145828395,
                    0.6042010997961935,
                    -1.0360245030018767,
                    -0.8380194297383635,
                    0.2957447883566406,
                    -0.8183402991234109,
                    -0.3242604781041969,
                    0.05550553935440052,
                    0.30781262457665604,
                    -0.2459460666408486,
                    0.0040975473987304115,
                    0.14966245197665462,
                    0.7298540818046186,
                    -0.7241221556838622,
                    -0.5261322680540906,
                    -0.5323511468459076,
                    0.08439712472305409,
                    -0.7731242069034889,
                    -0.1113699272466416,
                    0.6967888072833783,
                    -0.31571383187321655,
                    0.7108336319261539,
                    -0.458211600890834,
                    0.16532617510030798,
                    -0.3643417856053131,
                    -0.2873819835838311,
                    -1.0316494506847866,
                    -0.49837044584019796,
                    1.0227820765122302,
                    -0.9140494754553724,
                    0.7328485145073624,
                    -0.1315232108541611,
                    -0.5785121029990046,
                    -0.8614930402140019,
                    -0.26773737420711813,
                    0.2959184173943891,
                    -0.6703102978909121,
                    0.1652390713459721,
                    0.46867330080104275,
                    0.5613803869570304,
                    -0.16979639616377193,
                    0.48495556529055955,
                    0.7498602711168021,
                    0.15187536916493277,
                    -0.7090671382156646,
                    0.6875037011223039,
                    -0.09676540630411344,
                    -0.6125902904437707,
                    -0.5032071540677732,
                    0.017158327907809887,
                    0.45210215431186956,
                    -0.12327449230414396,
                    0.770633147169611,
                    -0.3261892720612103,
                    -1.0510805845215447,
                    0.043253736824708615,
                    -0.5091127158611886,
                    0.49058211036537097,
                    0.1427808359407087,
                    0.0759708453684649,
                    0.902763449615948,
                    -0.002870900645051111,
                    0.4489577744131694,
                    0.7542304726862169,
                    0.1433715644628803,
                    0.20281824278182,
                    -0.0005907791249656904,
                    -0.14241074734333062,
                    0.31862291557367023,
                    -0.84715698358147,
                    0.5743185424034237,
                    -0.5612096078721813,
                    -0.822816267989278,
                    -0.3408715897020383,
                    -0.2207892599648586,
                    0.8311931239041666,
                    0.34742604738985006,
                    0.7332338642879781,
                    0.7881061437189141,
                    0.5943894883270519,
                    -0.7288621915911094,
                    0.11111429476495777,
                    -0.7844838607825988,
                    0.9102442619188068,
                    0.2957311363455864,
                    -0.11594374027798417,
                    -0.35507585686379156,
                    0.29238577867595095,
                    0.7322102129135561,
                    0.25546945467306853,
                    0.267252499383717,
                    -1.188077707109332,
                    -0.8197299089641442,
                    0.039119732822948616,
                    0.6653354689414642,
                    -1.1023311741113369,
                    0.049590003757334286,
                    0.12796864011395992,
                    0.42399155427177593,
                    0.9130169166557237,
                    -0.8372840452585535,
                    0.577220086062146,
                    0.3357468778761876,
                    -0.8959481526906689,
                    -0.031406509180450494,
                    -0.14345575176152456,
                    -0.2243638113158898,
                    -0.2201142338327778,
                    -0.7530211680118627,
                    -0.20536891717706685,
                    -0.6726324665465439,
                    0.21723012523679847,
                    1.1117011443130849,
                    -1.1775890741441837,
                    -0.8671326372231177,
                    -0.3314137899236544,
                    -0.5625263219792553,
                    -0.13153333411959064,
                    0.7075590024638093,
                    0.37687150797097213,
                    -0.34415420296395094,
                    0.6032026600347359,
                    0.5347742873609123,
                    -1.022418896616966,
                    0.05675832480435871,
                    -0.028516109084752793,
                    -0.7523524633893918,
                    -0.32789002465171085,
                    -0.688261931270572,
                    0.37528586238595824,
                    -0.8516094225431353,
                    -0.30966817829960197,
                    0.7979876945181368,
                    0.9289290894899751,
                    0.4401608579829677,
                    0.3991316886305538,
                    0.7096185398399614,
                    -0.3170342716500839,
                    -0.245380487379273,
                    -0.7199379944830022,
                    -0.3059269809314022,
                    0.9855894652067465,
                    0.6430571989201468,
                    -0.03335195528659758,
                    -0.3116143803704024,
                    0.5928565967141647,
                    0.4123176423931378,
                    -0.2612163887893668,
                    -0.32684724804789067,
                    0.48363165557892485,
                    -0.7059368512889496,
                    -0.9787024940960131,
                    -0.18112746743226849,
                    -0.3822954329906284,
                    -0.13836063720919303,
                    0.315304884921401,
                    0.3475766392685533,
                    0.46710952676213785,
                    0.5315338415853057,
                    0.3853264465652539,
                    0.5420382577753008,
                    -0.2894263125187845,
                    0.19709275104417387,
                    0.5910012514282238,
                    -0.8599528580824678,
                    0.6644325314806419,
                    -0.8550873651818436,
                    -0.7961974112209413,
                    0.3814443611919219,
                    -0.9978373507894639,
                    0.682753290094575,
                    -0.05977499244721917,
                    0.4893965052907022,
                    -0.044035385738126195,
                    0.8279512876113854,
                    -0.7322345806614521,
                    0.07202934563126842,
                    0.6936538766600485,
                    0.3090212363848674,
                    -0.6788531195840163,
                    0.4946752012750224,
                    0.456396080451835,
                    0.9824770791703361,
                    -0.548335828499046,
                    -0.6849382139236403,
                    -0.30713146413217635,
                    -0.8813458829113614,
                    0.2098902480555194,
                    0.02159722519919348,
                    -0.8892777785798948,
                    -0.03129458082225519,
                    0.15996851761641645,
                    0.0835011697666912,
                    -0.47788781085590265,
                    -0.6503855168216123,
                    -0.4192254877573621,
                    -0.00543124784341529,
                    -0.016589786905347785,
                    -0.14972676231721468,
                    0.25881745988673516,
                    0.4972495115779205,
                    -0.5499379034211798,
                    -0.4202160370238589,
                    0.17440044013421782,
                    0.06643748556049538,
                    0.05837256319877231,
                    0.661601910159067,
                    0.37449202768527,
                    -0.7534010763824721,
                    -0.15330880580147307,
                    0.5138711458855563,
                    0.022130248338199297,
                    0.8834653654749909,
                    -0.02683759548435679,
                    0.011333360293680053,
                    -0.21238589959547044,
                    -0.6763271000300678,
                    0.703629853493082,
                    -0.42251053021156193,
                    0.2998516423140979,
                    -0.26471996030422396,
                    -1.0033288285812583,
                    0.130321559044716,
                    -0.493930753498889,
                    1.0699283095912768,
                    -0.5563327888824057,
                    -0.6997877489485589,
                    1.1168948900851374,
                    0.10472926333684451,
                    0.5706914302610101,
                    0.01174080465393681,
                    0.5295882058767932,
                    -0.7712190356571479,
                    -0.7822328344397655,
                    -0.5616231403331476,
                    0.5965107452054234,
                    0.6136278921220731,
                    -0.9273910356641059,
                    0.6842082936385505,
                    -0.6194261713517593,
                    0.7968255696551159,
                    0.23251029944180845,
                    0.761349256199423,
                    -0.78238781735557,
                    -0.4919448024881936,
                    0.2262958447745031,
                    0.7118838975174867,
                    0.7174271174215988,
                    -0.5856469304646563,
                    0.6771931404916391,
                    -1.0768182634522305,
                    -0.0819474356453987,
                    -0.8511702204524519,
                    0.6323633557370879,
                    -0.494121510174989,
                    0.7357114877040902,
                    -0.8398834686132384,
                    -0.995019973761763,
                    -0.418148610162223,
                    -0.44071506468907595,
                    0.7802048531906557,
                    0.29561716224389284,
                    0.14345992958268775,
                    -0.4082249012303744,
                    -0.6088444862383556,
                    -0.5984130518469235,
                    0.31551171192352173,
                    0.831716121476397,
                    0.767029517635143,
                    0.5613453810995755,
                    0.6591491179349133,
                    -0.7506202280018188,
                    0.18117567516345454,
                    1.0212864432788171,
                    -0.39346663032415224,
                    0.728215927133174,
                    0.2899518594724489,
                    0.7835548210780561,
                    -0.27802980344942896,
                    -0.46815697242885324,
                    -0.512684173655792,
                    0.5061675644632042,
                    -0.8672240854555537,
                    0.5639285815710984,
                    -0.6702422379526283,
                    0.38377016657292085,
                    0.3718561167847692,
                    0.02947231147196958,
                    -0.12556340342224087,
                    0.30841129348210616,
                    -0.19221990379556844,
                    0.5810952482744465,
                    0.48145915050986576,
                    -0.6250549763551065,
                    0.059101479552546875,
                    -0.9424399093741394,
                    -0.8772713738968421,
                    -0.9512188542009302,
                    0.6282516433966862,
                    -0.903416682505812,
                    0.462512672041545,
                    -0.9032602768626078,
                    -0.779485860384878,
                    -0.7031310851629419,
                    -0.41125971682520146,
                    0.9154906839384919,
                    -0.5970063389287058,
                    -0.8741797137344839,
                    0.023505866680222268,
                    0.3144961305597846,
                    -0.8221364902704971,
                    -0.04707283568280895,
                    -0.7508691241038241,
                    -0.20019450228732133,
                    0.65288717561017,
                    0.5340039083101783,
                    0.5428396999500698,
                    0.4838847295469478,
                    -0.5570869089415847,
                    -0.934653734177764,
                    -0.006314551482479012,
                    0.22262088589661472,
                    -0.22413750222567388,
                    -0.7316273571102248,
                    0.7364359365661302,
                    -0.4931088065314971,
                    -0.809171844081596,
                    -0.31081442048947366,
                    0.2251719446620983,
                    -0.35232149764040893,
                    -0.9615240841293438,
                    -0.8986309964213021,
                    0.4172790115623097,
                    -0.6412846665613745,
                    -0.6713477581530302,
                    -0.6919934649220606,
                    0.6719740742611551,
                    1.0646077128978797,
                    -0.5569966389783776,
                    -0.5875394792557141,
                    -0.7231902583609847,
                    0.8995224629130816,
                    0.47536534064700314,
                    0.5782788498062997,
                    -0.2570903092030574,
                    0.04354798409054559,
                    -0.006541315965399123,
                    0.4398519677757596,
                    0.07346943270344145,
                    -0.08102463189615469,
                    -0.47454917197040847,
                    0.7570791057947427,
                    0.6898953745086842,
                    0.4798206204579898,
                    0.5255202258241515,
                    0.1742821774257291,
                    -0.7842080795877641,
                    -1.0955446953072312,
                    -0.7529243206090169,
                    0.3267639153660591,
                    0.4568813142961294,
                    0.7377483389336785,
                    -0.12216912842671104,
                    0.589635565521549,
                    0.47495996504760085,
                    0.6987687314438227,
                    0.26404554126494006,
                    -0.13478807499786505,
                    0.5999565499499377,
                    -0.8556523127770084,
                    -0.802988266622907,
                    0.8428397910390494,
                    0.5817611247554912,
                    0.44590209380749013,
                    -0.22647484027637813,
                    -0.2514870772431196,
                    0.3245074957004795,
                    -1.0348425162250134,
                    -0.6735897140148006,
                    -0.13116953889367935,
                    0.5490083335981237,
                    -0.8513770069509605,
                    -1.035149820887992,
                    1.06405854698707,
                    -0.7046106511680266,
                    -0.09182983113991423,
                    0.5657947361645832,
                    -0.31649979829130304,
                    0.16037592863575348,
                    -0.9798494059424421,
                    0.8235956224256507,
                    0.44068362554197865,
                    0.1404440588786212,
                    0.14494994853674228,
                    -0.20428581101827975,
                    0.4819234098454801,
                    0.15872398678777389,
                    0.5919390828527981,
                    -0.16879321340312536,
                    0.4455262685025177,
                    -0.04887699114613263,
                    -0.27808408852279004,
                    0.39646971893257843,
                    0.8076612029895852,
                    -0.5902865945768849,
                    -0.6839430521584284,
                    -0.1469993336083098,
                    0.5490135585226525,
                    -0.01917369530037009,
                    0.8070146955547065,
                    -0.8625461292297011,
                    0.8611776799890599,
                    0.6516623183828257,
                    0.5492753694596153,
                    -0.3575438814037476,
                    0.22109520779870726,
                    -0.7934935632116854,
                    -0.13930617352858804,
                    0.2257210203887563,
                    -0.9656938654976965,
                    0.2593321148075137,
                    0.6452121722320223,
                    0.6069919079809152,
                    0.10783441350617542,
                    -0.6169817945348983,
                    0.8880195080339499,
                    0.11705401523858078,
                    -0.6193493377125681,
                    0.560677858028866,
                    -0.4283446389893668,
                    0.5806675922566733,
                    -0.08542547023696664,
                    0.829525012466051,
                    -0.4080876451105647,
                    0.12909226486535663,
                    0.7494240874589145,
                    -0.2486468716344808,
                    -0.8604407609403507,
                    -0.9876879355059919,
                    0.33731881451743106,
                    0.4349579891491661,
                    0.7514235844447533,
                    -0.21754233927794583,
                    -0.749324600540827,
                    -0.7646074126930558,
                    -0.1682231702706308,
                    0.7573476023941879,
                    -0.23419691703588977,
                    0.6922234433483594,
                    0.5051293126452455,
                    0.5655973086042397,
                    -0.15154791905154494,
                    -0.24277908938139997,
                    -0.5648612889379473,
                    -0.5223418056679133,
                    0.2137212373795443,
                    -0.47157097940398734,
                    -0.8272330907941292,
                    0.871335316798742,
                    0.4610926786577069,
                    -0.3998668620728301,
                    -0.2453520028288423,
                    0.7352894924742894,
                    0.8416775154846476,
                    0.2933968536112135,
                    0.4331963505714124,
                    0.7236129158308059,
                    0.7638463442129997,
                    0.7450757910523925,
                    -0.5604286109431013,
                    0.057976969880674536,
                    -0.25713914421695944,
                    -0.4277693861134472,
                    0.10439239652275742,
                    0.26445462328807084,
                    0.9795174419242422,
                    0.7731062383885863,
                    0.1876884464640805,
                    -0.4116311433847548,
                    -0.5777724323021559,
                    0.07255142369970644,
                    0.006579634287893931,
                    0.2716395828386342,
                    -0.5182200945499532,
                    0.9309995515534796,
                    0.06737941594524105,
                    -0.7668705544576504,
                    -0.08174420183146254,
                    -0.20475554905667323,
                    0.7768437353411366,
                    0.3171280851794574,
                    -0.05350147253245055,
                    -0.33112169789943113,
                    -0.8075223113382923,
                    -0.086194421527931,
                    0.6422386975131256,
                    -0.8623352915813631,
                    0.05606325307837047,
                    -0.8349976553296854,
                    0.29457035305412077,
                    0.8944740054232806,
                    -0.6303800697241113,
                    -0.7056241991689862,
                    -0.17061796690644956,
                    -0.145443846959627,
                    -0.055309217918216184,
                    -0.9207318941056151,
                    -0.04811142407518256,
                    0.7343148123454295,
                    0.3054202677901408,
                    0.5769878550797356,
                    0.5007875148002692,
                    -0.7361428321461169,
                    -0.7724807254946353,
                    0.20133002618657822,
                    0.5687374079352369,
                    -0.2945527922934283,
                    0.03872194733423114,
                    0.1826413549315237,
                    -0.6388118144712741,
                    -0.8397496991737,
                    0.7843556385952705,
                    -0.8452531409035037,
                    -0.8395598194413665,
                    0.8289836527382929,
                    0.850454852784224,
                    -1.0161357072899777,
                    0.4969777641387625,
                    -0.6684399673152589,
                    -0.764648335836245,
                    0.2532309524413574,
                    0.3877924837066768,
                    0.8350929626343255,
                    -0.15144996465703986,
                    -0.5680475291071552,
                    -1.0003589814817508,
                    1.0396139225438734,
                    -0.04289006959750804,
                    -0.884422245190154,
                    -0.22078956875727926,
                    0.08479128778655139,
                    0.577231570682461,
                    0.2991944620159073,
                    -0.7937849242693853,
                    0.5591579913062706,
                    -0.07095977740756398,
                    -0.25300089978269324,
                    0.06822029050482993,
                    0.9190323830502612,
                    0.4762390736976914,
                    0.6090820898858368,
                    0.42685235660999765,
                    0.06257003782165108,
                    0.7218914849366979,
                    -0.5534704249843445,
                    0.4045974033741072,
                    -0.559877672769855,
                    -0.955260713186376,
                    -0.8263795856274253,
                    0.28571433826496384,
                    0.12257875126319344,
                    -0.16328406326452752,
                    0.15230636159883607,
                    -0.15176371377909229,
                    -0.30868939737655837,
                    0.3241766005961819,
                    0.35590204745950543,
                    -0.6124815666850938,
                    -0.8887617192231403,
                    -0.2617804158392444,
                    -0.7396816920075386,
                    0.7093133375374661,
                    0.5877354947242037,
                    0.6060217925295723,
                    -0.11449141153885534,
                    -0.5755854654926847,
                    -0.014279033932590278,
                    -0.618690479802097,
                    0.3580219985085879,
                    0.9558810459337155,
                    -0.8590285568829963,
                    -1.4078288126733909,
                    0.24013784066918265,
                    -0.7475010599100638,
                    0.7779954148980595,
                    0.10859028396034745,
                    -0.8912827317948198,
                    0.6644006793732065,
                    0.16282772346824387,
                    -0.16722306769961162,
                    0.01371845787295689,
                    0.20402411140982774,
                    0.21568687318606503,
                    0.9507808497386244,
                    -0.13550200820820515,
                    -0.9317947257953045,
                    -0.8342468362216412,
                    -0.20694937636932234,
                    0.6311983825815203,
                    0.009061232994406056,
                    0.39790783597341434,
                    0.6695789387893801,
                    0.304454068450475,
                    -0.5741698166767938,
                    -0.6602062613850674,
                    -0.12499595201224356,
                    -0.8083883705683229,
                    -0.3851478555712024,
                    -0.08882898806396242,
                    -0.7689324610852224,
                    -0.691974670647258,
                    -0.3838001030883098,
                    -0.9494734578239672,
                    -0.8606019573786531,
                    0.4466190616560868,
                    0.40205137386911954,
                    0.7075468394204564,
                    -0.30086791304081956,
                    -0.5506367725041252,
                    -0.2325836524201107,
                    -0.9793691576391154,
                    0.31118688445897347,
                    0.009137776602272872,
                    -0.2992668140535379,
                    -0.05141191777194076,
                    0.7659050460860171,
                    -0.249318371847644,
                    0.8045980828599136,
                    -0.7391520387430185,
                    0.2698015356262781,
                    0.9947960394836237,
                    -0.3936613665184633,
                    0.8766013567713666,
                    -0.7856346227556605,
                    -0.16903487631009004,
                    -0.12967228851719861,
                    -0.8017124981049559,
                    0.7257657151079988,
                    0.4308080113224711,
                    0.7157999929593967,
                    0.5086741937204581,
                    -0.02147469394783696,
                    -0.20940953597849685,
                    -0.5540035271820373,
                    -0.9666522984257127,
                    -0.3395326188668531,
                    -0.0513834769275093,
                    -0.07327192711859787,
                    -0.5634140093208931,
                    0.8789315967364896,
                    0.8497627987333272,
                    0.3530640624889176,
                    -0.3514070890376109,
                    0.4211624331568664,
                    -0.7596936412816451,
                    0.564133121168794,
                    0.8685192362651998,
                    0.9738728561430164,
                    -0.4062554759212989,
                    -0.261479572450095,
                    -0.45771549222232977,
                    0.318589317688326,
                    0.2649973518041415,
                    0.8429316052162308,
                    0.5647411050223564,
                    -0.38081174703183235,
                    -1.0944191984394254,
                    -0.8836044728175743,
                    0.8954505310649536,
                    -0.9015175800879835,
                    -0.697110411326866,
                    -0.18862679488123535,
                    0.6645780323172902,
                    0.18424165100682735,
                    0.5883057296574199,
                    -0.5911596077991349,
                    0.20631223338192065,
                    -0.7894745779747714,
                    0.5302784818016487,
                    -0.9279879550062421,
                    0.7311785292024341,
                    0.2861587182142043,
                    -0.4936228726480478,
                    0.5230038328859818,
                    -0.7953701276843634,
                    -0.6451605043638855,
                    -0.1292230711673849,
                    -0.8848722292978289,
                    -0.2529157679260245,
                    0.25337440603429007,
                    -0.3152150456619738,
                    -0.18023066611802432,
                    0.729109112558519,
                    0.32242875877959265,
                    0.8430146407574278,
                    0.4247202468185172,
                    0.6452430539558018,
                    -0.3483270631612797,
                    -0.3455923940300823,
                    -0.5708405446188489,
                    0.7932277225745528,
                    -0.3921662391638402,
                    0.06015585940246449,
                    -0.16344827808047374,
                    0.8965010988775124,
                    0.4984209575102233,
                    0.018603377113094427,
                    0.4963938875278148,
                    -0.21396170459481215,
                    0.6549887308388334,
                    -0.8290718698876699,
                    0.8658418249269723,
                    0.6601987455288071,
                    -0.032679334440586606,
                    -0.3913498842796981,
                    0.15316072473052073,
                    0.013173835704197941,
                    1.001099156190945,
                    0.09946965885507009,
                    -0.09727509149275392,
                    0.7118972046107572,
                    -0.3552883193785013,
                    -0.10027088554467022,
                    -0.23290410752968124,
                    -0.16121092998983913,
                    0.1909158850479205,
                    -0.07405368209054952,
                    -0.4546980926907924,
                    -0.3207037717400132,
                    0.6576807092455417,
                    -0.8550210899985673,
                    0.13610770387561077,
                    -0.6192351071395091,
                    -0.5965422811377901,
                    -0.38784745253574043,
                    0.11453997873217225,
                    0.32361813125739874,
                    0.6430745180271283,
                    0.029524263438850295,
                    0.5909010073588719,
                    -0.5121395063424516,
                    0.269051088578688,
                    0.24325958426134284,
                    -0.5129709983929487,
                    -0.5692775682629198,
                    0.11437662953773822,
                    -0.5108822132719201,
                    -0.09266411825654539,
                    -0.4155789889304255,
                    -0.25817133767096373,
                    -0.5983593968309675,
                    -0.4533780414723438,
                    0.499341143175111,
                    1.0916043080846654,
                    0.5763120583639235,
                    -0.8489708015641213,
                    -0.3226560657172304,
                    -0.9964587826860317,
                    -0.21135692386663063,
                    0.25204162885441717,
                    -0.4567464251207326,
                    0.712722635846422,
                    -0.3046809332160912,
                    -0.8372064632328357,
                    -0.4108049653174228,
                    -0.41637208736395676,
                    -0.9703465899939618,
                    -0.8009034121371184,
                    0.23836878366750877,
                    -0.7960798234428427,
                    -0.52315544524313,
                    -0.7608208911752948,
                    -0.6880929559949902,
                    0.05272247211819253,
                    0.6443388374984991,
                    0.1702499907007878,
                    -0.7737857768909774,
                    0.3261969172201681,
                    0.7713695984666906,
                    0.7142332406506074,
                    0.19346163222449736,
                    -0.05852047964959372,
                    -0.23985943504920312,
                    0.554825313822961,
                    0.14624892914452192,
                    -0.9437046353889661,
                    0.23026997588806267,
                    -0.644464942501944,
                    -0.9896918233995576,
                    -0.7977230860288367,
                    -0.11730768404577091,
                    -0.31546781628016624,
                    0.6238048758251092,
                    -0.37385532528432447,
                    -0.5230147568577834,
                    0.38585334532513094,
                    -0.8530211932575594,
                    -0.4864784229689814,
                    -0.37642381613417153,
                    0.2945918837965329,
                    0.3813349783001515,
                    -0.89050921478984,
                    0.6052526510572391,
                    0.5526601924769222,
                    0.7429221451504516,
                    -0.16876102129243623,
                    0.15555731917511495,
                    -0.9403025831568149,
                    0.18765906839210134,
                    0.8169712490167893,
                    -0.6089037074114593,
                    0.5482383108232672,
                    -0.05613247777414982,
                    0.7563100589649888,
                    -0.8017752645648191,
                    0.8184694631781033,
                    0.15225703319776898,
                    -0.9457351451602984,
                    0.3360281614455665,
                    -0.940187672022674,
                    -0.17488646620098283,
                    0.16202359668647867,
                    -0.7031183026277169,
                    -0.7913417739056768,
                    0.9070499892475125,
                    0.01498413432456256,
                    -0.2873927431940345,
                    0.5460052454217613,
                    -0.7654220245247627,
                    -0.8068342629998997,
                    -0.6486363349424118,
                    -0.12270618656793209,
                    -0.6776250875635909,
                    -0.19336197910897682,
                    0.5235162270126638,
                    0.7805463230372498,
                    0.18766093631172814,
                    -0.8569549711150627,
                    0.2960152491918425,
                    -0.2015091343017668,
                    -0.7593309748676974,
                    -0.8290003105881473,
                    -0.9515537077233805,
                    -0.8918150206456656,
                    0.34907929230924223,
                    -0.3119862477172142,
                    0.26364908100752427,
                    -0.5245677825140576,
                    0.7938156037052515,
                    0.9082331517435469,
                    0.16045002956742838,
                    0.11024499859568763,
                    -0.7154648888610727,
                    0.14341253326195277,
                    0.8991514248833992,
                    -0.7726194104999246,
                    0.4126823501335867,
                    -0.15934833082539626,
                    0.050273366811713086,
                    -0.1523088898591597,
                    -0.69177539274386,
                    -0.25705453439800463,
                    1.0010471325696455,
                    -0.19181441419729328,
                    -0.8259155971107622,
                    -0.46909575561595074,
                    1.0061223554765304,
                    0.2941428814832653,
                    -0.9091213276324616,
                    -0.8608115653593742,
                    -0.7743037445981497,
                    -0.06853251847204264,
                    0.35056793679242887,
                    -0.6592515587337267,
                    -0.7853617131010552,
                    0.42603542267802175,
                    0.8253238817125746,
                    -0.6748318734611348,
                    -0.3573814358816955,
                    0.1755331850310314,
                    -0.6452198432365694,
                    -0.6091962177940314,
                    -1.091924038803223,
                    -0.06901258770240774,
                    0.8701264761250471,
                    0.6485014469453286,
                    0.2279259054915544,
                    -0.1338626450800656,
                    0.31243829650304744,
                    0.36437853525945085,
                    0.867096292776292,
                    1.000952344745703,
                    0.4097345201549399,
                    -0.9155165647580294,
                    0.806069385034085,
                    0.8142936085304343,
                    -0.7398120099090911,
                    -0.10216019268012122,
                    -0.5783437331409977,
                    -0.8323819838643778,
                    0.4186773060732587,
                    0.37059000801557784,
                    0.07784741377524791,
                    -0.9648048393044741,
                    -0.3517428010756421,
                    -0.03409304382206998,
                    -0.010737527587554169,
                    -0.008330408017095186,
                    0.5788836418295772,
                    0.6872792756813487,
                    0.17629572564999427,
                    -0.5478323727939909,
                    0.9312536897991744,
                    0.08290073372294483,
                    0.32662459158289403,
                    -0.4110979404569855,
                    -0.6016846211577589,
                    -0.20347442328155005,
                    -0.7218774439238311,
                    -0.32768428018735807,
                    -0.43297294250212576,
                    0.14466655378497448,
                    -0.44505341289314077,
                    -0.2786434512398996,
                    0.756387937636666,
                    -0.04298608030983003,
                    -0.9752821765494287,
                    0.6394979129262153,
                    0.0428521346878644,
                    0.14350549705519172,
                    0.46181662019027037,
                    0.12108441426266234,
                    -0.8013619718393332,
                    0.14867795137316905,
                    0.34396673744899614,
                    0.2345853486154442,
                    -0.15438492423920938,
                    0.3757476108176857,
                    -0.09133255694129663,
                    -0.3467201811534388,
                    -0.5053407202791946,
                    -0.6783882100957125,
                    -0.7635965740390374,
                    0.447307538938412,
                    -0.4719102249899227,
                    0.13451815376757342,
                    0.7492905567582713,
                    0.9012351446851133,
                    -0.909287838486173,
                    0.4345187764500654,
                    0.07829665750123666,
                    -0.04044402793385473,
                    1.045135040933301,
                    -0.6472888847939348,
                    -0.5014212607918254,
                    -0.17546802259941086,
                    -0.7091520420010662,
                    0.7424419657197889,
                    0.8166060973134907,
                    -0.44422632678135926,
                    1.0500382783896238,
                    -0.17800339262844153,
                    0.4334211458274778,
                    -0.2087969034505551,
                    0.6235420450857125,
                    0.656537815563534,
                    -0.08868804996872282,
                    0.6796589614125182,
                    -0.06812773349517441,
                    0.4777751356689685,
                    -0.32581120976175876,
                    -0.6101581866050725,
                    -0.5267431168828801,
                    0.296827990033839,
                    -0.7115066316293113,
                    0.8227161698319744,
                    0.7937442155379704,
                    0.7060084000513817,
                    -0.5298694666606587,
                    0.3965416637430508,
                    0.9532371837831003,
                    -0.756429743012299,
                    -0.00034729293146764154,
                    -0.7915780304560264,
                    -0.7467877885256892,
                    -0.12932847178465637,
                    0.5001735445351013,
                    -0.8285895353662527,
                    -0.5798863104527403,
                    -0.44308481451876547,
                    0.1512561184178451,
                    -0.6369952224485268,
                    -0.8981108229822016,
                    0.8259868987235324,
                    0.0040623548570505865,
                    -0.06432780816193712,
                    -0.7804552759527925,
                    -1.0240155883967421,
                    -0.35531187890183186,
                    -0.7305859996616749,
                    -0.9968998268696392,
                    -0.3735451667600441,
                    -0.10859516582537371,
                    0.8424542377039295,
                    0.04600127167712072,
                    0.45922821831716687,
                    0.20696003531177573,
                    0.2565446762018549,
                    -0.4125869325615905,
                    -0.07572197383197624,
                    0.7585516724175152,
                    -0.035763175263727624,
                    -0.08039441228670384,
                    0.6254585487780778,
                    -0.9433725292514936,
                    -0.516307374301627,
                    -0.88594011591095,
                    0.4953718937123806,
                    0.4838783442216683,
                    0.6076075441411751,
                    0.0029181984380421896,
                    -0.07071067635228238,
                    0.8411634310774889,
                    0.8418965381869727,
                    0.5266520265388418,
                    0.2619154484293231,
                    -0.024375450363515922,
                    0.37036828140116296,
                    0.4948372511997946,
                    0.8455193383379325,
                    -0.10997388854912328,
                    -0.37584545040404427,
                    0.7597392035120678,
                    0.47649356304736007,
                    0.32493358318608306,
                    0.7965485105714124,
                    0.13421349048219763,
                    -0.29280929471623507,
                    -0.7082415591182035,
                    -0.871817225525015,
                    0.5391435671642345,
                    -0.663877538539975,
                    -0.5024173298983479,
                    0.5520492331826807,
                    0.5802241161350812,
                    0.6608962182724147,
                    0.5746900947481419,
                    -0.16152364442208583,
                    -0.046313568024677114,
                    -0.9047376478627347,
                    0.6808700836506214,
                    0.0899828424884324,
                    -0.2248718293049201,
                    -0.4020409581582285,
                    -0.373414389111896,
                    -0.2448625029193747,
                    -0.4932859236921441,
                    -0.4494362906580241,
                    -0.9251239154955261,
                    -0.5624262657845812,
                    0.8708641285201018,
                    1.0158150135203141,
                    -0.40557026704254856,
                    0.6825536662552838,
                    0.8545128506235826,
                    -0.9658160813026192,
                    -0.6850801277730028,
                    0.9573242529580884,
                    -0.6891313919448995,
                    0.2974088316751787,
                    0.930730999296369,
                    0.15364270572412297,
                    0.27913015370403366,
                    0.351565951273053,
                    0.6776827863153618,
                    0.7593028361321903,
                    -0.6003214313323167,
                    0.864262441008169,
                    -0.030318986932348965,
                    -0.4235983999936824,
                    -0.3152320475257866,
                    0.7682473553425135,
                    -0.2943754567708071,
                    0.6936073211344828,
                    0.7157444303385659,
                    -0.34563756080280833,
                    0.35100454281102844,
                    0.5315402163520745,
                    -0.8631527119104959,
                    0.06557934236033457,
                    0.20116923933663391,
                    0.12664323448830106,
                    0.29279272939868245,
                    0.20648900963515182,
                    0.5336571650612705,
                    -0.15692783544237307,
                    -0.33449197625408783,
                    -0.9446729654656498,
                    -0.6184248850850961,
                    -0.39116701205790905,
                    -0.2246341486806046,
                    -0.010722100776453438,
                    -0.47294951350827086,
                    -0.7071134110274317,
                    -0.4355491991163971,
                    0.9383430079789604,
                    0.8253642962523298,
                    -0.9339052141414194,
                    0.6305237678201601,
                    0.4987740419687577,
                    -0.22700857299559754,
                    -0.31707621775195005,
                    -0.8367338847693111,
                    0.9478155871752405,
                    -0.21178838885627582,
                    -0.6212203636657753,
                    -0.7037724899933772,
                    -0.0546330283949594,
                    0.8833363826265214,
                    0.4421697159096016,
                    0.5239692824823308,
                    0.8443017982825346,
                    -0.9429066495077632,
                    0.2565621014165295,
                    0.36537645212410197,
                    0.9062375240775689,
                    0.5649075829718531,
                    0.20452493329868118,
                    0.7908941708594605,
                    0.6798402574626741,
                    0.7242005644564022,
                    0.4654787991746752,
                    -0.17697013356490507,
                    0.4920271998285935,
                    0.2773778418027588,
                    -0.15433607297257954,
                    -0.29326483182198726,
                    -0.18342675641585754,
                    -0.046949755045883286,
                    -0.17252100085115757,
                    0.13238643058669164,
                    0.900090531684859,
                    -0.25656082415146925,
                    -0.442972783927148,
                    -0.6734970086784846,
                    -0.12149044144279644,
                    -0.8816572351303389,
                    -0.1907262366134167,
                    -0.3238719101501337,
                    0.44289003186469467,
                    -0.3614765511844049,
                    0.6919066042734275,
                    0.9027751834583357,
                    -0.7694782762384499,
                    -0.7172487346191657,
                    -0.839219254871035,
                    0.015660328480545053,
                    0.34394186609455674,
                    -0.9391533912779739,
                    -0.9719973309970116,
                    0.6512490572719212,
                    -0.3193922791566591,
                    0.19474069741736447,
                    -0.2636558833675364,
                    0.26940263260584096,
                    -0.5368092366529483,
                    -0.36847879815868095,
                    -0.6647642480518089,
                    0.5276236788502192,
                    -0.5605335819724317,
                    -0.19100350682474868,
                    0.6063877660566368,
                    -0.9688997823480384,
                    -0.1645387096439244,
                    -0.6632951013966087,
                    -0.46256660328096694,
                    1.1199908258566882,
                    -0.3506088074759436,
                    0.9539476849696394,
                    -0.8377101673170473,
                    0.8105810989767566,
                    -0.10618460996167386,
                    -0.7771826160703409,
                    0.10245872861944479,
                    0.11765608620710609,
                    -0.741917837615008,
                    -0.269438509877487,
                    0.6474861651543392,
                    0.32418520194745515,
                    -0.9136376619653793,
                    -0.02840954376858345,
                    0.3953984772744261,
                    -0.1625964504993933,
                    0.652525084779187,
                    0.9057562416609688,
                    0.3014293542644575,
                    0.15487285402753165,
                    -0.0260397292496702,
                    1.043990484101417,
                    0.5569935265654122,
                    0.2849262121502853,
                    -0.7902341088829505,
                    0.40261011399563323,
                    -0.6519475316560766,
                    0.6544040235878307,
                    -0.571231722417075,
                    0.27906556462691023,
                    0.6710751533697377,
                    0.8718492000086365,
                    -0.39900284690753635,
                    -0.7284072450442379,
                    -0.8281698918030983,
                    -0.6542443033089462,
                    0.5159724605362297,
                    0.6618557114696899,
                    -0.9256006400785656,
                    0.9810935567774058,
                    -0.6322268054320881,
                    -0.6464242742703022,
                    0.6932209906298822,
                    -0.18808902111711076,
                    0.3915908794535698,
                    -0.797181862656149,
                    -0.9436958914416678,
                    -0.11235574500733544,
                    0.6478264683894214,
                    0.4816628750962844,
                    0.059738623984691465,
                    0.34097969584227783,
                    0.006133325251835969,
                    -0.32586092771631775,
                    -0.47354238357701767,
                    -0.8309644117187777,
                    -0.07227863271211261,
                    -0.9245996662058588,
                    0.34523118115427937,
                    0.13169137348506818,
                    0.11602703706936318,
                    -0.6204209474148809,
                    -0.6334700110233041,
                    -0.7960253527833645,
                    -0.6847930705054013,
                    0.12252809230163816,
                    -0.10422264493767,
                    -0.9805365868493887,
                    0.6734615092247226,
                    0.8707416274614429,
                    -0.5613205292561687,
                    0.662942047601672,
                    -0.7106184957972512,
                    -0.3179438794786651,
                    0.8390813573313205,
                    -0.5778813289022918,
                    -0.9929456195499712,
                    -0.44910472879090513,
                    -0.8008869533102027,
                    -0.443086797918043,
                    0.8373940869760935,
                    0.6267134516653532,
                    -0.6226936859636781,
                    -0.20178276288667432,
                    -0.3608384292336075,
                    -0.03540401513897479,
                    0.3702452768086757,
                    0.16240278636420294,
                    -0.42186053651482786,
                    -0.24323960417582596,
                    0.3272482216516547,
                    -0.7005283878957635,
                    0.4717370040795264,
                    0.0566851861620861,
                    -0.1175890648185226,
                    -0.41626044801781814,
                    -0.7885948104523738,
                    -0.9622793820545135,
                    -0.9918109644354843,
                    -0.9602918278385746,
                    -0.005619201560067955,
                    0.4234993968704129,
                    0.5506499113050759,
                    -0.20132809348644365,
                    1.0182410230953691,
                    -0.9774371461267917,
                    0.41078377897697943,
                    0.952254472213384,
                    0.6137504251971884,
                    -0.11651903440351687,
                    -0.48327058334942996,
                    -0.015415535475964299,
                    0.7938868536404414,
                    0.14441491420945232,
                    -0.17815730417134673,
                    0.47755427745046797,
                    -0.4656699427040466,
                    0.45544017907413487,
                    -0.5882983061817237,
                    -0.3113383830921639,
                    0.14555154567427714,
                    0.6641341576395242,
                    0.1341596222132164,
                    0.5124771822299652,
                    0.49302683416136406,
                    0.1884380390624608,
                    0.44916539193644794,
                    -0.9859735449935434,
                    -0.46143599193332385,
                    0.0012833900056569581,
                    0.892310174443229,
                    0.40629589553272477,
                    -0.9905238256773797,
                    -0.4169699868879574,
                    0.10993454046301866,
                    -0.22659662457241703,
                    -0.5777184886545979,
                    0.9953616380396841,
                    -0.14927533561896014,
                    -0.4390507507813947,
                    -0.5118734649444376,
                    0.2898075699457217,
                    0.49886910381129534,
                    -0.2600725634374899,
                    0.29282010724179564,
                    -0.3003173185625672,
                    0.8660296678607768,
                    -0.6434068960802801,
                    -0.8008959014572687,
                    0.5416991225050659,
                    0.7884614020884682,
                    -0.8927655140665177,
                    0.49413673731721564,
                    -0.24147001280566008,
                    -0.10939781859079004,
                    -0.7529590698234538,
                    0.6142956419575456,
                    0.5704841565725308,
                    -0.47349804280711894,
                    -0.2708437094949545,
                    0.563782908552273,
                    -0.7176050720847708,
                    0.24595322991212615,
                    -0.6576189580212549,
                    0.17148318326369152,
                    0.6328706873498581,
                    0.7031321062311391,
                    0.622349304908819,
                    0.2019325326625737,
                    0.3916253597375007,
                    -0.7503712553670792,
                    0.6612843592773419,
                    -0.5948436897702567,
                    0.6902791362751569,
                    0.4285569581328393,
                    -0.8665137566624144,
                    0.5816757439454334,
                    -0.25977035766711826,
                    -0.4213498048580843,
                    0.15487729374742562,
                    0.9497154805505705,
                    -0.9538903812805765,
                    0.841774194122323,
                    0.14260145896840662,
                    0.8716083333945748,
                    0.20221405684233423,
                    0.6522168699435483,
                    0.4941404114691307,
                    -0.875930301190849,
                    0.7196417158675015,
                    1.0086441206785273,
                    0.713761811793919,
                    -0.0560320932637945,
                    0.06820765380728008,
                    -0.39430568206644584,
                    -0.37835502750167005,
                    -0.3354363104067307,
                    0.15353339611606126,
                    0.22160973031072573,
                    -0.5981688976528684,
                    -0.7955978344822862,
                    0.48590541037382684,
                    -0.09361643487271257,
                    0.4663112599956838,
                    0.17052576288877558,
                    0.7784823925234575,
                    -0.38782581810815825,
                    0.8565907876849203,
                    -0.7769598144923189,
                    -0.014552191944639317,
                    -0.1613817785615695,
                    0.051095397152425504,
                    0.904974985738977,
                    0.5207902451911903,
                    0.05761380673673289,
                    -0.2934552221982959,
                    0.39794509472587114,
                    -0.5206670645495826,
                    0.8192636617889427,
                    -0.192324779631977,
                    0.4405833056400155,
                    -0.7587172814599756,
                    -0.8604490911087986,
                    0.42967402216242656,
                    1.0612123355594985,
                    0.08722726186851369,
                    0.07306428505808164,
                    -0.9941497583005441,
                    0.28397814946409267,
                    0.7454709593873488,
                    0.8230671479883861,
                    0.6673826468466076,
                    0.6707044674539203,
                    0.6379503976533241,
                    1.1842765287845656,
                    0.6378625616625279,
                    -0.3128051765729709,
                    0.39934953243420457,
                    0.8664007799918252,
                    0.015887742312134814,
                    1.10879192565798,
                    0.00980701049901445,
                    -0.5792274268805078,
                    0.695492421618298,
                    0.10938955872862492,
                    -0.1893151801641879,
                    0.6185488158617214,
                    0.3557245679977724,
                    -0.7014807706041196,
                    -0.8658064037669044,
                    0.8992848822513962,
                    0.49015709890758,
                    -0.038982602749601976,
                    0.12902528190936033,
                    -0.3006976014705027,
                    -0.4386835972033343,
                    0.05407845851545444,
                    -0.9891902077448784,
                    0.17504993105733396,
                    0.5394926364329187,
                    -0.33780277496828715,
                    0.02444927637499408,
                    -0.670486961131442,
                    -0.20693830027317184,
                    -0.1844359774034134,
                    0.6356765228791073,
                    0.49694370824193085,
                    -0.13465660185426764,
                    0.4951952996530145,
                    -0.939642880330454,
                    -0.018804016714938417,
                    -0.5967736430933245,
                    0.16156657107730543,
                    -0.7734837366451808,
                    0.5022498169362833,
                    -0.7224184712396589,
                    0.517709557108682,
                    -0.8459988868537051,
                    0.5892725414192325,
                    0.648740890204822,
                    -0.7532873196374681,
                    -0.21107243899732064,
                    0.3658964092082616,
                    -0.15282568712674077,
                    -0.7067426919437472,
                    0.2884830675238525,
                    -0.7480994000472742,
                    -0.3913943156106584,
                    0.5338011598876681,
                    0.9831264310960848,
                    -0.21387770357333805,
                    0.6220295645932464,
                    0.20303554835079812,
                    -0.7758236724480134,
                    -0.30675166662130565,
                    0.40858640662724205,
                    0.754212830793452,
                    0.9000961267274098,
                    0.19608431045019328,
                    0.5788068321561113,
                    -0.6160741020197894,
                    1.0196615985671147,
                    -0.12052042537990337,
                    -0.03996364587272532,
                    0.4381113129446302,
                    0.8058857190400426,
                    0.7541877391831265,
                    0.20637857043419944,
                    -0.7914425233034318,
                    0.9814997811929795,
                    -0.6749593848300917,
                    0.4682692303447195,
                    -0.41899987715350867,
                    0.9594963409109695,
                    0.9234446403785862,
                    0.5405983278252197,
                    0.2543382758818501,
                    0.4904342706969523,
                    0.16084183165544047,
                    -0.7854355103163836,
                    0.11429144814429221,
                    0.45838418583596996,
                    -0.38537409642109915,
                    0.7556520452752113,
                    0.06552576415723757,
                    0.02404160404719448,
                    -0.4759352345622194,
                    -0.12659744154751967,
                    -0.9190257385034526,
                    0.0035444912615365874,
                    -0.012375468711767354,
                    -0.21107471029498173,
                    -0.8459685228407056,
                    -0.8696553300777139,
                    -0.018870525679567176,
                    -0.6350051303715772,
                    0.6199829983869992,
                    0.10886510533778251,
                    0.8136076105442143,
                    -0.40873361453135204,
                    0.7566579956227109,
                    0.14213427101932588,
                    0.8987213620913473,
                    0.5747816563534568,
                    0.9305319827843765,
                    0.6072849021135943,
                    0.16414700454031186,
                    1.038467036299055,
                    -0.6171804981825502,
                    0.09214358908109564,
                    -0.890304443932329,
                    0.30281338650130146,
                    0.6682731010557144,
                    -0.6528054861699253,
                    -0.7610558081098352,
                    -0.4261845557084288,
                    0.9363872974714958,
                    0.7482631718483745,
                    -0.6343752381983021,
                    0.06708101804144376,
                    -0.7125754013287081,
                    0.49065129557465725,
                    0.816732317033223,
                    0.5030896800214205,
                    0.43888681008657393,
                    0.6184216048531167,
                    0.39209212440647845,
                    0.42967022008408484,
                    -0.5065597755000939,
                    -0.7160936964709572,
                    0.3029710074986292,
                    0.18109836416736208,
                    -0.5532667962613533,
                    -0.6301457440718564,
                    -0.28064246104881674,
                    0.9501833427108415,
                    0.1567717787991333,
                    -0.629698808773792,
                    0.7662841912216191,
                    -0.6775289906983393,
                    -0.3826987154025314,
                    -0.2122345491743262,
                    -0.5840940074932288,
                    -0.8543688220169616,
                    -0.34774562015710003,
                    -0.347124372027127,
                    -0.5258820461403618,
                    -0.885827957296231,
                    -0.285856255869557,
                    -0.831264129897182,
                    -0.9428244910347062,
                    0.3199560370154181,
                    0.3555909981156784,
                    0.24704919102491918,
                    0.9917538309109551,
                    1.1031290001644622,
                    0.4575821258407319,
                    -0.6922422853379523,
                    -0.6283837319982443,
                    -0.7697728424336755,
                    -0.7724040069252731,
                    0.9256268465116356,
                    -0.6036122663099663,
                    -0.30989882069999786,
                    -0.7659283143629897,
                    -0.3163897620786238,
                    0.9796840490659023,
                    -0.08953493276425642,
                    0.17667007385269534,
                    -0.7465202505165254,
                    -0.33720294702412246,
                    -0.23424662751548395,
                    -0.7301937194829554,
                    0.5868013016089172,
                    0.549731759345508,
                    0.6133800708811109,
                    -0.6651522948524985,
                    -0.07244945973743093,
                    -0.057817865205466015,
                    0.8807984872949947,
                    0.36216396112474997,
                    0.9309413690682722,
                    0.018834444931700823,
                    0.8291630796210282,
                    0.47754645868926004,
                    -0.1576343124441551,
                    0.5534871764807646,
                    0.8015984006155605,
                    -0.2303795649231112,
                    0.1645207425538006,
                    0.18749835987421393,
                    0.08091867993660237,
                    0.8700865757526527,
                    -0.3084096713870315,
                    -0.9868509371393679,
                    -0.6456470722869013,
                    0.8744552156456126,
                    0.8305232686258014,
                    -0.875350600562954,
                    -0.359731577248906,
                    -0.7813350426782453,
                    0.23428463534311048,
                    0.3756109003146683,
                    -0.5207367449751542,
                    -0.061190189213912845,
                    0.885478726635088,
                    0.25697169524571833,
                    0.589417600927828,
                    -0.1159069173925074,
                    -0.11928151901825451,
                    -0.29825625055722416,
                    0.4738680100031017,
                    -0.6758046751875924,
                    0.4648858855230288,
                    0.20435175132996433,
                    -0.6350207360955665,
                    -0.8194533934396274,
                    0.5276479214258474,
                    0.33482429936694996,
                    -0.14273275791283083,
                    -0.6788003919834477,
                    0.6340652257951994,
                    -0.2639246701461354,
                    -0.6147355454159059,
                    0.719921286276399,
                    0.4653732126366626,
                    0.5702831394963818,
                    0.5043003115654421,
                    0.30258237299771884,
                    0.14566738093194537,
                    -0.6223055948187187,
                    -0.05319177985072679,
                    -0.29709956428479,
                    -0.10529517636226068,
                    0.22386940046516574,
                    -0.1452313042824005,
                    -0.49305665048385006,
                    -0.8554446994439017,
                    -0.7318746303151192,
                    -0.3590652516885343,
                    0.3833631227489326,
                    -0.12621957791109847,
                    0.48622476293973016,
                    -0.6425439191910645,
                    0.3304928723762693,
                    0.024140044212527207,
                    0.5507443474756084,
                    0.8373059676128202,
                    0.4823626533446063,
                    -0.8272660979386091,
                    0.876516271325566,
                    -0.3296066865241186,
                    0.22164410731940357,
                    0.8404902117243689,
                    -0.7452889591312795,
                    0.5539320149107376,
                    0.3748420115718765,
                    -0.4158663739676342,
                    0.6007898955338193,
                    -0.21826316964762627,
                    -0.4347848417318924,
                    0.37759942999404417,
                    0.005549493554152041,
                    -0.3193038477184548,
                    0.06262646576143176,
                    -0.00829639615329683,
                    -0.11508508155027342,
                    0.20812024432690013,
                    1.0429151956897198,
                    0.9990998632175087,
                    -0.1434967960541129,
                    -0.004989515711086287,
                    -0.7176978705367432,
                    -0.7165724303792994,
                    -0.9755019442624274,
                    0.6656743421096772,
                    0.2173640021700451,
                    0.6257554470073232,
                    0.2210167115208213,
                    0.008057042782621496,
                    0.5463599295512573,
                    -0.6416721981864046,
                    0.33759083578988447,
                    0.5133388561124989,
                    -0.5916166579227434,
                    -0.9695325388021502,
                    -0.4269299299409984,
                    0.13537556752525257,
                    -0.8345109208592124,
                    -0.044574789694925565,
                    0.1145835476875564,
                    -0.09657856248962368,
                    0.505635626806063,
                    0.11710181259413514,
                    -0.22755659014863477,
                    0.6138202065980884,
                    -0.2604470231685511,
                    0.6279453105751065,
                    -0.6986939390454828,
                    -0.8083733074600751,
                    0.4527230775770755,
                    0.5749858361930535,
                    0.5144616663251589,
                    -0.015476527625204036,
                    -0.25858417399217043,
                    -0.7463064659728051,
                    0.44617913919790564,
                    -0.8487179001884516,
                    -0.9128635422395088,
                    0.1570192383639346,
                    0.5640533608913768,
                    0.7030604927145699,
                    0.6414253747488714,
                    0.5855059233151511,
                    0.7598838994563285,
                    0.18258722331118588,
                    -0.6225057382025221,
                    -0.3954927739100888,
                    0.3144860837590068,
                    0.5377962372172754,
                    -0.6236145648591519,
                    0.09763023648551988,
                    -0.4742142808035959,
                    0.7954926682104005,
                    -0.645528256315168,
                    0.07498748231015792,
                    -0.2169449309880721,
                    0.7825941463923929,
                    0.3887718787174254,
                    0.8037665406586764,
                    -0.8717064331415603,
                    0.7414581481868365,
                    -0.5254173023695741,
                    0.20100597013069235,
                    0.9361193576744745,
                    0.029752511079985916,
                    -0.7908214163502119,
                    0.30831136256667274,
                    0.6838367790145199,
                    0.754226428620114,
                    0.4549576086686284,
                    0.13350379066956408,
                    -0.42821106391339087,
                    -0.7111343177410407,
                    -0.634249600693043,
                    0.704887614797736,
                    0.3286000465825889,
                    0.8820462745254642,
                    -0.5882950608212065,
                    0.1963337558822368,
                    0.6442828462300537,
                    -0.049856085199279095,
                    0.017703799402237826,
                    0.7102249301544183,
                    0.8057230359306594,
                    -0.9434174288341489,
                    -0.9007225111598928,
                    -0.9607746285609866,
                    -0.5213936249474954,
                    -0.8215855968843612,
                    -0.4230503209394018,
                    -0.31526605429842147,
                    0.054295439070631446,
                    0.8418259430900829,
                    -0.7410144424055763,
                    -0.614932190342831,
                    -0.7589234411163808,
                    0.48636003365405167,
                    -0.6177982555015403,
                    -0.07629282246754458,
                    0.2799044038523646,
                    -0.4918482464452864,
                    0.04272931211646586,
                    -0.17524926092681273,
                    -0.44059043311696755,
                    0.17558473121331666,
                    0.12377038680340796,
                    -0.5458025317826388,
                    0.009340200176000247,
                    -0.41412725464738503,
                    -0.6220181921216369,
                    0.17883671854695848,
                    -0.5018789846546516,
                    -0.16731541126107488,
                    -0.2287748292475539,
                    0.04108818244334017,
                    0.13542129253708504,
                    0.6500751995076934,
                    -0.45754505365978576,
                    -0.756168152473552,
                    -0.7614790353538047,
                    -0.4711965137169095,
                    -0.03782865265812445,
                    -0.43828922171299306,
                    -0.38186204030269416,
                    0.4787879921395996,
                    0.15964250080228762,
                    -0.19555076531916243,
                    0.263320799217513,
                    0.6051697566553399,
                    -0.20931507418110581,
                    0.20760619036249467,
                    -0.37917925908367495,
                    0.3470748026088601,
                    -0.4483446172870387,
                    0.965542228336665,
                    0.9301905912073379,
                    -0.8686915377440206,
                    0.00536946654037047,
                    0.8472309931106449,
                    -0.3746117311785269,
                    0.36534404078882465,
                    -0.28950125662099374,
                    0.3403926020735657,
                    -0.7663937629250969,
                    0.3991127326140282,
                    0.49196419381026985,
                    0.5836753483364072,
                    -0.49751713269052095,
                    -0.8385472234579414,
                    0.28629746628664193,
                    -0.001996218240893931,
                    0.7526202805872195,
                    0.1419890672158663,
                    -0.5798615762549553,
                    -0.7603418080911286,
                    0.9071545476645826,
                    -0.14381141193297237,
                    -0.9350086854221429,
                    -0.5479368839413602,
                    0.7334757892871779,
                    0.4679463500792436,
                    0.6907603301423815,
                    -0.8064578878200072,
                    0.7621487134765725,
                    -0.0140877917948807,
                    0.39602923731177103,
                    -0.24103974959254573,
                    0.6042895951052865,
                    -0.20180510957976852,
                    -0.758058693176121,
                    -0.4584912062883638,
                    -0.5165485995921317,
                    0.31995939353722325,
                    0.5649361392573313,
                    -0.24874650182365007,
                    -0.7501733481400397,
                    0.19802289784213453,
                    0.7972798423137252,
                    -0.32262329448947696,
                    -0.8204951169852451,
                    -0.5082259453936228,
                    0.5008041690655806,
                    0.14116686641646542,
                    -0.39763498434214994,
                    -0.16426366888653088,
                    -0.13993548019527544,
                    0.3553928961031719,
                    0.33841474077052264,
                    0.7492688912591301,
                    -0.0683992957206305,
                    -0.02575256120704749,
                    0.7726322785546534,
                    0.7434308405714363,
                    0.2828649972255751,
                    0.13673908138470714,
                    0.5417813258570723,
                    -0.135175688418754,
                    -0.6565035471608603,
                    0.701474440438007,
                    0.527233273613844,
                    -0.7523912380319879,
                    0.41175606211010285,
                    0.0772543905827085,
                    0.8233935766287402,
                    -0.7524878058046021,
                    -1.0294070173519687,
                    -0.39145626576887615,
                    0.15872795895325104,
                    0.3880390791725141,
                    -0.7255099655282884,
                    -0.6099771978998105,
                    0.9000411277653028,
                    -0.8351922171973523,
                    0.11704349410829583,
                    -0.9047954600199378,
                    -0.3886588125113292,
                    -0.5531822113395235,
                    0.35501282341049334,
                    -0.9630834811461946,
                    0.8395806456585344,
                    -0.509300713699356,
                    0.8318264108931819,
                    -0.20787741537180415,
                    0.439933723926482,
                    -0.4103741558750665,
                    0.3158987983814034,
                    0.027955713386257915,
                    0.6355105693983749,
                    -0.6835203223184577,
                    -0.23856138190337334,
                    0.2662372646467556,
                    -0.04080412498552376,
                    0.10522760841421946,
                    -0.7738817681629437,
                    0.17606022005538102,
                    0.948807283927943,
                    0.635095847243292,
                    0.8077579784675668,
                    -0.381671735187196,
                    -0.1099540413503937,
                    0.05954648535736136,
                    0.29317700855059586,
                    -0.2626749478742818,
                    -0.4053117372621261,
                    -0.1151164090876945,
                    -0.8263022598605,
                    0.10360414295402717,
                    0.5773705693534628,
                    -0.5640903069018312,
                    -0.5565610312037829,
                    -0.9615997484877695,
                    0.2826782394433761,
                    -0.8661634872312706,
                    0.846503017502437,
                    0.9202448657625305,
                    0.5987489335674749,
                    -0.32961599027694266,
                    0.6481785944574306,
                    -0.9723491414694269,
                    0.3262151232969326,
                    0.0582126020815847,
                    0.03072722060335169,
                    0.29873839270655306,
                    0.6552195897790694,
                    -0.6925781008006299,
                    0.8096074615987197,
                    0.6761688603945809,
                    0.23706584195768607,
                    0.3108570830300039,
                    0.6011609534352439,
                    0.9114179539351658,
                    0.2529804728830553,
                    -0.22661532622088,
                    -0.1577115704053698,
                    0.7850225009506306,
                    0.7390293025956384,
                    0.17336876072353566,
                    -0.5208915410111254,
                    -1.0521340934692291,
                    0.6492512918039488,
                    -0.2708101855665863,
                    -0.6588951277738131,
                    0.7826991170880254,
                    -0.6691680194086875,
                    -0.8862568196492607,
                    0.7615312374640824,
                    -0.26010061653602495,
                    0.6631219039926372,
                    -0.11857902950958409,
                    0.32160518269828947,
                    0.011465077287258617,
                    0.6210061803112034,
                    -0.2577645945464229,
                    -0.10129679123093076,
                    -0.27471551741055533,
                    -0.5367901889337928,
                    0.8996958054721204,
                    -0.3481002003948957,
                    -0.004724474065364689,
                    0.7949167929567368,
                    0.41010486069028057,
                    -0.7785021807524569,
                    0.4463035593456502,
                    -0.44305966179466805,
                    -0.8324595776813566,
                    0.7871139664678483,
                    -0.5106355066720621,
                    0.18376934923928406,
                    0.5482894606723508,
                    -0.45446761248876527,
                    0.43956299310600355,
                    0.6720609728129108,
                    -0.321625797699274,
                    -0.1433666430362933,
                    0.3264375935041964,
                    0.5753259565886115,
                    0.8353552951776051,
                    0.3395024546137911,
                    0.11997420468972764,
                    -0.49056833310708287,
                    0.049618453304536715,
                    0.41017468814776936,
                    0.4056878309634621,
                    0.5485758695626823,
                    -0.8857482722226553,
                    0.3157808328082036,
                    -0.27003196465213897,
                    -0.22529615227954247,
                    -0.5241110335440423,
                    0.7895874225205274,
                    0.3224559443458266,
                    -0.2774738182981528,
                    0.2612285955489453,
                    0.18801615799527288,
                    -0.5507981775270423,
                    0.32779941211676716,
                    0.42218862459859263,
                    -0.01936338086670143,
                    0.22286694230738094,
                    0.41340899400395237,
                    0.6627989133554709,
                    0.6233069923569428,
                    0.39270073252259396,
                    -1.0061378339688147,
                    -0.7213173440007425,
                    -0.9400756475206217,
                    -0.7283955059631008,
                    -0.18713066133921805,
                    -0.6568110879727743,
                    1.0309094316810847,
                    -0.7906545763288314,
                    -0.5889420420876689,
                    0.6931072113379402,
                    -0.6865957885212992,
                    0.6353790098097366,
                    0.17489555380383423,
                    -0.16428195550507552,
                    -0.7845702849085284,
                    0.8220675105436043,
                    -0.027306993335940073,
                    0.5793205618873499,
                    -0.6422427312792968,
                    0.8896759979685416,
                    0.4239202659846591,
                    -0.8432044510317405,
                    -0.903644946661129,
                    0.061030871293857133,
                    -0.8618240531169566,
                    0.4790406802762053,
                    -0.2565347919101946,
                    -0.5970705652896535,
                    -0.7615450876578878,
                    -0.8553781100111717,
                    0.07088217401969125,
                    0.25825215542255675,
                    -0.02272194415951469,
                    -0.3243027232729317,
                    -0.8177403698107382,
                    -0.8251298367843516,
                    -0.1473705341134488,
                    0.8819124082890988,
                    -0.4965951529504029,
                    -0.42140693735695267,
                    -0.47615705334597164,
                    -0.47216240602004433,
                    0.10498794556194173,
                    -0.46876249947787807,
                    -0.4395640015802525,
                    -0.4140489984000825,
                    0.7124529561324555,
                    0.025204829559622565,
                    -0.9275781372024442,
                    0.9739837309348421,
                    0.2110119017617757,
                    -0.8670315081560616,
                    0.7907829259680279,
                    -0.36019301714896834,
                    -0.823846391817517,
                    0.3311050912847179,
                    0.2000000349876393,
                    0.1269129080370623,
                    0.48845729441302943,
                    -0.01343808523810402,
                    -0.6111294928498704,
                    0.8381333003986883,
                    0.563367183679914,
                    -0.13448875996305795,
                    0.8288173593572006,
                    -0.09541431571456054,
                    1.0044632024767057,
                    0.45404472687098535,
                    -0.19129334822224903,
                    -0.5757841395353085,
                    -0.4481237171238852,
                    0.27702945408408375,
                    -0.8163131077358513,
                    0.591843756937666,
                    0.415339236019955,
                    0.6591161138847675,
                    0.23964475443226324,
                    -0.4825968481006303,
                    -0.7393869776325253,
                    0.5097286446009589,
                    0.4138094526991107,
                    0.2661516433101522,
                    -0.8241186241032585,
                    0.7905545061197279,
                    0.508273818208005,
                    -0.24881907618485252,
                    0.106577681702053,
                    -0.021404963489720295,
                    0.3411209522571409,
                    0.0958776712205703,
                    0.5257508478613926,
                    0.841917580162128,
                    -0.369644804599128,
                    0.25216111306832834,
                    -0.5158033536276344,
                    -0.688341639061896,
                    0.9585402974681191,
                    0.7663172591483475,
                    0.6989984204129456,
                    -0.5649423364164178,
                    0.16437382757484847,
                    -0.15973601229443365,
                    -0.4116834712008955,
                    0.610954581094318,
                    -0.23347619495132782,
                    -0.5729564632013482,
                    -0.09267163983688496,
                    0.372616822223835,
                    -0.35161337268680126,
                    -0.41728140152900384,
                    -0.7909587084894896,
                    0.28393877267291395,
                    -0.7955314554541655,
                    -0.5879389817756925,
                    1.02981756160552,
                    0.8466077087777304,
                    0.2488177766348094,
                    -0.855311435722487,
                    0.17151076281464733,
                    0.006043030205773901,
                    -0.38162570983555083,
                    -0.026031666287044956,
                    0.8686080868371195,
                    -0.9049015007599526,
                    -0.046438744137705226,
                    -0.11999030219252914,
                    0.08594682378280818,
                    -0.6120280779943644,
                    -0.10193377498936881,
                    -0.10378460215373214,
                    0.6890068548835943,
                    -0.43916276850082053,
                    -0.4238723160034151,
                    0.8413323098962106,
                    -0.27955963762113384,
                    0.338140243955661,
                    0.482355897949406,
                    0.2015904178794646,
                    0.4115730734681901,
                    -0.14663342529974113,
                    -0.02506871329100157,
                    0.23136928818782174,
                    0.907409022087957,
                    0.2776770002343009,
                    -0.0733449575939753,
                    0.1276652670865932,
                    0.8269362236869717,
                    -0.5608848139872483,
                    -0.5567866150554205,
                    0.8719363207719698,
                    -0.14155736304080957,
                    -0.07529895673459096,
                    -0.2555214614136507,
                    -1.058124272486644,
                    -0.6358499757652515,
                    -0.45455952513119263,
                    -0.462832644640124,
                    0.39740947318831105,
                    -0.36790667197925264,
                    0.293058964314176,
                    0.3620565832217681,
                    -0.14694670061660436,
                    -0.0770644732506911,
                    -0.6514370789825719,
                    0.06985289854948268,
                    0.8485807432022051,
                    -0.6748459794885511,
                    0.768859777981495,
                    -0.4245574293158422,
                    0.9100928261506918,
                    0.5244260653138365,
                    -0.3161832370129088,
                    0.9342469092576223,
                    -0.5399482552001235,
                    -0.9341711124172967,
                    0.20708648882716052,
                    0.17614252565715527,
                    0.12800713954315482,
                    -0.9297743360090536,
                    -0.7143418781222334,
                    0.3786911370731639,
                    0.5826853292584102,
                    -0.7064487372559104,
                    0.3050156852330286,
                    -0.2873156127187171,
                    0.030562137998013054,
                    0.270971287743569,
                    -0.6533549672825022,
                    -0.006454029184768204,
                    -0.7552476454989266,
                    0.47899960737086744,
                    -0.6327825005921303,
                    0.5445968651703322,
                    -0.5640147572753647,
                    0.2090534527999423,
                    0.9156515159984984,
                    -0.5229144726207956,
                    0.2973546999531442,
                    -0.6374841049509914,
                    -0.6968436370575256,
                    -0.11505056838295902,
                    0.033717796582255766,
