{
    "networkId": "network-1476",
    "layers": {
        "layer-1": {
            "activeCard": false,
            "errors": [],
            "layerConfig": {
                "activation": "sigmoid",
                "inputSize": "3000",
                "outputSize": "1",
                "type": "recurrent"
            },
            "layerName": "Recurrent Layer",
            "status": "inactive",
            "valid": true
        }
    },
    "inputSize": "3000",
    "outputSize": 1,
    "activeCard": false,
    "status": "inactive",
    "valid": true,
    "network": {
        "0": {
            "input_size": 3000,
            "output_size": 1,
            "weights": [
                [
                    -0.03997509400719657,
                    -0.12218978175481934,
                    -0.6731081974516879,
                    -0.035700970151422616,
                    -0.20692557102306466,
                    0.44405847690594835,
                    0.1739783187374021,
                    0.7860992385317195,
                    -0.632049388108492,
                    0.7866121054196851,
                    -0.09877053260439157,
                    0.6376684169609491,
                    -0.949667097519433,
                    -1.4360092019615631,
                    -0.8102378500346623,
                    -0.6306297838065366,
                    -0.9330264646323844,
                    -0.9494887176251585,
                    0.1085413614861293,
                    0.16112687249528787,
                    0.6176686148136201,
                    -0.6205599289976848,
                    -0.008550124945004702,
                    0.5343964174974066,
                    -0.1354867565086356,
                    -0.09129102711944434,
                    -0.5961872719612915,
                    -0.24378822193278726,
                    0.24210210691342957,
                    -0.5215924369842575,
                    -0.9129153020584726,
                    -0.4352446402052888,
                    0.22719123203327324,
                    -0.5141398600204516,
                    0.11850645774548227,
                    0.28274618705154936,
                    -0.21772312114917752,
                    0.17657838155508185,
                    -0.8979277502466957,
                    -0.30892141889935437,
                    -0.677298594442598,
                    0.36656810858386435,
                    0.7000058791373713,
                    -0.3266468352404628,
                    0.8994093122708265,
                    -0.5158903142005773,
                    -0.4175411474847859,
                    0.06815841906096946,
                    -1.1259472445686909,
                    -0.6620582871594236,
                    -1.0971911791751237,
                    -0.05131428023677401,
                    -0.7345961926049871,
                    0.24192260240198438,
                    -0.0235908861775134,
                    -0.9570785748873134,
                    -0.263699136605866,
                    -0.8267574326732698,
                    -0.1784791820780339,
                    0.06060327592469519,
                    0.29639609238911746,
                    0.27748367408872,
                    0.7914534510079191,
                    0.1454054318342589,
                    0.2758312101731736,
                    -0.40259754075456633,
                    0.09255407150929068,
                    0.7198463129764805,
                    -0.3448428103145158,
                    -0.4053570147996859,
                    -0.7931735593107945,
                    -0.4344310327358005,
                    0.5683479858748641,
                    0.0764238731334392,
                    -0.03546655380807093,
                    -0.25567884252638606,
                    -0.5254831496231099,
                    0.11319937144735516,
                    -0.7419283801035946,
                    -0.8807990323179221,
                    0.21761111124177582,
                    -0.11842670756697429,
                    0.3690842962091686,
                    -0.3272444546041777,
                    0.1851458668121369,
                    0.07923211117246037,
                    0.029433992820267638,
                    0.7300660592012356,
                    -0.2659359570917114,
                    0.6993047028199404,
                    -0.4869539192664465,
                    -0.09859205524282684,
                    1.248657663698164,
                    -0.3605505772698487,
                    -0.517177365105642,
                    -0.33801483471190125,
                    -0.4745972186291807,
                    -0.08132517467271567,
                    -0.8545383583954144,
                    0.2531959349327119,
                    -0.22839514190576812,
                    -0.7021072596873172,
                    -0.6177032754162153,
                    -0.18332188577865588,
                    -0.19104061670648034,
                    0.040185312144317455,
                    0.19511035249337638,
                    -0.824418856409053,
                    0.7035773028579184,
                    0.10208055404463504,
                    -0.6649182039653102,
                    -0.536560122004321,
                    -0.28642135341122715,
                    -0.34796837266655795,
                    -1.0227876667216285,
                    0.13976399901857253,
                    0.5667152210444781,
                    -0.11035180655904632,
                    -0.8790471151448678,
                    0.13397895616665348,
                    -0.5631175678052174,
                    -0.5623299223845861,
                    -0.5572019006883405,
                    0.23009561049360464,
                    -0.720740889235283,
                    0.7922398615762591,
                    0.6258492816181572,
                    0.6890826347466913,
                    -0.421858921676184,
                    0.4704030516386134,
                    -1.0722483060150891,
                    -0.0030031270679445094,
                    0.7482649819626824,
                    0.24843557302157981,
                    0.7066249292364181,
                    0.44759510846856293,
                    0.21595680300604653,
                    0.9257723594629895,
                    0.29120341207425404,
                    0.45968895177087765,
                    0.5797332892664766,
                    -0.48222708388626234,
                    -0.6576490323246215,
                    -0.7188029286976081,
                    -0.1033356257622859,
                    -0.16096294599049005,
                    0.24254935044585627,
                    -0.55268652165111,
                    0.40025335679523494,
                    0.30431409720012076,
                    -0.8201526472893751,
                    -0.7291163406505279,
                    0.08452638433947042,
                    0.6590455285515257,
                    -0.5826026306427171,
                    -0.7047598072171503,
                    -0.04423465904697467,
                    -0.21241619266170023,
                    -0.39560840450977086,
                    -0.9684781082385797,
                    -1.3459743730579716,
                    0.9382592194681899,
                    0.1993610340283691,
                    -0.5773817814395362,
                    -1.0233681992571408,
                    -0.147007985541611,
                    -0.028604948830486174,
                    -0.836788215435898,
                    -0.23203862761450275,
                    0.3232733686695345,
                    0.19252790438308143,
                    1.0132228607916205,
                    0.34783876823629706,
                    -0.28289022382209095,
                    -0.05608843843287908,
                    0.4675155095648583,
                    0.3106226650198923,
                    0.5047715781995891,
                    -0.1404402267349306,
                    0.8079773901340987,
                    0.4303964195463876,
                    0.18168785563480128,
                    -0.11947122274315376,
                    -0.005513658744609686,
                    0.6743012229596926,
                    -0.4494368466120519,
                    -0.4587633997908496,
                    0.21254961613640358,
                    0.5470657400337872,
                    -0.7335529177810525,
                    -0.01233226742824087,
                    -0.16379588559465613,
                    0.9161523463285305,
                    0.1750767568893402,
                    0.5670052844455917,
                    -0.7759640013296004,
                    0.8733871910224719,
                    0.6190267227714158,
                    0.7730024758058024,
                    -1.0157409089952192,
                    0.5130403074981557,
                    0.0030417073043703655,
                    0.752195621117034,
                    0.7431845956257142,
                    0.1979973759818469,
                    0.08000445915069687,
                    0.49640242582591826,
                    0.6366768739264044,
                    0.2464627151856819,
                    0.3382586794080025,
                    0.6822165698421968,
                    -0.8854057925446749,
                    -0.7622020288922712,
                    0.37722137068381145,
                    -0.9815620847176059,
                    0.44685233295394705,
                    -0.02491590744860257,
                    -0.4549691016210685,
                    -0.3985016793268532,
                    -0.2366323302825963,
                    -0.5383195022113961,
                    0.5280947775450117,
                    -0.6664781250027623,
                    0.602778928154721,
                    0.5860501359240218,
                    -0.8695267666918056,
                    -0.4016995308286038,
                    -0.5325698620785773,
                    -1.0718964859167321,
                    -0.5386530984565779,
                    0.5940225803299747,
                    0.5884130181862015,
                    -0.7427394077167572,
                    -0.666901304377764,
                    -0.30325450965388034,
                    -0.3611228899649022,
                    0.28015094222756537,
                    0.8549112605421237,
                    0.255134731299295,
                    0.10361189231931275,
                    0.4977539922384289,
                    -0.4618017563901087,
                    -0.5214751343101444,
                    -0.30968927690395864,
                    0.64342709242125,
                    0.3395059109129498,
                    -0.7019789945896432,
                    -0.5941418076550141,
                    -0.6608259837474395,
                    -0.3840361941168669,
                    -0.5743060738280403,
                    -0.9385018739991589,
                    -0.8813699625477805,
                    0.0039903972161322255,
                    -0.18421447995485912,
                    0.5277278435201412,
                    0.20442107440662585,
                    0.12224772683017754,
                    -0.12309626329131522,
                    0.733084120790009,
                    1.0538979976400573,
                    -0.8731685620321153,
                    -0.35138327838220185,
                    0.17478174526436177,
                    0.18528064863729615,
                    -0.04148960416472904,
                    0.4834307511008315,
                    0.6646111657770851,
                    0.5931544492405697,
                    0.7311489678012049,
                    -0.0938517026410517,
                    0.7802725981932507,
                    -0.8790909035759343,
                    0.9001320360299243,
                    -0.0960631705362045,
                    0.9265315374694569,
                    -0.11010260278323726,
                    0.5185287791810076,
                    0.5856536540788497,
                    -0.7400374080092017,
                    -0.16840436822353672,
                    -0.42658611584083334,
                    -0.038501593326833845,
                    0.8538894926137321,
                    -0.3038595284801104,
                    0.28013877382411917,
                    -1.0071561089816095,
                    0.8935245094841535,
                    -0.8123368206476783,
                    0.05770319024357145,
                    -0.09987967182259419,
                    0.729524645112138,
                    0.02470976767203941,
                    -0.746520645342033,
                    0.8137004153902603,
                    -0.4948602665883321,
                    -0.06983291363381701,
                    0.5449425513003285,
                    0.6638645907382748,
                    0.6786213691904537,
                    -0.29545846017397853,
                    0.3726202536937557,
                    0.708060051216225,
                    0.6636903146044405,
                    0.5244488867819989,
                    0.24955048477138903,
                    -0.20062785112893347,
                    0.4863917367001159,
                    -0.493896682963117,
                    0.7835273052528815,
                    -0.7131798369467809,
                    -0.719848410652563,
                    -1.1570129672385248,
                    -0.9161303489950734,
                    -1.0579386545030314,
                    -0.3259645315534498,
                    0.7272195243522971,
                    -0.5483142275265722,
                    -0.8134607925859382,
                    0.3612431876727158,
                    0.1725700623423728,
                    -0.4541542848188424,
                    0.5500141184275447,
                    -0.37829146091888294,
                    -0.6874263175335608,
                    -0.0073482719463850476,
                    -0.7141592825626377,
                    0.5038274452835922,
                    -0.46906876047467216,
                    -0.1347998701351356,
                    -1.0512309648542155,
                    -0.5740036865939452,
                    0.436402349795805,
                    -0.6520276876676131,
                    -1.1384755329006542,
                    0.8010832345574731,
                    -0.9024778415167383,
                    0.7627522708350346,
                    0.368330870701076,
                    0.8408622208275984,
                    -0.8537088763095543,
                    0.04245276593077623,
                    -0.8077946138857578,
                    -0.2975710396841024,
                    0.4672283407759065,
                    0.9369181031629858,
                    0.4444919171498021,
                    -0.001527991935397971,
                    -0.7217662246433011,
                    0.8704054958416273,
                    0.025461557720044634,
                    -0.7776100293987187,
                    -0.4076840433981733,
                    0.06352828108895227,
                    -0.28220332173026935,
                    0.19415653222490792,
                    -0.7004030392436245,
                    -0.5930314568527192,
                    0.24997291440497393,
                    -0.5115804977554638,
                    0.35413151211526905,
                    0.2489701159539885,
                    -0.41755452470061155,
                    0.06140963365274953,
                    0.3027543187823727,
                    -0.4771995355030893,
                    0.5674003393341002,
                    0.32714371920487884,
                    0.3348181372693613,
                    -0.8583395570039652,
                    0.06365119362403329,
                    -0.8599171168671806,
                    0.6834245314875942,
                    -0.5802815088446033,
                    0.14560760187788677,
                    -0.19149672619985236,
                    -0.7247342886355703,
                    0.2857196743910016,
                    0.2811258603307741,
                    0.48566458445470534,
                    -1.0719459643113571,
                    0.21959038890514562,
                    -0.5033852782809362,
                    -0.7847289328189899,
                    0.23110946126889925,
                    -0.9776637993774968,
                    -0.08969685784143379,
                    0.08101663169424234,
                    0.9482805965936971,
                    0.5696129158367553,
                    0.030736270611865183,
                    0.12453740207985989,
                    -0.2977046502684869,
                    0.054565752695894414,
                    0.42561658798105717,
                    0.15796345512792484,
                    0.08419871231531995,
                    -0.38568704707863255,
                    0.049251976113289284,
                    -0.4882288862252192,
                    0.6433952896986036,
                    -0.09554551829400779,
                    0.42084471109864724,
                    -0.9710446715645414,
                    -0.2156661380036136,
                    0.06706085185038911,
                    0.1352089366150696,
                    -0.74311731471574,
                    -1.1425683144554843,
                    0.0037892003318381485,
                    0.11862757666971478,
                    -0.8434397165260908,
                    0.9555083110934899,
                    0.8876385180951505,
                    -0.7491470728328111,
                    0.05746075402998859,
                    0.707435867657036,
                    0.6436431231045102,
                    -0.2571926147497455,
                    -0.13703553698038318,
                    -0.870958234577281,
                    -0.7092392736844915,
                    -0.7035065752532177,
                    0.05406822655073057,
                    0.9149651618287038,
                    -0.25763035925628136,
                    -0.9729652457042478,
                    -0.48641589137485175,
                    0.6311479926074816,
                    0.7226469668923587,
                    -0.01853163357847869,
                    -0.2544555876751413,
                    0.8639999879109145,
                    -0.8251528642132985,
                    -0.2636453339647195,
                    -0.7891168416478295,
                    -0.8853726045413123,
                    -0.0299409674685068,
                    0.5369960622995977,
                    0.8844590545478412,
                    -0.7725694235415899,
                    0.7511647046817493,
                    -0.561251196791757,
                    0.511337729097701,
                    -0.17365278656598676,
                    -0.48995827886500204,
                    -0.6814382355552205,
                    -0.771915573397923,
                    -0.18553935172373168,
                    0.6104885874586125,
                    0.872438868361029,
                    0.6201201386102246,
                    0.09016580919675826,
                    -0.4780808314118675,
                    -0.5205833797522478,
                    0.6284897027138978,
                    0.5807661207411866,
                    0.8932633243519722,
                    0.2980375076393754,
                    -0.9031254999894383,
                    -0.01705797423073207,
                    -0.9649515815907902,
                    -0.1553322946181625,
                    0.6559957823746158,
                    0.06271194209787784,
                    0.7108485523385095,
                    0.6293292695917446,
                    -0.7717011475153334,
                    -0.43171259845438104,
                    -0.1605087300600163,
                    -0.8967170895758091,
                    0.9021439514491388,
                    -0.646891427295908,
                    -0.1775027330723677,
                    -0.11468863164317843,
                    -0.09400341090121889,
                    -0.6721484992690498,
                    -0.4552319957718209,
                    -0.16812105056505794,
                    0.2924741470220616,
                    -0.7796425421094503,
                    0.6088423670477802,
                    0.8395027438145688,
                    -0.11175416507698537,
                    0.007117251112752606,
                    -0.6659375155738625,
                    -0.0034300533197038946,
                    -0.4510154873103038,
                    -0.15902843676698428,
                    -0.4070740097177234,
                    -0.8229996374151906,
                    0.6855187793883878,
                    -0.4624528275053706,
                    -0.661891917478301,
                    0.02029813322080898,
                    -0.49138651229518293,
                    -1.1241556877687253,
                    0.034054384345269785,
                    0.27879603092754274,
                    0.04901658765902331,
                    -0.6764353194660211,
                    0.12647604257345402,
                    -0.0192208275342895,
                    0.8601664897123136,
                    -0.4669925623065087,
                    -0.8707947820212454,
                    -0.4246274570110916,
                    0.6409029854376324,
                    -0.4482336023904494,
                    0.39991401686913763,
                    0.8725853907668347,
                    -0.17279193710840923,
                    0.7130628537798234,
                    0.7602731655817669,
                    -0.19761771436349668,
                    0.045443615560434344,
                    -0.932353504948471,
                    0.9493371244231269,
                    0.5686898084344842,
                    -0.5041464202169769,
                    0.7695848794907727,
                    1.0633687118239161,
                    -0.38875848371199406,
                    -0.2662571504758327,
                    0.7062745705094838,
                    0.20075191729531375,
                    -0.22925624788627144,
                    -0.34267960148343374,
                    -0.047233827765364354,
                    -0.42635662982329414,
                    -0.7842551598636626,
                    0.6610342060496175,
                    0.38302230830070666,
                    0.2856516402248805,
                    -0.02694577137774675,
                    -0.2613559541407242,
                    -0.9676875470781351,
                    -0.5478566952995716,
                    -0.33256455029652254,
                    0.3169450112505635,
                    0.6761615368921793,
                    -0.7560938082596943,
                    -0.6370162633585891,
                    0.7699577051260177,
                    0.45976155727120555,
                    -0.43229157077693015,
                    -0.5692953528567704,
                    -0.47325074776330345,
                    0.28950432136280735,
                    0.37711616595336955,
                    0.5364038901848611,
                    -0.09442108919501621,
                    -0.7695943117664527,
                    0.588031142317781,
                    0.18936298886264685,
                    0.3814266966162466,
                    -0.7510925788580659,
                    -0.6103616109450611,
                    0.305740974213496,
                    0.065065955824976,
                    -0.5416883058240646,
                    -0.045979123212598616,
                    0.481222787993451,
                    0.7756194774554707,
                    -0.1969401198690375,
                    -0.3143367149706757,
                    0.38018035921006565,
                    0.5210673029256891,
                    0.09973272706760943,
                    -0.038617647535748006,
                    -0.10129753087120424,
                    -0.32563111173053355,
                    0.01446229291172077,
                    0.07435499925236734,
                    0.26712478069196083,
                    0.761462772526964,
                    0.8816609227995585,
                    -0.1969045933529614,
                    0.3699228436629822,
                    0.012248917898260115,
                    -0.4598826128868936,
                    -0.15547042466722083,
                    0.8040261130227436,
                    0.9609347608512175,
                    -0.44304280546104924,
                    0.3648429535775106,
                    -0.6079861747367127,
                    0.32603419082579993,
                    -0.1774933580532948,
                    -0.897884989226164,
                    -0.912952916055395,
                    -0.44974246148868424,
                    0.2706913090599503,
                    0.8166747003564496,
                    0.6462853857144174,
                    0.5414439810586456,
                    0.5784443313971931,
                    -0.35326909949302693,
                    -0.12147883740051646,
                    -0.6675572843647912,
                    -0.8527399082483185,
                    0.10641227954991019,
                    0.7181035702485178,
                    -0.3540800030285358,
                    0.06438752284742148,
                    0.02528719154969438,
                    -0.47162234337731146,
                    0.19795542624321807,
                    0.7319901604745586,
                    -0.6553073219582,
                    0.32735929660926805,
                    0.06615210618673173,
                    -0.5484555161069382,
                    -0.24573773402496016,
                    0.3966453678592114,
                    -0.15128720901474074,
                    -0.1810760200446249,
                    -0.899531396243136,
                    -0.4346667772593743,
                    0.8849561629016222,
                    0.5635303739609533,
                    0.123098645027263,
                    -0.019170750214713206,
                    0.16542616675995794,
                    0.026588811935211214,
                    -0.6905112146275548,
                    0.6503806174284131,
                    0.6989668056150362,
                    -0.9492463609949059,
                    0.10188681094574677,
                    -1.0158989994479262,
                    -0.6856699419013644,
                    -0.6091244579042729,
                    0.22881045454572185,
                    -0.9975327926547397,
                    0.6725998950602595,
                    -0.7645079970992928,
                    -0.1676043670891117,
                    -0.8111943929471341,
                    0.7371013447323586,
                    -0.17898889546442856,
                    -0.2491425945902026,
                    0.1975789250241339,
                    0.41714803583419946,
                    0.8112690308307179,
                    -0.9128080086463721,
                    -0.7028702430369078,
                    -0.34724424401289977,
                    -0.582144870039556,
                    1.075974996729469,
                    -0.22335903592808967,
                    -0.2500988841777509,
                    0.23784796575487438,
                    0.5834041838779629,
                    -0.458275237569164,
                    0.8986639577468811,
                    -0.03981570111947754,
                    0.5805108129250003,
                    0.1389064479867615,
                    -0.4340377041955078,
                    0.7864285053258383,
                    -0.7040814466011815,
                    -0.6262147262927911,
                    0.7297469123999948,
                    0.40398898899027114,
                    0.9289069505365294,
                    -1.0196057162339158,
                    0.5597886212567472,
                    0.7050520910265917,
                    -0.11835324325792144,
                    0.4419304749158426,
                    1.0034418248570915,
                    0.5889201575399308,
                    0.311956285381872,
                    -1.0301049172377896,
                    0.650716702770542,
                    0.8533894655737616,
                    -0.26743193300678736,
                    -0.3094644115005603,
                    -0.016954445929105555,
                    0.8744400222584522,
                    0.7329042316505857,
                    0.7581413610793826,
                    1.0366885626191562,
                    -0.0007194090495573858,
                    0.863321438513871,
                    -0.462382821027578,
                    -0.36116139945218184,
                    -0.4039566166753138,
                    0.006187895949851842,
                    0.15335372233572064,
                    0.5639323983407083,
                    0.4838722723461556,
                    0.43908856253665496,
                    0.8289176682500482,
                    -0.8199174797999006,
                    -0.3793305352809062,
                    0.3128597824521912,
                    -0.26159479041053935,
                    0.7249496345377505,
                    -0.08032218391613584,
                    0.14798816046373162,
                    0.04223632444485398,
                    -0.07584299192026624,
                    -0.3410015805817136,
                    0.06492501624733013,
                    -0.8052770097120809,
                    -0.679311464337322,
                    -0.30247189582094164,
                    0.204491334436526,
                    0.5317588918354209,
                    -0.2661909568269576,
                    0.23007050776330232,
                    0.3212764170866892,
                    0.1723362914336491,
                    0.5717605023164974,
                    -0.739401343120244,
                    0.021218937403467832,
                    -0.40993107187166855,
                    -0.7062585767473825,
                    0.8267216671357421,
                    -0.13193324858416527,
                    -0.6608727586528189,
                    0.19321067456160781,
                    -0.40564165344846176,
                    0.22431675131250942,
                    -0.3924481527056202,
                    0.42973641877767754,
                    -0.3306112285296784,
                    0.3956364625467131,
                    -0.9139966273946025,
                    -0.04515588383200355,
                    -0.4345192558944122,
                    -0.25550154858964214,
                    0.6086124739326223,
                    0.08520937967922484,
                    -0.5249569300561316,
                    -0.898920637857148,
                    0.13372751736550592,
                    -0.920477137352926,
                    -0.3679080128755328,
                    -0.5646532162837269,
                    0.8602116531502062,
                    -0.20659229291502226,
                    -0.913132339756099,
                    -0.5985204102928556,
                    -0.2431115469317933,
                    0.3364265635197614,
                    0.6901955802425352,
                    0.06824299972484554,
                    -0.03634032629291343,
                    0.35214241895943665,
                    -0.7654097087835646,
                    0.6442311762787573,
                    -0.07495773293004201,
                    0.06325596442283583,
                    0.6423282868636728,
                    0.4268880418418897,
                    0.6077200861145483,
                    -0.2735441265585713,
                    0.6289301854757102,
                    -0.553836205774434,
                    0.554301228621932,
                    -0.06100946670330376,
                    -0.33156234605347995,
                    0.24432650091145797,
                    -0.13490419316454416,
                    0.21110981644231516,
                    0.23562319337966342,
                    -0.78013612889495,
                    -0.4433218679737771,
                    -0.8972938769137438,
                    0.8826205157794152,
                    -0.04865406004907434,
                    -0.2784939969292385,
                    0.3547641933382135,
                    -0.7185170504568431,
                    0.014421193886391126,
                    -0.3069426949119627,
                    0.7070511328251367,
                    0.1766403269503414,
                    -0.14374165928888183,
                    0.9182221200949787,
                    -0.5956595711965289,
                    -0.42282890537852963,
                    -0.8573374255917323,
                    -0.4591547779509449,
                    0.9712531386659771,
                    0.0014601824890887703,
                    -1.0390532968877053,
                    0.01083746437092362,
                    0.6188908839036819,
                    0.14928382924379918,
                    -1.0640369376347698,
                    -0.506141870805171,
                    0.015725294765503696,
                    -0.23824467100839966,
                    0.6455886882462177,
                    0.33231333822854386,
                    -0.16962682252764313,
                    0.6559393987448748,
                    -0.44774583804196366,
                    -0.30253774155502483,
                    0.7166844754927469,
                    0.0652994411546077,
                    -0.43376692145917206,
                    -0.6906289877376219,
                    0.2948118072675175,
                    -0.22685105785828028,
                    -0.18790388481565073,
                    0.39982073243469113,
                    -0.47132772997293254,
                    0.6195040845769966,
                    -0.09331178803917585,
                    -0.5680416526492993,
                    0.14206638781878897,
                    -0.821355189830189,
                    -0.8275269278112641,
                    0.3079670655259238,
                    0.9075189537702856,
                    -0.9938003094481478,
                    0.14628364236971403,
                    -0.7343846296130327,
                    0.8203756883076925,
                    0.681278970566367,
                    -0.503748337797514,
                    -0.1502448271800799,
                    0.44152467315344285,
                    -0.6127456875821792,
                    0.32183386343014464,
                    1.0331710540733423,
                    0.12423402223651725,
                    0.6836249603340632,
                    0.059175108017093685,
                    0.6527202077558645,
                    1.0540503554028264,
                    0.2612892619654804,
                    -0.28291640220337105,
                    0.6836155183194447,
                    -0.5289226872848785,
                    -0.3842329813091245,
                    0.7664556184487941,
                    -0.5987583759980947,
                    0.888332997777393,
                    -0.846078337057342,
                    0.15633370461477708,
                    -0.35272851472716904,
                    0.2494740755430844,
                    0.42081739004749824,
                    1.0182029678424374,
                    -0.02736029786060251,
                    -0.33173311477159867,
                    0.035015354250369515,
                    0.4723582878718108,
                    -0.8147307277166284,
                    -0.20496421712543653,
                    0.11025636821871145,
                    0.13423984399094005,
                    0.8579936071573425,
                    -0.21568358700373388,
                    -1.0222467983882708,
                    -0.35859345506566936,
                    0.10607044120326181,
                    0.7149925899564593,
                    -0.5854745243910618,
                    0.4156345368257053,
                    -0.9248634880736769,
                    -0.5251707124533147,
                    -0.16855527847028748,
                    0.22748398192836977,
                    0.5153994461108171,
                    0.10094226524048482,
                    0.6354848299292261,
                    -0.5567818871252633,
                    0.2994203352974432,
                    0.1661631617678533,
                    -0.17013458314012325,
                    -0.7819961804518952,
                    0.567613451093658,
                    -0.21105917933807788,
                    -0.9474596410732089,
                    -0.7336958995261103,
                    -0.14578265553579717,
                    -0.6497196952967557,
                    -0.34604775789689707,
                    -0.19863326366749862,
                    -0.05675366366199655,
                    0.7048038316624642,
                    0.8278041313532869,
                    0.8748127906798443,
                    -0.5225109321911944,
                    -0.607797003228896,
                    0.9993061218294758,
                    -0.8933777645998693,
                    -0.42097114074241937,
                    0.15991437249320894,
                    -0.5861163850861695,
                    0.6352057329068557,
                    0.10074826410646726,
                    0.31959898437950196,
                    0.06400263980801266,
                    -0.6750372929421419,
                    -0.4304880807336857,
                    -0.05954606595610956,
                    -0.8253371671598935,
                    0.12043725757729215,
                    0.5184406821843571,
                    -0.2720184227249914,
                    1.0037786794355232,
                    0.698403926420491,
                    -0.018393233983837062,
                    0.637967605677656,
                    -0.5572467689592162,
                    -0.17570529980023303,
                    -0.18476018447303272,
                    -0.1622271098226757,
                    0.07218582880901721,
                    0.13276567318784904,
                    -0.8568835327500098,
                    -0.8765159859288767,
                    0.09468103531983578,
                    0.5467624344034752,
                    -0.34665453637337573,
                    -0.9610375608881319,
                    0.8305762866538928,
                    -0.6366326026781648,
                    0.6461513626124705,
                    0.8340428977508717,
                    -1.0055896781445743,
                    0.225657865791756,
                    0.7882310019020669,
                    0.05348332824179969,
                    0.15655361771672135,
                    -0.842194397866596,
                    -0.7435998353898274,
                    -0.9068050102895279,
                    0.5433468674508939,
                    -0.26302599804619015,
                    -0.279169394778461,
                    -0.012525062214781816,
                    -0.5337316587393138,
                    0.8781860789003342,
                    -0.2195154914727706,
                    -0.23070465484379535,
                    -0.7767206423554894,
                    0.03168281893129141,
                    0.6255606221989959,
                    0.4039151324546726,
                    -0.26901860380698084,
                    0.2527671472371567,
                    -0.014584475181435996,
                    0.13668771023228224,
                    -0.4857939720210032,
                    -0.8607674934142475,
                    -0.25653389141430166,
                    0.928869648295614,
                    -0.10401368174384704,
                    -0.5521203585260287,
                    0.6605406833100614,
                    0.3163898304076438,
                    0.6878511328129364,
                    0.8739186896961065,
                    0.062025413311216145,
                    -1.0360363358928524,
                    -1.0332471912202659,
                    0.5273080750055538,
                    -0.3864620768546728,
                    0.0491572135911849,
                    -0.859689613129962,
                    0.7399560959305203,
                    -0.7750043354530718,
                    0.302205164476423,
                    0.7628031964140504,
                    -0.41489263544675964,
                    -0.2994999529994202,
                    0.5637403751599316,
                    0.24947263294645738,
                    -0.2424465665268569,
                    0.7401425447325831,
                    -0.7662450781142394,
                    -0.42776533729881383,
                    -0.3064375633875347,
                    -0.32954179204392114,
                    0.8605177667357312,
                    -0.30278492002148705,
                    0.49658990204115117,
                    -0.6188430093190196,
                    -0.3459547507714791,
                    0.8611340591316021,
                    -0.8440584492073322,
                    0.5489511698601267,
                    0.377153416935854,
                    0.9133982635277791,
                    0.07808109563490073,
                    -0.09885894573606474,
                    0.6687207969626675,
                    -0.007938252711882239,
                    0.41234689834952476,
                    0.8165376222283147,
                    0.6196354151629184,
                    0.4146062739818667,
                    0.7092326692082475,
                    0.7097470078946719,
                    -0.37776976019190733,
                    0.018346859649097533,
                    -0.8908032880631026,
                    -0.02721629805593624,
                    -0.24959404834654467,
                    -0.5036503569184198,
                    0.16528675532135959,
                    0.29998462158649375,
                    -0.3381136853992064,
                    -0.6619233666504151,
                    -0.7196960228256342,
                    -0.7470617892166297,
                    -0.495876433878882,
                    0.4976302924051695,
                    0.19052377683518523,
                    -0.6441344336647643,
                    0.4130149172529576,
                    -0.24621357448629444,
                    0.578434576962802,
                    -0.5370443484349535,
                    0.3595390652363165,
                    0.33976494968846466,
                    -0.5974675499356839,
                    0.6983653326471865,
                    0.7555384670581896,
                    0.07054509586652263,
                    -0.3763540534416923,
                    0.6333539783864298,
                    -0.5150533928801964,
                    0.8034168914590368,
                    0.18126022000549738,
                    -0.12217323430144039,
                    0.3514258983945946,
                    0.3027845120933452,
                    0.8616377217423086,
                    0.6857282573396964,
                    -0.36016251840223756,
                    -0.38258090173953024,
                    0.7815082740974509,
                    0.6895568723373878,
                    0.5816391078291276,
                    1.0515794965436556,
                    -0.3922769907316332,
                    -0.5422867890475599,
                    0.3277118851938559,
                    0.3194551553750755,
                    0.9228520034962496,
                    -0.5119679855986228,
                    0.11646971763130594,
                    0.1124379664161085,
                    -0.8410223552387686,
                    0.07405775059992437,
                    0.9349088502383139,
                    -0.3257069110982579,
                    -0.41737036268857725,
                    0.4417688553825367,
                    -0.20292258178292755,
                    -0.7607688469081072,
                    -0.14980751299591605,
                    0.8241503928115881,
                    0.7498916210874773,
                    -0.12981379127360565,
                    -0.8098993590777892,
                    -0.3464143630677294,
                    -0.6686305615665769,
                    -0.597987678395569,
                    -0.8610505978154145,
                    1.0492974615830701,
                    -0.785079901834746,
                    -0.48060394063649947,
                    0.29041010530212613,
                    0.6904962859332024,
                    -0.41335876624707574,
                    0.9846565899131235,
                    0.01948940613898599,
                    -0.9818766007722642,
                    -0.29946025426335565,
                    -0.35377734964570706,
                    -0.39767197874633603,
                    -0.0672383095850665,
                    -0.5232502411186674,
                    0.6665406018358807,
                    0.7794065128073542,
                    0.6549245119991228,
                    0.1335294860116374,
                    -0.6977842288066041,
                    -0.4089460629335638,
                    0.9334923264886305,
                    0.29221048956798124,
                    0.8896406187931604,
                    -0.4426861913316199,
                    -0.018204215284666373,
                    0.7023608646821677,
                    -0.18054375804358633,
                    0.7046808972454129,
                    0.7310380774604107,
                    -0.5206079879052401,
                    0.34523558098894624,
                    -0.1668042004842301,
                    0.09696981190763306,
                    1.000943526193994,
                    0.7922175692394301,
                    -0.1886111150670877,
                    -0.5457927677376785,
                    -0.8301156292617943,
                    0.811331387880963,
                    -0.42953786570019603,
                    0.5593649267051078,
                    0.07209578444174781,
                    -0.17041289804042323,
                    -0.8980778786232005,
                    0.5342507513850194,
                    -0.10384141109614589,
                    0.750242679148832,
                    0.3488264576779458,
                    -0.3936617390040868,
                    -0.01784957803925005,
                    0.34904157237284067,
                    -0.16050287942960312,
                    0.16447385816910842,
                    0.9468865403053733,
                    0.5498675208326111,
                    -0.9547506981773127,
                    0.6752220699494655,
                    0.9195246834167154,
                    0.03017789016695134,
                    -0.4664896394306482,
                    -0.36740744846714013,
                    0.7214418560466712,
                    0.49102480783054847,
                    0.02563059605403575,
                    0.6549740696568697,
                    -0.6957830535174312,
                    -0.12469017293771692,
                    0.9205398419219661,
                    0.05263417248947809,
                    -0.8128678443234091,
                    0.29629554842911143,
                    0.5118260988626179,
                    -0.4579539567566025,
                    0.7281427611309962,
                    0.3429587496455067,
                    0.5328050737903434,
                    -0.8815688415081039,
                    0.33359392889341966,
                    0.4791216197270996,
                    0.6572423763568581,
                    -0.615892610486491,
                    -0.03466906413214516,
                    -0.10639699610467232,
                    0.5366237132818523,
                    -0.8390685089048643,
                    -0.24531963275891203,
                    0.37678630130534996,
                    0.024765894692167847,
                    -0.8763802017512972,
                    0.6193367846352624,
                    0.1712327199020002,
                    -0.4840551936191837,
                    -0.2715274037092937,
                    0.835999773960945,
                    0.42186229302015893,
                    0.3799682082356346,
                    0.2390616934068627,
                    0.41322773744995805,
                    0.18780962227662767,
                    0.6311504041001144,
                    -0.4211184411155098,
                    -0.18682244028367886,
                    -1.055947001024877,
                    -0.32500423100422215,
                    0.5173130351868811,
                    0.9007878347636729,
                    0.3133682641382432,
                    -0.13206188205682995,
                    0.010151664456089908,
                    0.8403673380920913,
                    0.6764784569572396,
                    0.6191742003673179,
                    0.6894558691416445,
                    -0.6003501218214184,
                    -0.43409275394017277,
                    0.08466087852830599,
                    -0.1282797490338617,
                    0.8525853400703756,
                    0.21940921762950333,
                    -0.1021443547482019,
                    -0.6673939465968272,
                    0.3521698346122546,
                    -0.17093978265290546,
                    0.4501177210605235,
                    -0.31840277791989446,
                    0.6709916880540547,
                    -0.1064907869276371,
                    -0.6085010242336802,
                    -0.19534165496292547,
                    -0.6778056760834981,
                    0.612583772606849,
                    0.6732276864000205,
                    0.37285513426363665,
                    -0.8439337275338344,
                    0.5642649033873981,
                    0.5681582287903162,
                    -0.6272888141317889,
                    0.5048926288816346,
                    -0.25821374053771196,
                    -0.8577455201117434,
                    0.10468751957240763,
                    -0.009992328031715568,
                    0.5177716074380742,
                    -0.7600606249013986,
                    -0.960962452024159,
                    -0.15659412587775037,
                    -0.7752640397270981,
                    -0.1515772942715616,
                    -0.2136444783032272,
                    0.4661830855348012,
                    -0.6435196426059642,
                    -0.1690799849127799,
                    0.38608033524689356,
                    0.2145110885788285,
                    0.1570453847058949,
                    0.7322332539905692,
                    0.2536493176387785,
                    -0.7539919832392542,
                    -0.2897979752614083,
                    -0.38931832967759006,
                    -0.13924208637557794,
                    -0.5425149282997854,
                    0.15156135277069324,
                    -0.7403220384913614,
                    -0.8888928519688409,
                    0.42213436665082216,
                    0.3847665012312628,
                    -0.7675070407189175,
                    -0.3059217527682289,
                    0.2393784231217038,
                    0.1106400791578617,
                    0.8939686756032036,
                    -0.5050795435709274,
                    -0.194886494739725,
                    -0.13011811531677867,
                    -0.8744591774566032,
                    -0.8155494339121361,
                    0.13451715420532706,
                    -0.4862125886123378,
                    0.3862380118190001,
                    0.08066222393723364,
                    0.8345050172570225,
                    -0.7144216109061261,
                    -0.9224871764264958,
                    0.9291858747177415,
                    -0.3763365218087626,
                    -0.303661989530201,
                    -0.04969159753396121,
                    -0.6277015627376711,
                    0.6298488285757995,
                    -0.4033708345952192,
                    -0.5104124498947251,
                    0.8796322818826197,
                    -0.1704548025115543,
                    0.018336369555482922,
                    0.2812315650464031,
                    0.2686885455236679,
                    -0.5816207671138338,
                    0.07522769020178978,
                    -0.3989779678504032,
                    0.9083841158063607,
                    0.362814003127162,
                    -0.5086436437991398,
                    0.40377316448701395,
                    -0.5029724975127611,
                    -0.45483615759208035,
                    -0.8028916202631354,
                    0.6209664864579384,
                    -0.6982167177058556,
                    0.7541427030348034,
                    0.6502427004754662,
                    -0.23781223245314226,
                    -0.060172646929295456,
                    -0.8962318896993151,
                    -0.5018170562606186,
                    0.7087517212789985,
                    -0.7546128444823823,
                    -0.5060464323391665,
                    0.2451113710936146,
                    -0.5925813989509681,
                    0.371496271694126,
                    -0.7351954712284758,
                    -0.16558335670787544,
                    0.31704143879420843,
                    0.4488478204813426,
                    -0.7592311353665344,
                    -0.26776193127442216,
                    0.2990840716489784,
                    0.36541602629538594,
                    -0.5666008068641297,
                    -0.31396958380707823,
                    -0.7900798885511395,
                    -0.32626463137461764,
                    -0.42171728065324504,
                    -0.606312229294183,
                    0.008011214132386181,
                    -0.6452724406454171,
                    -0.30343776400478367,
                    0.4374637277036146,
                    0.8657492775916902,
                    -0.5968166710278542,
                    -0.28096703748125,
                    0.06685188690725002,
                    -0.6883799006952502,
                    0.6444971243809497,
                    -0.63954619846005,
                    0.4241214028318351,
                    0.591614457120627,
                    0.8395374651729094,
                    0.6363354054183727,
                    -0.1398742845219159,
                    0.8999777965856528,
                    -0.9649387668309748,
                    0.7667673715127239,
                    0.3316952874123283,
                    0.8681689893458598,
                    -0.4703759844527545,
                    -0.9554411437870051,
                    -0.16166037989299745,
                    -0.0504193736476157,
                    0.046612161202347964,
                    0.8060502035930706,
                    -0.09238277944169354,
                    -0.604492799668818,
                    0.8612233998887837,
                    0.9508259519042569,
                    0.17676848117287122,
                    -0.12355697110446633,
                    0.5824693779265939,
                    -0.27803083247122345,
                    -0.02257347562436055,
                    -0.38017389461913675,
                    0.5798182963688204,
                    0.4986457961113339,
                    0.41670724362429656,
                    -0.37768523151889954,
                    -0.5812132786273417,
                    -0.27589595116343196,
                    0.4207910489810497,
                    -0.5126179528045252,
                    0.4759725566890135,
                    0.05990916709197745,
                    -0.7914040914536242,
                    0.0036834433719154947,
                    -0.8589588960574046,
                    -0.7605855638304042,
                    -0.11015499530701574,
                    1.0174009996675533,
                    0.7367186868604908,
                    -0.9794313299855902,
                    -0.9827310734197874,
                    0.4512551044251691,
                    -0.8607938897910826,
                    0.8233799198150181,
                    0.7435518291144935,
                    -0.831107003676358,
                    -0.6911671427821743,
                    0.5159960146739221,
                    0.11832132228924978,
                    -0.8116460215955342,
                    0.08245743371981802,
                    -0.5041188078656949,
                    0.8937934360790122,
                    -0.46574740896211264,
                    -0.9180302561214533,
                    -0.7992919684493408,
                    0.23939605534808084,
                    0.10236668992498121,
                    0.8522924494841626,
                    -0.06516428690460872,
                    -0.2687095044904174,
                    -0.2040167130049082,
                    -0.013744454246863338,
                    0.1787511496205925,
                    -0.25362357623891524,
                    0.6739782627517927,
                    0.8010377085088136,
                    -0.6110569715754666,
                    -0.11958989953255963,
                    -0.33506461500159185,
                    0.9681264984058319,
                    0.6410372913229692,
                    0.7369284097589429,
                    0.7201440113885601,
                    -0.924630649950869,
                    -0.8267394170514539,
                    0.8191434909366626,
                    -0.8008803670602612,
                    -0.6826692612414698,
                    -0.1280849230696853,
                    -0.8296743710239518,
                    0.5589842833261832,
                    0.7886142503139707,
                    0.8648293734430892,
                    0.12856608361361432,
                    -0.19467127527423742,
                    -0.30816454344026895,
                    0.23307710761475384,
                    -0.6644569635631796,
                    0.47601296207598753,
                    0.0643582706713237,
                    -0.3042263829385882,
                    0.14338387716469062,
                    -0.3171264541692194,
                    -0.20007500815104298,
                    0.3989592618176471,
                    -0.6302733024145941,
                    0.48502893406101477,
                    -0.7017917317204647,
                    0.47191991904937214,
                    -0.7539259094325563,
                    0.4298973329500782,
                    -0.5473983522006322,
                    -0.29358241729285,
                    0.4444786497532268,
                    0.7470604796807935,
                    -0.7600378988843547,
                    -0.21559520262202725,
                    -0.4242699317589484,
                    -0.16708897542161347,
                    -0.6568931078408136,
                    0.691155547393814,
                    0.7963133022898377,
                    0.06061675995538051,
                    0.04859042255181387,
                    -0.30247703210251065,
                    0.16282543358278928,
                    0.32853160263048364,
                    0.5016688762904068,
                    -0.8676363554870763,
                    -0.8193131777452874,
                    0.024071495491904828,
                    0.48815723698129937,
                    -0.13866691770954764,
                    0.05339859699992925,
                    -0.49322270739027557,
                    -0.23050429095870192,
                    0.6398427667162528,
                    0.7837093082632217,
                    0.40041106877686844,
                    0.018398845977074873,
                    -0.13919402967685715,
                    0.8322527768529445,
                    0.2779650957533082,
                    0.32677446498785034,
                    0.41639732366271826,
                    0.6531511391403343,
                    0.2769582537399949,
                    0.30630748511752526,
                    -0.9180679798364507,
                    1.0117744839627727,
                    -0.3860435743254299,
                    -0.24464035870920772,
                    -0.7393400777230392,
                    0.026106643227440305,
                    0.6830646766353538,
                    -0.20450829081975308,
                    0.2905752991274359,
                    0.46121337865909007,
                    -0.45572796158958334,
                    -0.6708067874380894,
                    0.5669531694411464,
                    0.0598256534589789,
                    0.6681439616810734,
                    1.052714852509992,
                    0.2782451963954217,
                    0.5761173756750361,
                    0.18566308826743147,
                    -0.17258388455100276,
                    -0.07365845274505287,
                    -0.424540296798097,
                    0.014883355553868846,
                    0.2525607559285442,
                    0.42936065919258287,
                    0.20570604241660775,
                    -0.13591195604485345,
                    -0.7976751951735017,
                    0.8932727517954508,
                    -0.3322503650185959,
                    0.4953090414487008,
                    0.8104193913400626,
                    -0.7506613415798636,
                    0.12279493707088897,
                    0.5576773823845528,
                    -0.9256097991557718,
                    -0.1388357391399774,
                    0.015039290700566777,
                    0.9001842450217956,
                    -0.4010732265639726,
                    -0.3391522127720204,
                    0.4677339908332536,
                    1.039795120443402,
                    0.4640545205892306,
                    -0.7315029431590471,
                    -0.10010544830256941,
                    -0.4346371423046823,
                    -0.8787736789435214,
                    -0.0326596179343849,
                    0.4882912629775255,
                    -0.22486907717772753,
                    0.826972930291112,
                    0.41505673215452643,
                    -0.5551947075776121,
                    0.13167364163050504,
                    0.6656118151800587,
                    -0.2577955093275557,
                    0.6050066219071245,
                    -0.047126492196843194,
                    0.6522863151422587,
                    0.8330992562584102,
                    0.9339778121522498,
                    0.7259625791123057,
                    0.4453958322374133,
                    0.32576159791521797,
                    -0.17031738640996852,
                    -0.7794684666212458,
                    -0.9332952639450847,
                    -0.1664818740065549,
                    -0.8999773299044395,
                    -0.26226439673389473,
                    -0.3491686539750815,
                    0.4353725010565893,
                    -0.8967546042656556,
                    -0.46247721680815934,
                    0.6672729538363379,
                    0.9402273792639042,
                    -0.2700109918293565,
                    -0.18432413167794148,
                    0.5374795196180538,
                    -0.8162154160115296,
                    -0.6252979804192628,
                    0.8799492732726166,
                    -0.2496380089774423,
                    0.7735677416425246,
                    -0.7829412998539483,
                    -0.8170451524016038,
                    1.0756691010537867,
                    0.6183642178864287,
                    -0.5980698698403265,
                    0.9528658005913799,
                    -0.7210092143115261,
                    -0.6297417178006716,
                    -0.2325469084418681,
                    0.6684562696089185,
                    -0.34455650636176616,
                    -0.36874253140016244,
                    -0.03366897222008299,
                    -0.8357840409311276,
                    -0.7432128795661251,
                    0.9584997993752157,
                    -0.03273004268055669,
                    -0.5784120815982451,
                    0.15285128446337054,
                    -0.8793777635588912,
                    -0.36077146602161686,
                    0.5463621453190686,
                    -0.4467909218192366,
                    -0.9224851074608258,
                    0.1368024600052123,
                    0.10024090286940576,
                    -0.1600586689459289,
                    0.4909486734803448,
                    -0.029445923411436068,
                    0.2128592208374278,
                    0.25218721399827965,
                    -0.09106672511456634,
                    0.15216749118216388,
                    -0.4592240563485811,
                    -0.14360604063803942,
                    0.4536199833172856,
                    0.22064696706375236,
                    0.6479957857369064,
                    0.10202713857977534,
                    -0.8079652593533332,
                    0.4423047748554015,
                    0.15304135436194655,
                    -0.2951298923392082,
                    -0.18582838463302306,
                    -0.31117160886914463,
                    -0.0176505441512422,
                    -0.2806589469673096,
                    -0.07559731214138753,
                    0.10543491583951595,
                    -0.26925894387414634,
                    -0.2561529282170939,
                    0.6880505218359485,
                    0.06422590663341818,
                    0.45500384980742326,
                    0.8040145158318864,
                    -0.7807664340351318,
                    0.18911966417247975,
                    -0.38050124408912295,
                    0.7309403531477697,
                    0.25508546964808315,
                    -0.3737799284621701,
                    -0.7531209869318469,
                    0.45993282483966796,
                    0.7188567347220979,
                    -0.7612994225290113,
                    -0.6021583761863478,
                    0.16489077321852255,
                    0.059469817675775985,
                    -0.4086251066087305,
                    0.6839314724758934,
                    0.2145157204304414,
                    0.6323772842262267,
                    -0.8550098574089303,
                    -0.8307359204087061,
                    -0.025189810828766798,
                    0.24737749518271207,
                    -0.3500753277862085,
                    0.29053698773301223,
                    -0.43711205938302106,
                    -0.858115878266269,
                    0.8065851137346441,
                    -0.16006536887043604,
                    0.14541334515213783,
                    0.1709167701445444,
                    -0.2209420777406348,
                    0.47936680406303345,
                    0.7278667799767233,
                    0.9926748754073116,
                    -0.8102493299459098,
                    -0.406400784418708,
                    -0.10803916894445169,
                    -0.8459260428216191,
                    0.07467877232477335,
                    0.24346208221690385,
                    -0.1022227170958465,
                    -0.5204989855053183,
                    -0.5819572615156785,
                    -0.32174726657358266,
                    -0.9975921350000343,
                    -0.33503269186291756,
                    0.06671072297868455,
                    0.4223377713740579,
                    0.4560920706508951,
                    -0.0017480214838256193,
                    -0.07223289733228369,
                    -0.5803354325335857,
                    0.5690097119974757,
                    0.713020846836292,
                    -0.025582559675453923,
                    -0.604127335285431,
                    0.8114295698836015,
                    0.07105167853891028,
                    -0.7528120118204144,
                    0.4499614100485782,
                    -0.08519074529686063,
                    -0.6321230947164789,
                    1.0605848249828005,
                    0.2802421002171036,
                    -0.1658518638251415,
                    0.7444272506646462,
                    0.013778912131783226,
                    -0.747643738911791,
                    -0.7481045851282784,
                    0.028369654322290244,
                    -0.8953239669120485,
                    -0.8645992593776565,
                    0.12971318334311463,
                    -0.5595124365203712,
                    0.24012914343281178,
                    -0.6906592935071536,
                    0.07812117451115251,
                    -0.30227235307623024,
                    -0.16022228299665658,
                    -0.24472773920956137,
                    -0.6457062961440148,
                    -0.731436447398028,
                    -0.10979001660495105,
                    -0.4715519733224724,
                    -0.9099451299438565,
                    -0.40282918615975066,
                    -0.3203549367293532,
                    0.6858737074230764,
                    0.09715805783536577,
                    0.7772628614433597,
                    0.9773365562130928,
                    0.6162688827629288,
                    0.6892570701372406,
                    -0.24253844394758617,
                    0.14669491852523273,
                    0.19618253777820238,
                    0.6830207117788211,
                    0.3531305203692639,
                    0.1518704664655391,
                    0.5972476946412618,
                    -0.9011598061065766,
                    -0.4253278430083289,
                    -0.46006208262757314,
                    -0.8240362531529796,
                    0.7974491687061173,
                    -0.08587947114020163,
                    -0.5661608119716849,
                    1.0473522458438118,
                    0.3390144324239801,
                    -0.9207219182996733,
                    0.9737997029861065,
                    0.04186461637509402,
                    0.16540685026712218,
                    0.21848444364933042,
                    0.5426853658525412,
                    -0.2517950577354576,
                    -0.3336178650459702,
                    -0.09185306844960694,
                    0.42378034211313403,
                    0.36319561757207514,
                    -0.04136063706121704,
                    0.6327420478767322,
                    -0.36357469504550094,
                    0.8646448917206819,
                    -0.18932704336083234,
                    -0.8197118004347574,
                    0.9462652753017412,
                    0.922799779390933,
                    -0.18790171939519082,
                    0.1410608082291495,
                    0.842756275602812,
                    -0.2409959119551677,
                    0.436474188600524,
                    -0.5646799349671965,
                    0.35518905368830417,
                    0.21081850063876753,
                    0.025026798664485976,
                    0.8152746266093369,
                    -0.7127636411247626,
                    -0.9322369988687983,
                    0.9459107994880323,
                    0.03780301265942816,
                    -0.11862089233814592,
                    0.5178224059511274,
                    0.59953586075429,
                    -0.5674297921892707,
                    0.011319238197508163,
                    0.05438974766215839,
                    -0.6724816998761216,
                    -0.843399700188801,
                    -0.8553793081601464,
                    -0.4629045987389548,
                    0.35275548622661146,
                    -0.12294154446483953,
                    -0.8722189682155883,
                    -0.13432546586076055,
                    -0.2298423863477804,
                    -0.11635177014369102,
                    -0.10966633681824152,
                    0.5464982646035744,
                    0.40778820477448996,
                    -0.47260676053979755,
                    0.19614670816521196,
                    -0.7344406981245852,
                    0.5275858438693063,
                    -0.15395139379589995,
                    -0.8234718518035017,
                    0.6578769807919821,
                    0.3591872419616891,
                    -0.7958923041051188,
                    -0.4257752139163544,
                    0.09259882778954241,
                    -0.32557925978064645,
                    0.514478437079212,
                    0.5009346665057861,
                    -0.5799585406974845,
                    -0.6530972326564333,
                    -0.7965294780971294,
                    0.17058886084489702,
                    -0.4601018315272498,
                    0.18694448127349741,
                    0.6126501643341157,
                    -0.9589315481503328,
                    1.035382594456211,
                    0.6090024439540912,
                    0.08317337374439042,
                    0.7872944747681591,
                    -0.03184135604532016,
                    0.06139777807135868,
                    -0.9240960510059579,
                    0.5407026340282263,
                    -0.6867103506501923,
                    -0.8092381910827281,
                    0.5929286138211208,
                    0.5569627236582048,
                    0.009343815413049033,
                    -0.17651036067159157,
                    0.957245052616476,
                    0.1553980086864821,
                    -0.8507271837977508,
                    0.6441443651824148,
                    -0.49110156122068915,
                    0.7108540971319665,
                    0.6695352383153094,
                    0.9569174663845965,
                    -0.43751869634502666,
                    0.6757643545394362,
                    0.9431278858251704,
                    -0.1675024555189131,
                    -0.84716672172513,
                    0.1646276388633382,
                    -0.5740005850972179,
                    -0.8930265855708871,
                    -0.34523267392530854,
                    0.12032032228453113,
                    -0.22386292136613264,
                    -0.12069418214232647,
                    -0.022838631319286692,
                    0.7565195828423666,
                    0.5774896774786159,
                    -0.15682362721878879,
                    0.08314046291855395,
                    -0.885216158507723,
                    0.7036079737611549,
                    -0.5775567590686819,
                    0.09176469509356253,
                    -0.268456113912436,
                    -0.8248668715906735,
                    0.8780080877778805,
                    -0.3753769586632377,
                    -0.05983648852256253,
                    0.08931789075506362,
                    0.7424799782362592,
                    0.46999853571188155,
                    -0.10653818895864915,
                    -0.3201683913632983,
                    -0.459727355409467,
                    -0.7689733656226707,
                    -0.596922908502675,
                    -0.6783260409741058,
                    0.4034424242062279,
                    0.15321030321287524,
                    -0.25440271181802687,
                    0.8024398978108613,
                    0.7953068305355634,
                    -0.22312376437689763,
                    0.040454318487781755,
                    -0.9693148595412235,
                    -0.14685056321769294,
                    0.06433205906728676,
                    0.9329969125562082,
                    -0.7305419971587421,
                    -0.8016402998837289,
                    -0.25425509964636755,
                    0.8081794669080343,
                    0.3585460232420458,
                    -0.8266596452079832,
                    -0.5694042139669838,
                    0.8254991745745128,
                    -0.6613092181027722,
                    -0.19432492020915557,
                    -0.4642402196885668,
                    0.7587067604409768,
                    0.5440158494982839,
                    -0.14278858095603514,
                    0.9658826454634799,
                    -0.10109492813905552,
                    0.23207454135146777,
                    0.46247638008014896,
                    -0.24574722776370853,
                    -0.41753540236282655,
                    -0.008302834671703119,
                    -0.8802277282625827,
                    0.7412113078425887,
                    -0.07830856980142488,
                    0.5034336923013056,
                    0.3093300774973444,
                    -0.08422193385248529,
                    0.19943788264266596,
                    0.34382888504566317,
                    -0.8588458744474569,
                    -0.40285177165763186,
                    0.5348441192736173,
                    0.25207658390850174,
                    0.07037182901134885,
                    0.2824404118562644,
                    0.5180770269882995,
                    -0.8195200505917302,
                    -0.46332917370181514,
                    -0.3143416877390391,
                    -0.014340454750281435,
                    0.13908129812880232,
                    0.31336698248715567,
                    -0.09914937199299982,
                    0.46689709195820195,
                    0.9943914692073602,
                    0.7497112537714579,
                    0.6255064735963679,
                    -0.7773890900644448,
                    -0.39869774872345953,
                    0.6615704939020575,
                    0.04292087926536303,
                    0.10666060392348932,
                    -0.8333625221579484,
                    -0.06890208668756514,
                    -0.15919997392393134,
                    0.6234933091818483,
                    0.5553182574351097,
                    0.8737907479991082,
                    0.007604211156720143,
                    -0.44478514739799513,
                    1.094373552377526,
                    0.2453332718903671,
                    -0.4360987877140645,
                    0.5214492960772872,
                    0.09264607102699064,
                    0.474691319191267,
                    -0.2106934862047439,
                    -0.1501402699068136,
                    0.13259739371656695,
                    -0.21249682311355542,
                    -0.027448929688522375,
                    -0.547314083171153,
                    -0.48001232452202247,
                    -0.8249161080357448,
                    -1.0050719311557095,
                    0.4058870802451433,
                    -0.9224514157740636,
                    -0.38228600919753586,
                    -0.704958289724862,
                    -0.4152083561796934,
                    0.932809943720487,
                    -0.9757449120004781,
                    0.2623170663840425,
                    0.2980784855232318,
                    -0.12248152802813006,
                    0.6578896171100369,
                    0.3921193442016554,
                    -0.5224124270205408,
                    0.8835941621940497,
                    -0.1280311791485854,
                    0.6678458529206542,
                    -0.17594598482576024,
                    -0.1994360696542453,
                    0.5386954904312287,
                    0.26351566975000756,
                    0.6770268432967713,
                    0.37186507561712534,
                    0.7263724326793949,
                    0.5729650707499191,
                    0.6049203457730953,
                    -0.24553481101597782,
                    -0.826233341500066,
                    -0.6126168492515269,
                    1.0240781650516535,
                    0.34566728909219335,
                    0.26958906934412225,
                    -0.22512536379381384,
                    0.5466050404660759,
                    0.7470642856714118,
                    -0.09772646130356698,
                    0.5839457703916844,
                    0.13877069566651046,
                    -0.2613230192415574,
                    0.8973821662002208,
                    0.2253349144632142,
                    0.8556345738034786,
                    -0.3194662432897737,
                    -0.6155292385641692,
                    0.3582383042741358,
                    -0.5076364950284734,
                    -0.2985627232183162,
                    -0.581977047940404,
                    -0.4690289980759707,
                    -0.7387619133190267,
                    0.23697156187104912,
                    0.46499354409709753,
                    -0.8736525011569908,
                    0.7419710357505719,
                    0.1977117224208214,
                    -0.21291667434475203,
                    0.7954158241682115,
                    -0.18119145269779155,
                    0.5089219291096116,
                    0.7302805525164515,
                    -0.1645547744192977,
                    -0.2987801584243751,
                    0.36734206655424506,
                    0.6937688203750373,
                    -0.9393064721006976,
                    -0.5755047840894004,
                    -0.19707104189577465,
                    0.6821156904629445,
                    -0.3566495896615188,
                    -0.33794096127966244,
                    -0.995138417205541,
                    0.309615035035162,
                    0.6911945930868291,
                    -0.3442314007002512,
                    -0.1319832030383102,
                    -0.420665898925981,
                    -0.9345045150923125,
                    0.30223811922639293,
                    -0.8503476757042318,
                    -0.6054000193655248,
                    0.4732243421473197,
                    -0.3850696828229225,
                    -0.4358997770084659,
                    0.5582685059553575,
                    -0.552075660173768,
                    -0.8772785449295951,
                    -0.4472627982842681,
                    -0.7544783220384972,
                    -0.3581174520992837,
                    0.21258955891873071,
                    -0.1462537633388663,
                    -0.545397659743726,
                    0.7362869610219461,
                    -0.4563273933605588,
                    0.5772104453432175,
                    -0.9911821677618603,
                    0.4048022600617782,
                    -0.2627224348458194,
                    -0.7823127557488712,
                    -0.5017658054660528,
                    -0.7394220051064209,
                    -0.3404364871845971,
                    0.2393905051796833,
                    1.0634547488323194,
                    0.6334418717217978,
                    -0.6656197962008799,
                    0.5530362021779457,
                    0.5933769953335207,
                    0.42332585682861357,
                    0.6410127818696695,
                    -0.07186648425847976,
                    0.3960766748728158,
                    0.6189316382197755,
                    0.7882947044610767,
                    -0.8614052510227592,
                    -0.5191724754664608,
                    -0.0782202346411065,
                    0.6324903003932579,
                    1.2500270868620589,
                    0.2365560570387674,
                    0.9613432289966499,
                    -0.39550132434760604,
                    -0.8104965001851162,
                    -0.3175990295079438,
                    0.2967215540919932,
                    0.7965514683951127,
                    -0.26776121871324177,
                    -0.2630212122741251,
                    -0.8856823507954522,
                    0.8575288908245106,
                    -0.20827828725640726,
                    0.19608916694201392,
                    -0.05678551424874464,
                    0.44726162726256974,
                    0.13378952717842893,
                    0.6986151108620887,
                    0.7893430252981555,
                    0.9275570431683093,
                    -0.8013449754951917,
                    -0.5497821924680608,
                    0.3504685595545097,
                    -0.39009397949789754,
                    -0.15253407072068542,
                    0.10908414853717835,
                    -0.11873980264468353,
                    0.9715361537962327,
                    0.8639297601781549,
                    -0.7839492604413388,
                    0.6330399583951862,
                    -0.12019818135129257,
                    0.4315712294752506,
                    -0.6610735259024126,
                    -0.1040662519182747,
                    0.7333001840903473,
                    0.23985311924055863,
                    0.5667412194839324,
                    -0.08087152077850057,
                    -0.6499761541412129,
                    0.9407260327735838,
                    -0.9388879533433427,
                    0.15530636053049854,
                    0.3036748266938242,
                    0.41172109257238876,
                    -0.7365272854980225,
                    0.26737049270245405,
                    0.472645710446672,
                    0.8772260367540656,
                    0.38272464780622073,
                    0.4384096965248599,
                    -0.4235285445240496,
                    -0.8125646003854581,
                    -0.12797445216390854,
                    -0.6943010639938508,
                    -0.3095682050847803,
                    -0.7881422388037181,
                    0.6271275198349476,
                    -0.715739638205506,
                    0.10803832974211111,
                    0.5529956092558976,
                    0.7853874368108184,
                    -0.22984078000925667,
                    0.9320771913429698,
                    0.9137654628452829,
                    0.02997258320456555,
                    -0.9025652456436574,
                    -0.45000214786525716,
                    0.26928721663330346,
                    0.7192097875333362,
                    0.4617994039914142,
                    0.7346734691667963,
                    0.6412522819180674,
                    0.473897342549826,
                    0.6683632883042189,
                    -0.7833672003539659,
                    0.6743352373453063,
                    -0.7300424868488065,
                    -0.7011622035193812,
                    -0.020269114463265767,
                    -0.07221754632146037,
                    0.18239712549147452,
                    -0.47746432371238334,
                    -0.3627243580871962,
                    -0.5809690734225393,
                    -0.21996372872472375,
                    -0.0002614633119332951,
                    -0.37285402760857417,
                    0.3464825635484118,
                    0.8984999899630177,
                    0.5439693520673583,
                    0.8903095114158437,
                    0.40237742785031083,
                    0.6276653488603765,
                    -0.45465928081858553,
                    -0.42396383146739386,
                    0.12429742971308767,
                    -0.24941939581548123,
                    0.6874677694935589,
                    -0.6508326680847795,
                    -0.05494485860530298,
                    -0.7942523498452261,
                    -0.4504693025702199,
                    -0.12460828554981544,
                    -0.14309062338222173,
                    -0.6612700277875414,
                    -0.36913199568633215,
                    0.9429134684609424,
                    -0.5478042086545906,
                    -0.7210124951449033,
                    0.23991202365815928,
                    -0.6283915359439564,
                    -0.7900335591811906,
                    -0.9198709776405939,
                    0.3482549675868335,
                    0.8955983143479782,
                    0.773585868170951,
                    0.2805458518393079,
                    0.46809752412973915,
                    0.7836726940389532,
                    -0.30493951485554266,
                    -0.8760157559872264,
                    -0.3732755649718598,
                    0.340912311174556,
                    0.6790634584993075,
                    0.736522384515257,
                    -0.7288647609184918,
                    -0.16234389106750505,
                    0.1837513294399233,
                    -0.5153908273033053,
                    -0.7842258045638213,
                    -0.8639969683668017,
                    -0.6208905842150675,
                    -0.47822205882025154,
                    -0.18690688020968838,
                    -0.40566000258112606,
                    0.7885267167166679,
                    -0.20007426089967517,
                    1.0180866560945676,
                    0.9079207957257583,
                    1.036261762606745,
                    0.49332921303238,
                    0.7933492027686643,
                    -0.9280595354631397,
                    -0.6055891174720787,
                    -0.5991484213208148,
                    0.989832393854423,
                    -0.3209939125992755,
                    0.8548516142265445,
                    -0.08679202503051542,
                    -0.17420555516111735,
                    -0.23106116735173368,
                    1.0944840348332983,
                    -0.2569775262903783,
                    -0.3227945951559719,
                    -0.07803960715918848,
                    -0.7100491398711856,
                    0.776900121993588,
                    -0.1079051083184077,
                    -0.3466145081224674,
                    0.053159354019875704,
                    -0.8745936521995877,
                    0.30753358926913954,
                    -0.09736050106752957,
                    -0.4675389648283297,
                    0.30879861388908636,
                    0.5546392827249023,
                    0.6805297385125756,
                    -0.5148316182158863,
                    -0.6591708198083461,
                    0.0995732981930763,
                    -0.862649668427096,
                    -0.2773122222070568,
                    0.6348344074459374,
                    0.4391327115202977,
                    -0.4458117360115225,
                    -0.8141649133488599,
                    -0.1717489906749547,
                    -0.710558322439989,
                    -0.7432504873240554,
                    0.7926242220472571,
                    -0.9295141862229503,
                    1.0223171132284996,
                    -0.8150670512226414,
                    0.4726079461815683,
                    0.654897899134715,
                    0.6181116825344211,
                    -0.6935968950751541,
                    0.6670514051759491,
                    0.5973123772913972,
                    -0.6911539067648103,
                    0.47182773206774453,
                    -0.02431150108797899,
                    -0.2971833665309597,
                    0.49153212886176956,
                    0.9405000238318394,
                    0.45462308603443025,
                    -0.6020025109961153,
                    0.25277426300153616,
                    -0.170627419273565,
                    -0.05378275373489963,
                    0.4763519319760648,
                    -0.2353085775274031,
                    0.9212586894111121,
                    -0.8744572221311544,
                    0.6638480258245594,
                    0.6004838364185408,
                    -0.24509658164705697,
                    0.5483360165009585,
                    -0.21823060612536868,
                    0.5543566298861523,
                    -0.3993120463069917,
                    0.9195612701841908,
                    -0.1111367755267469,
                    -0.7006383045262103,
                    -0.09535834096926311,
                    -0.738703390573704,
                    0.9145269618643405,
                    0.09768710521000881,
                    0.050897192557826744,
                    -0.8180106093580991,
                    -0.7975293100347726,
                    0.7157092470865375,
                    -0.265497815151913,
                    -0.4595933143806074,
                    0.6027039519934331,
                    -0.5206675204187372,
                    0.7418247918470801,
                    0.6977826918873409,
                    -0.21768857113488224,
                    0.6616838539310117,
                    -0.2723291806468828,
                    -0.04313190948098798,
                    0.9673034892546684,
                    0.008343805130441645,
                    -0.8190571508754029,
                    -0.34029079484789154,
                    0.04629095786661674,
                    -0.6238264979050795,
                    0.7447796520540839,
                    0.3200577738222873,
                    0.6247453707926365,
                    0.768380603841583,
                    0.8862460006394335,
                    -0.9801383596585135,
                    -0.09509279526477778,
                    -0.4279138525734153,
                    -0.23688885415000632,
                    0.7397870870232778,
                    -0.9153835389929436,
                    -0.8298288572653751,
                    0.5807134643885877,
                    0.4224268519679385,
                    -0.3162559737412869,
                    -0.4458381853191075,
                    -0.8275844127802178,
                    0.579153892765472,
                    0.5134791838317824,
                    0.18721687988292568,
                    0.058334889806005055,
                    0.8117337781858943,
                    -0.10705124412213629,
                    -0.42797377773772566,
                    -0.11983608311245929,
                    -0.7950224722185281,
                    -0.29833397375760057,
                    -0.7396951495419335,
                    0.30662423849855025,
                    -0.5097505765860316,
                    0.16009365645434137,
                    -1.1786582507948975,
                    -0.1315309595075978,
                    0.9687288530992237,
                    -0.03164709712820373,
                    0.7281098418287872,
                    1.0689733304820628,
                    -0.03999652180664907,
                    -0.6630619539675418,
                    -0.9496727950744629,
                    -0.8522393026421751,
                    0.9865161715320986,
                    -0.5935835158691506,
                    0.5620453692090968,
                    -0.1661627092505316,
                    -1.0005065511839857,
                    -0.8335748774236386,
                    -0.8338331475261122,
                    0.2711901744749415,
                    -0.5912766369684967,
                    -0.5742159964532746,
                    -0.23508491336082615,
                    -0.8934362954502859,
                    -0.008221238918334522,
                    -0.7602079094376596,
                    0.3407014809951011,
                    0.5675268264054141,
                    -0.25718158408643543,
                    0.7677945826752575,
                    -0.9854432865935404,
                    -0.9401249690231513,
                    -0.5921338482058643,
                    -0.16757847207562995,
                    -0.6277667096850901,
                    -0.7064822013047332,
                    0.20130980362592407,
                    -0.3183504873857327,
                    -0.9145430910796754,
                    0.9090685304476713,
                    -0.15133271336099055,
                    0.33555184479987393,
                    -0.5188584379517438,
                    -0.04424151189708697,
                    0.8915810302767873,
                    0.8385006110425872,
                    -0.7542104666613846,
                    -0.7082086155788743,
                    0.8268118802846623,
                    -0.960789422356856,
                    -0.7937499984076692,
                    0.7311346750517097,
                    0.15352659261709573,
                    0.12128001023476949,
                    -0.49160571948126247,
                    0.8981691968673564,
                    -0.2953935888446637,
                    -0.5234376240717016,
                    -0.48210587669007055,
                    -0.6371334554127264,
                    0.5649237822763903,
                    0.26902596278861124,
                    0.3952674013711517,
                    -0.8658511158195529,
                    0.07073047044919331,
                    -0.8445113202201686,
                    -0.4434376377904988,
                    -0.13137638051592493,
                    0.8123178211264546,
                    0.4672986703649888,
                    -0.005155599438761094,
                    0.4072401770752343,
                    -0.6745812308896628,
                    -0.4080135154095464,
                    0.3412855448650183,
                    -0.13495717032197072,
                    -0.3184081096063383,
                    -0.2776047235847551,
                    -0.6753463276904849,
                    -0.7572775119617106,
                    -0.29953259165659973,
                    -0.2657946594917297,
                    0.8174289553429517,
                    0.07397150989841024,
                    -0.9869706442038343,
                    -0.8790580908450423,
                    0.6884091788072587,
                    -0.9610183313560331,
                    -0.8461118830740749,
                    -0.8221566857197802,
                    -0.7322568179524838,
                    0.3573665072284741,
                    0.11471919742589164,
                    0.23014160140275677,
                    -0.4497822891046077,
                    0.9535049893737007,
                    -0.28603278407401644,
                    0.39208131709166155,
                    0.7128366990663475,
                    0.22045577864475258,
                    -0.23086580739487558,
                    -0.783228352202332,
                    -0.8614620142414982,
                    -0.9249248171378259,
                    -0.8198703127243834,
                    -0.8293507883871849,
                    -0.6573280897875879,
                    0.47164390850155447,
                    -0.10953326034029179,
                    0.36233347765883883,
                    0.3110991961397877,
                    -0.23460320773256124,
                    -0.08030332818650163,
                    0.00796103398209878,
                    -0.23555230641513783,
                    0.30244447430528415,
                    -0.8889938691385466,
                    0.37805366970234044,
                    -0.28273514627406027,
                    -0.47420411140898716,
                    -0.25209832838349105,
                    0.33224304302494084,
                    -0.11192765966797026,
