{
    "networkId": "network-1106",
    "layers": {
        "layer-1": {
            "activeCard": false,
            "errors": [],
            "layerConfig": {
                "inputSize": "3000",
                "outputSize": "5",
                "activation": "sigmoid",
                "type": "recurrent"
            },
            "layerName": "Recurrent Layer",
            "status": "inactive",
            "valid": true
        },
        "layer-2": {
            "activeCard": false,
            "errors": [],
            "layerConfig": {
                "activation": "sigmoid",
                "inputSize": "5",
                "outputSize": "1",
                "type": "recurrent"
            },
            "layerName": "Recurrent Layer",
            "status": "inactive",
            "valid": true
        }
    },
    "inputSize": "3000",
    "outputSize": "1",
    "activeCard": true,
    "status": "inactive",
    "valid": true,
    "network": {
        "0": {
            "input_size": 3000,
            "output_size": 5,
            "weights": [
                [
                    -0.18277715125072072,
                    -0.37610340714195317,
                    0.04064591576392731,
                    0.40933446466066176,
                    0.07982870198440692,
                    0.4787515363571602,
                    -0.9535165269320254,
                    -0.5873540139051967,
                    -0.24041915123489577,
                    -0.9724420300631903,
                    0.05328215845312732,
                    0.5914315182360707,
                    1.002580488342576,
                    0.6545907557275178,
                    0.4224612037272405,
                    -0.6786171800470017,
                    -0.03471675213808502,
                    -0.48457355174222927,
                    -0.5146396002845983,
                    -0.6636555259780675,
                    0.49910335901648495,
                    -0.40650697377834116,
                    -0.7487914023126993,
                    0.626135939445248,
                    -0.7270412413087468,
                    -0.08583139152431632,
                    -0.03231661543699628,
                    -0.7622192421914218,
                    0.6920146995482269,
                    0.5359063850512688,
                    0.9807644220655932,
                    -0.2280268594593429,
                    -0.5401708106630306,
                    -0.4882519180834138,
                    -0.3652486486881446,
                    -0.4784716055022321,
                    0.7318720910898977,
                    -0.447789901319558,
                    -0.0023497808705591414,
                    -0.039986048979383265,
                    0.6283599485086497,
                    0.3872852307871547,
                    -0.9194145491784612,
                    -0.43845841487482706,
                    0.06914169383265407,
                    -0.21113753805048413,
                    -0.19584975622992606,
                    0.7418583445586153,
                    0.4382955009551292,
                    0.972101036678932,
                    -0.1426115251527528,
                    -0.723455095530338,
                    0.9229440493164884,
                    -0.622958772857662,
                    0.9393864040051734,
                    -0.22737451226078498,
                    -0.6822807087455084,
                    -0.3951222029523637,
                    0.732205257838221,
                    0.469131831881483,
                    -0.7786980384501446,
                    0.5384102596115744,
                    0.003289783185436459,
                    0.32560024878460747,
                    0.6487822403861583,
                    -0.35161206268625755,
                    0.43307247693648526,
                    -0.5327893491706787,
                    1.0032675038799526,
                    0.0705063129047386,
                    -0.21471703018921934,
                    -0.9953095320402146,
                    0.28238699332895245,
                    -0.04815644201299283,
                    -0.3850389222279653,
                    0.4022723367774442,
                    -0.1422867565474439,
                    0.5415063780397027,
                    0.20609976344400247,
                    0.11674727309410406,
                    1.0534095667881573,
                    0.820973011335598,
                    0.751559691004016,
                    0.7839073851911774,
                    -0.9468846255330127,
                    0.4892067408936554,
                    -0.8272347465625574,
                    -0.11346569011684039,
                    0.009679620701564104,
                    0.8849241129216386,
                    -0.1286644157761118,
                    -0.16955783494314972,
                    0.3972189517945734,
                    0.7873590491201969,
                    0.4139568059571993,
                    0.4982206206542089,
                    -0.550393232430769,
                    -0.8668115096215769,
                    -0.4437891410554126,
                    -0.6864089466325477,
                    0.3236834092166784,
                    0.7980370816793059,
                    -0.49437188555696493,
                    -0.8564510447488213,
                    0.8810637953600888,
                    -0.9320054471672402,
                    -0.9868195934637676,
                    -0.8673066079994084,
                    -0.9987314267962307,
                    -0.9222233499978009,
                    0.6618886016812507,
                    -0.4243458763897628,
                    -0.6914321142514219,
                    -0.036646316821085295,
                    0.8431343026871164,
                    1.022153105195417,
                    0.4500693473358284,
                    0.02175312018890783,
                    0.24928082350367015,
                    -0.4582152443887886,
                    0.5817967420064152,
                    -0.2046262039363287,
                    -0.07215004352254115,
                    0.06573074163048782,
                    0.44479404588647653,
                    -0.8812901014565004,
                    -0.7156248696817361,
                    0.136140595358614,
                    0.47714084399532203,
                    0.5832280579820973,
                    -0.9622589052751918,
                    -0.9377490510436803,
                    -0.6547419981917814,
                    0.8901930462757479,
                    -0.40995351068476676,
                    -0.5749188426291754,
                    -0.696106446618053,
                    -0.4507877000689258,
                    -0.4696162713153247,
                    0.894882646967046,
                    -0.243409758945214,
                    -0.8727338406132593,
                    0.06221597723546777,
                    -0.029979841255410873,
                    -0.5112777200891204,
                    0.972245178996945,
                    -0.51949111446578,
                    0.1482393158845829,
                    0.6296614841508126,
                    -0.7549120234504929,
                    0.7774461794446302,
                    0.02377824717939964,
                    -0.33955924513177,
                    0.3374365968311482,
                    0.9542454486197745,
                    0.6830096920913498,
                    -0.8103595855265691,
                    -0.49374992625258274,
                    -0.5475083331483018,
                    -0.6680788202465161,
                    0.28429562258775815,
                    0.2525278677878838,
                    0.5703129251623921,
                    -0.9034865341838457,
                    -0.3088387983937704,
                    -0.8517810694074502,
                    0.19204179181539194,
                    0.4192794329386589,
                    0.38161738267713163,
                    -0.9218399707709054,
                    -0.2219126898672407,
                    -0.07840024328570701,
                    -0.3146099526073917,
                    -0.5620919501846672,
                    0.83800971421665,
                    -0.9104079167330815,
                    -0.8138918040589406,
                    -0.18145515747979207,
                    0.7020952154421801,
                    -0.28295581945400194,
                    0.39571308356900853,
                    0.02087836209016667,
                    0.452110789226828,
                    0.42529931698905205,
                    0.08887399251134197,
                    0.9156979517623401,
                    -0.14710912541552817,
                    -0.12596929136992363,
                    0.7577119750510968,
                    -0.6504259097421953,
                    0.7416240200881687,
                    -0.06930167993536022,
                    0.5246219514148741,
                    0.9436683469209172,
                    1.0037738718435039,
                    0.9108887695705056,
                    -0.8285850085551116,
                    -0.5531891064289691,
                    0.7524606503557439,
                    0.3082498377676246,
                    -0.14190211123033614,
                    1.0763075260033284,
                    -0.5405278888386087,
                    -0.6514098022750141,
                    -0.8810369020363519,
                    0.8647926004490839,
                    -0.7927980696150986,
                    -0.8695608451443971,
                    -0.46174719853019613,
                    -0.971492097770221,
                    0.22502202410303043,
                    -0.2565881658709993,
                    -0.8653722287135878,
                    -0.4921884024921477,
                    0.7117460789668162,
                    -0.5084500887209709,
                    -0.0007374863467429176,
                    0.5779600442404957,
                    -0.7201744294281583,
                    -0.1906439482823083,
                    0.6654098598341156,
                    0.5855918542622831,
                    0.9876974136491455,
                    -1.0114538001389635,
                    -0.7996529910814109,
                    -0.4991130725192425,
                    -0.23719792842457763,
                    -0.6340188577552089,
                    -0.24612844586695007,
                    -0.6037812908920167,
                    -0.12359539663250368,
                    0.9608662398709704,
                    -0.49998877651820656,
                    -0.12210205427638698,
                    0.19676797655962877,
                    0.15210303216350554,
                    -0.5105194248983644,
                    -0.5771727008048028,
                    -0.3037819094081611,
                    0.9872483147632997,
                    0.14490882587191778,
                    0.8855419427721123,
                    -0.7646496288603513,
                    0.04581855821514616,
                    -0.40709368138162155,
                    0.630209875408811,
                    -0.7829106171563458,
                    0.09108024341374751,
                    -0.9849166786999541,
                    0.4585360819972242,
                    0.17045690745682532,
                    0.3870957193411093,
                    -0.11557421572430142,
                    0.816721608394245,
                    -0.9134562564762385,
                    0.4472096327532031,
                    -0.8393418534914141,
                    -0.5123858023361055,
                    0.7064963109544681,
                    -0.03726299614532629,
                    -0.29795223300838314,
                    -0.669355712933383,
                    0.9774469811200461,
                    -0.42592796666972277,
                    -0.8973890179005997,
                    0.8755103631364578,
                    0.8740217404722418,
                    -0.6688637447597026,
                    -0.812852384553338,
                    -0.9216642233738256,
                    -0.30251215685537247,
                    0.6544724445340147,
                    0.2838351254843419,
                    -0.8631118722168759,
                    0.06794449932646707,
                    -0.8154202320566281,
                    0.8992411497990677,
                    -0.004772952627112857,
                    0.008357230734295893,
                    -0.9621171542949073,
                    -0.7466707277765351,
                    0.9439517785544218,
                    0.04819451591079031,
                    -0.06786991258898271,
                    -0.555551339757164,
                    -0.8843780103078765,
                    -0.9777157398045436,
                    -0.4954796211438771,
                    0.4351902619964048,
                    0.6568138885149013,
                    0.21509293201805046,
                    0.4830668396232556,
                    -0.47521640379054025,
                    -0.7125745781907988,
                    -0.23521974786202055,
                    0.8886822437838625,
                    0.1490297612327285,
                    -0.5975842828776013,
                    -0.39509020736458594,
                    -0.4843702911911365,
                    -0.06590880735324207,
                    -1.0141475034288898,
                    0.32793095758175833,
                    -0.20848224534096432,
                    -0.9329650095781723,
                    0.04029969637139116,
                    0.9170776665506327,
                    -0.9726991667715128,
                    -0.20797917834746077,
                    0.41457413678000427,
                    0.08596073273438795,
                    -0.382369579832698,
                    0.5544384469713309,
                    -0.8770643777113414,
                    0.7243350360085742,
                    0.7609124230146277,
                    0.1957190246865568,
                    0.06607194707586747,
                    0.9685949032737651,
                    0.4459549282459913,
                    0.8544488717886922,
                    0.6375510991807128,
                    -0.49955974478120785,
                    0.7008174521775771,
                    0.8572881822713531,
                    0.20991970713407188,
                    0.2282563419931614,
                    0.7703093131654146,
                    0.1811296529078267,
                    -0.6809731940900967,
                    0.9441184302557859,
                    0.63961832487865,
                    0.794176958123566,
                    -0.5506853809038383,
                    -0.20144005957734626,
                    -0.9188843932862978,
                    0.45634153352765194,
                    0.9125403487051539,
                    -0.504090613321362,
                    -0.30238230678363226,
                    -0.6816547131338124,
                    -0.08971034562611434,
                    0.7831154263486385,
                    0.5709683629017653,
                    0.3561930104830436,
                    0.058451828938878445,
                    -0.5402873147764388,
                    0.07802155306380609,
                    -0.06722295736520566,
                    0.24319093871920172,
                    0.8113377581682287,
                    0.30592403457011774,
                    -0.744496247565356,
                    -0.14194126550079775,
                    0.6589820611821741,
                    0.9174227643418976,
                    -0.627337136382447,
                    -0.14749975666707169,
                    -0.36951203333344956,
                    -0.1401282324143827,
                    -0.6587224253292046,
                    0.19833773475650027,
                    0.5612465152900963,
                    -1.0698693177652319,
                    0.4694495491254063,
                    -0.40429642203296695,
                    -0.011936707352385712,
                    -0.9108753152686203,
                    0.45918435964949517,
                    -0.9586518509118748,
                    0.16855804409304678,
                    0.7547046698994634,
                    0.2895036035461123,
                    0.908421379333704,
                    -0.8202152424387384,
                    0.2914057059782685,
                    -0.7760756573549652,
                    -0.2964495820665751,
                    0.9945170544954648,
                    0.9510817092084856,
                    -0.2451244717809958,
                    -0.1636997752149493,
                    0.3005953686795354,
                    -0.44646426152836866,
                    -0.9173979918099029,
                    -0.731458412367287,
                    0.4196865489461747,
                    0.20662444939327085,
                    -0.7159063131055415,
                    -0.13163771692163997,
                    0.00932498310428997,
                    -0.1111932678323336,
                    0.3298325529798625,
                    0.5868017187532317,
                    0.333064631369177,
                    -0.4022473201990324,
                    0.44536811711715457,
                    0.7664751396488201,
                    -0.5036815365481737,
                    0.6243658066674649,
                    -0.8162816257304014,
                    0.8525323267376261,
                    -0.7692540825221373,
                    -0.765932925931039,
                    -0.20073190996321388,
                    0.3413968373577953,
                    -0.2560695510653688,
                    0.4685726915190431,
                    -0.8572529296389559,
                    0.07852334101395833,
                    -0.479099443317661,
                    -0.7014535692199096,
                    0.9460370825547156,
                    0.6273592271893578,
                    -0.7732898637599032,
                    0.8274087981886803,
                    -0.4220281567809385,
                    0.3097771289929718,
                    0.892211349538263,
                    0.44884613982306754,
                    -0.03814920246410738,
                    -0.7623467835010371,
                    -0.8577354046208272,
                    -0.6378141941866062,
                    0.8765464683105747,
                    0.2528484250315933,
                    -0.7490325729108382,
                    0.7700480428230017,
                    0.5927698852121718,
                    0.47389499746019215,
                    -0.5194285400476671,
                    -0.4786528057432851,
                    0.449610419137549,
                    0.8065545967161398,
                    0.07430832958759567,
                    -0.3262411021227706,
                    0.9525964729435199,
                    0.03199591116856003,
                    -0.03892939278247895,
                    0.1998293199970829,
                    0.12890563709092273,
                    0.6686216785702049,
                    0.5030531099542486,
                    -0.05694801875493522,
                    0.5455016348456022,
                    -0.5122055169795989,
                    0.7631380902203406,
                    0.4482631471353586,
                    0.21344819527185754,
                    0.43935792454517697,
                    -0.13756424936316794,
                    -0.9283088693966066,
                    -0.6731446572689991,
                    0.8924377295627931,
                    -0.4293231763160475,
                    0.6004495508185673,
                    0.8601108187390057,
                    -0.533105801555203,
                    -0.11646905562028677,
                    0.04718985609640871,
                    -0.659751258326726,
                    -0.39849195218071953,
                    -0.48119339201991057,
                    0.06952803089905299,
                    0.8374186930026504,
                    0.988087051028059,
                    0.3437018315753955,
                    -0.9191889427544322,
                    -0.5810439286206748,
                    0.7636684102509743,
                    0.21302428009966554,
                    0.8546769278910338,
                    -0.09332990517920434,
                    -0.33169796056087747,
                    0.5885900626530504,
                    0.20430938174165936,
                    -0.5310967794377236,
                    -0.44229506558447546,
                    -0.5560688710673688,
                    -0.6753744534428926,
                    -0.9125103276114873,
                    0.504997252067848,
                    0.7883714202774108,
                    0.33978489474330376,
                    0.35851457661514,
                    -0.6694326435723602,
                    -0.47863163039683404,
                    -0.23005418558476554,
                    -0.5128643415797453,
                    -0.023297018033488884,
                    0.22597320810235114,
                    -0.20769134764670705,
                    0.7964535228485409,
                    -0.24076254742350514,
                    -0.9588764418106137,
                    -0.2734589988771633,
                    0.013319277907129458,
                    0.2898152656079768,
                    0.8255335450755726,
                    0.4109321141867423,
                    -0.2617009728534952,
                    0.90530232766505,
                    0.7384083719220909,
                    -0.1405146039437874,
                    -0.7419418197073833,
                    -0.5032622956661508,
                    0.33139456884583546,
                    -0.039504049834377046,
                    -0.141052485684681,
                    -0.37687209885933465,
                    -0.616928499654892,
                    -0.30409304729078623,
                    0.6717503972312756,
                    0.1975685574075439,
                    -0.17718260940783323,
                    0.28998781929602774,
                    -0.790219262424241,
                    -0.6427481490273643,
                    -0.46287708989481646,
                    0.5609392610406085,
                    0.799977249340857,
                    0.12683224418265024,
                    -0.7471081920433756,
                    -0.8940164266636023,
                    0.7750420619202402,
                    -0.6551292975599387,
                    0.6215876488974988,
                    -0.14725012569827534,
                    -0.08810335956556022,
                    -0.4756223114512658,
                    0.8701681340907323,
                    0.7477739796347636,
                    0.1280469788735342,
                    0.5446782584301988,
                    -0.32189421212436276,
                    0.42390847030050116,
                    -0.07722188967293299,
                    0.5280063650318004,
                    0.16073885099010973,
                    -0.7221954570586367,
                    -0.30974841047768964,
                    0.8077926896609249,
                    -0.8443734653755726,
                    -0.35700951786763796,
                    -0.1255538011198948,
                    -0.6666346218793289,
                    -0.7595386641563749,
                    -0.7966647553573881,
                    -0.4143554709334221,
                    -0.010412757214023535,
                    -0.9559260529359963,
                    0.03347018149474902,
                    0.03898533164184985,
                    0.4667427683015733,
                    -0.6455974756064965,
                    0.3708233667974773,
                    0.1833647406793455,
                    0.036046560203602286,
                    -0.24260012392641503,
                    0.9585831961746362,
                    0.34739257993252753,
                    0.14393438022410174,
                    -0.38073447214932127,
                    -0.02745435948052535,
                    -0.13272129047029058,
                    -0.7865820859572059,
                    0.5967585853302083,
                    0.2622317734569966,
                    0.7913856033195634,
                    -0.10956233830539332,
                    0.0411547269225052,
                    -0.9896950033912624,
                    0.3246304634308797,
                    -0.3668826146162475,
                    -0.5234986563728573,
                    0.7755356586440294,
                    0.6263463781117053,
                    -0.7689322656204056,
                    -0.4494918068514178,
                    -0.47494994881568237,
                    0.5280506821773382,
                    -0.30044404006450975,
                    -0.9916373284973853,
                    0.10308936320183246,
                    -0.5049680311900131,
                    -0.8695459242589065,
                    0.9769136672246808,
                    0.45095425728587823,
                    1.0007311166949464,
                    -0.43513307138861357,
                    0.16779910207628046,
                    -0.5736582177359415,
                    0.9086716137016171,
                    -0.28966497797983226,
                    0.06361898628577481,
                    -0.36585711669008825,
                    0.6712845688464535,
                    -0.7334972487766058,
                    0.8700175414686669,
                    -0.9458436423816753,
                    -0.2303759432176313,
                    -0.5923539921911881,
                    0.6114897385960234,
                    0.7779961291859482,
                    -0.10880534392210321,
                    -0.8668543659689639,
                    0.9464548115180073,
                    -0.7121883958179153,
                    -0.605464235519376,
                    0.507348663101665,
                    0.06689061251131499,
                    -0.495188564546936,
                    0.2481544677017932,
                    0.17416086499029004,
                    0.47621352025069036,
                    -0.8662139195347915,
                    0.6048540035064426,
                    -0.6704829276215453,
                    0.1839975418319408,
                    -1.0189743776124343,
                    -0.6518386711595378,
                    -0.7428209682438903,
                    -0.6539700513798603,
                    -0.5886628284055432,
                    0.06525926676556519,
                    0.033714761958664914,
                    -0.6631571088038978,
                    -0.11446329478882641,
                    0.30107690549277577,
                    0.33163773818728587,
                    0.013861135673605912,
                    -0.03488107748947242,
                    0.3693567145839034,
                    0.9339372585711929,
                    -0.46020977761656207,
                    0.8556263931149238,
                    -0.359975850992118,
                    0.07202649632223702,
                    0.39191046861619616,
                    0.4000808933726653,
                    0.653564413219627,
                    -0.920071594527932,
                    0.6334089915829171,
                    -1.0600652811267226,
                    0.8838714720099717,
                    -0.0007699225234875353,
                    0.08459099776616834,
                    -0.5930333713068164,
                    0.31708796897935526,
                    -0.874411064231275,
                    0.44407551994999994,
                    -0.258481860350923,
                    0.03520386905447068,
                    0.34655197850158914,
                    0.4439012938551846,
                    0.152710436071225,
                    -0.32566299380087993,
                    0.27133008168194517,
                    0.2518376995035431,
                    0.4030392504628178,
                    -0.020176889902532254,
                    0.7643262725033404,
                    0.9490572420496597,
                    -0.05369007584888185,
                    0.7057861878067235,
                    -0.09503962948326457,
                    0.17109720166406978,
                    -0.8920457807686872,
                    -0.8812215792061434,
                    0.8572170280055316,
                    0.29584978784224875,
                    -0.4583109787946575,
                    0.8824982166312586,
                    -0.23410594498097853,
                    0.4687377216584918,
                    0.7473573736205089,
                    -0.6280749143822324,
                    0.14593605338482787,
                    -0.032358271753520476,
                    0.9620046550457052,
                    0.5235046419711218,
                    -0.6123968404516592,
                    -0.2991134678259764,
                    0.7379188699441505,
                    -0.203614069694786,
                    -0.19774366030472204,
                    0.9900967040418155,
                    -0.45278544879152927,
                    -0.44940578534122266,
                    0.46974888431710343,
                    -0.9397782836909196,
                    -0.3360759737751531,
                    0.7573144721451208,
                    0.7204862718916647,
                    -0.7195631273788079,
                    0.6435764946649358,
                    0.1538133822497017,
                    0.7746627193125705,
                    0.9403305476856633,
                    -0.1782735527381267,
                    0.3404246488835685,
                    0.20531584277006115,
                    0.8128521463322995,
                    0.46242967786181927,
                    0.180213856705661,
                    -0.7123683543892734,
                    -0.39150271119782754,
                    -0.6071646880339561,
                    0.43114932144518525,
                    0.6873269338361687,
                    0.305033830801453,
                    0.06810261141130937,
                    -0.34906392610268566,
                    -0.36512796640776674,
                    -0.31908811860286135,
                    -0.3928514936951012,
                    0.9485574953777296,
                    0.45869536785691445,
                    -0.5038907549003139,
                    0.4125513491254161,
                    -0.0027151198248031583,
                    0.04580894881141053,
                    -0.602302468757417,
                    -0.8504440864055857,
                    0.4662619892162668,
                    -0.11353878801184408,
                    -0.7357368653991196,
                    -0.6975799409828668,
                    0.3845516768913387,
                    0.7971180791305219,
                    0.9577442811534083,
                    0.7445711504506279,
                    -0.872840928806024,
                    0.8509092607176831,
                    -0.12576795027506862,
                    -0.2619730238960237,
                    -0.905888014073531,
                    0.026617634757184167,
                    -0.13784508263976705,
                    -0.10234889253686333,
                    -0.47860756755539063,
                    -0.8320451876523893,
                    0.7881806690735269,
                    -0.2093651673919252,
                    0.08712343604744809,
                    0.8225552531678099,
                    0.2334404828561313,
                    -0.5035274014668684,
                    0.2576111945179933,
                    -0.6417811736715667,
                    -0.9810989274527612,
                    0.41645955038668175,
                    0.7682105829052971,
                    -0.22644484496088949,
                    0.8754197221553459,
                    0.626982343516114,
                    0.67289200772382,
                    0.5093622828539158,
                    -0.9317155335021516,
                    0.8066308429129816,
                    -0.6461005799628102,
                    -0.18538059601678047,
                    0.6385283814322043,
                    -0.0686620392098609,
                    -0.06736230519568921,
                    0.45081755491652437,
                    0.28663403051848657,
                    -0.5616638696893027,
                    -0.29065083312595813,
                    0.4390608281568224,
                    -0.1520675564855843,
                    -0.5275486450649506,
                    0.8457530330847727,
                    0.5047020525436148,
                    -0.49794747385281085,
                    0.7175721436766868,
                    -0.16795965794844836,
                    0.918156306256345,
                    -0.2945605873070135,
                    -0.8048912152162463,
                    0.29223919828195216,
                    -0.8566136453673302,
                    0.23842401525973994,
                    0.7801019974671349,
                    0.6521632708658156,
                    -0.3296837706579154,
                    -0.7389717684819052,
                    -0.03786720854474151,
                    0.9689480708441492,
                    0.05359200089198452,
                    0.5404786591613354,
                    0.9562495602608968,
                    0.790896651259803,
                    -0.2685540786964273,
                    -0.8110605532574148,
                    -0.8979479544120959,
                    -0.9666296145918586,
                    0.49272424651294844,
                    -0.0880341261582974,
                    0.8975729407063379,
                    0.7911085096365468,
                    0.6219706179813037,
                    -0.8734351787707889,
                    -0.4339906065941894,
                    -0.3808196866556984,
                    -0.8889968781040527,
                    -0.6014904115336989,
                    0.3344187579552461,
                    -0.14469033560641809,
                    -0.40002552238531913,
                    0.48236971604576456,
                    0.5604302684527087,
                    -0.00948959256380858,
                    -0.9497769138216939,
                    0.8076705000280168,
                    -0.5964706951495663,
                    -0.8997333485004587,
                    -0.46305985469483507,
                    -0.09146491081270715,
                    0.06156174364156875,
                    -0.7704760269694797,
                    -0.40521777771468737,
                    -0.09169921806705347,
                    -0.3050402310846928,
                    0.3822509189316719,
                    0.2006363893286035,
                    -0.1981418200341609,
                    -0.6747693741054751,
                    -0.02067272697576194,
                    0.7864127070669664,
                    -0.48471011496442745,
                    -0.4739459325972685,
                    -0.21246751025572183,
                    0.7307237012727402,
                    -0.502519441938496,
                    -0.7309314050619087,
                    0.19498580673408644,
                    -0.5975421732991911,
                    -0.8062773509436014,
                    0.14455968119860754,
                    0.6391464909884582,
                    0.3311872958495298,
                    -0.9872611871939555,
                    0.8723004911955577,
                    -0.705844283151367,
                    -0.3367274192683838,
                    -0.7943862575630742,
                    -0.6918966071786479,
                    0.8058464387811629,
                    0.9089599208053677,
                    -0.5245467081160353,
                    0.10509795653628483,
                    0.21906844440836173,
                    0.9099728853287047,
                    0.9350659554057597,
                    -0.8471306287032624,
                    -0.8383451344663521,
                    -0.05899230578831044,
                    -0.07967435351050214,
                    0.6243208716124097,
                    -0.21050004076551615,
                    0.717529944326885,
                    0.5871627956904163,
                    -0.031244915350735016,
                    -0.5362306082419545,
                    -0.6895394855857598,
                    0.5858642572791246,
                    0.1701656171375574,
                    0.44050501276138915,
                    0.4721037325964862,
                    -0.08680904325144469,
                    0.07820837949557753,
                    -0.22693219159796238,
                    0.15561645329166127,
                    -0.9360045980334349,
                    -0.8293203777447237,
                    0.2843504412467945,
                    -0.492363927560143,
                    0.047059677574281096,
                    -0.592047840878359,
                    -0.748503904992841,
                    0.028493589284287246,
                    0.19612561320708177,
                    -0.6733454412297535,
                    -0.500056068866284,
                    -0.2849473292859825,
                    -0.9340682200882884,
                    0.317435068031635,
                    0.7572126416068692,
                    -0.15859638340125126,
                    0.359475675600544,
                    -0.11436927010744993,
                    0.2743400704456111,
                    0.9284420119228205,
                    0.3242076841193197,
                    -0.19385062139979048,
                    0.8014565498669411,
                    0.05075169175155266,
                    0.4772720125086355,
                    -0.8707564452741583,
                    0.5196139889791387,
                    -0.1780153863725736,
                    -0.21333297607355112,
                    0.8742848804935288,
                    0.3263341940141263,
                    0.5403597004931789,
                    0.6046265978634179,
                    0.910811040081651,
                    0.6371298003463294,
                    0.39048768013031937,
                    -0.37284696073235446,
                    0.5614562829599054,
                    -0.6125645991682135,
                    0.6350055877997157,
                    0.4947550921786442,
                    -0.9011226197250801,
                    0.26878011549574654,
                    -0.6867894043976964,
                    0.32318099890334817,
                    -0.32571224410092164,
                    -0.8182987848042375,
                    0.41119207830683696,
                    -0.4441440759710663,
                    0.620349105268397,
                    -1.0120847128011865,
                    -0.04598771796340387,
                    -0.3910625308781522,
                    -0.7756744077554347,
                    0.5084802392479372,
                    -0.760708766446383,
                    -0.6167977948226063,
                    -0.6613226922079916,
                    -0.38982434512504655,
                    -0.2438589385976457,
                    0.48854726418814565,
                    0.48528546151001917,
                    -0.6117416774832887,
                    -0.7817394616171218,
                    -0.7401994137764941,
                    -0.6508964401793027,
                    0.38272162277671234,
                    0.8845320370119416,
                    0.45627982481046403,
                    0.10385913086731909,
                    -0.6320169570483289,
                    0.4980422515034646,
                    0.26704652112287885,
                    -0.43099296747974764,
                    0.8219257293437904,
                    0.6829402718656132,
                    -0.9823884973673754,
                    0.4950816030980561,
                    -0.39489743146825124,
                    0.17278543615168448,
                    0.9943558002143821,
                    -0.946805561108151,
                    0.6815649295446911,
                    -0.8525589618868683,
                    0.44769433737804126,
                    -0.6589731297188502,
                    -0.5233017279033902,
                    0.3560034035433703,
                    -0.03317170148928712,
                    -0.4619243373081635,
                    -0.635507153515137,
                    0.10983259292574439,
                    0.7625167875239924,
                    -0.6377776180072644,
                    -0.8818033863840393,
                    0.5053342196498098,
                    -0.7773434257016673,
                    0.8737339428680909,
                    -0.18009733707577158,
                    -0.16241326994860442,
                    -0.1137535288814545,
                    0.5999223033251903,
                    -0.589356463439507,
                    -0.12813455903241705,
                    -0.5689055469234453,
                    -0.33860658568403507,
                    0.7482105174290562,
                    0.4223131699068438,
                    0.4704868345832363,
                    -0.05051180366913018,
                    0.6991189838469442,
                    0.2713445905689228,
                    -0.0005580384178555717,
                    0.6861488912867527,
                    -0.9398159348105851,
                    -0.40117195864530447,
                    0.41559804088469576,
                    0.8278439271138915,
                    -0.5401259723730086,
                    -0.12770336971461838,
                    -0.05509050986258839,
                    0.3650197270986171,
                    0.3411644851292665,
                    0.8913178228010501,
                    0.5569747976987119,
                    -0.8647127779293785,
                    0.38170622439412655,
                    -0.8240975530556887,
                    -0.3725100477842474,
                    0.8911031576431958,
                    -0.4352002557204575,
                    0.7974144424240833,
                    -0.781158109403561,
                    0.8326917627443619,
                    -0.2452632903538394,
                    0.13005340965152137,
                    0.9056337560865019,
                    0.2676045047800699,
                    -0.6266737638642205,
                    0.05228212170828446,
                    0.12183095108945032,
                    -0.9808324185856173,
                    -0.41961978581367887,
                    0.41675701658502823,
                    0.4595956095444341,
                    0.6782914153071207,
                    0.08543541569575026,
                    -0.7077167156212942,
                    0.42132352303572596,
                    -0.9001705553366847,
                    -0.9504470386557973,
                    -0.8762308100253564,
                    -0.6960522607685332,
                    0.8112507180660443,
                    -0.10119369746010903,
                    0.7302845553577598,
                    -0.2287605209005605,
                    0.42799911485666986,
                    0.2636060579067792,
                    -0.08240249922767254,
                    -0.16990291947339198,
                    -0.10524037631851711,
                    -0.19567799810877723,
                    0.7557335937937971,
                    -0.9663904127626474,
                    0.5081224408397443,
                    0.29017187185990717,
                    -0.7846152590989495,
                    0.1938289394567122,
                    0.06338857125708168,
                    -0.5241933842909737,
                    -0.9397646460983954,
                    0.3398388967819119,
                    -0.6611143951865517,
                    0.78617307417889,
                    -0.504270477963236,
                    0.31135723855846953,
                    -0.5554452878018126,
                    0.13729437914346324,
                    0.484570622832466,
                    0.5362448137310494,
                    -0.004303059516990753,
                    -0.07632831508553817,
                    -0.5712705325625811,
                    -0.5996416614284791,
                    -0.0605323995656136,
                    0.2377322241815208,
                    -0.7133643872503838,
                    0.06847697359729873,
                    -0.6573438143648468,
                    0.7551374899952109,
                    0.384685160879471,
                    0.6007428200288316,
                    -0.43018935137189734,
                    0.864389442205565,
                    -0.5720892383989171,
                    0.8739233249800118,
                    0.7996283941107478,
                    0.05118527692896206,
                    0.6625396237134284,
                    -0.48387109760763103,
                    0.5836321637134013,
                    -0.20550193504901212,
                    -0.4488002879469198,
                    -0.8834336904067112,
                    0.38475266036340927,
                    -0.2716816688054438,
                    0.4647493240646193,
                    0.6125037758514386,
                    0.43036699566787207,
                    -0.8926008724523901,
                    0.08959543229076408,
                    0.2040893372568435,
                    -0.7215474138849534,
                    0.7670088694736785,
                    0.7300240861152868,
                    -0.16511655646539572,
                    -0.3037498381584957,
                    0.7174560959694807,
                    -0.08325704411236712,
                    -0.008348980288046544,
                    -0.8895331405676181,
                    -0.792540212554201,
                    0.11846621120491284,
                    -0.09384266226783942,
                    -0.2272021053327036,
                    0.8208066206780124,
                    -0.8082160752673158,
                    0.740216245786113,
                    -0.8603786774202723,
                    0.16484406091418505,
                    0.7049476563803707,
                    -0.2783470552474341,
                    0.7073933827991356,
                    -0.6966236515966027,
                    0.7793340965619149,
                    0.017528052759032783,
                    -0.4886745530882235,
                    -0.9098961730469882,
                    0.5198313927891107,
                    -0.015115329645106854,
                    0.6616400880728647,
                    -0.1979816330529068,
                    -0.8114112967163281,
                    -0.8016802576141416,
                    -0.7794089708754065,
                    -0.6945961341553261,
                    0.44739877762597513,
                    0.6552775375627442,
                    1.0057268723397963,
                    0.9335959556781234,
                    -0.5264894033279797,
                    -0.19478245247962742,
                    0.35783299820710396,
                    -0.056157692954125045,
                    -0.280666599655034,
                    -0.17348879916394244,
                    -0.9595272235279896,
                    0.9413994102062649,
                    -0.0450114773200298,
                    -0.4852440546850977,
                    -0.5164108183930277,
                    0.4793232535469366,
                    0.5572168544218694,
                    -0.06393064620043142,
                    0.027674346733569437,
                    0.17518629642491088,
                    0.9496295867195174,
                    0.49530771356618,
                    -0.5688476404406444,
                    0.2895966167956788,
                    -0.26432725226465215,
                    -0.39491554798316736,
                    -0.8581889015454118,
                    0.7584981018403901,
                    -0.34751866959960065,
                    -0.15680985241318024,
                    -0.1619010631479607,
                    0.9165904250581275,
                    0.05228786019207243,
                    -0.19463670847692205,
                    0.8127897481735511,
                    -0.8583837772817586,
                    -0.0522915198911314,
                    0.5752069885468398,
                    -0.5745331089402596,
                    -1.0096685610508105,
                    -0.29315291811359623,
                    0.7058323913815756,
                    0.9252636546548945,
                    0.672575325700665,
                    0.08023725315613141,
                    -0.998501192784265,
                    0.3556979076327609,
                    -0.4775469065641963,
                    0.6618297134479451,
                    -0.7772006413596498,
                    0.16071017849361743,
                    -0.49583624663795217,
                    -0.11893045459085023,
                    0.13011148346178167,
                    -0.053785114803683795,
                    -0.5961899514199902,
                    -0.2612644340657599,
                    0.8851819335609661,
                    0.9365347617585921,
                    0.10131988610811013,
                    0.3085601878973869,
                    -0.9330486722401334,
                    0.38863697970298977,
                    -0.6648630521061268,
                    -0.15645013514625492,
                    0.32595861754509015,
                    -0.7638849762755895,
                    -0.8585394999996491,
                    0.000605736357009248,
                    -0.5059662825255845,
                    0.021298586032795417,
                    -0.6255251518231917,
                    -0.5898130576938776,
                    -0.7152780970670394,
                    0.06734070179444356,
                    0.12267299647452785,
                    0.6019993188836785,
                    -0.9296240104686151,
                    0.6737623474047393,
                    0.6214017408309281,
                    -0.16995568925542856,
                    -0.5067381785747249,
                    0.11226758085315845,
                    -0.22462501847866767,
                    -0.973344373282916,
                    -0.8189665939630076,
                    -0.40587799214257136,
                    0.4603075821183711,
                    -0.9941209719223432,
                    -0.207104024376565,
                    0.4881640343770516,
                    0.6185602572794734,
                    -0.5782237288919594,
                    0.25115236061350565,
                    0.20265027455292423,
                    -0.366615125601383,
                    -0.46147045090784355,
                    0.958204349813927,
                    -0.1642235128324069,
                    -0.6332389638430433,
                    0.04289575176428715,
                    0.10300077414483703,
                    0.034924360660422045,
                    -0.057011818323948305,
                    -0.23119267942350324,
                    0.730882245646958,
                    0.8774300415430567,
                    -0.1354875851707152,
                    0.9439953312976829,
                    -0.8181911558408547,
                    -0.01994868097068993,
                    -0.7964825319270666,
                    -0.21668170156394684,
                    -0.518561267805354,
                    -0.16044875047169538,
                    0.6498057383854586,
                    0.38313131266941614,
                    -0.3089825799522012,
                    0.9360613391257421,
                    0.06154795697039183,
                    0.599168720357112,
                    0.8502661678891188,
                    -0.1698992181592983,
                    0.223601472889343,
                    -0.7232333123488955,
                    0.9439578945967232,
                    -0.15455863263817488,
                    0.9521472531393427,
                    -0.3051938684837914,
                    0.586789730700671,
                    0.31686877542031766,
                    -0.9893262282343857,
                    -0.6760119469639411,
                    -0.951735304763226,
                    0.05679703437264167,
                    -0.8958646581897857,
                    0.3540533521689604,
                    -0.2719483694627842,
                    -0.5110989713466041,
                    -0.9270602936617595,
                    -0.4376439012352209,
                    0.3783017543561174,
                    0.3985148282760492,
                    -0.3782424574699744,
                    0.3827345492601089,
                    0.2961494635792486,
                    -0.506360462546135,
                    0.2988124483996749,
                    0.7545662146097174,
                    0.5664066183289695,
                    -0.1527405263095667,
                    0.583133590821524,
                    -0.8408769735075348,
                    0.6397819406158004,
                    -0.621314735259148,
                    0.44844334212191894,
                    0.5915808542106649,
                    0.1388768941176065,
                    0.174886887804762,
                    0.22593646573484502,
                    -0.3213723553185443,
                    -0.7824396602930601,
                    0.056219631121594,
                    0.09343274746037615,
                    0.6765752591517454,
                    -0.3531287634461106,
                    0.8710973361229405,
                    0.7069867246146424,
                    0.02864880480315265,
                    -0.25862607146816147,
                    0.28566307118422657,
                    -0.5890987822577161,
                    -0.8891005350179979,
                    0.13850557652049006,
                    0.7150028174410514,
                    0.2993091995428029,
                    0.03579511547149698,
                    -0.1988239258545988,
                    0.08731758854368882,
                    0.9276534236716963,
                    0.23777756045637946,
                    -0.07861956703037723,
                    0.5453019962570859,
                    0.9131530528611852,
                    -0.3099347344928413,
                    -0.9061327994233602,
                    0.07393351717410739,
                    0.07914914153377801,
                    -0.0925174365240111,
                    0.5341721478464683,
                    -0.09783696918109067,
                    -0.8591534999364164,
                    -0.9483300033295542,
                    -0.03689581464741558,
                    0.679248785885332,
                    -0.012065176130589888,
                    -0.9852116142549686,
                    0.6519278043502854,
                    -0.5751554242113734,
                    -0.7711007764261824,
                    -0.5948321007705819,
                    0.5595850696869529,
                    0.18984203387685647,
                    -0.5622179158836498,
                    0.659490292516141,
                    -0.729442735058837,
                    0.28596965237303024,
                    -0.22304335239638182,
                    -0.03179227492262979,
                    0.6318117759623042,
                    -0.047498723261136536,
                    -0.2399685459743802,
                    -0.49215789838708635,
                    0.46129370973105194,
                    -0.6368469979979697,
                    0.8615465233674933,
                    -0.5254945585043785,
                    -1.0054571148113904,
                    0.04567698011722285,
                    -0.6331240551774718,
                    0.5664751315706802,
                    0.5497601606403627,
                    0.6520613267398168,
                    -0.1176921644232057,
                    0.3808652878154065,
                    0.0719708560948759,
                    -0.5019124585856968,
                    -0.4029114252610284,
                    -0.011566645333134947,
                    -0.7888821213821778,
                    -0.8031990040483973,
                    -0.2663165240371638,
                    0.5808387387766017,
                    -0.6252171774649912,
                    -0.46348051143486513,
                    0.8769689932348371,
                    -0.4653741528020173,
                    -0.6988036989107484,
                    -0.7430587199100516,
                    0.01978130581236192,
                    -0.07852427139860149,
                    -0.591277888665827,
                    -0.8039272578539042,
                    0.7219881712509357,
                    0.2539144095543392,
                    -0.7718223794211373,
                    -0.3810343686026737,
                    0.023168535793799343,
                    0.320058507719318,
                    -0.32479013807846235,
                    -0.7598521796567279,
                    -0.9074510750758843,
                    -0.8891276677668588,
                    -0.7304394276018681,
                    0.42756009727363137,
                    0.09037293271347079,
                    -0.19186287906794555,
                    -0.4516119683483185,
                    -0.35532558702144423,
                    -0.9152689690509404,
                    0.45265045639397467,
                    -0.4825527721156974,
                    0.7807456297114315,
                    -0.7689832057540729,
                    -0.8078833060436966,
                    -0.3557135117197178,
                    0.16937808916748717,
                    0.5267894268890119,
                    -0.09249925419134011,
                    -0.830607057018018,
                    0.3474324995069734,
                    0.29617286153221983,
                    0.3409549384011522,
                    0.11022110051852547,
                    -0.125430853775939,
                    -0.7460500257477735,
                    -0.6778134943975985,
                    0.8587371627206223,
                    0.20174026777642376,
                    -0.16890575487715168,
                    1.0027274378537425,
                    0.43270354812894657,
                    -0.1548957940510052,
                    -0.07575515616465793,
                    -0.7373967542164307,
                    0.7018177134332008,
                    -0.5086041437820884,
                    0.7158297926164591,
                    0.4222488059036642,
                    0.7691201196227584,
                    0.02868566547364923,
                    -0.22599112388123335,
                    -0.7762795677979081,
                    0.9208984257163995,
                    -0.604746299629927,
                    0.03826199429079889,
                    -0.24610566220216237,
                    0.04368381839753501,
                    0.03127048374826963,
                    0.4866387163147549,
                    0.9750304094538187,
                    0.4649871904095509,
                    0.30722208319657746,
                    -0.15335238679219695,
                    0.4660237552175193,
                    0.3019637674434078,
                    -0.07013000317769821,
                    -0.7764782894614314,
                    0.963059106895927,
                    -0.059618883635339445,
                    0.06448293464756359,
                    -0.6470643350604933,
                    0.6884844967373431,
                    -0.6348062588851545,
                    0.11107695363644396,
                    0.43137896066937714,
                    0.823005751408411,
                    0.6833517295869261,
                    0.8803168550007741,
                    0.8014526878611291,
                    -0.5724544667534811,
                    -0.3093457534795603,
                    0.10153777772665604,
                    0.6342563111620899,
                    0.5781704275755097,
                    0.8769834572681557,
                    -0.6834835408808185,
                    -0.8542274908165451,
                    0.694396120495241,
                    0.19469358594520123,
                    0.8092544872846068,
                    0.1466017949518698,
                    -0.13426580180290554,
                    -0.8454266878493131,
                    0.34137293100515786,
                    -0.7951707100418474,
                    0.43636008655610065,
                    -0.5399873448373322,
                    0.5651992894790362,
                    0.600496239463814,
                    -0.0032638548549210685,
                    0.7388325701127065,
                    0.5152957721374022,
                    0.0799826087781995,
                    0.6894852136278882,
                    -0.6519762921605894,
                    0.28938861820750067,
                    -0.7162417418435022,
                    -0.8229673736571218,
                    0.1859138547057823,
                    -0.03154742505084473,
                    -0.10523826482440465,
                    -0.7882810998437215,
                    -0.026631115247350914,
                    0.011626822417700992,
                    0.7920579682110762,
                    -0.04335002355868286,
                    0.8138532659860445,
                    0.8842861375538381,
                    0.3765850671878179,
                    0.3306482678627138,
                    -0.5344087691210045,
                    -0.5601095798713689,
                    0.540314249374516,
                    -0.12029337277988146,
                    0.8701184712246626,
                    0.2305835999074407,
                    0.4871325843595635,
                    -0.0010547903112778417,
                    0.0502508285594039,
                    -0.5531629467616113,
                    0.4221846916284934,
                    -0.8878461751304728,
                    -0.8329285578950054,
                    0.27960633972917087,
                    0.7560705758498498,
                    -0.9725768009492367,
                    -0.5020205801579974,
                    0.36090986867584346,
                    0.2861914576262161,
                    0.6736689331513857,
                    -0.694970620809831,
                    0.9830207815588259,
                    -0.7092098788932973,
                    -0.3559629667172468,
                    -0.14059553035219394,
                    0.7807552591648587,
                    0.05453197824735734,
                    0.06101753458864105,
                    0.37608058911086695,
                    -0.5719262057904482,
                    -0.30331779055791014,
                    0.6839270974576337,
                    -0.13392550670052816,
                    0.49437956488898727,
                    -0.01253202040888044,
                    0.5624662630028086,
                    0.2984570793833079,
                    0.2941274735622388,
                    0.8646733893772224,
                    0.8597306518720484,
                    0.47385361971818757,
                    0.644749098349513,
                    -0.1921401962587383,
                    -0.13216949948131154,
                    0.659545135641015,
                    0.6073712638436676,
                    -0.23472763186956583,
                    0.09615745464388158,
                    0.34828601349742705,
                    0.29903405099084296,
                    -0.6692282719182312,
                    -0.06978481230002552,
                    -0.7567298328349391,
                    0.8764480000086813,
                    0.6824302200215562,
                    0.38380362950171815,
                    0.2621022768701188,
                    0.04316109819506122,
                    0.3935071050615077,
                    0.4203950708609114,
                    0.9616192490634323,
                    -0.2189159810859266,
                    -0.1546091413508997,
                    0.3615393178982744,
                    -0.12871279847868142,
                    0.24417195798834754,
                    -0.9585256798096816,
                    0.48986032166957755,
                    0.03384056391454926,
                    0.01323681948036248,
                    -0.2908416772870997,
                    -0.86825703820186,
                    0.829287887970349,
                    0.3064283099813727,
                    -0.590371739829649,
                    -0.3761584235082237,
                    -0.5277561852729766,
                    0.35855134624456964,
                    -0.5700662586354635,
                    -0.3628125493000514,
                    -0.29404562594531475,
                    -0.6716771087334974,
                    0.5082955445782623,
                    -0.9493245665888759,
                    -0.6820303479676104,
                    -0.010603571447474912,
                    -0.16514688178435996,
                    -0.5363301174054445,
                    0.8791285925003469,
                    0.018289695458861763,
                    0.16514604254764012,
                    0.44283270633374,
                    -0.26419486082954474,
                    0.2815680532510962,
                    0.9044928234245782,
                    0.29483185349106766,
                    -0.8301823005817077,
                    -0.7340561172580079,
                    0.15492256767547696,
                    -0.5764592962530785,
                    0.8205359447683532,
                    -0.5258203308462942,
                    -0.6733988740942214,
                    0.9839564921003736,
                    0.05612261585753906,
                    0.9825493757023567,
                    0.9438612747299292,
                    0.7019315871107218,
                    0.3373547546918189,
                    0.26262450662740766,
                    -0.038826714619360894,
                    0.30418555888367926,
                    0.9164206463125318,
                    0.3077961231590074,
                    0.5862650350761484,
                    0.9333272487765264,
                    -0.3008072252097929,
                    -0.8699674231561768,
                    0.5728655413645366,
                    -0.5228777286869165,
                    0.480364609930888,
                    -0.7654106614191512,
                    -0.8814149458852424,
                    0.7556766291436899,
                    0.9266842396325446,
                    0.880636845841372,
                    0.6038555193272186,
                    -0.8855278627825208,
                    0.6757230805591502,
                    -0.8173207355122875,
                    0.10902382745139708,
                    0.3156172052975185,
                    0.9261865658630299,
                    0.3216597060757083,
                    -0.2923031258264,
                    0.7773437620246516,
                    -0.44238916874423895,
                    0.29985449358822436,
                    0.8518420613275814,
                    -0.8921797704719555,
                    0.45713312975355386,
                    -0.015141831939996025,
                    -0.5467963615353927,
                    0.5437686193113904,
                    -0.965660501979871,
                    -0.14332298016145237,
                    0.03669316942279445,
                    -0.29068871127301193,
                    0.5939262413866199,
                    -0.8058303739697436,
                    -0.6043387001441557,
                    -0.8186495435889579,
                    -0.38896794714095867,
                    0.8494337300722734,
                    0.33597063953366013,
                    0.5170853436376861,
                    0.3884071020881776,
                    0.4781861676768015,
                    -0.5200988776477588,
                    0.3976847536024661,
                    0.3708311491317636,
                    -0.6336201589030602,
                    0.43322819158305254,
                    -0.871621997085663,
                    -0.7795273992277663,
                    0.24824317437629478,
                    0.1095153434287994,
                    0.22541593409817712,
                    -0.4164879148455553,
                    0.6315939730390859,
                    -0.578245610604574,
                    0.7540008861219373,
                    -0.3724305903724142,
                    0.9667140568200626,
                    0.4855208322572453,
                    0.9985310937544809,
                    -0.4069300298415204,
                    -0.4473758796981811,
                    0.3454611601837737,
                    -0.8651791705052175,
                    0.6397259323353012,
                    0.10138716647738552,
                    0.9405668472512052,
                    0.711669245379115,
                    0.554986156292363,
                    -0.197684498637613,
                    0.9584919773139313,
                    -0.043900926007123454,
                    0.9190530128676906,
                    -0.9421083313302882,
                    0.6620783942027,
                    -0.536179284667685,
                    0.2887213697271349,
                    -0.7114693053570124,
                    -0.4770316224065137,
                    0.23523386207707173,
                    0.0698104342483501,
                    0.07346593692683716,
                    -0.0901084287701573,
                    -0.055283628640602434,
                    0.7780263378785457,
                    -0.7270188889180031,
                    -0.02882735161803704,
                    -0.9186477854337102,
                    0.02686111473400779,
                    0.8769091144668287,
                    0.48911181816474075,
                    -0.4180359810461866,
                    -0.037359452959588174,
                    -0.04045343294165004,
                    -0.3630456078344159,
                    0.5073286629766758,
                    0.6590935058648273,
                    0.5458894994525779,
                    -0.8597815487307261,
                    -0.35183864726252184,
                    0.9241127884925525,
                    0.5554315208605636,
                    -0.6145431033997983,
                    -0.1234828305673108,
                    -0.42334760696379853,
                    -0.3762740650504213,
                    -0.26389293584997325,
                    -0.6610405454813676,
                    0.20269521769014923,
                    -0.7423359542392796,
                    -0.5336058196782425,
                    0.12115404719360186,
                    -0.37551271764834077,
                    0.09962174468113047,
                    -0.7747848549639252,
                    0.40079953783430333,
                    -0.7759620894314831,
                    0.6496479041442584,
                    -0.11266498623229022,
                    -0.3426915990841944,
                    -0.5063874847412756,
                    0.8405011890915324,
                    0.029739156611427137,
                    -0.22124926026929476,
                    0.6955125911044733,
                    0.30877778503733505,
                    -0.7039095194960653,
                    0.2391039246769643,
                    0.5969731841739081,
                    0.13545956857323493,
                    0.5144602602999337,
                    -0.39621042112705657,
                    0.18778158023026764,
                    -0.07950779698350136,
                    0.04813383470819419,
                    0.02603902254353049,
                    0.5420050742504491,
                    0.30198228922110243,
                    0.7418309916612463,
                    -0.4214603835378792,
                    0.6896491710910374,
                    0.0011362616380392223,
                    0.4033303985266939,
                    -0.5283183187251196,
                    0.1920092713323506,
                    -0.3695422289119494,
                    -0.28200994441608607,
                    -0.008267235290761383,
                    0.5079790847269909,
                    -0.9316933532786008,
                    0.8224134198727416,
                    0.9214925685226751,
                    0.1796082646496623,
                    0.5718501763882263,
                    0.28181222770949965,
                    0.2598664494884811,
                    -0.35748428709928226,
                    -0.8925622365519378,
                    0.5752640633640199,
                    -0.2839860384484868,
                    0.9069591817585652,
                    -0.26664839301545834,
                    -0.27379069488756036,
                    -0.9927126981509293,
                    -0.015696290048004973,
                    -0.7715305276273513,
                    0.5333165366516488,
                    0.47403612448214044,
                    -0.2638306268549072,
                    0.7292933847035561,
                    -0.009366837536795658,
                    -0.05254818552596476,
                    0.5685658834656933,
                    0.2696171141465516,
                    0.1626845527674312,
                    0.4026182858242687,
                    -0.9647136160735349,
                    -0.4700680910331026,
                    -0.7355208101282821,
                    0.21288952717458468,
                    -0.8080868763484957,
                    -0.13067984429372867,
                    0.1498600661054115,
                    -0.308647730432432,
                    -0.04446274986748248,
                    0.07653723968810235,
                    -0.9578462458511765,
                    -0.8481313515715115,
                    -0.2965796315206364,
                    0.35412859116295736,
                    0.3381891219288489,
                    0.5616952867879045,
                    0.16791052891987898,
                    0.6471572307178041,
                    0.6794779999437801,
                    0.18870492857950197,
                    -0.9500212812116863,
                    0.7381517742179247,
                    -0.7585939855369628,
                    0.4973114022629899,
                    -0.9774055649641856,
                    -0.7114149044817484,
                    0.8008818505134312,
                    0.5963489726319207,
                    -0.3162957939636913,
                    0.7654281786844592,
                    0.3818249992575111,
                    0.3639425135120544,
                    -0.10310999233145444,
                    0.9745718677103504,
                    -0.4776532589230397,
                    -0.0526541034899266,
                    -0.08459173401988601,
                    -0.6882756181707476,
                    -0.13879999045544963,
                    0.06747767364590461,
                    0.8500579731833826,
                    0.11026139643948361,
                    0.21558937352889204,
                    0.8070983583132159,
                    0.24291844271209106,
                    -0.4531055573280061,
                    -0.13655587437744107,
                    -0.41367882133423034,
                    0.2660634983769049,
                    0.5360825175166966,
                    0.583308321707743,
                    -0.6483962675139031,
                    -0.6597821463021447,
                    0.3660803255572243,
                    0.1809047524197679,
                    -0.30290928829714725,
                    0.8056614314080193,
                    -0.28936599018443554,
                    0.4122695043417902,
                    0.11286488696625406,
                    -0.5388772816668079,
                    -0.2405702475309171,
                    0.2488216788844315,
                    -0.37970188341360345,
                    0.6544137429198623,
                    0.7800122678596938,
                    0.3337446182905811,
                    0.5241739107036922,
                    -0.22587079877372257,
                    -0.3100583884372692,
                    0.8357156097704594,
                    0.2428745616089655,
                    0.36031008761034944,
                    -0.81893316985193,
                    0.5575614070157879,
                    0.9929772939141925,
                    -0.7361463018012209,
                    0.22799081919053096,
                    -0.005184815027829516,
                    -0.16199736484347949,
                    -0.7336441339993672,
                    0.10782012812871444,
                    0.037021693979976886,
                    -0.7100615838711684,
                    0.6494491304104928,
                    0.16481280992298047,
                    -0.8720977368053923,
                    -0.7535446685760809,
                    -0.4724366131820326,
                    0.5000596126857171,
                    -0.9933543274786732,
                    -0.0686218677454973,
                    -0.3140844563089051,
                    -0.9244946157207533,
                    0.16997893052212665,
                    -0.9406972574250295,
                    -0.5315753930895857,
                    0.10912939763021094,
                    -0.6390832099825384,
                    0.2904083130927964,
                    0.3567077968395181,
                    0.017281451909893178,
                    0.7579234757086336,
                    0.6800820217033816,
                    0.12874801965723734,
                    -0.5145226911230821,
                    0.6871244553419825,
                    -0.10620182535670995,
                    -0.2572722273050283,
                    0.5189518864316568,
                    0.4412532263030508,
                    -0.8933179217810804,
                    0.9815953320409897,
                    0.8804891176607709,
                    0.026176194382524942,
                    0.020417187274236935,
                    -0.26803086113417834,
                    0.929386569972754,
                    -0.9455297105268776,
                    -0.4500562436537773,
                    0.948980275154701,
                    0.5886172836037957,
                    -0.09091084117845176,
                    -0.6355537304969339,
                    0.95407307120355,
                    -0.9057499643199906,
                    0.9214454745057391,
                    0.5254425857177537,
                    -0.9219914932333746,
                    -0.6457570503174227,
                    -0.9345108474594316,
                    -0.8395260987497516,
                    0.8282449756099737,
                    -0.7880717582406809,
                    -0.12547049000523122,
                    0.21377795416160922,
                    0.8542106189975854,
                    -0.4227657788832329,
                    -0.3265366092101346,
                    -0.20754536429776027,
                    0.7771752984045763,
                    0.10349664564338348,
                    0.26640982281128706,
                    0.4317570840499073,
                    -0.9530815199896169,
                    -0.6742703351579211,
                    0.6602042095346404,
                    -0.2935134403372703,
                    -0.8203308077086826,
                    -0.5086369133701019,
                    0.8259628945714095,
                    0.5661741330028602,
                    0.992357395408663,
                    -0.08940438020179772,
                    -0.33367069666542415,
                    0.7949594504988707,
                    -0.30425081596666054,
                    0.3199915446304555,
                    0.7153098912461074,
                    -0.5524936043062391,
                    0.490651553710722,
                    0.4253700247002681,
                    -0.032019505916638394,
                    -0.9570927248101402,
                    0.2928671359894888,
                    0.9956001322593308,
                    -0.12427890380815375,
                    0.6602911333488757,
                    -0.38546621323516145,
                    0.8535569952170577,
                    0.6290812689834416,
                    -0.5655663805580236,
                    0.5308452515281763,
                    0.010177382207560528,
                    -0.3089446794689474,
                    0.5405837025836371,
                    0.252684161885476,
                    -0.4972877574002113,
                    -0.6350623191089623,
                    0.805021524778678,
                    0.8931351010757862,
                    -0.7009153815230139,
                    0.4062403701760642,
                    0.693845730280843,
                    -0.30911406829193167,
                    0.1881416324911846,
                    -0.9186975631020153,
                    0.8975488239569214,
                    -0.38969949492630007,
                    -0.2388903438513536,
                    -0.9177475111484397,
                    0.16455504585621658,
                    0.231306417435687,
                    -0.1445943293213291,
                    0.43787389078140393,
                    0.392235568334564,
                    -0.19542455362932562,
                    0.33129150703062604,
                    -0.6173569449601113,
                    0.2594560368330857,
                    -0.6496618066674138,
                    0.824115269011479,
                    -0.8736019798855015,
                    -0.7659931043309239,
                    -0.04202517683741949,
                    0.10476758752220078,
                    -0.9038944024124328,
                    -0.5328122093033464,
                    -0.9894535165232882,
                    -0.8719919986858458,
                    0.5811959473656589,
                    0.7193953494880891,
                    -0.48418599551491426,
                    0.968691991821574,
                    -0.3441994622967498,
                    0.910417353707757,
                    -0.5769182445257062,
                    -0.09138360065400512,
                    -0.43796721270414574,
                    0.4139058455150374,
                    -0.044570137144774924,
                    0.5636227942366419,
                    0.3552235508496551,
                    -0.43346039942628756,
                    0.06795442680010215,
                    -0.575617017488838,
                    -0.47400780803940196,
                    0.36222610783974696,
                    0.042866789008255975,
                    0.4936936346933128,
                    -0.32388723738531144,
                    -0.03432782642817893,
                    -0.7404188277537928,
                    0.3761437187004679,
                    0.8198606205909291,
                    0.17674334200901712,
                    -0.09335460833112624,
                    -0.6772765661494764,
                    0.5506645260744907,
                    -0.4737772512213278,
                    0.7937567730830616,
                    -0.14026551299114962,
                    -0.45849442317132566,
                    -0.009329592234951067,
                    -0.5307674071721508,
                    0.6870212675817876,
                    -0.2922112490797858,
                    -0.8875790282494547,
                    -0.05821050657544298,
                    -0.703286655762444,
                    -0.7599586210526819,
                    0.7132555483843145,
                    -0.3068870588610543,
                    0.3236389820451605,
                    -0.9459750198707221,
                    0.24872888210149663,
                    0.697355118373063,
                    -0.8242428080704323,
                    -0.1772339077912527,
                    0.9268633333289266,
                    -0.4593053029140772,
                    0.1486907373468497,
                    -0.07529958319217585,
                    -0.07034938123925415,
                    0.6075516750474411,
                    -0.30474910777651665,
                    -0.19071739570812113,
                    -1.0414412143501046,
                    -0.9208105353659963,
                    0.22146696886656567,
                    0.9881380628519106,
                    -0.06621440321652192,
                    0.4302518913535577,
                    -0.09971300013238117,
                    0.32864595816750525,
                    -0.2334600231141529,
                    -0.7038580251482601,
                    -0.29295037874922486,
                    0.7570085097217563,
                    -0.9165429194821615,
                    0.38581977563142067,
                    -0.9504127609120463,
                    -0.5537235480851576,
                    -0.30203024321134897,
                    0.4009815636734119,
                    -0.9253723171072358,
                    -0.5062697309594452,
                    -0.6738121504623449,
                    0.5070522028207053,
                    0.7254477863098284,
                    0.5909284047624317,
                    0.12437186601429862,
                    -0.5050934888328354,
                    -0.20625882400287102,
                    -0.4433812492809355,
                    0.991848040817967,
                    0.8700625436459425,
                    0.6241954969404724,
                    0.8063104549267546,
                    -0.19536542990680325,
                    0.8335278035865857,
                    -0.7742000493949592,
                    0.7393210595804619,
                    0.8573781488134835,
                    -0.9281754662045684,
                    0.21991472725252056,
                    -0.40888578385282365,
                    -0.21559775611610418,
                    0.4447368141371067,
                    -0.48367670217235686,
                    -0.3385478605117404,
                    -0.29796113680725844,
                    0.13577821557870115,
                    0.8368159382180346,
                    0.5822863641569547,
                    -0.56171930943475,
                    -0.5928366860814859,
                    -0.11180890672337186,
                    0.2999942327994465,
                    -0.9973486551426416,
                    0.3802892187963661,
                    0.09784962707989402,
                    -0.5775562459493747,
                    -0.9317552152545663,
                    0.4894105856909915,
                    -0.48502651148385323,
                    0.43670716818882965,
                    0.03647480640704695,
                    0.5404234543704266,
                    -0.37526747362803287,
                    0.28165975431025025,
                    0.03072301645999414,
                    -0.28622399063456605,
                    0.5689079183185622,
                    -0.382143375926543,
                    -0.8338516008943808,
                    -0.9221016512702842,
                    0.5556671677567987,
                    -0.1671778084969037,
                    0.8831270504720125,
                    0.25908111988478894,
                    0.46335402338565795,
                    -0.04763486725275277,
                    -0.8905695710606625,
                    -0.04006639840523715,
                    -0.7672804143232024,
                    -0.7698286177946322,
                    -0.2494691647811106,
                    0.16213253322323778,
                    -0.9024387684793576,
                    0.14398067691179975,
                    0.008031084263507921,
                    0.4331101592812428,
                    0.7890545356352658,
                    0.4263189092012924,
                    0.11038779654585422,
                    -0.3366315084046402,
                    0.5960458662207772,
                    -0.5143237800908129,
                    0.2420262713059574,
                    0.5061007915864935,
                    -0.47603433231922854,
                    -0.5376892409094602,
                    0.8847897015664374,
                    0.21377409795087557,
                    -0.9514661615572961,
                    0.5264271442214302,
                    -0.34757568221133706,
                    0.1634702359862126,
                    0.46913058906670724,
                    -0.7657476853208428,
                    0.7235906685846158,
                    -0.09461226411918962,
                    0.79642326661231,
                    0.2667407784818253,
                    -0.3812155790519476,
                    -0.8914844529081984,
                    0.02958930376813696,
                    -0.5226950746399902,
                    0.5934156433331341,
                    -0.441610343714374,
                    0.2272272558381877,
                    0.6258449744388107,
                    -0.059198834787752376,
                    0.7831863209151072,
                    0.10029386180687477,
                    -0.6191517124822552,
                    -0.5896433760036894,
                    -0.2075864509765812,
                    -0.3500246896741244,
                    -0.38328005864764236,
                    -0.8512844383245667,
                    0.640567644345767,
                    0.37008417465958793,
                    0.7512901002344158,
                    0.8697745609372588,
                    0.913886088640697,
                    0.14699165795933217,
                    0.8732971017185214,
                    -0.36645857791148534,
                    -0.2815685576841123,
                    0.4619884061054442,
                    0.8271637494622321,
                    -0.8773445638074994,
                    -0.9593466110474466,
                    -0.9991855751430344,
                    -0.3796154339859998,
                    -0.5450531041074659,
                    -0.042983004345666764,
                    0.20933013787282417,
                    0.9741090155755789,
                    -0.9881837359222617,
                    0.6082162226549885,
                    -0.2907539887117735,
                    -0.2971743511683352,
                    -0.4762118104325115,
                    0.8318628885508151,
                    -0.03824678657443303,
                    -0.6170686950068397,
                    -0.7804492595570934,
                    0.02433276105605147,
                    0.8461213862571944,
                    0.2763598478162925,
                    -0.7089620332980245,
                    0.6765269924642148,
                    0.029528271419572608,
                    0.058667830910696536,
                    -0.7584957350599698,
                    0.037606001587850255,
                    0.40690013448290935,
                    0.8550365191898546,
                    -0.14015523128392213,
                    0.8365641489111826,
                    -0.9853263131942782,
                    0.9870987670521367,
                    0.7293066240276549,
                    0.558252424688678,
                    0.21219305406881853,
                    -0.1752551922433071,
                    -0.9791293294803481,
                    -0.7189560266279521,
                    -0.9859535889320414,
                    -0.10843721396003782,
                    0.06861216306451609,
                    0.5190121733091884,
                    -0.8985275857276712,
                    0.5766304867976679,
                    -0.39142183579829276,
                    0.26744628163540285,
                    0.22826031346684342,
                    0.6952279089945816,
                    -0.08763462570103028,
                    0.46190734030850544,
                    0.36491072943402353,
                    -0.52021227028181,
                    -0.7008029867405148,
                    0.037196770988359884,
                    -0.699142502871241,
                    0.1261254892629984,
                    0.5089063800947004,
                    -0.23650664035935204,
                    0.35791316898939496,
                    0.9590555251684442,
                    0.3710664403268007,
                    0.05577178940314879,
                    0.12504685706439986,
                    -0.1563990378908106,
                    -0.07944108045319515,
                    0.4587308947397861,
                    -0.11543034605933762,
                    -0.6800318983984934,
                    -0.17235293470654872,
                    -0.12367543662581837,
                    -0.7698866636235956,
                    0.5562819002398773,
                    0.3447242521452767,
                    0.31455250524172745,
                    -0.24062026298777633,
                    0.4243906707401336,
                    -0.38876189169771663,
                    -0.3213226766020624,
                    -0.07567014370373416,
                    -0.6173037186913093,
                    -0.21485386345644855,
                    0.18461975996349997,
                    -0.8100466802395276,
                    0.08000922617144575,
                    0.16532357170772907,
                    0.5301437172476894,
                    0.8416760566744338,
                    -0.14965311923325347,
                    -0.6455817477919481,
                    -0.7253200399917132,
                    0.8122158726661688,
                    0.533450653230483,
                    -0.23330886242021068,
                    0.06706024508289189,
                    0.03426349946198289,
                    0.23000169377795168,
                    -0.26604374902745914,
                    -0.8352017624654587,
                    -0.4292921691731532,
                    0.3398688569890964,
                    -0.42247751347403906,
                    -0.8263947137772127,
                    0.11930751812759258,
                    -0.3587078172932757,
                    -0.27776176323158364,
                    0.38221577772311344,
                    0.46478988651636577,
                    0.32040435952756857,
                    -0.8358876254468214,
                    -0.0010832311198658588,
                    0.06685066331562645,
                    0.7515018183610738,
                    0.7072887846581232,
                    -0.3295217623291741,
                    -0.523256833337669,
                    0.9441041280972249,
                    -0.5588772262231947,
                    0.9321838600573703,
                    0.9485706177648254,
                    -0.22661347360482567,
                    0.7345302485177995,
                    0.17422651998454358,
                    0.807545612548427,
                    -0.208835172460026,
                    -0.4623275467641347,
                    -0.622372076321888,
                    -0.13339347328820172,
                    -0.9229585234205127,
                    0.4769256442000525,
                    -0.6367512968033385,
                    0.8865580826862052,
                    -0.9848261781168174,
                    -0.900693081470963,
                    -0.6316209314356559,
                    0.44793828907149646,
                    0.315443894917699,
                    0.9956567189375469,
                    0.4571315389723698,
                    -0.5997771553119063,
                    0.35068806542513165,
                    0.7489202062585442,
                    0.690916260165594,
                    0.8081346922180737,
                    0.8799407140224806,
                    0.4369995882148384,
                    -0.01333644128294394,
                    0.8780218472318505,
                    0.4330029393601276,
                    0.9054763693986666,
                    -0.9356422173438265,
                    -0.5136798606807654,
                    0.9352256630844544,
                    -0.5919715011630555,
                    -0.5208616311820679,
                    -0.8336447545883796,
                    0.32723116943293135,
                    -0.3285429863084632,
                    -0.9377513595574465,
                    0.8623786990863808,
                    -0.790587602963221,
                    -0.28464994599322196,
                    0.6158948075107861,
                    -0.26427938608004053,
                    -0.2844303041036545,
                    0.7407563687984329,
                    -0.25663957873939064,
                    0.8104419675983935,
                    0.6474618600616107,
                    -0.40600829628159735,
                    0.2674292120018335,
                    -0.9182045090452859,
                    -0.37514776545765344,
                    -0.33736317918827496,
                    0.009165790479782833,
                    -0.45850500424717144,
                    -0.38389489103097224,
                    -0.27875615771657364,
                    -0.23158895348280367,
                    0.4862131328601972,
                    0.941717276484945,
                    0.6883821312031905,
                    -0.02316605552861596,
                    -0.5070040376552711,
                    0.004055376248977048,
                    0.4342574183068157,
                    0.639151066097026,
                    -0.8486894358821254,
                    -0.6016548505545528,
                    -0.2737144809819526,
                    -0.1333270013299889,
                    -0.2409449696652459,
                    -0.46250215238000975,
                    0.41222522098564574,
                    0.31755100762340543,
                    0.039962389937172875,
                    0.7220134847935452,
                    0.04631201660641945,
                    -0.0008588047172974672,
                    -0.7104323757890793,
                    0.5498068540470253,
                    0.14276195385357235,
                    -0.8806525892426185,
                    -0.39826007897293336,
                    0.9831709867881189,
                    0.9040378934585994,
                    -0.10911175559901566,
                    0.4124448368130916,
                    0.7530525533902657,
                    -0.7787045912836202,
                    -0.06430593598995996,
                    -0.6626582262468173,
                    -0.6121157843188744,
                    0.4746896988844531,
                    0.7876108447959224,
                    -0.8884025026342961,
                    0.2175140579727461,
                    0.05422961587015591,
                    0.017967729482248642,
                    -0.884486721642816,
                    0.4460104448656768,
                    0.3266434332544809,
                    -0.36191185305110485,
                    -0.44497874480088023,
                    -0.5087314586683206,
                    -0.6641911586372282,
                    0.535497323293296,
                    0.36305687425364064,
                    -0.17094192735875577,
                    0.8276319071420088,
                    -0.4871407747872773,
                    0.3470700672401992,
                    0.6648783099435662,
                    -0.7849907997038871,
                    -0.3199220982834885,
                    -0.5226180145450307,
                    0.47952292337591346,
                    0.7992149170726932,
                    0.478767300177541,
                    -0.20495762279894933,
                    -0.798587440546021,
                    -0.5228974497226848,
                    -0.40015902583641855,
                    -0.5669506449413548,
                    0.23316646043735165,
                    0.7106579620921338,
                    0.9552278905679868,
                    0.2598295787637547,
                    -0.31888823168262803,
                    0.45991666378020124,
