{
    "network-1": {
        "layers": {},
        "valid": true,
        "status": "active",
        "network": {},
        "trained": true
    },
    "network-2": {
        "layers": {
            "layer-1": {
                "errors": [
                    "Input size must be a positive integer",
                    "Input size must match network input size of 10",
                    "Output size must be a positive integer"
                ],
                "layerConfig": {
                    "activation": "sigmoid",
                    "inputSize": 0,
                    "outputSize": 0,
                    "type": "recurrent"
                },
                "layerName": "Recurrent Layer",
                "layerType": "recurrent",
                "valid": false
            },
            "layer-2": {
                "errors": [
                    "Input size must be a positive integer",
                    "Output size must be a positive integer"
                ],
                "layerConfig": {
                    "activation": "sigmoid",
                    "inputSize": 0,
                    "outputSize": 0,
                    "type": "recurrent"
                },
                "layerName": "Dense Layer",
                "layerType": "dense",
                "valid": false
            },
            "layer-3": {
                "errors": [
                    "Input size must be a positive integer",
                    "Output size must be a positive integer"
                ],
                "layerConfig": {
                    "activation": "sigmoid",
                    "inputSize": 0,
                    "outputSize": 0,
                    "type": "recurrent"
                },
                "layerName": "Recurrent Layer",
                "layerType": "recurrent",
                "valid": false
            },
            "layer-4": {
                "errors": [
                    "Input size must be a positive integer",
                    "Output size must be a positive integer",
                    "Output size must match network output size of 1"
                ],
                "layerConfig": {
                    "activation": "sigmoid",
                    "inputSize": 0,
                    "outputSize": 0,
                    "type": "recurrent"
                },
                "layerName": "LSTM Layer",
                "layerType": "lstm",
                "valid": false
            }
        },
        "valid": false,
        "status": "inactive",
        "network": {},
        "trained": false
    },
    "network-3": {
        "layers": {
            "layer-1": {
                "errors": [],
                "layerConfig": {
                    "activation": "sigmoid",
                    "inputSize": "10",
                    "outputSize": "5",
                    "type": "recurrent"
                },
                "layerName": "Recurrent Layer",
                "layerType": "recurrent",
                "valid": true
            },
            "layer-2": {
                "errors": [],
                "layerConfig": {
                    "activation": "sigmoid",
                    "inputSize": "5",
                    "outputSize": "1",
                    "type": "recurrent"
                },
                "layerName": "Recurrent Layer",
                "layerType": "recurrent",
                "valid": true
            }
        },
        "valid": true,
        "network": {
            "0": {
                "input_size": 3000,
                "output_size": 1,
                "weights": [
                    [
                        0.036506033432623444,
                        0.33158627909628646,
                        -0.9063021122554761,
                        -0.22061436758685643,
                        -1.1248031912623433,
                        -0.4657295508219636,
                        0.3976711166739311,
                        -0.016083756360976295,
                        -0.5517510390678929,
                        0.42739453930456295,
                        -0.52078521163623,
                        0.20716016940097104,
                        -1.5074714057262366,
                        -0.3914189715067391,
                        0.30588737623554757,
                        -0.32394981914570836,
                        -0.5536150482333302,
                        -0.4544544764228461,
                        0.137003408551964,
                        0.08736477138417106,
                        0.8034650767508151,
                        -0.2704884294662386,
                        0.3583111302971035,
                        0.1372391321369733,
                        -0.5769122716791681,
                        -0.006900939302204023,
                        -0.3617906792712732,
                        -0.3145851969961868,
                        -0.6614142528325264,
                        -1.2764826664682427,
                        -1.4736168201017037,
                        -0.31159240063278293,
                        -0.1698793112982618,
                        -0.24606080671507363,
                        -0.47519966336430347,
                        -0.42902291869858183,
                        -0.15055747653177295,
                        -0.6038723379707722,
                        -0.4407008236967771,
                        0.8478693759747927,
                        -0.06502194173013215,
                        0.4897667415462851,
                        0.4752252659302048,
                        -0.09348023584897765,
                        0.7845653049818402,
                        0.543545817996096,
                        0.29965624150905223,
                        0.39548035491449435,
                        0.5761697120743561,
                        -0.40332735926154717,
                        -1.0188464731915254,
                        -0.31938967582925365,
                        -1.1630017069476957,
                        0.5888716090347168,
                        0.8715873975017846,
                        -0.19036312345003362,
                        -0.3784535040198525,
                        -0.6303707859975493,
                        0.25070777445896736,
                        -0.21483915582262295,
                        0.06890885757246552,
                        -0.7978775150330104,
                        1.0613055270064733,
                        -0.3621181225460366,
                        0.18519007118810238,
                        0.5137770317611331,
                        -0.6743322494413941,
                        -0.8616949431553848,
                        -0.4359736055704749,
                        -0.5955829863732233,
                        -1.0716827583814554,
                        -0.36779740927713594,
                        0.05463700996933799,
                        -0.7930187400102736,
                        -0.5736992070299124,
                        0.5040204739271471,
                        0.05490582380033979,
                        -0.4674882496241708,
                        0.06304803265949269,
                        0.6667370337006123,
                        -0.4311150483750883,
                        0.17308770328970688,
                        0.9437790148756624,
                        0.11024232230059795,
                        -0.17952882489941877,
                        0.6761219822465717,
                        -0.03777692602590702,
                        -0.6014796345342984,
                        0.7803657450897097,
                        -0.08444764508448381,
                        0.45288905982858224,
                        0.9964363547057536,
                        1.0942094462365701,
                        -0.4484346909022578,
                        0.10014054405998718,
                        0.6029779296274286,
                        0.05642283806522127,
                        0.5731797930173398,
                        -0.9111568324021452,
                        0.7447721183005381,
                        0.7323319383750281,
                        -0.514992075876719,
                        0.12797947474358393,
                        0.5026920484979635,
                        -0.780494502355122,
                        -0.3721165053028617,
                        -0.8173537196115782,
                        -0.4095575662705425,
                        0.7153745841839401,
                        -0.2733280696117718,
                        0.5544237362339398,
                        -0.6919334756295727,
                        0.9202848367678634,
                        -0.8756107081649193,
                        0.06737946324722274,
                        0.5466916362249374,
                        -0.9163234515509371,
                        0.23903338048290243,
                        0.06066146540236811,
                        0.09007328324846983,
                        -0.5186207126525331,
                        -0.6142976287649623,
                        -0.13994028449292598,
                        0.7968802715869332,
                        0.619187210731952,
                        0.44621234529332615,
                        0.06455818643314502,
                        -0.27306650378280756,
                        -0.637429808168999,
                        -0.7563250286753525,
                        -0.260906996858124,
                        0.6079035245553974,
                        -0.08886104987251466,
                        0.26475981344562455,
                        -0.4367136136897612,
                        -0.13158955021238164,
                        -0.969362364733539,
                        -0.3642988773635569,
                        -0.35442545485152027,
                        0.12258016482375493,
                        0.1640036285405231,
                        -0.7453198765946051,
                        -0.365293110693007,
                        0.6782690374537478,
                        -0.5592917679499125,
                        0.5966306103437587,
                        -0.05604793565464507,
                        -0.3020851150825824,
                        -0.9034384722980293,
                        0.16981451739113237,
                        0.32922941466184147,
                        0.279994615858856,
                        0.03939939794376167,
                        -0.6386784748789599,
                        -0.8762158672759693,
                        -0.024600285513198986,
                        0.38392565087214,
                        0.20755434497108652,
                        0.5474676790154078,
                        0.44635587252070413,
                        -0.41114877438626757,
                        -0.5827308351212664,
                        -0.2519321248711693,
                        -0.07378614055239292,
                        -0.7449913667665303,
                        0.3681336172162624,
                        -0.17262869394278113,
                        0.5268121172343262,
                        -0.23793074327029934,
                        -0.8795338135195052,
                        0.3440154980682769,
                        -0.2854476335970736,
                        0.2514921562745719,
                        -0.6645048969420035,
                        -0.509043985846853,
                        -0.012985706544503619,
                        -0.22651682015139965,
                        0.7526935256471333,
                        0.7215109344180427,
                        0.2103390828161439,
                        -0.43638502935450124,
                        -0.7827346729538125,
                        0.715546237964659,
                        -0.6946217754852542,
                        0.78484622917773,
                        -0.7830283052345026,
                        0.601922030357854,
                        0.0916766669860535,
                        -0.08184488854622915,
                        -1.0811019075087815,
                        0.4842358692739586,
                        -0.7774491721253541,
                        -0.18220047728718036,
                        -0.8483233872074725,
                        0.4335376439822698,
                        -1.0156991154353836,
                        0.8230565738184195,
                        -0.35443346859102837,
                        0.5640369859278919,
                        0.5276850396977768,
                        -0.22837157093778054,
                        -0.25916340504027896,
                        0.6511947661305847,
                        0.9483112487808112,
                        -0.2426186891213573,
                        -0.3947842767320565,
                        -1.011668182681677,
                        0.4863524782256831,
                        0.5596736473546896,
                        0.7072050283486498,
                        -0.5744705798313391,
                        0.5574734418795169,
                        0.541377219683528,
                        -0.06427385963166836,
                        0.42641832957713344,
                        0.3875581378962964,
                        0.6856402391473728,
                        -0.6242600999610128,
                        0.1428813222467239,
                        -0.26364402799595044,
                        0.5758544277347354,
                        -0.10039625732038346,
                        0.2896832131626764,
                        0.04599194365418041,
                        -0.09160202287067938,
                        0.15421775332271595,
                        -0.6050100797261456,
                        0.3407575758396421,
                        -0.48018828004097236,
                        0.015237161004770527,
                        0.16835451898507744,
                        -0.3701323277466906,
                        0.8559964565953111,
                        0.6117553861545089,
                        0.21582292254285873,
                        0.6650221562934386,
                        -0.4225381213973895,
                        0.4188501639307328,
                        -0.975365461725914,
                        0.29864503865561626,
                        0.6228302704597025,
                        0.23530477164688154,
                        0.6972901161700631,
                        0.6668365264767964,
                        0.5875502386135739,
                        -0.5870898885858669,
                        -0.6765021557674107,
                        -0.6741154938922278,
                        -0.7689153595990192,
                        0.8237596670150954,
                        -0.9891119870526757,
                        0.6976939238851187,
                        0.5283903861317998,
                        -0.5860888558581765,
                        -0.24500019630569303,
                        -0.9936402673589766,
                        0.5506826817827257,
                        -0.8696592590787707,
                        -0.03970576475590794,
                        -0.7254803270066029,
                        -0.12419986889045735,
                        -0.3848372270909346,
                        0.5231657342621643,
                        -0.6894668528664257,
                        0.6275702196531573,
                        -0.06862878302055288,
                        -0.015550863618160292,
                        0.41588733148023477,
                        0.45478159370816634,
                        -0.310273675149455,
                        -0.2707910288822524,
                        0.43720473632261875,
                        0.6333773564674302,
                        0.11771572667427246,
                        -0.16384047648230188,
                        -0.9760779745387309,
                        0.6514714822582548,
                        -0.39493965863025077,
                        0.8165994625619908,
                        0.5580384480982739,
                        0.23447333737979134,
                        0.9111391887304698,
                        -0.4027453000292576,
                        0.9390256623052995,
                        -0.05982865116691183,
                        0.6171851575586392,
                        0.7337450650967212,
                        -0.5752097687353183,
                        0.34656160195582125,
                        -0.4089873876011028,
                        0.7980894278597066,
                        0.7164285322895043,
                        0.07790812812424404,
                        -0.6069601213027128,
                        1.0072199470645267,
                        0.4787452071962455,
                        -0.29467072815624146,
                        0.13225499126021079,
                        0.1759813125297541,
                        -0.11728874984273649,
                        -0.563103239099936,
                        0.6750977063585524,
                        -0.9753242397788537,
                        0.7916754020539415,
                        0.1496679432048359,
                        -0.6431186019129164,
                        0.1764439296376396,
                        -0.07933553075138429,
                        0.41390717053617254,
                        -1.03959406012041,
                        -0.06241259313817872,
                        -0.1329007172757196,
                        0.5562401483352051,
                        -0.3467568441363832,
                        -0.9735151401778567,
                        -0.4676608470793859,
                        0.6599935233573567,
                        0.04848749083727043,
                        -0.2731791999833458,
                        -0.09861140890987542,
                        0.8880353601107479,
                        -0.37260062664008836,
                        0.4627329747268372,
                        0.573229679314913,
                        -0.11529833657935874,
                        0.3415095131165325,
                        -0.25134347852868144,
                        -1.144451368017253,
                        0.7553349057894156,
                        0.10013530231114874,
                        0.5708074908824942,
                        -0.15531707888163543,
                        -0.5025162359813135,
                        -0.8124995424541246,
                        -0.7310419936038725,
                        -0.929490984717855,
                        0.6883645427774818,
                        0.0803753235515775,
                        0.4552154585510437,
                        0.5837300705646047,
                        -0.7927050769086834,
                        -0.5465820003103685,
                        -0.7670586581092868,
                        -0.43090120814671806,
                        0.6873635863440776,
                        0.3574757159020157,
                        0.2779152491752624,
                        -0.7258963652172643,
                        -0.5554796286665007,
                        -0.2195151792406176,
                        -0.2893245722822787,
                        0.8355019695278073,
                        -0.7922696572693297,
                        -0.7411799169132878,
                        -0.12245180955283384,
                        0.3155986072622504,
                        -0.049178150262730355,
                        0.17629256127076925,
                        -0.8784313559927731,
                        0.7312816534926986,
                        0.5380074405427703,
                        -0.9601210518391873,
                        -0.8808345726105208,
                        0.5950710765482117,
                        -0.3994101809407536,
                        -0.46244161720423627,
                        0.4837202291176825,
                        -0.2942973100675279,
                        -0.2483782961067847,
                        0.3267224784337851,
                        -0.449578092408878,
                        0.5894354554553439,
                        -0.9472414517068295,
                        0.9098442842305479,
                        -0.05824325306006527,
                        0.03802968976489635,
                        0.4929864339638954,
                        -0.833260003846619,
                        0.8689174982279766,
                        -0.8867277735868726,
                        0.8136544569630548,
                        -0.31645698534189654,
                        0.6289097058927812,
                        -0.16479482651245114,
                        -0.7654666849044381,
                        -0.6688617786961873,
                        0.1033244908064801,
                        0.28693535150077476,
                        -0.1487684478383508,
                        0.4551463395494818,
                        0.5277530304730406,
                        -0.19351030333855948,
                        0.0114519721894329,
                        0.37877331181323537,
                        0.3662672586953804,
                        -0.1774986404797066,
                        0.7885684717677481,
                        0.7906301267020015,
                        0.15926616684687459,
                        -0.7862492116300328,
                        -0.6687776012695307,
                        -0.17886666464436207,
                        0.1962865151172012,
                        -0.5702828956299043,
                        0.43595994453969406,
                        -0.6469288376153332,
                        0.9177972047718138,
                        0.8479396878283805,
                        0.43254548266462134,
                        0.772859353500282,
                        -0.7884871631173115,
                        0.8440598576809779,
                        0.8171879320961566,
                        0.40000401164499,
                        -0.6207952741518652,
                        0.42836070502859713,
                        0.9898167011221402,
                        -0.5000527231786253,
                        -1.4240043682090402,
                        0.24140214742935212,
                        -0.4772693013068813,
                        0.48323794676960374,
                        0.049201521539840115,
                        0.4419763283204571,
                        -0.4656481615450137,
                        0.272075914070039,
                        -0.406628970346017,
                        0.07490709967847477,
                        0.4658146513932562,
                        0.2010466950017729,
                        0.27709721109963587,
                        0.8563606196844757,
                        -0.9445205342398919,
                        -0.10316061030873139,
                        -0.15819886890710766,
                        0.005083647782166074,
                        -0.9840489450060224,
                        0.7465223738117982,
                        -0.9180573529540301,
                        0.7044216353804598,
                        -0.8694256935721868,
                        -0.2570198712133326,
                        -0.3719751879859744,
                        -0.037984945993934566,
                        0.7388754609136108,
                        0.8397421446298582,
                        0.1970669625610575,
                        0.45608693679469153,
                        0.35700420207211336,
                        -0.49620571313862644,
                        -0.9775138240577119,
                        -0.5165703149335019,
                        0.17809963327793693,
                        0.0113868537300035,
                        0.4602142788114732,
                        -0.6055496059101109,
                        -0.6033706133230435,
                        -0.5746958211365643,
                        -0.14004315278061538,
                        -0.7295986817475419,
                        0.5722989885959587,
                        0.19172090188853788,
                        0.04416918539203219,
                        0.6419956845958233,
                        -0.930032190201067,
                        -0.9700735996168666,
                        -0.6307012740627296,
                        -0.46522977017303385,
                        0.7618449721323721,
                        0.25740785439436137,
                        0.4701871107748066,
                        0.7176877283303064,
                        -0.044833311152844904,
                        0.3658113356874782,
                        -0.8758667727528895,
                        0.4490237133482721,
                        -0.7298491903616611,
                        0.09085677843710964,
                        -0.20206109694634203,
                        0.3036335403632206,
                        -0.0909287540976427,
                        0.2955612482825605,
                        -0.36558170945771734,
                        -0.19912977700502166,
                        -0.02577035284445668,
                        0.21966854188309975,
                        0.4046375433002996,
                        0.22238328090066173,
                        0.1631925166513438,
                        -0.9566797620299807,
                        -0.06652693508478734,
                        -0.1872012861910394,
                        -0.9247032504684434,
                        0.0375138079294747,
                        -0.23873540407185012,
                        0.703749571629758,
                        0.3712839454593695,
                        -0.06372843893692272,
                        0.5554096565871679,
                        0.5691502594946551,
                        0.039516837631274636,
                        -0.618486420304553,
                        -0.06060064482057692,
                        0.5167306724077876,
                        -0.7497711715178405,
                        -0.38651287444731686,
                        -0.9019719702527743,
                        -0.2838931396922639,
                        -0.06437131226174247,
                        -0.637163100974359,
                        0.162880108434631,
                        0.7785496496469699,
                        0.6714094959136591,
                        -0.340384344521012,
                        -0.24233325763125343,
                        1.1016634690516744,
                        0.46109430428081377,
                        -0.030790760367815535,
                        0.9486795673670296,
                        -1.0779157567132407,
                        -0.3255571733776049,
                        -0.1668168767678243,
                        0.5053140935460225,
                        -0.5808062026162685,
                        -0.6756172022020477,
                        -0.6617669615824998,
                        -0.1219636382019378,
                        0.678497530980173,
                        0.34203064112486736,
                        0.18053834054095927,
                        -0.3126734976031699,
                        -0.3634877176543525,
                        0.33541070095372033,
                        -0.9661704849957167,
                        0.4763217528590436,
                        -0.17875707040494557,
                        -0.9216756139414731,
                        -0.03157616209809259,
                        0.6268289260467664,
                        0.4338477254505097,
                        0.6715263343594977,
                        -0.6886159425780282,
                        -0.03592255336847048,
                        -0.8257686338147876,
                        -0.5346468992460182,
                        -0.30042060947399446,
                        0.12414625253626586,
                        0.3760145507533318,
                        0.27277986953050326,
                        -0.30807247542749877,
                        -0.7001598238256517,
                        0.0838449315400541,
                        -0.1289295968522613,
                        -0.003498724814468809,
                        -0.9536628066862198,
                        0.05562498177348829,
                        -0.396832696598532,
                        -0.37392128069749475,
                        0.679964191024246,
                        -0.5146741300513167,
                        0.005485830762527902,
                        -0.09884631201351243,
                        0.9872694622337881,
                        -0.5495104944216473,
                        0.9832410730459774,
                        0.24063388831511742,
                        0.929024871682304,
                        -0.7873015786956512,
                        0.35271194050126387,
                        0.11244236761646131,
                        -0.1748490009466605,
                        0.6874432671413215,
                        0.07492886133881868,
                        -0.8002039672397044,
                        0.12153222148436904,
                        -0.6281706870420307,
                        -0.26176460254575085,
                        0.02671678052506266,
                        0.08479572664134204,
                        -0.02646171792487803,
                        0.66828976084929,
                        -0.5297480539295866,
                        0.02431692761519479,
                        -0.8321240158040134,
                        -1.061450191187266,
                        0.9119713504769852,
                        -0.7846096326673989,
                        -0.2111521494118776,
                        -0.5800536764717773,
                        -0.9030859015073132,
                        0.19197576625647247,
                        0.9030412152754036,
                        0.24721685891451078,
                        -0.013758920956434039,
                        0.2983040846969724,
                        -0.3742748079128262,
                        0.09518876133984631,
                        -0.08943720463545116,
                        -0.810849723253211,
                        0.8289130489480683,
                        0.4941696611540378,
                        0.8617079196335728,
                        -0.41117086165172345,
                        0.835480930608109,
                        -0.8567899850499322,
                        0.6825152907433159,
                        0.42701712448829277,
                        -0.7277657663076988,
                        0.6495966283807872,
                        0.4155500365207389,
                        0.0726859693946546,
                        -0.4207122129900641,
                        -0.4306642741629467,
                        0.9547797574842841,
                        -0.5408839727430761,
                        -0.6395095694204546,
                        -0.2535449263184448,
                        0.30834276598749816,
                        -0.44070585988996275,
                        1.0174260942587179,
                        -0.5973464895634314,
                        0.057943822003420166,
                        -0.2596965338663303,
                        -0.44049559707876884,
                        0.6158484609229475,
                        -0.7106011862645577,
                        0.6281867119147068,
                        -0.45168872846370034,
                        0.3104728408652629,
                        0.47527141520787924,
                        -0.8596359073516123,
                        -0.8587663190130324,
                        0.8325845193026913,
                        0.9713263356639386,
                        -0.5978894025260819,
                        0.7998467795459051,
                        0.5271131269064045,
                        -0.8157167554323254,
                        -0.46548576870772596,
                        0.6244168587735137,
                        0.5453995383807185,
                        0.6248375329045532,
                        -0.9436613309706872,
                        0.18335957727131652,
                        -1.078159101501142,
                        -0.5303064083013987,
                        -0.18479055524110716,
                        0.38378566070820486,
                        -0.2010367642529383,
                        0.074426888661996,
                        0.10708161767606308,
                        -0.4169953964711208,
                        0.8255610650893034,
                        0.8638406915199303,
                        0.8544762745381964,
                        0.28049847842362113,
                        0.8640597448708479,
                        0.9509121406526777,
                        1.080681510244462,
                        -0.4985859256414312,
                        0.348096292322421,
                        0.46791196177827205,
                        -0.9159370928810651,
                        0.08679156432378678,
                        0.6126952481510208,
                        0.06344235364609563,
                        -0.8896073515085767,
                        0.4273527047417075,
                        0.3537517739527459,
                        0.4129340342213737,
                        -0.38914658931805635,
                        0.11904335306935235,
                        0.5562955156964174,
                        1.039935422981225,
                        -0.25666676304400654,
                        0.7014722965380147,
                        0.766132860308432,
                        -0.20113248645494,
                        -0.3238037106407603,
                        0.0368786505968117,
                        -0.6164130198876712,
                        -0.15362314822604423,
                        -0.5063455515161162,
                        0.6137786844410157,
                        -0.3807661815180981,
                        -0.7589501366706993,
                        0.20160969113979427,
                        -0.027882026429531425,
                        -0.3933681322442997,
                        0.10002627927179496,
                        0.8110792600273377,
                        0.3565954195847224,
                        -0.19133089509812876,
                        -0.4532915313593058,
                        -0.3697821491159664,
                        0.5084617875969606,
                        -0.2892111143140252,
                        -0.3019032674235204,
                        -0.9260533014088367,
                        -0.26658365670096035,
                        0.2697971742179233,
                        -0.5669843884696382,
                        -0.8826869192351974,
                        -0.544394075518223,
                        0.09733856607257452,
                        0.33511873324498964,
                        -0.5868580734057305,
                        -0.23297765064166107,
                        0.9853734807844949,
                        -1.1697230184253737,
                        -0.38790590091430893,
                        -0.6568511544296449,
                        0.5676868794463131,
                        0.11858486055148343,
                        0.7879082339219721,
                        0.3050011792013307,
                        -0.3736029885197909,
                        -0.8779488155694367,
                        0.34977688028047776,
                        -0.5500069604632286,
                        0.945619301587864,
                        0.6930944372160841,
                        0.5221797234773525,
                        0.14141362022726647,
                        0.36720797465151095,
                        0.353471779977681,
                        -0.811627115862975,
                        -0.4822841118094635,
                        -0.8514116879803713,
                        0.7658206831018681,
                        -0.6290103815190689,
                        0.30939725741021273,
                        0.13040026421539233,
                        -0.4204050854298461,
                        -0.7370284848863302,
                        -0.1089430072709987,
                        0.37561888570096147,
                        0.541438195312694,
                        0.10854878967713613,
                        -0.6502974396549392,
                        -0.4576337819536928,
                        -0.9285079875968469,
                        0.0166505679402632,
                        0.04106631125313871,
                        0.6285653166605648,
                        0.6976193928783677,
                        -0.4799135739630045,
                        -0.9637570230043548,
                        0.2946833117035727,
                        -0.26434223173547944,
                        0.1005924480448752,
                        0.9033392247176174,
                        -0.5202243856134462,
                        0.3367583176585875,
                        1.055954440702582,
                        -0.5947550710691571,
                        0.8046506883464916,
                        0.12338606337057335,
                        0.5010292493902005,
                        0.13673767884424873,
                        0.46774001791304975,
                        0.48709470392111565,
                        0.9789082526407985,
                        0.28922927698009937,
                        -0.24993354188214684,
                        -0.05811075151373443,
                        0.881560363550061,
                        -0.4218385108909954,
                        -0.9196974871016916,
                        -0.16773088522625987,
                        0.5575521874470518,
                        0.25025949521732205,
                        0.13918640221821513,
                        1.1144499900662357,
                        0.2899060417921246,
                        -0.5052858608979737,
                        0.15109338238492123,
                        0.6632316576562277,
                        -0.13239338552934884,
                        0.0826763269195286,
                        0.42762578670881557,
                        0.502109298850424,
                        0.8026599311727282,
                        0.14409157137848144,
                        0.07044196196371992,
                        -0.02105099185747431,
                        0.021841282744259703,
                        -0.6121886949457509,
                        0.31400608225610066,
                        0.28215002682546125,
                        -0.15783962867463472,
                        0.6394220030699338,
                        0.19590073667503585,
                        -0.8167031966623476,
                        0.23255714406528383,
                        -0.7210155720628242,
                        0.6548346720392099,
                        0.8617949559532816,
                        0.8586204823851795,
                        -0.7920016075629205,
                        0.18846782762769854,
                        -0.7587309006721896,
                        0.33435265717847923,
                        0.07844440432951824,
                        1.0241961736915828,
                        0.5140642246344818,
                        -0.3086474435852348,
                        0.6163915549056246,
                        -0.4673205394983013,
                        0.15000539292136988,
                        0.12375548349317372,
                        0.2459763463949094,
                        -0.3756236805335495,
                        0.25537258990937445,
                        0.7669837015191717,
                        -0.053170229810823685,
                        -0.8207454699553391,
                        -0.014888271931753322,
                        -0.5257612216073105,
                        0.9393901771212618,
                        -0.4512185041077481,
                        -0.6824013989734681,
                        -0.18106834403965671,
                        0.6847859859179151,
                        -0.9164833480800556,
                        -0.052956859050171994,
                        -0.4379717718687394,
                        0.6955947788314887,
                        0.216468319581234,
                        0.11610578512924441,
                        -0.842841576390129,
                        0.5423396487249682,
                        -0.9197773856921512,
                        0.45036677151143456,
                        -0.2402742341740217,
                        -0.25265546492165253,
                        -0.8784093982631123,
                        0.21878926783160274,
                        0.10259562187094498,
                        0.7956186942344382,
                        -0.7661133300019772,
                        -0.9798304606942783,
                        0.6381171003469311,
                        -0.043851105857301745,
                        -0.38060015827324006,
                        -0.6042977200784717,
                        -0.11618981252942483,
                        -0.41594155416446155,
                        -0.11803526001654614,
                        0.6592006227116047,
                        -0.991929135282451,
                        0.2284448924407858,
                        -0.5960904749443527,
                        0.2782400037214495,
                        -0.044901782150364146,
                        -0.9542848574143998,
                        0.5029759838472737,
                        -0.585182969951202,
                        0.5875683956691631,
                        0.6132060867903335,
                        -0.07873347204824531,
                        0.08466372203431173,
                        0.13661089524907677,
                        -0.46201964100248605,
                        0.9133188443361013,
                        0.43098918346427023,
                        -0.6563878763354236,
                        0.4704672515488436,
                        -0.9601010472027275,
                        0.7052350640155686,
                        0.2987687471890232,
                        -0.813087813381477,
                        0.9672949142682262,
                        -0.9199574795794299,
                        0.839577540704676,
                        -0.11073651537916758,
                        -0.5419743064776196,
                        -0.12923768186266754,
                        -0.354236988722764,
                        0.6688042307107487,
                        0.06512058706737187,
                        -0.27922257228623937,
                        0.8974193343478857,
                        -0.2787727913558075,
                        0.8993658044254667,
                        0.6462429141544369,
                        -0.373818787065021,
                        -0.4357923119770026,
                        -0.6645426610255798,
                        -0.018539205860710367,
                        -0.6037810494980889,
                        -0.4869083490024259,
                        0.06837255293687572,
                        -0.7335214461758541,
                        -0.5687531604588126,
                        -0.755688951284489,
                        0.22962386003183818,
                        -0.25873255521496913,
                        0.708781342351395,
                        -0.7408092520657902,
                        -0.3433910622103035,
                        0.9701300039432391,
                        0.6655143387212515,
                        -0.7934234279548809,
                        0.33583383994160465,
                        0.7461631648631223,
                        -0.42927048878418966,
                        0.08626246189039899,
                        0.7798996643436928,
                        -0.963150526474536,
                        -0.5571115439793167,
                        -0.8966971144779604,
                        0.9281069422714008,
                        -0.13748089358373966,
                        -0.39042296009605065,
                        0.5534946365300856,
                        0.6404049773268673,
                        0.8750024150832493,
                        0.5964311031807987,
                        -0.8451332405431462,
                        0.8825560302243707,
                        -0.3450709571642166,
                        0.19234304344656936,
                        0.12634906308815438,
                        -0.12555242179790838,
                        -0.44476200721066905,
                        0.08785175491447686,
                        0.3914732930611868,
                        0.3358769317748714,
                        0.826234136707388,
                        -0.7534153842640704,
                        -0.8801326797438496,
                        -0.14696576334306002,
                        0.206746888475266,
                        -0.6579107657140981,
                        -0.3582943693353908,
                        -0.20110419943863522,
                        0.52868569134998,
                        0.44555259088735977,
                        -0.23556630919061877,
                        -0.46089556250286573,
                        0.017054950748179264,
                        -0.10845795800659791,
                        -0.8852516994482251,
                        -0.8247942375223669,
                        -0.7371248936248789,
                        0.6383488601278463,
                        0.24939410852027122,
                        0.1829158169794557,
                        0.6138050348730307,
                        0.5019087484417065,
                        0.5075381732027888,
                        0.014284727271314482,
                        -0.9697077439601229,
                        0.1436121229614106,
                        -0.2718579795530891,
                        0.3699498188831983,
                        0.2657295514271257,
                        -0.9677911189440239,
                        -0.18239896033434153,
                        -0.8992824422995545,
                        0.7224340275171196,
                        -0.6268748655761863,
                        0.0152184805349393,
                        0.2355341612030845,
                        0.6409440627497477,
                        0.3068510968570336,
                        -0.9369755002939528,
                        0.9618963071423673,
                        0.36965721385194017,
                        0.3832914334767172,
                        -0.0042458628665598755,
                        -0.06375375664920474,
                        -0.8085123850813715,
                        0.20310898875596042,
                        -0.048306561439158076,
                        0.029012106964192555,
                        -0.44167693098680905,
                        -0.6055064879023379,
                        -0.39651286366160826,
                        0.7699938602112144,
                        0.03548381901700044,
                        0.03153126034846204,
                        0.618075306633938,
                        -0.6447254789892468,
                        -0.31695150964695484,
                        0.7819055103900745,
                        -0.4087732744770495,
                        -0.539165953369245,
                        0.17196895875632823,
                        0.8126488581277385,
                        0.6122667453276752,
                        -0.14789619103850526,
                        0.9331915627754537,
                        0.5219570413445386,
                        0.4898476131262129,
                        -0.5018115893854794,
                        -0.1069274601868021,
                        0.1775226250694246,
                        -0.7767467977711591,
                        -0.25029813038672655,
                        0.6100377925876258,
                        0.03632386777522003,
                        -0.8544157669977005,
                        0.19674850857072787,
                        0.4467140181027964,
                        -0.08524338301604231,
                        0.413574246627014,
                        -0.8310527815743867,
                        0.540924624720156,
                        0.5906014905576518,
                        0.24655340827662298,
                        0.45819286834188355,
                        0.6292787393218123,
                        -0.5479246332064218,
                        0.2742810321105421,
                        0.5921851356801194,
                        0.4297586666558597,
                        0.299303370395665,
                        0.14217610719361679,
                        -0.3216146041117784,
                        0.7692772618707876,
                        -0.5961020742498612,
                        0.6547074998184788,
                        0.19613643716440138,
                        0.2133548176766387,
                        -0.9761303878022177,
                        -0.06627154494040595,
                        -0.7019089775737016,
                        -0.9286423365140597,
                        0.4487777239765612,
                        0.6401206883826427,
                        -0.6662365329251129,
                        -0.6745069959769091,
                        0.49751185532531667,
                        0.9070990128194006,
                        -0.9816588920279982,
                        -0.0799963363370148,
                        -0.747505600776292,
                        -0.37945189509802757,
                        -0.4715510484977297,
                        0.5495644099962671,
                        0.8160995915376013,
                        -0.9947635658899014,
                        0.10022342318667689,
                        0.5802648966101872,
                        -0.5100450283077442,
                        -0.17540602047453116,
                        0.5302291332086048,
                        -0.6595120803217726,
                        0.6424298395482126,
                        0.5984646393066481,
                        -0.664818626083418,
                        -0.666149136983353,
                        -0.08653436665853984,
                        0.24894948898408212,
                        -1.0260125309345511,
                        0.770457754337652,
                        0.8159716802323577,
                        0.5393446291490736,
                        -0.04017128486091191,
                        0.8407985031749206,
                        0.7095240841101568,
                        -0.8314406357354722,
                        0.7883723710909996,
                        -0.9225633836132506,
                        0.1150495935990199,
                        -0.7550256839738075,
                        0.8426406162349834,
                        0.43316585155430937,
                        -0.039777800543654866,
                        -0.008459672935719514,
                        0.06590735306262234,
                        -0.2221745612600156,
                        -0.8319235467115722,
                        0.18557236368601382,
                        -0.1936847729284353,
                        -0.7918076394916429,
                        0.6517120612968883,
                        0.3021087196816227,
                        0.04609536343439187,
                        -0.057105126282391894,
                        -0.663197599230104,
                        -0.4237052398532753,
                        0.7883095205842143,
                        0.6172452559973329,
                        -0.0657638614513111,
                        0.7868292126713922,
                        0.24308123446157168,
                        0.1693952945513731,
                        -0.11159280771877134,
                        0.7406519830536018,
                        0.9260093734179826,
                        -0.02813162989932364,
                        0.2397067214154237,
                        -0.6949260105254511,
                        1.05566632699109,
                        -0.2794159358520752,
                        0.3138968036887928,
                        -0.5272977674195831,
                        0.050585145784403,
                        -0.5939873752855888,
                        -0.26322411313968586,
                        0.7603369140701358,
                        0.6224423929290863,
                        -0.9877753230110702,
                        -0.5999113824188547,
                        -0.32201001635948495,
                        0.1110858657622543,
                        0.6200348318749507,
                        -0.9005292137380274,
                        -0.1916590682303291,
                        -0.024352201149667414,
                        -0.5367429930374763,
                        0.16820441728527666,
                        -0.632170117592823,
                        0.09142127450981008,
                        -0.2549694073637367,
                        0.5753551139912744,
                        -0.8796738197546226,
                        -0.9285178191616834,
                        0.14324492885016574,
                        -0.2581893812732758,
                        -0.6445642853921101,
                        -0.48682504946032057,
                        0.1544423849903813,
                        0.18136677537712484,
                        0.6779739680944273,
                        0.9103196213153757,
                        0.267287711478036,
                        0.4183553049919327,
                        -0.06256792940578171,
                        0.4507710563395938,
                        -0.36570699312965255,
                        -0.5232166818727989,
                        -0.09883868128576012,
                        0.1625094107659086,
                        0.8117033943461403,
                        -0.2058873940509616,
                        -0.2314498383983996,
                        -0.8835214690252509,
                        0.740586627399413,
                        -0.757531224479836,
                        -0.21101569494829095,
                        0.9909658067321093,
                        0.7504370733361398,
                        -0.5644688161076292,
                        0.11579838710346549,
                        0.7867799283168065,
                        -0.5202188461465175,
                        0.32656129064813333,
                        0.6890767932182061,
                        0.8765883744653983,
                        -0.7050502808112981,
                        -0.5746449523238201,
                        -0.36159860474087546,
                        0.31200059766512545,
                        0.5118764872868178,
                        -0.43873304677112573,
                        0.271214098246271,
                        0.0718511261114567,
                        0.06626186637974038,
                        0.9244693062248271,
                        0.46129461238907093,
                        0.1382720951685515,
                        -0.2986105853728336,
                        0.15490665587428273,
                        -0.25641393004353524,
                        -0.1896073640258368,
                        0.880603195412019,
                        0.25996655437117977,
                        0.0727564905942568,
                        -0.7621854955897186,
                        -0.6048148413976819,
                        -0.7851302152761265,
                        -0.6922613942625913,
                        -0.2831922076515302,
                        -0.022183590701617448,
                        0.44452202755950065,
                        -0.5320798385121406,
                        0.2283975815725604,
                        -0.2746223157141673,
                        -0.13282995612926307,
                        0.23898631188135458,
                        -0.31423535870911906,
                        0.8831802282671252,
                        -0.29254874946142656,
                        0.7331071927268356,
                        -0.2008909053250834,
                        0.2160052650914432,
                        0.5577096193013078,
                        0.23230294072743984,
                        -0.6911259895883066,
                        0.5119717133408024,
                        -0.26297922831900994,
                        0.4619916240724066,
                        0.4850746227354843,
                        -0.8875489297882063,
                        0.8407810420245339,
                        0.11918169071475974,
                        0.698686910914958,
                        -0.010246696033520759,
                        0.5596826330286103,
                        -0.05193763784025783,
                        0.8585933927087757,
                        -0.5024109679711298,
                        -0.5666808046486742,
                        0.3320414154445305,
                        0.2616225443935405,
                        0.7678714746249552,
                        -0.2971688007806175,
                        0.9526380504950481,
                        0.6730171259380668,
                        0.9771701524133942,
                        0.36173228424121917,
                        0.0537968889917368,
                        0.07024363460445562,
                        -0.7571614876042194,
                        -0.046881588549040606,
                        -0.09636533197626547,
                        -0.03110126278078149,
                        -0.8619499223095739,
                        0.583192728195509,
                        -0.294434098080937,
                        -0.6515169452541336,
                        0.1004007753095593,
                        0.965460263480535,
                        0.47347718028790725,
                        -1.0165619853878263,
                        0.6637335052392835,
                        -0.4074416265563158,
                        -0.8077798944702275,
                        0.6700197132765533,
                        0.6858547958315043,
                        -0.8994190596996221,
                        0.19869504762912873,
                        -0.10645524495800106,
                        0.1345259619743922,
                        -0.5762433344546597,
                        0.27320133539018504,
                        0.6854543440256005,
                        -0.3570758553144142,
                        0.43565019667579985,
                        -0.821369192423566,
                        -0.7709816842515199,
                        -0.7367294766022021,
                        -0.3699816551233438,
                        0.903320425498646,
                        0.07394944094101912,
                        -0.6892493666344987,
                        -0.02729076850913227,
                        -0.8932937162412438,
                        0.8538205296695042,
                        -0.028458624113401314,
                        -0.991131143640803,
                        0.32359003217798954,
                        0.044514055895584666,
                        0.8279159240441003,
                        0.08778486030327097,
                        0.4271447977059193,
                        -0.4050421536270116,
                        -0.34107134283933044,
                        -0.06277803030415496,
                        -0.2944433847626935,
                        0.6663108329936333,
                        -0.15344086246542016,
                        -0.26958438689473924,
                        0.15646241881064143,
                        -0.6587998110123472,
                        -0.01828852242371482,
                        0.5227963013166381,
                        -0.7607678292622201,
                        -0.3260938961769203,
                        -0.47838447549473107,
                        0.2764690664722741,
                        0.18867790019148953,
                        0.10965412046735973,
                        0.48011755046141835,
                        -0.9584537043540159,
                        -0.5193783437017234,
                        0.43253599871487225,
                        0.90427825835445,
                        0.5568342359689852,
                        -0.6573634996434071,
                        0.5817760585658044,
                        0.23676691233067354,
                        0.3369145421687352,
                        0.2874083066915044,
                        0.9442201084154875,
                        -0.38322924338397496,
                        -0.1638594797352582,
                        0.5296133905945127,
                        -0.4731828037846618,
                        -1.0200561311204772,
                        -0.3038604881964192,
                        -0.7222242986880595,
                        1.0007563954786263,
                        -0.1769491750036024,
                        -0.16736249705295184,
                        -0.20357052545390414,
                        0.9229066135019647,
                        -0.5941278741680288,
                        0.15853128832537594,
                        -0.20354767118540454,
                        0.15248810151524794,
                        0.760066960754814,
                        -0.3021909371241568,
                        -0.3267791796152162,
                        -0.9050858031556117,
                        0.509767471459416,
                        0.8503454952603431,
                        -0.9519730626512607,
                        0.7083128676316633,
                        0.7171244358932527,
                        0.16249422677812456,
                        0.5915648567754761,
                        -0.642446123210901,
                        -0.5767632746738003,
                        -0.6871909176425393,
                        -0.3297415602011664,
                        0.050007266374818754,
                        0.5768459612951051,
                        -0.7928347992438689,
                        -0.9356652833375996,
                        0.7140094560530602,
                        -0.6680142651837703,
                        -0.4311071138631989,
                        -0.7269751635290231,
                        -0.7426604992670722,
                        -0.3256837012442809,
                        -0.4890060933697475,
                        -0.3280311416014806,
                        0.86982477940267,
                        -0.6993847883954312,
                        -0.8846847201684386,
                        -0.8190264127572218,
                        -0.2464726853105382,
                        0.6645253387884891,
                        0.31759208932677735,
                        0.4682980204019382,
                        -0.6906784860550458,
                        -0.4449489545657128,
                        1.013382122806912,
                        -0.40281079533508635,
                        0.626520873181608,
                        -0.6216330740053595,
                        0.7153142939992009,
                        -0.6385340308469697,
                        -0.3745344309001938,
                        -0.31533326056770555,
                        -0.7182967534892999,
                        0.38883882619514354,
                        0.5179057593483187,
                        1.0087849038774817,
                        0.08920599217277536,
                        0.4073934638452102,
                        1.0190529969234299,
                        0.40160377391786967,
                        -0.6977214914622946,
                        0.17331313497963483,
                        0.6453288745804603,
                        0.34634982014358945,
                        -0.26754361505095275,
                        0.7767841962558337,
                        0.021674977267921072,
                        -0.4192203024083167,
                        0.42602298731874333,
                        -0.7274994326836325,
                        -0.5682204160417692,
                        -0.6799888484513238,
                        -0.9162183464016834,
                        0.3890027850357806,
                        0.07827451599262147,
                        0.10020531247555312,
                        0.7359738538114915,
                        0.4818115008868182,
                        0.9333700025640841,
                        -0.16013200869006478,
                        -0.7770152737487632,
                        -0.1523243279438154,
                        0.9241904839530017,
                        0.6005175166776847,
                        0.6395520378402726,
                        -0.5748950464454552,
                        -0.215564336061931,
                        -0.3975813781541838,
                        0.7231015762384839,
                        0.4504108818126349,
                        0.6489967464521694,
                        -0.8069569405262929,
                        -0.2621331480602471,
                        -0.8419497705948028,
                        0.8229427470604788,
                        0.5201654370379528,
                        0.31008605272394607,
                        0.8128207069707942,
                        -0.0012010508981096758,
                        -0.35854495686990606,
                        0.44105164358746235,
                        0.5918800106291574,
                        0.5423262969591598,
                        -0.6811766480557921,
                        0.9525007615619301,
                        -0.23653520595062738,
                        0.6258082262460133,
                        -0.466656607096667,
                        0.4553976885966094,
                        0.062104999761035014,
                        -0.10084953852935173,
                        -0.22604262843496403,
                        -0.09284359498459738,
                        0.2525166436132826,
                        -0.13623020093573063,
                        1.06606742402083,
                        0.9591794139634862,
                        -0.6500411170586158,
                        -0.6929315247436779,
                        -0.03146462129469545,
                        -0.04300726206984701,
                        -0.3911802601671623,
                        -0.25544333309376227,
                        0.4968569067699051,
                        -0.6429874323799752,
                        0.9468130497958637,
                        -0.39580780057633935,
                        -0.8588701399712587,
                        -0.7012224378648454,
                        -0.21191046620817602,
                        0.7547855315659773,
                        0.0364001582380673,
                        0.564958838611142,
                        -0.6376836729253045,
                        -0.39099912372279294,
                        -0.2527243250519878,
                        0.8134159209257574,
                        -0.2994673362027349,
                        -0.689781756501929,
                        -0.35096034709050455,
                        -0.2637057186415751,
                        -0.6520308747220049,
                        -0.31484931680497524,
                        -0.19265590310078223,
                        0.00043348595137098666,
                        -0.6436744373728835,
                        0.2596756552154342,
                        0.04457138047505745,
                        -0.8867673625417408,
                        -0.5329305366115741,
                        0.4387920589776783,
                        0.5804505154855399,
                        -0.8953677693693558,
                        0.5802542271487572,
                        -0.1550970284182665,
                        -0.6815742484945059,
                        0.6820829780142513,
                        -0.11083811475625814,
                        0.1710541286420395,
                        0.5094455765751311,
                        -0.2477393421677929,
                        -0.23820144919271485,
                        0.6342635753385305,
                        0.813098074480791,
                        -0.45434173577705256,
                        0.36242864708492356,
                        -0.7040240217387285,
                        -0.7991981409060365,
                        -0.6391182519252553,
                        -0.7102690924356984,
                        0.0985180812687527,
                        -0.23554554425716948,
                        -0.7283623052347171,
                        -0.34584911184210576,
                        -0.9123351795861847,
                        0.190018902244049,
                        0.24740945276498535,
                        0.6565626278849354,
                        0.008325127153679527,
                        0.8677506313738146,
                        0.6365834961287563,
                        -0.41176399096574406,
                        0.7744559321719959,
                        0.5182708930255348,
                        0.4905840916067074,
                        0.19114939607269957,
                        0.8773740500887522,
                        0.26291737783166474,
                        0.43612028754412807,
                        -0.6126341203344127,
                        -0.38129726669803715,
                        0.9144275860271135,
                        0.2363308413969376,
                        -0.7317357599510026,
                        0.8491531975061081,
                        0.5025838465746488,
                        0.305530740968625,
                        0.548081457776139,
                        0.3738539772391069,
                        0.6868983384028948,
                        -0.8108320969781099,
                        -0.4896312822282344,
                        -0.09517816852514166,
                        0.09264681503958468,
                        0.7312122614099069,
                        0.35011199126863196,
                        0.14512060796452125,
                        0.36362506718047244,
                        -1.06438625624798,
                        0.27228548475386877,
                        0.19454490232713395,
                        -0.36715133339884565,
                        0.08932224876599537,
                        0.6028005518578365,
                        -0.3245260588059278,
                        0.11098763060302462,
                        -0.14756015261919597,
                        -0.664789108430172,
                        0.5536911650178051,
                        0.7781080413763222,
                        -0.12213476550656971,
                        -0.48943790100939893,
                        -0.3238096398109161,
                        0.4051093106931845,
                        -0.9751526376327349,
                        -0.9966840899004848,
                        0.4405940396627566,
                        0.3210562220776901,
                        0.20168762375599658,
                        0.8870031114722357,
                        0.19184309930147272,
                        -0.2612231259224458,
                        0.5965708499672381,
                        0.2612339639060973,
                        -0.935032790840433,
                        -0.5900519896602224,
                        -0.08102470226476342,
                        0.21255342295343702,
                        0.6632018839706793,
                        0.4341787610245631,
                        -0.7850841556175073,
                        -0.10678501484162531,
                        0.932563078322503,
                        0.5634736147695135,
                        -0.18477363609200467,
                        0.7600763023509814,
                        -0.864281700623426,
                        0.054545109677663794,
                        -0.16531897527408107,
                        0.8708589068471195,
                        -0.1636418116702248,
                        0.15648742037352462,
                        0.5627567579451543,
                        0.519169878308177,
                        0.048817092744615834,
                        -0.29242993588123223,
                        0.636901502523251,
                        0.4279041086787788,
                        -0.8454478775235228,
                        -0.32832355691253934,
                        0.2908384326801473,
                        -0.8712823393943299,
                        -0.8331921446837888,
                        0.3582853786157433,
                        -1.0060894893560455,
                        0.24875477278616884,
                        -0.7280058845589145,
                        -0.2029550639645955,
                        0.9047520980100198,
                        0.5013479595772927,
                        0.7882857778653716,
                        0.9550168167245184,
                        -0.3901267991275689,
                        0.9422013618931402,
                        0.5793248810025566,
                        -0.30048994656250694,
                        0.4140427235919492,
                        0.5164776270034046,
                        -0.3980841074987194,
                        0.4062996775320877,
                        0.15701032566655862,
                        1.057347520262318,
                        0.9154790638120863,
                        -0.4621247027317518,
                        -0.9810841067467686,
                        0.6285576656368937,
                        0.07125698104102367,
                        0.8455985011991819,
                        0.8377207528690297,
                        -0.727859380422353,
                        0.08598501553327002,
                        -0.627946763893908,
                        -0.35328220875494903,
                        -0.38800611362952725,
                        0.5971270269883703,
                        0.8655645472908038,
                        -0.4022515804323793,
                        -0.6931502525884446,
                        -0.30197431059762875,
                        0.12996204667280814,
                        -0.055488126299325646,
                        0.6793146513214574,
                        0.04985807072265947,
                        0.2956551776690878,
                        0.4822857344290706,
                        0.37188532105585287,
                        0.8342740502653114,
                        -0.49707893903792266,
                        -0.8957569587842145,
                        0.35598966950319133,
                        -0.9396809044261492,
                        0.20032426379693385,
                        0.5034777623090504,
                        -0.5200096275148272,
                        0.1270987436735445,
                        -0.8069623514680748,
                        0.14838184177455885,
                        -0.22929079707374828,
                        -0.794510385462083,
                        0.5829382923857693,
                        0.7658122216834725,
                        0.2882489274874018,
                        -0.7927842622228624,
                        0.5353243464055987,
                        -0.9951146869140393,
                        -0.0008075846601434777,
                        0.9038880763899733,
                        0.04283976665548376,
                        0.8324845264624277,
                        0.9627021239390083,
                        0.5968581971580751,
                        -1.0157211592858584,
                        0.4304848612859442,
                        0.25121262944731226,
                        0.8551330881483574,
                        0.7415292848882308,
                        0.2323618414441419,
                        -0.7966655204663725,
                        0.21268247588515088,
                        0.29826919641065663,
                        0.7530244180321833,
                        -0.8726588246809266,
                        0.4206917251708047,
                        -0.2617962891182002,
                        -0.1548509895325141,
                        0.49303480424697094,
                        0.3945188657856351,
                        -0.6113851692528725,
                        0.12173598648004832,
                        -0.005916922016072091,
                        0.33605099481115797,
                        0.5402157898049864,
                        0.3041001220073223,
                        -0.502934475777866,
                        -0.4153830158625381,
                        0.3172059801100271,
                        -0.5833114088113643,
                        -0.1040360877104701,
                        0.747313095651312,
                        0.6958971400140181,
                        -0.4911816497364384,
                        -0.594915156392296,
                        -0.7351745576524759,
                        0.3509326241366396,
                        0.3896013622299353,
                        0.8145362372821191,
                        0.040188841843430606,
                        -0.769709925984509,
                        0.09475805130039651,
                        -0.4185171393086802,
                        0.5132843007096726,
                        -0.17948039033890031,
                        0.07807559368107118,
                        0.44494417437512496,
                        -0.04358472559642999,
                        -0.9167566492907359,
                        0.846381449371755,
                        0.2993857027820992,
                        -0.23635960122741284,
                        -0.05097402355244821,
                        -0.1497142794712563,
                        -0.22885930247488362,
                        0.6205342040064316,
                        -0.21169315560776839,
                        0.9616780070537786,
                        0.38897146503138774,
                        0.4468578276207547,
                        0.12883274158746824,
                        0.1590082597120781,
                        -0.6693036751861915,
                        1.0762723893868016,
                        -0.6742431730638605,
                        0.7727607039789762,
                        0.768611242168037,
                        -0.06764837697006283,
                        -0.9895906135782051,
                        -0.09201487781733139,
                        0.8958919182334806,
                        0.11289699081434051,
                        0.12473660911337914,
                        -0.5474849282229596,
                        0.43760584223734234,
                        0.7682011835282615,
                        0.10982427271402466,
                        -0.9400623586682961,
                        -0.34733973393778,
                        0.08778835460499057,
                        0.811288772254331,
                        0.5879901541438403,
                        -0.3895833782969774,
                        -0.4199770749092817,
                        -0.7448945187766405,
                        -0.20712863090876932,
                        0.2773661091834778,
                        -0.4151242319397064,
                        0.9158889094382542,
                        0.31541974828537345,
                        -0.2902262099026673,
                        0.07920496698017644,
                        0.274127791703241,
                        0.00048565533702207007,
                        0.04457356543432375,
                        -0.1306206960178982,
                        -0.4192394772197374,
                        -0.13077617123582547,
                        0.22451114898072722,
                        -0.24551163682724106,
                        -0.8029317791014854,
                        0.7610975296401014,
                        0.3121115327754353,
                        -0.36350690583585143,
                        -0.7416507324414866,
                        0.3001790802056556,
                        0.08362739677725528,
                        -0.8763419601741442,
                        -0.5857696087886823,
                        -0.2029227469847,
                        0.2588985318286255,
                        -0.7976409920912043,
                        -0.047270212673425356,
                        0.3900162546375034,
                        0.7910989742567056,
                        0.7473074559664317,
                        -0.5270780975317416,
                        0.8496542809484396,
                        0.4523439913213235,
                        0.1482826534613667,
                        0.35161363904853216,
                        0.6975749937935617,
                        -0.09002893292287813,
                        0.20720873578991983,
                        0.9682899974131408,
                        -0.5273903158484032,
                        -0.7080802885560123,
                        -0.28676756124488706,
                        -0.3463850488646896,
                        -0.8821413085939145,
                        0.23777315504774352,
                        0.7684008037220152,
                        -0.17976574562088213,
                        -0.6370400982705702,
                        0.7727946179248925,
                        0.6101334374295727,
                        0.8363214301540626,
                        -0.3517650170069248,
                        0.9219206373207812,
                        0.2013731953542631,
                        -0.7135313070355023,
                        -0.5068627727842591,
                        0.007168854497063781,
                        1.0141993872803539,
                        -0.019351668573512077,
                        0.7727456777129159,
                        0.7789338172598599,
                        -0.45613855462604114,
                        -0.16251621146818576,
                        -0.28180620385110094,
                        0.4712556998123291,
                        1.0606935587102069,
                        -0.5886686667525466,
                        1.0174602919649574,
                        0.6307230173958009,
                        0.5695079579816544,
                        -0.325071354669054,
                        -0.9015038279864209,
                        0.41495890465458896,
                        -0.9283447842063897,
                        -0.2731163875630434,
                        0.8604102238314826,
                        0.30545688711720004,
                        0.3791824138949881,
                        -0.21467763420811084,
                        -0.0766536957726717,
                        0.2181239641696192,
                        -0.9922006727392336,
                        0.5056746218047495,
                        -0.1641967891530171,
                        0.6000029519253404,
                        -0.08003949226331028,
                        -0.2129789173159177,
                        0.32283094203802015,
                        0.8024636745889409,
                        0.8922164869905598,
                        -0.18409421678704052,
                        0.8244076106502713,
                        -0.4101902381437914,
                        0.18017835439930893,
                        -0.9294539847983468,
                        0.4778858641265664,
                        0.36976934813197726,
                        0.3763472062913806,
                        -0.3665277024198615,
                        -0.8337207078332898,
                        -0.5971585711577473,
                        0.5157374034167027,
                        -0.15913023798192388,
                        -0.441017934316601,
                        0.3166985978614711,
                        0.498086261464492,
                        -0.3318694449069942,
                        -0.8085693991551763,
                        0.6306557970043839,
                        0.943262698603554,
                        -0.630094083585234,
                        -0.21522857479216934,
                        0.050307548692386246,
                        0.5778708454066339,
                        0.7168961415398302,
                        -0.5948622610353663,
                        0.7405081611268411,
                        -0.38854516879842615,
                        0.29302613979432945,
                        0.6834052442491592,
                        0.39557718537929953,
                        -0.7978052124167384,
                        0.32678887507684246,
                        0.8023855517953736,
                        -0.5886966941877527,
                        0.8034999236325345,
                        -0.3006526562179014,
                        -0.9686642840604613,
                        -0.3897388452382097,
                        0.6470777552082208,
                        -0.4085345978077496,
                        -0.5486316376350425,
                        0.012805136909464068,
                        0.9823859095427411,
                        0.41466213904664034,
                        0.9117495872764421,
                        -0.34437294158085385,
                        0.08654296834150588,
                        0.516438781338176,
                        -0.2482668417793705,
                        -0.9087512031505606,
                        -0.4045612073506866,
                        -0.03216832849830815,
                        -0.1588126037091476,
                        -0.46805025016486623,
                        0.5973065407425256,
                        -0.738117092255225,
                        -0.0537855811328819,
                        -0.944343159957091,
                        -0.18725637513131702,
                        -0.09278384771138398,
                        0.34426023869534467,
                        -0.8463307598983741,
                        0.02552099362638298,
                        -0.7513732853854795,
                        -0.5489227156387194,
                        0.7645754006164935,
                        0.38620510184082346,
                        -0.19736015039124358,
                        -0.8220505126647543,
                        -0.048107703799152836,
                        -0.9839635832139912,
                        0.9565866791604826,
                        -0.8043767930133809,
                        0.008006661400868796,
                        0.0967470493006023,
                        -0.1104950413632281,
                        0.8060375702210999,
                        0.4576650881575132,
                        -0.6479462961967384,
                        -0.8709943814066438,
                        0.5905040562636328,
                        0.6190594778814593,
                        0.31999063016032836,
                        0.76578528717161,
                        0.12171866758689523,
                        0.6544866558767363,
                        0.7880759260403991,
                        -0.19071400999105276,
                        -0.15999400322241308,
                        0.8045647862637947,
                        -0.5652256858592513,
                        0.8656015112541475,
                        -0.7865882920964488,
                        -0.7443490291289335,
                        -0.6322354055297158,
                        0.3876684038427222,
                        0.2949184288081343,
                        -0.3941527227156366,
                        0.15107124801700478,
                        -0.44809761979209245,
                        0.9314682247827508,
                        -0.15575374868196074,
                        0.005337108099640799,
                        0.9878151601798055,
                        -0.1353040801390334,
                        0.10727041051708192,
                        -0.3667913477076959,
                        0.533124137227692,
                        -0.32475333916971744,
                        0.3781912996583712,
                        1.0349351755986018,
                        -0.6387639230294431,
                        0.6776807140292567,
                        -0.17632041163646942,
                        -0.13714461430089644,
                        0.311817069058857,
                        -0.32726596356425713,
                        -0.4033367076310431,
                        -0.4231342934280759,
                        -0.8938253786618217,
                        -0.15521861956027022,
                        -0.27823796161105063,
                        0.6692827867415014,
                        -0.44526295060733123,
                        -0.24630309712953358,
                        0.17604574937767428,
                        -0.4854248939891505,
                        0.07221848915643762,
                        -0.4602283096153802,
                        -0.879706254681179,
                        -0.3913885155278372,
                        0.6782348175184174,
                        -0.13925250419084875,
                        -0.5298386683297657,
                        -0.27136558409504336,
                        0.9612910520932033,
                        -0.27583318436488724,
                        -0.20985794641038003,
                        -0.25246485096101123,
                        -0.6758469083247326,
                        0.03350959787526191,
                        -0.2622607074876673,
                        -0.33865807173502044,
                        0.47154786331404736,
                        0.9150059179241935,
                        -0.10341628924940137,
                        -0.9269480035094972,
                        -0.26033732070593324,
                        -0.35158575052536256,
                        0.1228601540441765,
                        -0.4897399637180181,
                        -0.9275233726943026,
                        0.8298154970223536,
                        -0.6739832602000928,
                        0.8426449799472091,
                        -0.7252732116102454,
                        -0.5524044672793305,
                        0.24282674143485364,
                        0.5427262609261502,
                        -0.08321412585089348,
                        0.017166853794567373,
                        0.8627983652086181,
                        -0.4432402222908989,
                        -0.7407928945342522,
                        -0.7320571121054429,
                        -0.28337966814290355,
                        -0.1754230931735165,
                        0.21576679795358628,
                        0.609840976524659,
                        -0.3876147187301684,
                        0.10596882587004261,
                        0.5288196885817952,
                        0.7446075213530257,
                        -0.16755369622144556,
                        -0.626543483973881,
                        0.9146983249331218,
                        -0.27762959415137306,
                        -0.7991827903191852,
                        0.5244986673003896,
                        0.5046750680442581,
                        -0.7515010330012111,
                        0.5016388083007489,
                        0.09311927106333585,
                        0.15739570578294956,
                        0.818919053320709,
                        -0.2189825373509528,
                        0.4370442654399916,
                        -0.1643028772217304,
                        -0.9160757814872384,
                        0.10072688065550843,
                        -0.19807735882272837,
                        0.30983980112783877,
                        -0.8440235870012446,
                        -0.9489914505210408,
                        0.5185616064408062,
                        -0.3154034315880997,
                        0.48463235492203055,
                        0.7754992973346999,
                        -0.3900077913877875,
                        -0.43612901722784714,
                        0.29068213536326487,
                        -0.9112711492423888,
                        -0.7401513363313329,
                        0.34111430915956475,
                        -0.19129464366848406,
                        -0.7777246979636886,
                        0.923937399919402,
                        -0.5415459535927313,
                        -0.10069452997291405,
                        -0.3533154269166409,
                        -0.8154372051460568,
                        0.41969804264773264,
                        -0.1891192796829936,
                        -0.9183205591307348,
                        -0.44061669477887094,
                        -0.706409981944421,
                        -0.14994258186629544,
                        0.8961151001546231,
                        -0.2158419768659591,
                        -0.451944655178191,
                        0.4558430396927201,
                        -0.9797672884002689,
                        0.982678350079568,
                        -0.22423634838997533,
                        0.9964472358716572,
                        -0.6781532874456516,
                        0.521514682425941,
                        -0.004473314827974731,
                        -0.20912566162925303,
                        0.15235735328055972,
                        0.32366530068542765,
                        0.03468904403615824,
                        0.9557315256921232,
                        0.40652253736551663,
                        0.6421782067166244,
                        -0.03826424417586295,
                        -0.1857118792888537,
                        -0.09894154314023149,
                        -0.0012333414308249662,
                        0.04502602199170789,
                        -0.2696186605541734,
                        0.7167869765805727,
                        0.7368459954918615,
                        -0.8750008255675032,
                        0.5910068715021893,
                        0.22808662598879825,
                        -0.4181790642069372,
                        0.652869460312744,
                        0.11910819299253177,
                        -0.9152723635744666,
                        -0.021902598595797962,
                        0.12410188983935191,
                        -0.7179044154813427,
                        0.031936186510644615,
                        -0.4876371393296284,
                        0.9179683827162117,
                        0.005490697990348517,
                        -0.7223210112302441,
                        0.3180395592572413,
                        0.09983400545599402,
                        -0.32554653830070956,
                        -0.026265435525599474,
                        -0.36355269780287547,
                        0.8350208994844125,
                        -0.014057359504634473,
                        0.4214783338546713,
                        -0.4588476013740797,
                        -0.5364264501418168,
                        0.14835434237399997,
                        0.7222112841341152,
                        -0.6773278009500185,
                        0.38033586573653644,
                        -0.6669418220760455,
                        0.8580689330554008,
                        -0.9098174945793335,
                        0.6593968371977729,
                        -0.3457699992169241,
                        0.2870686285423382,
                        -0.17374435764116813,
                        -0.7485021306374338,
                        0.4743023757082804,
                        0.47955785665778616,
                        0.9907499792800124,
                        0.7346017819713626,
                        0.8994340373087885,
                        0.6768147921720561,
                        -0.2822173244071609,
                        -0.9106524181299137,
                        0.6422951823188928,
                        -0.08244101750428606,
                        -0.46060214056132887,
                        0.9538069791303025,
                        -0.9464299246236755,
                        -0.07559481428075568,
                        0.3736575963561439,
                        0.6518586672714205,
                        -0.616560500080353,
                        -0.6559119708729293,
                        -0.07109827062073283,
                        -0.6604905613813349,
                        0.27041717451658526,
                        0.5581214598478018,
                        0.8800156411055571,
                        0.4289785414997756,
                        0.15363433529744053,
                        -0.23719111546057944,
                        -0.7716677322034167,
                        -0.9589714435760138,
                        -0.11738983316036103,
                        0.4765384821970881,
                        0.7277898299982545,
                        -0.1668704006720597,
                        0.11721367578303071,
                        0.4282265205772278,
                        -0.19253224323023246,
                        -0.6393234564005158,
                        0.4204606956639847,
                        -0.11400863392067169,
                        -0.7904655854436992,
                        -0.37424728257262585,
                        -0.24790057467254703,
                        -0.4294137549087684,
                        0.004144149122855963,
                        -0.8144124059972145,
                        -0.8324053994202332,
                        -0.7568363725353047,
                        -0.3218188610376984,
                        -0.16732804796290612,
                        -0.17119824169927592,
                        -0.9033118945153809,
                        0.9573990097531728,
                        0.03179844958039656,
                        -0.31588182278398536,
                        0.91640242592954,
                        -0.8279405303479221,
                        -0.9471406919522141,
                        -0.7299408760073841,
                        0.29968027371614825,
                        -0.21793846656722313,
                        0.3940153025240883,
                        0.4652619718376282,
                        0.7359968253986006,
                        -0.19765471454441316,
                        0.14764509361125097,
                        0.8384015623072484,
                        -0.4171851711944025,
                        -0.7767585217105316,
                        -0.43118946041068895,
                        0.38113394570111453,
                        0.6140368041364834,
